80 64
46 0.30001953 -0.27129248 0.52226156 0.20934406 -0.33581603 -0.6957421 0.52283245 -0.19001159 -0.13198934 -0.051746596 0.37628648 -0.2572547 -0.39968827 -0.4073467 0.19137952 0.22721024 0.4015382 -0.11051016 -0.4088883 0.052810002 0.37251344 0.5725203 0.44958475 -0.32778692 0.10323758 0.13870832 -0.67228174 0.35573837 0.49193937 0.12349191 -0.2359039 0.55532485 0.16514297 -0.15968578 0.04422389 -0.03596472 -0.2051885 -0.24199405 0.08749427 0.108408846 -0.25956422 0.07639304 -0.23031847 0.010082224 -0.16060393 -0.35711715 -0.05528938 -0.12781312 -0.29618785 0.81709224 -0.04141514 0.32263237 0.2845995 0.3321125 -0.27072865 -0.011372549 -0.16794951 -0.38175347 -0.3793401 0.37313977 0.115235254 -0.67343104 0.28964916 -0.38860247
5 0.26364112 0.0571486 0.024070416 0.025476377 -0.40611896 -0.17031206 0.41555133 -0.20458922 -0.20281911 -0.5606339 0.49310398 -0.0040477253 -0.17771013 -0.39223805 -0.3313642 -0.6680474 0.22356933 -0.20798704 0.1060902 0.21828064 -0.051220223 -0.40251714 0.7025672 -0.29689744 -0.0953601 0.22061291 -0.3295689 -0.10374202 0.26844984 -0.29689786 0.13099203 0.523718 -0.46617284 -0.47249767 0.09346951 -0.27116376 -0.14129813 0.39107892 0.097009234 0.24210119 0.16154778 -0.17721024 -0.2378904 -0.23584373 -0.2542388 -0.38576877 -0.24021336 -0.7730552 -0.2913639 0.7882426 0.102931395 0.52000463 0.21291922 0.546117 -0.071372576 0.57122886 0.3500829 -0.16971986 0.06751221 -0.098785244 0.12801751 -0.5304164 0.36783963 -0.13309857
10 0.059846587 -0.10174269 0.6765674 -0.008324058 -0.052475642 -0.6944995 0.22111312 -0.3935253 -0.2137366 -0.20168458 0.7176271 -0.074607156 -0.04969487 -0.49136963 -0.44715908 -0.1334609 -0.08500462 0.11846144 -0.11384101 0.1584496 0.13563578 0.20859171 0.5597395 -0.5926326 -0.35967502 0.20892113 -0.31912264 0.08189379 -0.1780345 0.14665411 0.12576798 -0.31426975 -0.36417243 -0.12285487 -0.16985908 -0.49969766 -0.24705032 0.16088167 0.57566833 -0.2321808 0.4138668 0.20587803 -0.1340545 -0.50889033 0.25352034 0.0003639862 0.39808422 -0.50600606 -0.35416043 -0.03801836 0.22400884 -0.39952448 0.13024683 0.540668 -0.10164944 -0.25848204 0.102030635 -0.15068065 -0.41271287 0.5229153 -0.14390823 -0.6135224 -0.19262809 0.1506892
51 0.0017803615 0.019757792 0.6085924 0.10010768 0.086214006 -0.69257176 -0.014252004 -0.22515 -0.30016613 -0.24165411 0.5924659 -0.26797414 -0.023865448 -0.7183494 -0.38400435 -0.21980233 -0.21911739 0.14645167 -0.067395635 0.1315564 0.16788982 0.263708 0.5353103 -0.45222858 -0.23258746 0.32678658 -0.22868443 0.08131905 -0.18706517 0.05497881 -0.032383077 -0.35392106 -0.28163356 -0.0842558 -0.18164226 -0.5707969 -0.34284735 0.09020932 0.5422663 -0.32935295 0.432016 0.21542707 -0.28599733 -0.28821424 0.18199731 -0.04360018 0.44837245 -0.4407398 -0.26924583 0.08405334 0.21287021 -0.26727793 0.33276492 0.5548519 -0.2795868 0.02284695 0.12892103 -0.34113255 -0.3173294 0.57953614 -0.04744903 -0.73506856 -0.053700346 0.1509841
20 -0.053364642 -0.27865833 -0.20828377 0.14261991 0.34711283 -0.1324742 0.3329287 -0.085106604 -0.26356372 0.32719186 0.58748525 -0.15155807 -0.2300277 -0.034501005 0.14157595 0.85380834 0.31646848 -0.31922868 -0.08239761 0.27050164 -0.1033131 0.7559971 0.08632422 0.06894766 0.105231404 0.11377071 -0.649459 -0.33334395 -0.3824027 -0.13094717 -0.2372257 -0.32784817 -0.4079047 -0.23409288 -0.16870242 0.61101574 0.6180152 0.22828124 0.85765105 0.17955789 0.2575838 -0.26034936 0.55846566 -0.6877581 0.3103506 0.15961945 0.34057587 0.11475787 0.45462984 0.524064 -0.265382 0.27302563 0.43715566 -0.26800326 0.32837263 0.38278365 0.5713293 -0.0045033754 0.020995736 0.4042297 0.30751225 -0.60654813 -0.12397248 -0.041621406
15 0.52610487 -0.60970354 0.09132938 0.22257142 -0.32055163 -0.18136807 0.5122761 -0.24167316 -0.5005295 0.13946177 0.83062094 -0.08705818 -0.5406288 -0.025887318 0.115292825 0.27398595 0.42105886 -0.07575357 -0.27669877 0.1597899 0.2264445 1.1938937 0.11615525 -0.14195816 0.33301616 0.32716933 -0.41640174 -0.11833603 -0.09403744 -0.040935602 0.03987799 -0.27675903 0.12527774 -0.36515597 -0.34310833 -0.08728565 -0.27790725 0.067700624 0.68700755 0.112556726 0.23595773 -0.039752748 0.24463697 -0.8585253 0.1938982 -0.5128179 0.18060243 0.17610794 0.24159932 0.1418298 0.3490395 0.051528964 0.24860537 0.32386932 -0.0658166 0.07556238 -0.26771486 0.054599587 -0.30432692 0.55924726 -0.07947989 -0.34734103 0.15937082 0.4267409
52 0.044580087 0.096429855 0.8070207 0.026841922 -0.07876981 -0.7186354 -0.19070064 -0.2413916 -0.45965254 -0.1328254 0.6718213 -0.1682445 -0.124850556 -0.7636333 -0.073511556 -0.19588464 -0.051638827 0.106314346 -0.09987945 0.2387768 -0.21302004 -0.01859174 0.70110613 -0.12372644 -0.51060873 0.2417461 -0.20776491 -0.05823186 -0.08605306 0.10781834 0.010346731 -0.4913494 -0.35761845 0.069572516 -0.2881544 -0.6110109 0.012911674 -0.19540341 0.63460845 -0.1757269 0.39317378 -0.044422466 -0.16678259 -0.3894792 0.0066162637 -0.03423777 0.37325865 -0.42806756 -0.15253046 -0.04139615 0.40054077 -0.26524115 0.18369693 0.78444546 0.24309678 -0.15951607 0.07114205 -0.084649876 -0.34240705 0.51541823 0.14934248 -0.46027496 -0.08214838 0.26684108
11 0.17191723 -0.62453574 0.6339435 0.045741457 -0.1468896 -0.525553 -0.2133592 -0.46900362 -0.37382245 -0.2810294 0.59092426 -0.1942392 -0.11635734 -0.72796595 -0.021889942 -0.016323471 -0.25617218 0.087752946 -0.00782623 0.24347505 0.11537986 0.2681385 0.7370873 -0.3850799 -0.102053106 0.35948655 -0.6947362 0.03349194 -0.23941348 0.32167137 0.3195031 -0.65555024 -0.37960756 0.03183505 -0.1991885 -0.18668747 -0.19243668 0.10850695 0.40124163 -0.27042043 0.31723565 0.24697265 0.0046018446 -0.62945616 0.30388936 -0.1589891 0.453175 -0.2737496 -0.006149101 0.06553798 0.47285518 -0.2652185 0.28876045 0.38271245 -0.1656587 -0.06391383 -0.10030948 -0.43625125 -0.3229782 0.8254956 -0.15940101 -0.54418886 -0.27953622 0.20199873
50 0.21433531 -0.029547846 0.8158675 0.0011360277 -0.104566395 -0.65346426 0.07959443 -0.51603645 -0.47572514 -0.21878907 0.8650024 -0.07083223 -0.45311168 -0.7402912 -0.19980766 -0.37107491 -0.12169471 0.22288707 -0.07993365 0.12470171 0.21848993 0.24719794 0.20572647 -0.036768775 -0.40853098 0.057116654 -0.2484337 0.04733954 0.27248532 -0.019519662 0.055765122 0.0052385577 -0.20320615 -0.22723173 0.060961653 -0.4539078 -0.059308164 0.050508678 0.6587929 -0.42484125 0.081967965 0.059503872 -0.33984202 -0.23746876 0.22739594 -0.25706384 0.19538158 -0.49696884 -0.062536255 0.18057458 0.3989331 -0.4471408 0.07301684 0.7791349 -0.1326767 0.03358017 -0.20934711 -0.35356507 -0.37184557 0.4893954 0.063572064 -0.33903155 -0.024937363 0.1671015
35 0.2580293 0.2212026 0.3104567 0.035524376 0.16129507 -0.74656576 0.6930932 -0.32936916 -0.06106903 -0.381951 -0.5801472 0.09969637 -0.3834117 0.108434044 0.69487417 1.1236011 -0.4534039 -0.34992024 0.09270256 0.028031487 0.07138148 -0.2095469 0.38690686 0.043326918 0.51236135 0.53570145 -0.12968498 -0.06454546 0.13164853 -0.040467303 0.25979304 -0.06550324 -0.3491368 -0.18925825 -0.40421858 -0.14205019 0.71528614 0.5007418 0.4164635 -0.39308485 0.088895194 0.35834602 0.2911444 -0.36455148 -0.39843604 -0.37640783 0.77237236 -0.43316388 -0.15785356 0.026922384 0.6491196 0.07602868 -0.042591296 0.3936029 0.6055002 1.3279312 0.6078505 -0.09155944 -0.5522158 0.11534743 -0.35638377 -0.7900275 -0.33846304 -0.25795558
67 1.1985925 -0.4434432 0.57850814 -0.34767106 0.17258419 0.23511617 -0.0790655 -0.72983104 -0.32481256 0.16065976 0.12868057 -0.5626072 -0.5342739 -0.3631981 -0.21201171 0.13956968 -0.109371394 -0.7787317 -0.2726543 -0.17376436 -0.1313465 -0.22261076 0.5792699 -5.719592e-05 0.47354296 0.4923096 -0.3272717 -0.81278574 -0.20307817 -0.24324524 -0.18479916 0.6521068 -0.9468929 0.13743684 -0.09007631 -0.39059833 0.60066366 0.8730338 -0.24187598 0.07713782 0.50883794 -0.24598882 -0.32596457 -0.15126412 0.31047928 -0.51093245 0.2682131 -0.3792757 -0.0762286 0.28165653 -0.015627004 0.4416467 -0.053982668 -0.14798939 0.28376547 0.78335553 0.9358846 -0.053638536 -0.08253482 0.1913105 0.31693348 -0.67369604 0.6550533 0.13634107
64 0.5797812 -0.057910126 0.07455796 -0.13698371 0.15295334 -0.87212294 0.07097918 0.16603628 -0.28433353 0.297291 -0.30581927 -0.6540883 0.27320296 0.06470591 0.36357266 0.10218029 0.17474227 0.22194247 0.027538376 -0.29980132 0.28516942 0.19526969 0.59498256 0.3117024 0.048394572 0.5452506 -0.7250789 0.49807772 0.07083441 -0.5842052 -0.032065917 0.67457306 -0.5708239 -0.15635654 -0.89667 0.08486475 0.6734619 0.7682417 0.18194427 0.24233319 0.27389547 0.03424572 -0.2966815 -0.7631283 0.14679345 0.20382985 0.07802521 0.09452492 -0.047775097 0.55911475 -0.5948218 0.25013828 -0.30636957 0.49130696 0.5841661 1.3122116 0.12861754 -0.4301827 -0.7362405 0.3463818 0.4559969 0.28901294 -0.03920416 0.86091644
26 0.099870935 -0.5468829 0.39879924 0.44598737 0.38733655 -0.30129424 -0.0153626865 0.2687617 0.23882434 -0.3866534 0.2814256 -1.0676886 -0.15944585 -0.1481808 -0.007350728 0.69334036 0.015233733 -0.14886732 0.30320773 0.5680604 0.22785458 0.3083703 0.089541316 0.0461965 -0.19807865 0.10859542 -0.15181606 -0.08351802 0.16219717 -0.43919423 0.06225102 0.2824944 -1.1252869 -0.49172813 0.10241878 0.16955219 0.6758835 0.37294367 1.1330278 0.041517094 0.15208192 -0.1530662 0.5889558 -0.52398705 0.5172412 -0.045682315 0.5279329 -0.29052505 0.4523338 0.29260665 -0.5073202 -0.3377881 -0.019875912 0.35336298 0.66754466 0.5342985 0.5173391 -0.19588482 -0.22824433 -0.5614777 0.6018172 -0.7295298 0.52778685 -0.30894664
68 0.89523035 -0.20331624 0.41343927 -0.25383255 0.018689625 0.17940933 0.18365511 -0.7115272 -0.14723448 0.15190145 0.25542378 -0.53772056 -0.28831267 -0.61106694 -0.15471338 0.14825562 -0.058809847 -1.0411731 -0.15390703 0.061431255 -0.09278927 -0.337995 0.7022752 -0.011212742 0.6909308 0.62311494 -0.34218878 -0.9836637 -0.41736525 -0.13083437 0.00083026156 0.7346203 -1.0153788 0.12470079 -0.25300613 -0.16748291 0.29517707 0.7186351 -0.3327864 -0.00449058 0.39421016 -0.04799974 -0.30824718 -0.27927276 0.2939194 -0.34711093 0.09154244 -0.35781035 0.0059092124 0.15425345 -0.014363501 0.3658997 0.045121774 -0.13716353 0.42783538 0.73221636 0.67547613 -0.08864247 -0.22119592 0.058718264 0.4984255 -0.7101635 0.58719605 0.11886392
1 0.20186901 0.17717269 -0.28074396 -0.08942908 -0.3201499 -0.6359484 0.12672979 0.5225156 -0.5484278 -0.47578332 -0.33785418 0.08478108 -0.43681237 -0.061904643 0.065305375 0.15744753 0.80283487 -0.059596524 -0.1818891 0.7898006 -0.051492997 -0.53599924 0.99657166 -0.60242444 -0.12071927 0.22286738 -0.45645186 -0.097743325 0.13128684 -0.5912171 -0.120186456 0.43596983 -0.8220221 -0.9380704 0.09038055 0.10622085 0.3698904 0.61324537 0.29622433 0.6729202 0.12049623 0.098136164 0.4909646 -0.4701394 -0.18414146 0.061840232 0.03383667 -0.7741553 -0.27386346 0.7544883 -0.003365362 0.4040975 0.8329482 0.6000231 0.09768292 0.92854685 0.366445 0.23152624 0.22808796 0.25054583 -0.08738734 -0.25006893 -0.06882124 -0.115852855
9 -0.06330262 -0.036690213 0.7168125 -0.011895643 -0.26524276 -0.5908137 0.0004223241 -0.2769115 -0.32275578 -0.32369614 0.64814234 -0.15875798 -0.019691449 -0.62398916 -0.21562172 -0.3370465 -0.18101619 0.021980625 0.06668216 0.44403523 0.033299938 -0.47807017 0.64865667 -0.24161908 -0.33885884 0.12775591 -0.5260098 0.2504438 -0.069893055 0.20996693 0.115007445 -0.2785611 -0.12923928 -0.21542911 -0.04741646 -0.4522786 -0.26664367 0.16540092 0.4639472 -0.19990088 0.4748434 0.077545464 -0.017693454 -0.64286643 -0.042747907 -0.10778269 0.39068896 -0.49868762 -0.19884944 0.09813455 0.26169792 -0.03503319 0.5461927 0.41455212 0.013759103 0.021293357 0.09485826 -0.4028671 -0.14002289 0.6179212 0.2665178 -0.5225015 -0.26976252 0.12915538
32 -0.09356885 0.7955369 -0.06505927 -0.05476043 0.421127 -0.52235657 0.44967407 -0.53702956 -0.30388662 0.60576975 0.91684276 0.118401825 -0.17303765 -0.60795754 0.12846258 0.25138465 0.13291186 -0.30737132 -0.09492399 0.0026355882 -0.62125564 0.3137485 -0.08362072 0.30299377 -0.057723526 0.38296136 -0.5745384 -0.34073472 -0.21523748 -0.18483602 -0.22002131 0.06633434 -0.7172948 -0.29524606 -0.039948408 0.46448243 0.6294248 0.84949255 1.0170177 -0.14006726 -0.3508893 -0.25902358 -0.087627575 -0.6734169 0.3480822 0.37611428 0.35858032 0.08436565 -0.1446837 0.9386794 0.047482047 0.7083842 0.203353 -0.19791223 0.39124075 0.84868485 0.686048 0.40403885 -0.06535626 0.5739107 -0.38956726 -0.07308971 -0.22426784 -0.15642734
25 0.1152642 -0.5062897 0.4824402 0.42830113 0.29680988 -0.14316647 0.122215435 0.22664578 0.21787688 -0.42909548 0.40653273 -0.91241944 -0.17532273 -0.011182677 0.20016177 0.7855664 -0.08636754 -0.3175084 0.31623656 0.5336982 -0.089402996 0.49304602 0.019437993 0.20427981 -0.18799755 0.021741444 -0.053437147 -0.15529174 0.13504149 -0.49360222 -0.19284824 -0.052540056 -0.8734759 -0.6629638 0.13296042 -0.029081078 0.52702063 0.33829835 0.9280787 0.27130386 0.36280933 -0.23413098 0.50258976 -0.4173542 0.4355899 0.2519281 0.3905415 -0.3897909 0.55462676 0.43195397 -0.53218883 -0.2780329 0.0032384237 0.33603868 0.5917345 0.7934561 0.5555491 -0.35248038 -0.11895488 -0.24862187 0.71450716 -0.6217529 0.35114858 -0.16644995
37 0.5239372 0.20296179 0.102548055 -0.30402103 0.29964867 -0.73271877 0.6254563 -0.5855119 -0.0468716 -0.3744618 -0.55410343 0.08294032 -0.44130495 -0.015791815 0.7532031 1.1741909 -0.3617568 -0.23820665 0.011371368 0.3161612 0.002190035 0.06897156 0.48786673 0.24713452 0.2473457 0.70638055 -0.13113572 -0.13209026 0.38428867 0.06895991 -0.05331087 0.043529093 -0.24333033 -0.026923904 -0.500697 -0.2210341 0.5830374 0.4462779 0.51206076 -0.22995488 -0.11145339 0.09651643 0.26274663 -0.20557211 -0.17038469 -0.27731463 0.5264352 -0.43431848 -0.35411564 0.050925795 0.43551445 -0.1911048 0.15724416 0.36341286 0.3376875 1.2139968 0.5269906 -0.19372347 -0.6407548 -0.23747362 -0.4481035 -0.58775234 -0.15499 -0.33636755
36 0.40642315 0.106181115 0.4156211 -0.15216707 0.16805528 -0.8274087 0.70132005 -0.2675747 -0.10633455 -0.27449134 -0.482553 0.029529098 -0.39121604 0.012145112 0.5189862 1.0805006 -0.3440718 -0.30894735 -0.028211137 -0.018880907 0.009242055 0.014792882 0.54253846 0.114164725 0.3650425 0.8503048 -0.22389464 -0.093459226 0.24307315 -0.14883354 0.20649128 -0.15617204 -0.47512826 0.007547494 -0.3691997 -0.025656458 0.48078975 0.23043574 0.5588488 -0.22244525 0.016429098 0.12688059 0.4840763 -0.082450256 -0.39529723 -0.25205234 0.55981743 -0.29893336 -0.34721756 -0.09742089 0.74324995 -0.031935155 -0.12073669 0.3929563 0.4425443 1.4647467 0.59743065 -0.04018149 -0.52822477 -0.15284894 -0.28554076 -0.5984769 -0.34574136 -0.1942936
59 0.5915443 0.2645892 0.31672692 -0.10324109 0.2145677 -0.6903374 0.0323145 0.3277972 -0.553282 0.4370391 -0.14535296 -0.7740406 0.21268547 -0.32954484 0.5401972 0.25475365 0.45728588 0.15253492 -0.08662829 0.30430615 0.23465623 0.27635223 0.47051683 0.106136836 -0.50929296 0.44842848 -0.2788054 -0.113408804 -0.2266619 -0.004163894 -0.20100598 0.28820306 -0.7937099 -0.032075968 -0.90718395 -0.29378515 0.7088321 0.3973797 0.2378177 -0.20709419 0.7098597 0.05138664 -0.3320144 -0.06066554 0.0058081984 0.4520604 0.30710706 -0.30629444 -0.15165086 0.202873 -0.10422992 0.14377499 0.075344756 0.69780314 1.17163 0.33512047 0.09724657 0.49217558 -0.4701498 0.24432367 0.068139955 0.07018746 0.035486486 0.8497083
24 -0.019146753 -0.37181428 0.09094436 0.24576293 0.30960882 -0.14194782 0.14820565 0.18521035 -0.11814021 -0.15805064 0.3941295 -0.5538955 -0.28364414 -0.15737309 0.03995265 0.60641754 -0.08097586 -0.1984087 0.247699 0.31030908 0.031606123 0.38555804 -0.010696197 0.29178616 -0.13199463 -0.006102478 -0.25234872 -0.13093168 0.06363329 -0.23054409 -0.17752075 0.17159587 -0.9074448 -0.51336116 -0.18720892 0.13784419 0.6234407 0.45745623 1.2803856 0.26425034 0.32971188 -0.20719141 0.80380017 -0.3168183 0.26760876 0.20479749 0.43644542 -0.24978691 0.6374504 0.33013204 -0.53101176 -0.30636322 0.22079885 0.12810583 0.44677696 0.55909663 0.55831414 -0.30707303 -0.11821482 -0.47820497 0.8519823 -0.9065287 0.2911298 -0.03535628
69 0.79006785 -0.40386176 0.36784226 -0.4569257 -0.19344783 0.03954668 0.29103002 -0.7071409 -0.07321103 -0.028613232 0.27203068 -0.7160652 -0.23624894 -0.41145372 -0.34354323 -0.14078555 0.0077673835 -1.0445893 -0.039583705 0.17928708 -0.12277089 -0.5901206 0.58377063 -0.094384015 0.29531178 0.47069383 -0.43725052 -0.8184596 -0.31875184 0.07537131 0.01781436 0.64646006 -0.6487222 0.17648444 -0.13506779 -0.32907635 0.539513 0.75313425 -0.24224669 -0.005025132 0.3983152 -0.15729588 -0.09917496 0.047661394 0.2793928 -0.3170661 0.3720572 -0.32195786 -0.141639 0.48750937 0.03809723 0.41846836 -0.16870205 -0.2071689 0.25403592 0.8847947 0.89886737 -0.075657114 -0.17927146 0.24095613 0.599509 -0.70857406 0.32880124 0.15309662
62 0.6049123 0.024115473 0.17214514 -0.0503219 0.32994422 -0.8669395 0.009101975 0.19023278 -0.72449124 0.3952455 -0.19586672 -0.92948484 0.38518316 -0.16315572 0.58860046 0.31473926 0.24175176 -0.010186345 0.16899379 0.04960211 0.1880291 0.095797494 0.31954247 0.087722465 0.011388156 0.38306823 -0.47248518 0.36220357 -0.07372717 -0.2527695 0.09259451 0.6648575 -0.53333557 -0.23629178 -0.9803481 -0.036254816 0.6950983 0.64793676 0.10262825 -0.006297999 0.46557337 0.044007167 -0.37750515 -0.6584374 -0.16488543 0.333398 0.12369963 -0.018645193 -0.18171348 0.52738255 -0.3725518 0.29364058 -0.1863417 0.571642 0.66279936 0.71788186 0.0695782 -0.03453178 -0.6185266 0.09367131 0.35360134 0.26928678 -0.1480563 0.953935
63 0.48723835 -0.0197077 0.021147572 0.1883709 0.23552889 -0.76092714 0.04179159 0.085248694 -0.18168272 0.3589095 -0.30517963 -0.73275554 0.3089144 -0.15488805 0.3676017 0.08424184 0.2847725 0.17130491 -0.041162662 -0.05481994 0.36119542 0.00054148247 0.52744377 0.41998863 0.026834043 0.36828062 -0.52313066 0.20054771 0.068278156 -0.5066049 -0.0035338558 0.6014049 -0.41193816 0.015501186 -1.0100732 0.01723646 0.78972733 0.79007846 0.30035844 0.25158203 0.4313906 0.17195578 -0.3762982 -0.7792806 -0.0728441 0.20623636 0.30067995 0.22714959 -0.3247438 0.6464851 -0.31311396 0.061668817 -0.028291088 0.5948468 0.7526796 0.9481846 -0.05763498 -0.09295398 -0.7079482 0.35266697 0.41414592 0.20776294 0.18028662 0.86772615
22 -0.006951028 -0.4411741 0.038253106 0.12692246 0.2704171 -0.2316528 0.58615375 0.08438371 -0.18545519 -0.016457539 0.6319452 -0.66683686 -0.25644156 -0.05634593 0.22827925 0.712165 -0.033895142 -0.3232278 0.016098665 0.22514158 -0.09947523 0.5568738 -0.2035877 0.110673465 -0.024841568 0.09709032 -0.103259355 -0.2882408 -0.21335502 -0.21111901 -0.13458288 -0.07366003 -0.7532207 -0.69165736 -0.22796965 0.25494483 0.5868179 0.2991927 0.96450615 0.20731242 0.22662145 -0.29705518 0.70198077 -0.5135699 0.34216484 0.26159826 0.30376035 -0.18695046 0.8564566 0.645978 -0.26654804 -0.21312821 0.30315074 -0.20588489 0.4632415 0.48211652 0.43849742 -0.32612637 0.044724867 -0.091703095 0.58141536 -0.39493668 0.08003056 -0.14469348
23 -0.034122538 -0.4629844 -0.12977886 0.46100435 0.32528636 -0.010863825 0.3009294 0.2776422 -0.039688762 -0.14469133 0.6602701 -0.7744652 -0.29307637 -0.17365651 0.28232718 0.7053365 -0.025723454 -0.4091367 0.036991786 0.41553536 -0.2316186 0.5030557 -0.21684766 0.027562601 -0.25863773 -0.11755262 -0.30857688 -0.08032826 0.16662818 -0.39389837 -0.26547354 0.07131198 -0.8112544 -0.48203003 -0.1792788 0.22179902 0.51287854 0.44785166 0.9278435 0.2466847 0.46315107 -0.249672 0.7114252 -0.55649316 0.29713959 0.23790218 0.22818768 -0.16127433 0.61349934 0.37516558 -0.09514694 -0.27067703 0.10865386 -0.061729793 0.6594642 0.5321627 0.7395471 -0.256823 -0.21754397 -0.20154372 0.5030211 -0.78023297 0.020837251 -0.051735613
60 0.58454853 0.12775825 0.30976555 0.020517897 0.22654553 -0.91417116 0.06399159 0.51451576 -0.6130042 0.45860583 -0.10820407 -0.78219587 0.21815103 -0.48448956 0.45798412 0.30380353 0.42628005 0.08654124 -0.18743137 0.10574797 0.32386145 0.14536302 0.411091 0.37922695 -0.11468611 0.2909763 -0.0609541 0.027154688 0.00995667 -0.0531708 0.008874165 0.29374918 -0.7098323 -0.1016476 -1.1806889 -0.19028012 0.80480635 0.3876503 0.14668728 0.03626519 0.48115936 -0.13758633 -0.45649615 -0.398022 -0.059623025 0.30152798 0.3309157 -0.06256391 -0.09821494 0.30496433 -0.13900648 0.33441433 -0.18317403 0.8946928 0.72311556 0.40484762 0.321532 0.22661114 -0.27159065 0.2620418 0.29712433 0.239783 0.03169628 0.7416117
38 0.73511475 0.10145339 0.20166871 0.06441077 0.21222568 -0.8210622 0.7342107 -0.61129105 0.0060607814 -0.23633875 -0.5564112 0.030033212 -0.08058662 -0.29915506 0.4612792 1.1823534 -0.2246427 -0.41718933 -0.19856629 -0.10238078 -0.019465193 0.22303057 0.456989 0.07661996 0.3694979 0.6332448 0.092430644 0.09262542 0.5697413 -0.14895141 -0.08137051 0.055232074 -0.40684843 -0.10385993 -0.41709402 -0.06030088 0.50598586 0.2340716 0.6582349 -0.021949077 -0.1888957 -0.105409496 0.27585638 0.14725912 -0.13788334 -0.11947594 0.6321629 -0.5055677 -0.3958072 0.0867014 0.59481865 0.04893814 -0.018329548 0.4101957 0.31783113 1.1243428 0.37865853 -0.087576844 -0.7261263 -0.34952116 -0.5232576 -0.5326902 -0.055540055 -0.292205
29 -0.20905893 0.1969337 0.038987763 -0.060570836 0.17320548 -0.03697851 0.53154606 -0.28298435 -0.41460818 0.5567414 0.6662641 -0.04765938 -0.03807702 -0.44049853 0.245748 0.47114787 0.20625709 -0.108589634 0.19385517 -0.04252663 -0.32430363 0.7527474 -0.3160503 0.109810084 0.13877335 0.13054739 -0.5343455 -0.27177042 -0.060867094 -0.17335688 -0.31458944 -0.24649495 -0.7058899 -0.26915532 -0.13268735 0.48017785 0.6794352 0.83545446 0.89131725 0.20593059 0.10443777 -0.2493866 0.5022943 -0.6592538 0.4086306 0.531957 0.37212548 0.042966057 -0.1876397 0.63810116 -0.07909675 0.3926942 0.40803653 -0.258192 0.28296742 0.62724966 0.6560194 0.087548114 0.14274192 0.29218546 0.16433139 -0.4850741 -0.15198341 -0.16471687
31 -0.12323695 0.563542 -0.14306426 -0.011547814 0.15885964 -0.44236577 0.5686835 -0.49581152 -0.5775739 0.49644876 0.8952841 -0.12647332 -0.30607814 -0.537105 0.03210644 0.41763192 0.033826247 -0.24619809 0.09906853 -0.16096427 -0.4431246 0.403275 0.103155054 0.59225553 0.016688857 0.25442296 -0.6921835 -0.45695043 -0.18722661 -0.17291278 -0.4007485 -0.2432239 -0.5956688 -0.29000866 -0.04864705 0.5810648 0.62059474 0.8319094 0.9248132 -0.13096733 -0.15863633 -0.25399524 0.25535354 -0.48094746 0.32849377 0.56778014 0.20249234 -0.07912459 -0.25832552 0.7408228 -0.3176781 0.48433134 0.29839557 -0.21204497 0.31917003 0.7563342 0.6988639 0.28779534 -0.009438571 0.34551632 -0.12968202 -0.11026408 -0.24094969 -0.14556514
58 0.7112668 0.29071486 0.38718307 -0.07896924 0.26146793 -1.0297296 -0.16037868 0.40079367 -0.6949744 0.45170122 -0.10661301 -0.85163295 0.11378655 -0.6561147 0.42755672 0.17503436 0.12779479 0.13697472 -0.10067139 0.39530754 0.16811983 0.016127191 0.33612907 0.23975727 -0.24216385 0.2542811 0.03527575 0.008544245 -0.05669115 0.14844832 -0.03966147 -0.0071509327 -0.7774806 0.06550515 -0.99200886 -0.41613847 0.63167304 0.4096464 0.25717518 0.009259558 0.73080385 -0.17873934 -0.385704 -0.10285694 -0.047996573 0.52266496 0.38447794 -0.32440472 0.021402504 0.22841185 -0.26852697 0.22116496 0.072712876 0.5965739 0.81532437 0.2999959 0.18211806 0.17214979 -0.46012753 0.39234856 0.025534222 0.02577283 -0.09695902 0.47537068
61 0.5826289 0.1693957 0.20621453 -0.104296714 0.115575865 -0.7332022 0.12979661 0.29023042 -0.43271533 0.46006837 -0.3101415 -0.8964987 0.13019079 0.01767053 0.6213943 0.1818756 0.29891637 0.12647088 -0.0016771785 -0.0032238464 0.2557166 0.012984753 0.35673454 0.19903593 -0.1668843 0.2314573 -0.296733 0.22407486 -0.029005034 -0.10363645 -0.1255485 0.3325329 -0.59701526 0.092715226 -1.028808 -0.18746357 0.64167386 0.6069618 0.1272863 0.087050475 0.5811532 -0.032079015 -0.313396 -0.37927857 -0.066078246 0.4352587 0.21527232 -0.118902124 -0.13258247 0.57327133 -0.45491716 0.3227341 0.0581606 0.733247 0.89361644 0.6841675 0.044962537 0.22379 -0.8125885 0.4711296 0.393393 0.08047547 0.1456913 0.8339911
2 0.30211973 0.12082764 -0.42174062 -0.11078103 -0.15272349 -0.80865884 0.30748242 0.30041826 -0.507535 -0.51795495 -0.21947274 -0.0893682 -0.11212131 -0.1204168 -0.045231953 0.04314151 0.7482601 -0.1499778 0.18379463 0.4457629 0.076414175 -0.5857861 0.84261423 -0.55184275 -0.105060235 0.06762262 -0.31214803 -0.066321015 0.052208897 -0.419935 -0.05775172 0.30375338 -0.95914 -0.97065073 0.0523183 -0.12654455 0.033246417 0.5097556 0.2559402 0.6647479 0.12779015 0.20605046 0.28568327 -0.4265987 -0.2990958 0.049741928 -0.19301355 -0.78274226 -0.34764427 0.68754655 -0.0130487 0.5295905 0.7740594 0.4839231 0.18176848 0.7822088 0.55801857 -0.037099753 0.30321467 0.28853923 0.015411432 -0.3482514 -0.059214067 -0.30930322
21 -0.11935888 -0.25469837 0.064455956 0.42771676 0.22683698 0.03966126 0.38290235 0.13114132 -0.09030937 -0.024171788 0.614324 -0.5907828 -0.18642206 -0.056776237 0.3233733 0.6204467 0.025970511 -0.48627463 -0.16935389 0.21927722 -0.33159804 0.7874788 -0.13058557 0.1930988 0.010454523 0.207977 -0.44526127 -0.24676234 -0.21229921 -0.12697831 -0.3270639 0.053237837 -0.7689066 -0.4719433 -0.23624593 0.20100741 0.59273595 0.38946208 1.064758 0.3348353 0.28793964 -0.14364724 1.0719063 -0.3817567 0.33349416 0.29593715 0.19589458 0.1572886 0.5080669 0.48191544 -0.20467508 0.15716328 0.27743784 -0.09049459 0.20223062 0.42913806 0.43739888 -0.014954381 -0.052845612 0.32255182 0.3094877 -0.4977238 -0.07250253 -0.019576725
28 0.06362319 -0.11134623 -0.2662399 -0.011136543 0.0067739324 -0.21249297 0.3021213 -0.13681754 -0.29665664 0.18636082 0.76336217 -0.31517202 -0.24275024 -0.1814153 0.1621453 0.5636885 0.10732031 -0.2597123 0.16022158 -0.08613268 -0.57943594 0.6570717 -0.11739473 0.35202825 0.24119632 0.17877176 -0.47751513 -0.29386804 -0.24950287 -0.13173313 -0.46100327 -0.17251603 -0.57667756 -0.40426213 -0.38386315 0.5557029 0.51180404 0.6987897 1.0571626 0.11671175 -0.068816274 -0.2994996 0.5697513 -0.6526206 0.2291137 0.38304117 0.3745319 0.10992103 0.19008158 0.5885828 -0.20148617 0.29499313 0.21895006 -0.13907884 0.41970822 0.29876718 0.49853975 0.07338408 0.105124034 0.5164605 0.09132889 -0.4844107 -0.05574922 -0.31811312
30 -0.16053118 0.12118256 0.11683909 -0.09581295 0.23781542 -0.2989975 0.47515357 -0.2914797 -0.09180037 0.4283311 0.86653244 0.010466894 0.05473333 -0.46110007 0.3183671 0.41169065 0.16260833 -0.41225734 -0.056758497 -0.085875936 -0.764204 0.68974143 -0.033177525 0.2959206 0.14546247 0.31491423 -0.49997717 -0.31672406 -0.23939845 -0.3549649 -0.5466152 -0.28265995 -0.5375414 -0.26769924 -0.2615797 0.5845557 0.5348604 0.7491085 0.81294173 -0.122028284 -0.10636828 -0.19643125 0.2472589 -0.53816617 0.15300894 0.547694 0.4132616 -0.10339237 -0.023564847 0.83797216 -0.28890607 0.5568525 0.5031185 -0.10608177 0.40128133 0.6447612 0.6233748 0.034012333 0.126197 0.6085507 -0.026095223 -0.24159122 -0.21262603 -0.29691362
44 0.6995238 0.36851186 0.46637964 0.18976165 0.03599797 -0.7473372 0.6131226 -0.70966476 0.015524495 0.04260352 0.10321566 -0.14832588 -0.29916945 -0.38394615 0.24330652 0.63852674 0.13384874 -0.03982203 -0.44827595 0.34200802 0.00025095855 0.74626756 0.5496978 -0.2776334 -0.07512592 0.020699114 -0.6095701 0.26310587 0.74452704 0.26656607 -0.27838376 0.6534485 0.005143451 0.024626886 0.09759434 -0.2202391 -0.24782847 0.007344298 0.28318253 0.22937717 -0.67662114 -0.2853767 0.072611436 0.14811088 -0.17307326 -0.16851093 -0.094699964 -0.061606124 -0.38682032 0.5917581 -0.042106166 0.08174358 0.07664776 0.49768516 0.07120412 0.29637063 -0.10310729 -0.50546646 -0.44460997 -0.16131122 0.042785797 -0.6287698 0.40041137 -0.0928334
70 0.54565483 -0.25319394 0.12042396 -0.37514606 0.027331779 0.18740322 0.52288 -0.68922955 -0.18378492 -0.26256543 0.4756836 -0.5876316 -0.24518488 -0.48783216 -0.047741447 -0.14436096 0.25071108 -1.0205026 -0.09064896 0.20251879 -0.0728657 -0.5264093 0.68614906 -0.10756062 0.49069494 0.49973217 -0.18316372 -0.29350832 -0.07356666 -0.1146539 0.08476042 0.57752544 -0.9460015 -0.03918698 -0.3804689 -0.28638613 0.26422867 0.84569705 -0.5356339 0.11037286 0.54217213 -0.036111604 -0.07976761 0.031828105 0.12856925 -0.42317918 0.22264165 -0.3902054 -0.23578675 0.49302056 -0.09565129 0.5975631 0.12762032 -0.07948977 0.06658516 0.6762699 0.7569937 0.07205842 -0.14521927 -0.0061373916 0.6588821 -0.5752164 0.34568897 -0.08702127
18 0.40670905 -0.49242926 -0.14998749 -0.010965921 -0.004889924 0.027474051 0.43638405 -0.1856012 -0.4332519 0.25582287 0.64312124 -0.22092313 -0.35866854 0.25826904 0.13269134 0.5827973 0.28249305 -0.27338797 -0.27326256 -0.04761125 -0.071783215 0.94518006 -0.14849487 -0.16294755 0.39855483 0.18559842 -0.48239112 -0.34171396 -0.39220917 -0.14731018 -0.18341663 -0.30271897 -0.20778348 -0.33595738 -0.5991093 0.2980939 0.18018255 0.35152438 0.7914311 0.45655018 0.3233279 -0.10397337 0.7295534 -1.2049663 0.04581882 -0.0952238 0.31334275 0.12409096 0.36805573 0.23705599 0.15818161 0.24925056 0.30122238 -0.051911782 0.19096828 0.34288856 0.08072886 0.053985976 0.07925493 0.64713764 0.023644418 -0.59368044 -0.051084097 0.15243344
45 0.610196 0.029295754 0.3816621 0.08422425 0.23869456 -0.55852306 0.5423538 -0.6983779 -0.18296546 -0.19919758 0.040783487 -0.3188787 -0.44156322 -0.46000287 0.20524779 0.5659497 0.41821674 0.07006939 -0.30680117 0.2750847 0.3912879 0.781239 0.30309328 -0.091022536 -0.13415673 0.3382874 -0.55270827 0.31320095 0.5252864 0.16067545 -0.35680592 0.68543047 0.21195756 -0.2331336 0.091900915 -0.43807754 -0.34482747 0.037410203 0.38426772 0.064586915 -0.75434065 -0.17123827 -0.27604493 0.20982471 -0.0038699012 -0.32287672 0.21247834 -0.3602762 -0.43888602 0.64444417 -0.10836671 0.28031752 0.35919103 0.3233257 -0.13020286 0.0012594507 -0.20666058 -0.24977602 -0.47009483 0.039086975 0.28853485 -0.3150495 0.3938501 -0.23005097
3 -0.02549938 -0.1593734 -0.34576416 -0.1271043 -0.21645589 -0.36995193 0.4315556 0.14432916 -0.43389863 -0.3811939 0.030972796 -0.015347536 -0.33635908 -0.4796031 0.12373965 -0.22720703 0.7955317 -0.15422313 0.11251155 0.45857728 -0.057684895 -0.57690936 0.85668826 -0.60786366 -0.02418984 0.23048615 -0.45697278 0.10377956 0.2819528 -0.45995516 -0.10562252 0.5325054 -0.7361094 -0.70572484 0.012987807 -0.2663439 0.03481676 0.38124728 0.15151426 0.35688317 -0.06754515 0.07931452 0.21549724 -0.33765745 -0.28383332 0.0819101 -0.006239216 -0.9254744 -0.19937149 0.62131286 -0.11826403 0.15710646 0.7498262 0.6359782 -0.15119185 0.7609263 0.37251046 -0.039694272 0.21848218 0.28388187 0.07225698 -0.18928558 -0.07694247 -0.15004165
43 0.65013885 0.28674108 0.6299917 -0.061180867 -0.024499966 -0.980178 0.7039329 -0.6256284 0.06818024 0.1009293 0.0672976 -0.1645358 -0.48630434 -0.15467863 0.25826052 0.79692173 0.17919129 -0.11139025 -0.23608172 0.010923027 0.36675718 0.6690806 0.24116866 -0.0937269 0.014305535 0.32506594 -0.29705834 0.019683406 0.7256917 -0.21018277 -0.48723447 0.65484315 0.030650025 -0.0711336 -0.09785789 -0.2872684 -0.064870335 0.038159885 0.25781965 -0.021981359 -0.67070806 -0.22740403 0.08919168 0.04928653 -0.3133893 -0.19630313 0.09908459 -0.45776808 -0.2826611 0.72348773 0.18341672 -0.08533495 -0.0145552 0.27381715 -0.0027948522 0.4006749 -0.016499441 -0.19277003 -0.5652828 -0.29012442 0.051311564 -0.36397636 0.2854936 -0.3897076
54 0.4518106 0.08718387 0.76251817 -0.08653059 0.12665023 -0.82928914 -0.046741225 0.02749017 -0.63476014 -0.21252374 0.41894978 -0.33161545 -0.12409006 -0.7771372 0.045170177 0.014889195 -0.032547988 0.093930244 0.03916053 0.39509985 0.109162465 -0.106848665 0.35049662 -0.10245798 -0.508028 0.21943977 0.01966568 -0.24147303 -0.04197985 0.4598672 0.052759897 -0.3969877 -0.45220897 0.041694146 -0.5214587 -0.5714951 0.25600904 0.16235611 0.569812 -0.41684562 0.530998 -0.19534157 -0.32680088 -0.14635564 0.30766752 0.19865483 0.28862008 -0.49621356 0.072920315 0.010024918 0.008903025 -0.021723354 -0.009150501 0.8123494 0.6036776 -0.27226073 0.15020892 0.17403279 -0.5275651 0.6423557 -0.054193903 -0.36598966 -0.47255337 0.3907639
57 0.49088532 0.18211412 0.45637763 -0.1819688 0.10288718 -0.737771 0.0013199883 0.3780417 -0.50936687 0.14747503 0.041833617 -0.53299886 0.13005787 -0.71060586 0.40837836 0.14562498 0.28630394 0.03666045 -0.09264989 0.250667 0.22516067 0.04507704 0.15386377 0.21570577 -0.53452176 0.23292568 0.09697631 -0.17774612 0.01201787 0.2463138 -0.119613476 -0.21046762 -0.79116553 -0.033482432 -1.06337 -0.2977395 0.26707563 0.36598575 0.354303 -0.47166207 0.63821685 -0.15048358 -0.46702406 -0.09729328 0.31249654 0.27819178 0.53232104 -0.46615037 -0.15963061 0.2740524 -0.08776349 0.12140661 0.13130581 0.9041291 0.9335758 0.29272065 0.39401934 0.34499666 -0.33110076 0.15754592 0.09579842 0.04606543 -0.119782634 0.86999434
71 0.43158913 -0.32413465 -0.08713368 -0.16682673 -0.23101938 -0.05321706 0.5093992 -0.3938195 -0.26160592 -0.32540363 0.32076606 -0.28488714 -0.32243323 -0.36125192 -0.14247584 -0.27530128 0.21966814 -0.9371578 0.09387506 0.33551732 -0.10471683 -0.6802793 0.50023925 -0.21347302 0.359268 0.66535586 -0.3850586 -0.36279503 -0.3718669 -0.05114799 0.09921413 0.6056099 -0.6325155 -0.05594521 -0.12457268 -0.2275664 0.23139836 0.43091512 -0.34928212 0.2864203 0.429799 -0.08708392 -0.16134347 -0.04413956 0.05630463 -0.34755832 0.08230609 -0.42955646 -0.3372178 0.5329568 -0.1659339 0.80220824 0.10045376 0.21447624 0.2281818 0.68364483 0.9530133 -0.14920236 -0.115866154 0.13077378 0.5354421 -0.64927155 0.73082435 -0.05514362
6 0.2058639 0.0006349069 0.051412113 0.12243679 -0.3827633 -0.5312365 0.30552167 -0.29030842 -0.22113045 -0.3596323 0.4910029 -0.30006212 -0.26789513 -0.49347383 -0.4003854 -0.5823252 0.21669444 -0.42522338 0.10390778 0.5557646 0.14942177 -0.6722309 0.5640253 -0.32488105 -0.6660077 0.50569135 -0.3158626 0.11031325 -0.019113766 -0.29099137 -0.0717152 0.020779805 -0.47114694 -0.25225505 0.00036426447 -0.2667475 -0.5237866 0.3340742 0.22652008 0.23894589 0.27948195 0.081440344 -0.18548849 0.021294778 0.09588281 -0.32121474 0.18134563 -0.57465893 -0.31921428 0.481031 0.24746399 0.10777052 0.5128004 0.31789467 -0.23735291 0.6203788 0.3934465 -0.18709108 0.17420603 0.009237318 -0.09498984 -0.40554702 0.19734776 -0.16957001
41 0.79335463 0.31555104 0.65412045 -0.08612829 0.18423147 -0.96006715 0.9022574 -0.78276396 0.09889243 -0.0765494 0.014849044 -0.17763554 -0.28719598 -0.21969342 0.46008596 1.0311648 -0.07451909 -0.1223266 -0.19653887 0.03498899 0.13544671 0.43161955 0.2071044 0.009972207 0.26561594 0.3199107 -0.20019008 0.047533095 0.9060431 -0.027020397 -0.31929922 0.7067359 -0.08133178 -0.09774318 -0.2818705 -0.17988385 0.23706673 -0.047396306 0.5325759 -0.03328538 -0.65955096 -0.1326644 0.18359035 0.18525496 -0.28794873 -0.13241996 0.21159273 -0.38247246 -0.3062399 0.15555453 0.19077842 0.14646111 -0.029711356 0.25064087 0.45059666 0.7570935 0.06962552 -0.02581978 -0.56163794 -0.31797042 -0.12039944 -0.5477597 0.120127134 -0.1945045
53 0.4331107 0.3541577 0.7511381 -0.13927886 -0.118402965 -0.6421972 0.04773443 -0.094911344 -0.48060936 -0.07288876 0.38266194 -0.44624597 -0.22220314 -0.8304904 0.113709405 0.020575441 0.032871198 0.2172055 -0.11429207 0.40515965 0.28479072 -0.09787423 0.49604788 -0.10419986 -0.689822 -0.17791384 0.047935814 -0.16178916 -0.058875594 0.24237321 0.18408732 -0.3610614 -0.4153375 -0.20013884 -0.39813623 -0.5344313 0.08984221 0.080764964 0.51725054 -0.65833664 0.66908157 0.08247333 -0.25150484 -0.26296055 0.31270334 0.12240263 0.5988599 -0.45628893 -0.16885464 0.22082047 0.15067074 -0.2636015 0.3213275 0.51497585 0.15952446 -0.2088237 0.11790193 0.08425758 -0.15566376 0.61171883 -0.06893559 -0.41470066 -0.19163875 0.36584127
42 0.72058433 0.12343371 0.4314471 -0.018298233 0.09483693 -0.7295941 1.0296769 -0.53721756 -0.024743248 0.13823009 -0.19642292 -0.25797448 -0.47798946 -0.21344905 0.3261756 0.88459295 0.21086203 -0.14076595 -0.28168508 0.034188718 -0.04352555 0.6209714 0.11846544 0.10505724 0.15461743 0.2032172 -0.304192 0.16312456 0.74341947 -0.15334058 -0.067020684 0.5881883 0.15358382 -0.13967383 -0.019868314 -0.32194003 0.2175281 0.06318546 0.50409216 -0.038972795 -0.634715 -0.3535849 -0.0985323 0.3835113 -0.09369547 -0.23601627 0.094048955 -0.35856205 -0.5046481 0.56551456 0.2573564 -0.07179513 -0.0005686733 0.46190652 0.28440657 0.7147981 -0.04669673 -0.22932008 -0.6003474 -0.27415782 -0.20941544 -0.6660934 0.33126393 -0.20911466
17 0.4117314 -0.49568528 -0.22023681 0.06522814 -0.21047945 0.10061871 0.37053278 -0.087352015 -0.5104478 0.27307886 0.8298454 0.0318035 -0.3955281 0.2750573 0.37405053 0.39768156 0.32120323 -0.13564269 -0.055855334 -0.27187267 -0.1511986 0.97730035 0.032048453 -0.123797625 0.5970654 0.08082085 -0.31644982 -0.092183426 -0.102833144 -0.0020824259 -0.15450256 -0.23988266 0.19412246 -0.43956444 -0.3008867 -0.101170115 0.1689174 0.2545865 0.79910773 0.26499155 0.2865116 -0.18677169 0.47184852 -0.88938123 0.23534183 -0.30062133 0.1284626 0.24262564 0.33625954 0.3838485 0.41103998 0.031366047 0.43768123 0.16080528 0.27517945 0.35876352 0.37131444 -0.12116115 -0.21292059 0.9791925 0.37117234 -0.6497699 0.046352718 0.3312358
75 -0.029571185 0.23244509 0.3704496 0.35635906 -0.4584415 -0.383092 0.70225936 -0.19706312 -0.16748795 -0.20089594 0.37874207 -0.5580948 -0.4369518 -0.26310894 -0.00070182263 -0.23567076 0.5776085 -0.38110206 0.026842717 0.37355277 0.38463807 0.060300987 0.49787045 -0.36680338 -0.08101251 0.30198488 -0.76040006 0.31837657 0.36624843 -0.18767434 0.04167921 0.6366645 -0.083199754 -0.3713161 0.138234 -0.21755624 -0.07684343 0.19142272 0.05162012 0.1661719 -0.42732388 -0.123889305 -0.03012279 -0.0069215526 -0.45391697 -0.33830816 -0.21684173 -0.24471733 -0.37804765 0.8302642 0.06471811 0.47872266 0.31217325 0.4051678 -0.14942387 0.19222076 -0.032411173 -0.3229463 -0.0032420482 0.10473395 0.4455893 -0.35257292 0.27347127 -0.44403806
4 0.27205238 0.013776099 -0.14335157 -0.12961634 -0.5444374 -0.6376817 0.4501375 0.07124287 -0.37991706 -0.2141463 0.20060587 -0.15910356 -0.42694712 -0.26095468 -0.37181896 -0.37454116 0.6066996 -0.19784798 -0.043171544 0.5345468 -0.087545805 -0.5789143 0.58507675 -0.45823747 -0.16285114 0.25693837 -0.4811213 -0.03547958 0.047920622 -0.43957224 0.15807444 0.3284183 -0.55530393 -0.81588185 0.28513727 -0.08043198 -0.26475763 0.28390658 -0.009147027 0.42648134 -0.15906382 0.10522497 0.09738214 -0.2057513 -0.24676764 -0.03430108 -0.01899322 -0.84066045 -0.45905897 0.50336665 0.07203427 0.3560968 0.49626467 0.41397354 0.35183212 0.5964304 0.49447122 -0.24849313 0.15744585 -0.0041778623 0.30200222 -0.25394148 0.163011 -0.052048508
40 0.7521846 0.25914553 0.24064928 -0.0657233 0.068620846 -0.95463187 0.9094121 -0.5005535 0.1232614 0.0032073245 -0.3501541 -0.048991174 -0.36903316 -0.2973454 0.390343 1.1780732 0.045811225 -0.36122566 -0.16444062 -0.02710625 0.012662912 0.65688086 0.40295205 0.14269982 0.2752366 0.62622243 -0.22859499 -0.086903386 0.856851 0.0026644722 -0.35841528 0.3660607 -0.12136608 -0.030684605 -0.18437022 -0.275528 0.31081527 0.12334636 0.34388345 -0.13370548 -0.31851014 -0.29131794 0.09447162 0.14462061 -0.2622101 -0.1428503 0.20372993 -0.27815333 -0.16780028 0.2606343 0.3219371 -0.2242194 0.054277893 0.5308873 0.4999273 0.8930318 0.36972857 -0.049843453 -0.636303 -0.47771218 -0.4410519 -0.4679945 0.16246438 -0.34839514
39 0.6756578 0.22360866 0.49346465 -0.44731104 0.296311 -1.0428946 0.759224 -0.5939063 0.0043873414 -0.118890375 -0.26685527 0.044436675 -0.44976556 -0.17593336 0.70313513 1.097198 0.023499032 -0.25997874 0.0067221276 0.22206132 -0.07876338 0.26828128 0.19278677 0.14184038 0.22703914 0.44224948 -0.1732348 -0.06305555 0.607298 -0.1289135 0.04447105 0.2941806 -0.41149187 0.14080083 -0.38915223 -0.10146041 0.4359498 0.1744338 0.5018263 0.0022940252 -0.3697719 -0.12036899 0.34466395 0.2760226 -0.17751828 -0.24871044 0.30141392 -0.49794117 -0.46221492 0.22532083 0.3741664 -0.24421573 -0.09401372 0.3658031 0.3879932 1.1495461 0.15950954 -0.09428785 -0.61190104 -0.38525644 -0.4049938 -0.5094357 0.055704705 -0.3699962
48 0.06430791 -0.03243658 0.89158374 0.2643732 -0.15297632 -0.58945656 0.37004632 0.027469818 -0.2684828 0.18813199 0.68763924 -0.27803883 -0.4547928 -0.51274645 0.06050716 -0.3726082 -0.2199572 0.06328603 -0.58560795 0.005539392 0.3730682 0.69108844 0.048348937 -0.18451236 -0.1400908 0.16409472 -0.6129703 0.38758615 0.44161487 0.19365683 -0.07030091 0.19930357 -0.0475589 -0.32622576 0.19823313 -0.4985236 -0.38026756 0.05371552 0.6626891 -0.41768718 -0.39145198 0.15522508 -0.5080781 -0.20299992 -0.11662341 -0.24451502 0.23454699 -0.54839337 -0.17337407 0.29852605 0.05192368 -0.042247258 0.14341511 0.35138753 0.016459014 0.12907593 -0.025712121 -0.67681855 -0.24932551 0.20470591 -0.026702043 -0.5607223 0.09601352 0.029679636
78 0.391126 -0.6035418 0.33858585 0.3889437 -0.34244898 -0.2740167 0.9787895 -0.5081727 -0.5014735 0.10131423 0.489745 -0.53798354 -0.40563363 0.13523771 0.09801953 0.20936851 0.37019873 0.24556968 -0.45228156 -0.034047265 0.349597 1.0534683 0.25234255 -0.3140928 0.42487288 0.24129121 -0.5485537 0.0971413 0.21821037 0.038042992 -0.27379626 0.50066906 0.2805677 -0.16500601 0.02020137 -0.3026074 -0.044702273 0.0077814492 0.11116143 0.27492017 -0.13106786 -0.029161766 0.080695294 -0.54511654 -0.12729293 -0.55969584 -0.2489046 0.15554233 -0.08239344 0.5061353 0.3036507 0.07476326 0.39670184 0.3430146 -0.2546844 0.28544524 -0.30724126 -0.18187235 -0.24954823 0.76219654 0.19980875 -0.59374326 0.24451043 0.09514987
56 0.45624256 0.30710703 0.5534759 -0.108962454 0.021831712 -0.7547792 -0.059831303 0.08119578 -0.56924766 0.20635824 0.23448883 -0.607982 0.07852478 -0.8921767 0.17168394 -0.0737211 0.0886269 0.21003236 -0.084763266 0.36690786 0.17659657 0.17914478 0.35895532 0.26668248 -0.29576606 0.3388524 0.19348843 -0.06115847 -0.03877254 0.050494403 0.1649457 0.0016096225 -0.63827056 -0.13820392 -0.6819963 -0.43990123 0.5376561 0.13492924 0.28424785 -0.2973967 0.77152985 0.09537849 -0.4082368 -0.16220446 0.17761716 0.4773612 0.55415195 -0.36025342 0.05526002 0.046240207 0.033891108 -0.11685997 0.16050108 0.72221416 0.8766016 0.11235331 0.08085866 0.34560287 -0.37184754 0.4205751 -0.07230614 -0.27771327 -0.29448256 0.7621083
76 0.21857864 0.004981853 0.22622976 0.14082271 -0.18800284 -0.5838762 0.83073914 -0.34714755 -0.05739463 -0.07504424 0.31595546 -0.5185006 -0.19259477 -0.08900565 -0.18469678 0.13659173 0.55183035 -0.2212063 -0.112771735 0.34741738 0.41034657 0.20666187 0.42104617 -0.40770695 0.016526166 0.05188502 -0.8343968 0.21765882 0.3038842 0.079142444 -0.12684765 0.90911853 0.30307642 -0.48786366 0.38376987 -0.063680165 -0.2521392 0.20669346 0.0055499882 0.00024819167 -0.29675105 0.05618021 -0.09284211 0.095620476 -0.3873311 -0.13169833 -0.013581116 -0.3863634 -0.120658815 0.69854677 0.17469619 0.4400802 0.32961473 0.48594147 -0.42846692 0.18347555 -0.02802383 -0.135963 -0.24218036 0.44616994 0.37499183 -0.5471987 0.440584 -0.10302329
47 0.039205253 0.028894875 0.6697641 0.36319017 -0.15770905 -0.6511684 0.20979622 -0.16700429 -0.16095398 0.023957886 0.7157838 -0.30327561 -0.4868605 -0.67477506 -0.1453373 -0.057961103 -0.13222216 0.2623609 -0.30863255 0.009232276 0.7030999 0.78730714 0.101229854 -0.30228484 -0.09876604 0.1052628 -0.66022867 0.286451 0.48921227 0.17590854 -0.3936577 0.32730827 0.053701654 -0.2868409 -0.066144384 -0.3014941 -0.4834727 0.06720695 0.044744235 -0.25415483 -0.3558046 0.10970588 -0.18116045 0.13819316 -0.12481418 -0.39301252 0.051015962 -0.28088495 -0.28015238 0.54126346 0.15357442 0.121698484 0.4027178 0.5992069 0.21624921 0.3435931 -0.0050891326 -0.5065157 0.08201072 0.18969059 0.16716652 -0.44315705 0.27954742 -0.20050932
7 -0.15081885 0.25283468 0.16185866 -0.13718715 -0.5848307 -0.52357864 0.31856686 -0.08401071 -0.09147758 -0.66619754 0.50952846 -0.18547085 -0.009285499 -0.90392035 -0.4779754 -0.673813 0.2467947 -8.8773304e-05 -0.13919507 0.65154827 0.14888537 -0.32118392 0.72955453 -0.23647846 -0.26010862 0.40212637 -0.26353052 0.10017028 -0.22905657 0.14784674 0.23261972 -0.030081483 -0.37535903 -0.3356932 0.13475747 -0.12167954 -0.32293248 0.32204726 0.27052936 0.14231725 0.48034847 0.10996206 -0.112608865 -0.3467172 -0.15706584 -0.40008765 0.433202 -0.80465424 -0.21012686 0.33161366 0.115019344 0.078486465 0.36837336 0.27889296 -0.061879706 0.5578936 0.28410333 -0.3919476 -0.06088834 0.22126316 0.16315866 -0.380613 -0.07116536 -0.26227334
19 0.023145024 -0.5923096 -0.36214483 0.082229294 -0.13407366 -0.066396676 0.50973463 -0.06374683 -0.35870057 0.20312923 0.4929992 -0.3976639 -0.17133172 -0.10556168 0.42222664 0.7994786 0.3762731 -0.2829369 0.010131904 -0.018389547 -0.38123995 0.88689446 -0.002759989 -0.14342338 0.4806477 0.23953792 -0.46930832 -0.37408164 -0.36579978 0.067066394 -0.16120733 -0.17131472 -0.5028212 -0.47311133 -0.42476773 0.3374849 0.4123706 0.3785526 0.8195147 0.2545104 0.20473298 -0.16301021 0.6410375 -0.83046603 0.38016292 -0.040345322 0.20841514 0.2981859 0.3151752 0.53257823 0.16079247 0.16313788 0.38973927 -0.27442583 0.11382655 0.20012283 0.36934 0.025121909 -0.17985904 0.72363955 0.07643811 -0.34541062 -0.08805476 0.03574195
55 0.35274938 0.16407177 0.77825636 -0.02771853 -0.051836256 -0.8129767 -0.049244296 0.14767434 -0.45474872 0.33225992 0.25555447 -0.5284013 0.057507508 -0.5175564 0.34200954 0.023369223 0.013652507 0.1766233 -0.018528245 0.30014375 0.122612946 -0.0260311 0.43021798 0.07804209 -0.6621173 0.12788168 -0.117293514 -0.068918616 -0.16853607 0.42175707 -0.03555701 -0.4273326 -0.94935244 0.15660305 -0.8156525 -0.5327516 0.27693114 0.24512042 0.5525536 -0.36668974 0.7983212 -0.056069445 -0.4170477 -0.35810003 0.18466294 0.12791868 0.49803123 -0.49464047 -0.11491051 -0.11099865 0.20178628 -0.10247155 0.106435895 0.6528789 0.41054294 -0.05799431 0.26226494 0.12551424 -0.23621677 0.49901155 -0.13144824 -0.14903793 -0.02474106 0.4541429
16 0.29225412 -0.55169123 -0.113094464 0.0494485 -0.02975639 -0.06467884 0.40469217 -0.22583853 -0.83727044 0.040070906 0.5581999 -0.3300119 -0.60310954 0.04594358 0.09375911 0.30290887 0.24438703 -0.04275452 -0.072841555 -0.23343892 0.1502506 1.1306145 -0.28214583 -0.15519643 0.33574337 0.15780647 -0.59023196 -0.14807314 -0.3269407 0.04966577 -0.16758108 -0.27459818 0.05856807 -0.25236127 -0.47706267 -0.14543295 -0.010308429 0.17782485 0.6661483 0.45419672 0.23496832 -0.022749238 0.3323666 -0.8714471 0.14444016 -0.36475003 0.19334848 0.13560633 0.06982883 0.37055036 0.36877152 0.052371528 0.2971334 0.006207919 0.093531884 0.14247677 -0.06998263 -0.30565035 -0.11100733 0.9029153 0.20012242 -0.8161594 -0.11728155 0.14783165
72 0.4864749 -0.2850455 0.104825996 -0.21146917 -0.28205574 0.17752765 0.32514036 -0.4445589 -0.024805345 -0.123162225 0.43378878 -0.5024452 -0.14012988 -0.31264207 -0.18433154 -0.557294 0.4938533 -0.7212753 0.12114069 0.31982666 -0.031644884 -0.56674194 0.5894113 -0.19814852 0.043486916 0.5977465 -0.6300934 -0.28159586 0.0368569 -0.14765872 0.29470447 0.60174584 -0.73922586 -0.20751275 0.020832276 -0.01453703 -0.1226934 0.5191694 -0.3051943 0.31649718 0.25307488 -0.0075638583 -0.13872129 -0.14544101 -0.14129882 -0.43217993 0.10902714 -0.6202293 -0.264302 0.4777388 0.2798183 0.56615055 0.29761255 0.20260507 0.14349619 0.7739183 0.59368885 0.058152616 0.023444247 -0.06699112 0.5066601 -0.5556678 0.19127867 -0.16407424
79 0.607048 -0.4677019 0.10718634 0.13855763 -0.36435553 -0.45081744 0.5011439 -0.37827602 -0.40135646 0.24793419 0.5977086 -0.32051092 -0.52882886 0.16112822 0.06016767 0.2589257 0.414097 0.1696133 -0.24492776 -0.168131 0.44811293 1.1508646 -0.10838019 -0.37310937 0.3259875 0.037002128 -0.5999454 0.10157646 0.050577648 0.07096873 0.14693981 0.21691696 0.24256673 -0.36776343 -0.27848884 -0.13099541 -0.18527927 -0.13958675 0.5809692 0.21177022 -0.09031213 -0.28705767 0.035742793 -0.81404185 0.12788802 -0.6593608 0.03673366 0.05187415 0.108046986 0.598438 0.48558688 0.070410155 -0.081394576 0.0458118 0.09576757 0.07673829 -0.1799285 -0.073419765 -0.372297 0.5728727 0.034051515 -0.6103496 0.3094097 0.026437389
74 0.2204709 -0.23606838 0.20132534 0.036329232 -0.2884454 -0.43053594 0.59117436 -0.15401225 -0.14016551 -0.24102171 0.54073274 -0.19599327 -0.43803704 -0.28553993 -0.24238461 -0.36279425 0.4395805 -0.30440673 -0.06310278 0.24901022 0.40503538 -0.1547239 0.492601 -0.37704712 -0.14765106 0.3386335 -0.631938 0.20174067 0.03378046 0.0682625 -0.27828696 0.9039595 -0.3212112 -0.3748968 0.22185959 0.09573366 -0.20235859 0.29252604 -0.05066262 0.44889152 -0.23931298 0.26065424 -0.17257282 -0.1403288 -0.34001398 -0.21523009 -0.2877921 -0.5751815 -0.15425842 0.5890273 -0.024299433 0.40718532 0.30649483 0.54590654 -0.12596215 0.35073546 0.13655865 0.04531126 -0.15179941 0.045087393 0.13508026 -0.36697808 0.40796897 -0.45552626
73 0.19199613 -0.13744022 -0.038646474 -0.2287254 -0.43011296 -0.34101433 0.5930156 -0.2972555 -0.23878652 -0.37267128 0.40672174 -0.33254004 -0.43700263 -0.38292882 -0.4572076 -0.61676466 0.40600204 -0.7663815 -0.00042282452 0.3309335 0.17958114 -0.5580606 0.542407 -0.26245207 0.20652978 0.38165018 -0.27011067 0.024510494 -0.21292908 -0.30746344 0.12634346 0.5006584 -0.6303723 -0.39726353 0.0604419 -0.33289695 -0.097072 0.605804 -0.107899584 0.2817671 0.12131771 0.044601373 -0.14050266 -0.14828965 -0.0118752755 -0.38791624 0.053636342 -0.65398115 -0.22666334 0.497974 -0.0632128 0.36460388 0.12063578 0.15762156 -0.058240365 0.79108363 0.4664381 -0.06532586 0.0340946 -0.024574816 0.1865377 -0.29209927 0.5977665 -0.15454182
77 0.3763064 -0.22396652 0.37169167 0.17404409 -0.0016372658 -0.40018588 0.6300384 -0.39252955 -0.3153053 0.03681267 0.5083165 -0.43360832 -0.49880153 -0.015491253 0.1745698 0.24137728 0.43573427 -0.24050167 -0.27145573 -0.051953405 0.57387775 0.91041464 0.20183225 -0.6264754 0.24228436 0.053117905 -0.76684463 0.2868626 0.15617238 0.18053988 0.11213084 0.38856378 0.22197272 -0.19804488 -0.009623696 -0.2283811 -0.3178106 0.07737505 0.109462686 0.22722204 -0.45533144 0.17939189 0.05290416 -0.19313227 -0.24305396 -0.34477034 -0.011677365 -0.15413563 -0.07251095 0.64909524 0.30014604 0.24037607 0.1900565 0.5010854 -0.24548276 0.038812924 -0.29495233 -0.15990269 -0.32219136 0.57173604 0.15427038 -0.49637452 0.4143678 0.03391071
49 0.1173463 -0.15528093 1.0825992 0.31341466 -0.16732475 -0.63800734 0.09286066 -0.22186226 -0.15567395 0.007968797 0.83887017 -0.23775491 -0.46503052 -0.62262887 -0.3229219 -0.19708952 -0.26500407 0.31014064 -0.29746202 -0.08811457 0.42893103 0.487511 0.2500984 -0.16633601 -0.34670275 0.0638042 -0.54029137 0.23671143 0.16958196 -0.0042575193 -0.042008776 -0.1043307 0.2786001 -0.30913523 0.051980335 -0.53024256 -0.4658703 -0.0881986 0.6172268 -0.4514483 -0.20543298 0.108890474 -0.39896664 -0.41671476 0.056866392 -0.117106244 0.38039458 -0.4805476 -0.35661998 0.5376667 0.14550848 0.026584638 0.1584725 0.60436857 0.30872765 0.07835605 -0.10947782 -0.0062974636 -0.36400402 0.14557594 -0.05634897 -0.66059476 0.28067988 0.022238314
14 0.5415867 -0.45249996 0.3250768 0.15086341 -0.21014938 -0.49454033 0.1679058 -0.48232406 -0.56153893 0.055317372 0.58435994 -0.054292984 -0.15772544 -0.032430723 0.17824174 -0.007454867 0.32501677 0.22779495 -0.44303167 0.23261318 0.39826477 1.2019819 -0.057036743 -0.33387515 0.16412501 0.2874407 -0.38313022 0.0008554982 -0.25180766 0.32291242 0.09608859 -0.42219073 -0.08792082 0.062342167 -0.12808214 -0.3085372 -0.3272852 -0.053163 0.5615334 0.4547925 0.51804835 -0.16090798 0.22285181 -0.8671558 0.24016878 -0.6943568 0.41782957 -0.022104606 0.11550162 0.110883854 0.5927799 -0.034065485 0.25057888 0.20380437 -0.00023668085 0.4277135 -0.07454457 0.11289104 -0.14409085 0.7526702 -0.26686606 -0.338134 0.29765847 0.2451912
12 0.20566225 -0.32629073 0.49223042 0.113748655 -0.2510375 -0.663401 -0.20009547 -0.37199906 -0.62346274 -0.28585777 0.51576746 0.025471834 -0.3225844 -0.43289647 -0.121315256 0.16295026 0.08412951 -0.15810461 -0.019827858 0.13660693 0.33982506 0.4161432 0.37095654 -0.49376237 0.12529236 0.3389393 -0.62064856 -0.100731455 -0.35821354 0.31641218 0.0068907086 -0.32963243 0.0246661 -0.020854734 -0.43984306 -0.35351887 -0.4141249 0.016268617 0.72251457 -0.044290587 0.64633596 0.27016726 -0.028224437 -0.87410116 0.29418743 -0.7764891 0.54994637 -0.058052756 -0.080810584 -0.21261579 0.37927958 -0.15237612 0.26086167 0.18597335 -0.19521059 0.03870847 0.08216033 -0.36221847 -0.2996989 0.82240146 0.08118685 -0.43023717 -0.19483499 0.37827918
8 -0.2618811 0.06630186 0.11717014 0.045887697 -0.14424428 -0.4027853 0.032164242 -0.3170871 -0.38568118 -0.6777503 0.6061655 -0.19063294 -0.31655636 -0.5128478 -0.26195377 -0.5947269 0.028870594 -0.09749555 -0.25464794 0.38348258 0.03856829 -0.35837138 0.59558463 -0.3427347 -0.61626494 0.29522535 -0.32134432 0.23145324 -0.13833353 -0.02045542 0.42823792 -0.39508203 -0.42609847 -0.33975005 0.08046446 -0.19708396 -0.31587127 0.14460018 0.25597802 0.017375499 0.40316412 0.4167296 -0.2083712 -0.24112436 0.11324452 -0.24235488 0.58652496 -0.6925699 -0.40434343 0.3338618 0.20214146 0.11312865 0.36186376 0.6766435 -0.11159471 0.28755933 0.47676322 -0.22013289 -0.2794115 0.48945025 0.30328712 -0.43884557 -0.04778363 0.109525
13 0.4964629 -0.3522376 0.2403928 0.22987004 -0.3086767 -0.36913523 0.071368694 -0.2185199 -0.36083844 -0.047576506 0.40734416 -0.33077058 -0.29436344 -0.24547967 -0.19334307 -0.011281919 0.2541515 0.17591862 -0.097576 0.33651832 0.26248625 0.99909663 0.43418193 -0.23151086 0.21613103 0.5184924 -0.4594022 -0.1284315 -0.37857023 0.33026457 0.25228754 -0.6653715 -0.018843917 -0.0025914249 -0.47868496 -0.41308537 -0.40324864 0.22187859 0.60940963 -0.021839403 0.35256472 -0.18587148 -0.0017216142 -0.99160737 0.23014988 -0.87065357 0.38599747 0.12160397 0.13645889 -0.030517219 0.54212594 -0.0978178 0.10592701 0.3832293 0.057578903 0.22717859 -0.25256318 -0.36057284 -0.19508149 0.82709277 -0.21901809 -0.68648225 -0.017458383 0.33667445
34 0.1507377 0.040615674 0.2092592 -0.0998448 0.26061034 -0.5825194 0.48699015 -0.12101011 -0.21493702 -0.30856758 -0.47119132 -0.2051392 -0.49368563 0.07897937 0.5526086 0.90195096 -0.45537022 -0.28941455 -0.005428673 0.078365184 0.16451779 -0.05847914 0.48285657 0.19206022 0.5357399 0.6670145 -0.25709316 -0.13079682 0.23715064 0.0016405276 0.31228575 -0.12940113 -0.17999612 -0.20067146 -0.5764451 -0.052556563 0.81815284 0.37938625 0.65013075 -0.43941385 0.025681438 0.19759439 0.23712032 -0.13993655 -0.36725384 -0.34342527 0.53388214 -0.436464 -0.43930018 -0.171744 0.7396308 0.10417601 0.08924375 0.49439347 0.520073 1.5998119 0.5734939 -0.09772495 -0.49762398 -0.013293098 -0.45872882 -0.73744047 -0.21953124 -0.44926092
65 0.57085174 -0.11181481 0.022272835 0.0049132593 0.29823744 -0.7249671 -0.012933572 0.08649129 -0.3796245 0.24877512 -0.14660308 -0.647477 0.45099154 0.087887555 0.5897928 0.28177974 0.19515784 0.09806734 -0.12965146 -0.25631958 0.36510116 -0.04620833 0.61566585 0.18112198 -0.03186674 0.3817788 -0.6906323 0.33510512 -0.10179551 -0.5811616 -0.04416472 0.61579406 -0.37733668 -0.10364928 -0.819028 0.10567733 0.5319439 1.0126654 0.2926127 0.2118014 0.15243104 0.1439906 -0.21975172 -0.9530637 -0.06974491 0.06321452 0.31250972 0.21961544 -0.44246694 0.88194895 -0.54591453 0.07385009 -0.27837482 0.45407438 0.7500089 1.2613475 0.013413897 -0.26263738 -0.7658001 0.075299226 0.5333777 0.27570912 0.15844898 0.94135976
66 0.95882237 -0.32191887 0.6167316 -0.15235816 0.17641568 0.1944999 -0.1737471 -0.5286149 -0.22102477 0.24616344 0.17620233 -0.37748873 -0.3539153 -0.47263312 -0.24567044 0.19774061 0.014890964 -0.87836725 -0.38685736 0.12949991 -0.085194334 -0.054310776 0.8718072 -0.19798785 0.5893402 0.3602029 -0.21135558 -0.9861725 -0.38573366 0.037994586 -0.14830016 0.81686985 -1.0236195 0.25647596 -0.34028783 -0.47993064 0.45397076 0.8888896 -0.23358427 -0.16128173 0.29281014 -0.07371804 -0.22405247 -0.12780611 0.46533844 -0.46853864 0.08914123 -0.09241044 -0.15372531 0.46772286 0.10662062 0.31399634 -0.17627858 -0.23990212 0.2980906 0.9950422 0.8516315 -0.026101245 -0.10473938 0.09852863 0.5461411 -0.7153762 0.43589854 0.0400533
0 0.21492532 0.12297751 -0.5010812 0.18842894 -0.040099286 -0.5736576 0.22903885 0.32635647 -0.66368586 -0.44435275 -0.45101127 -0.02521885 -0.48861554 -0.16431817 0.2604401 0.27671018 1.0419304 0.008696047 -0.10861393 0.529048 -0.071053065 -0.46482858 1.0951244 -0.6061754 -0.46666655 0.06739752 -0.42527574 -0.10903819 -0.06684226 -0.5829082 -0.0066396305 0.32078972 -0.89727455 -0.79381996 0.09905192 -0.039265867 0.31125554 0.3512622 0.52879703 0.6914179 -0.12552135 0.27054733 0.30691996 -0.6222657 -0.39921513 0.124560356 -0.065675 -0.78640175 -0.34106976 0.6403735 0.031708863 0.32408684 0.7490066 0.7484974 0.09523448 0.82585925 0.66613275 -0.049989887 0.23593247 0.4126517 -0.016570747 -0.06697853 0.027236987 -0.33201537
27 -0.04949823 -0.58087903 0.45715892 0.5787665 0.284444 -0.42520583 -0.14687286 0.11870823 0.20318715 -0.55120057 0.17431478 -0.8003808 -0.3110266 -0.29742265 0.17602482 0.7647868 -0.10695417 0.0013332396 0.49554572 0.67494094 -0.12187923 0.4494293 0.1409118 0.25030315 -0.107752 -0.11146708 -0.29150957 -0.18029375 0.09393733 -0.52632606 -0.06151275 0.30711818 -0.9612616 -0.62790567 0.12472107 -0.06626853 0.53747123 0.37508693 1.1026039 0.091384046 0.3516691 -0.21739551 0.353752 -0.349354 0.2929272 0.1874748 0.54737926 -0.42795253 0.7083764 0.3034845 -0.6086448 -0.1522708 -0.17064622 0.2986711 0.48845398 0.7993358 0.5488715 -0.027164854 -0.29987815 -0.44638288 0.74532264 -0.6695242 0.63074076 -0.19539122
33 0.040264014 0.8001937 0.24723724 0.249391 0.47044763 -0.6272083 0.6252261 -0.6649675 -0.5376954 0.32853904 0.7586247 0.0101886075 -0.21884134 -0.48440158 0.091669954 0.15751396 0.14896733 -0.09314374 -0.012612378 -0.13694455 -0.5760158 0.3464068 -0.052587118 0.50217026 -0.04520323 0.48008174 -0.5542375 -0.41131985 -0.3205177 -0.27772924 -0.2308866 -0.10220974 -0.54861706 -0.0831461 0.10071316 0.26171553 0.70221597 0.90478814 0.8581784 -0.11368335 -0.18985093 -0.21714087 0.18879828 -0.50435716 0.51093435 0.39505285 0.29732615 -0.09901132 -0.19751132 0.9317129 -0.38358113 0.77212507 0.29770473 -0.22484905 0.33952206 0.9903118 0.6320886 0.5193735 0.07675967 0.61759746 -0.342123 0.014741155 -0.3510209 -0.30420887
