80 64
46 0.04336848 0.021061983 0.21264061 0.44950888 -0.7356668 -0.6161175 0.5508248 -0.010092576 -0.14435476 -0.48403528 0.78697383 -0.47312436 -0.44138482 -0.14310072 -0.18916135 0.14741825 0.27880585 0.0729397 -0.39748287 0.010117647 0.024356883 0.31168985 0.31233105 -0.22635157 0.31412137 -0.19094895 -0.27209204 0.06843762 -0.079533085 -0.16842538 -0.3095171 -0.09996724 0.30328542 -0.6901899 0.016961714 -0.118109494 -0.25236776 -0.4285381 0.2580737 0.35259542 -0.12358369 0.27953205 -0.079235464 -0.19400334 -0.06469033 0.0554516 -0.079780504 0.12583844 0.06261282 0.5285884 -0.37166062 0.47365248 0.45082608 0.16485251 0.6863418 -0.17729771 0.18702258 -0.019840727 -0.16589196 0.82931125 0.019120168 -0.5541556 -0.069008425 -0.24054383
5 0.39538577 -0.16641316 0.5821068 0.16934027 -0.29348505 -0.35676244 0.69332546 0.12160232 -0.14513658 -0.5827916 0.9819806 -0.41177326 0.29856655 0.24124888 0.020504965 -0.22318658 -0.0040155197 0.3953656 0.050986998 0.033969108 0.021722166 0.44597074 -0.23548916 -0.454483 -0.19712998 0.41544247 -0.52858853 -0.1498224 0.25848633 0.24432974 -0.08424348 0.5763131 -0.10662001 -0.55373335 0.3851356 0.09079565 -0.4786306 -0.12954052 0.2418936 0.22573537 0.4613873 -0.006040305 -0.11427858 -0.19649358 -0.2460407 -0.5290197 0.007863252 -0.28860852 0.07007689 0.49503917 0.53098214 0.095516786 0.31766257 0.17255071 -0.11155353 0.35633826 0.06087798 0.29890722 -0.28472155 0.28377876 0.2010423 -0.42974 0.14475474 -0.46885988
10 0.106421396 0.34258786 0.43477806 -0.3089153 -0.11749337 -0.901002 0.18648991 -0.3083858 -0.13055214 -0.052341033 0.57010907 0.1760498 -0.24067174 -0.29994857 -0.37919092 -0.01161908 -0.20300376 -0.35581496 0.09414521 0.16257936 0.42804927 -0.23841678 0.26564083 -0.6222564 0.03729137 0.4683611 -0.34763795 0.24707893 0.2595123 0.11025511 0.31788847 0.33471385 -0.17364131 -0.42610636 0.112529054 -0.24425423 -0.27095893 0.3858718 0.1703076 0.034616552 0.1850184 0.09425106 -0.68529695 -0.7933528 0.5436817 0.019351028 0.41129595 0.07648386 -0.527272 0.62774867 -0.07167993 0.055379413 0.109412715 0.10327169 0.42765164 -0.028883137 0.23983517 0.040638834 -0.4497692 0.22110972 -0.24138571 -0.6079305 -0.10496805 0.083868615
51 0.10654381 0.29005772 0.36176184 -0.1871137 -0.019270528 -0.82473695 0.08243923 -0.47102264 -0.07846342 -0.1259309 0.31195626 0.011422227 -0.22640125 -0.24198107 -0.271409 -0.033330873 -0.1979168 -0.18164317 0.1600155 -0.07828154 0.41922212 0.03905549 0.5841913 -0.749171 0.2510968 0.544188 -0.5318496 0.37979543 0.3308253 0.1341546 0.16270472 0.2709157 -0.069714315 -0.48908278 0.31776294 -0.1636722 -0.31894863 0.39197487 0.02778577 -0.10021855 0.08723142 0.15029813 -0.71322346 -0.6271292 0.32189026 -0.037808746 0.4323965 -0.18660738 -0.43219602 0.5470555 -0.08758183 0.10227029 0.18721849 0.06180018 0.12148198 -0.05280125 0.040474024 0.06337199 -0.36088184 0.14477335 -0.18492101 -0.70651513 -0.24471281 -0.24038623
20 0.08014702 -0.3469449 0.19790739 0.18578269 0.2495786 -0.56637245 0.25940916 -0.40891224 0.18223394 -0.14201003 -0.110573135 0.034902226 -0.55227077 -0.86790085 0.0924681 0.31074235 0.2102247 -0.048131596 0.093466386 0.40400255 0.497002 0.5897238 0.48704436 0.294736 0.1264479 -0.19083017 -0.4523304 0.01122203 0.5473294 -0.39488757 -0.46121365 0.011164065 0.14540109 -0.02815607 -0.09114532 0.14718269 0.26173285 0.17987758 1.0617381 0.32642195 0.19307697 -0.14501953 0.1693346 -0.36182827 0.17000206 0.28036875 0.04587445 -0.33138117 -0.1596525 0.01888279 -0.13806659 0.3390504 0.42759907 0.28672194 0.013148597 0.86417335 0.31248322 -0.39527267 -0.057952013 -0.5535148 0.3990734 -0.29082486 0.4264534 0.46998867
15 0.158221 -0.00686558 0.35089532 0.3209443 -0.15413685 -0.089924194 0.44617188 -0.08655938 0.20922025 -0.53143805 0.24969906 -0.42636898 -0.9201874 -0.8452637 -0.45867825 0.36560938 0.31170437 0.05518665 -0.5852744 0.514488 0.2550034 0.3069131 0.64256287 -0.50414276 0.01254186 -0.15129451 -0.7267292 -0.0525337 0.31148222 -0.14077634 0.024240403 -0.022697954 0.116142824 -0.44783837 -0.42748415 -0.1575641 -0.32964763 0.68041724 0.3675372 0.0967919 -0.18575472 0.0919334 0.25097644 0.10256411 0.54776853 0.13396682 0.4882524 0.03833074 -0.47028345 0.10386726 -0.4497522 0.17946158 0.46802428 0.5349521 0.26325467 0.07963294 0.16479796 -0.053372078 -0.27579722 -0.14463452 0.08554884 -0.29086515 0.031428825 0.011305232
67 0.38026443 0.082141906 0.8287201 0.13456345 0.15958957 -0.45868522 -0.050547164 -0.4075894 -0.101392165 -0.3906106 0.5449561 -0.48679006 0.04837969 -0.16801734 0.15939067 0.40107566 -0.46283683 -0.19599056 -0.29563612 0.020574208 0.5499462 0.7834949 0.34470022 -0.38742414 -0.12966473 0.39989713 -0.4994743 -0.5283455 -0.5906852 -0.15566592 -0.008624829 -0.6213755 -1.1382426 -0.113317266 -0.045813713 0.031705674 -0.5263829 -0.12677535 0.5352819 0.62606347 0.18151861 0.22819655 -0.098058075 -0.8822278 -0.6295474 -0.3103587 0.010907692 -0.3147082 -0.024547407 -0.46617028 0.44394657 -0.1264772 -0.037908338 0.5263857 -0.11014149 1.020869 -0.12253034 -0.10498754 -0.38605022 0.61910194 0.49905512 -0.58940303 0.6770683 0.072768964
35 0.55685234 -0.22213537 0.2132144 0.120859675 0.5564519 -0.70383734 -0.124512486 -0.38824666 -0.85438013 -0.44465095 0.17325369 -0.51181006 0.23024316 -0.35153598 1.1637139 0.63014364 -0.03356325 -0.22817372 0.20728913 0.19296427 -0.042405866 0.8888068 0.044029433 0.18606015 -0.26979387 0.6375745 0.03653433 0.19752039 -0.0855181 0.262049 -0.023126991 -0.41906792 -0.31173277 -0.29085523 -0.6244584 -0.14688976 0.3862416 0.41962022 0.7365021 -0.4154438 -0.41076526 -0.28592655 0.29765952 -0.6883923 -0.083174996 -0.2614384 0.3001934 -0.5568546 0.12633571 0.51440305 0.18218738 -0.06622408 0.03773136 0.877384 0.62561274 0.16215253 0.28463385 -0.25253132 -0.6548191 0.0009432175 -0.18413737 -0.87107426 -0.32246542 -0.08085928
26 0.020650903 -0.62094754 0.2202149 -0.3133055 -0.34137583 -0.66003543 -0.036843814 -0.52545756 -0.36744568 -0.37855694 0.44428772 0.2276271 -0.10069948 -0.6479754 -0.07706186 0.05459087 0.1071815 0.32096478 0.3211507 -0.38878796 -0.038417447 0.63271105 0.5771947 0.32431406 0.047788214 0.8290504 -0.22470601 -0.29835498 0.4509014 -0.3067894 -0.8093792 0.04166899 -0.6075982 -0.30069676 -0.32251015 0.40671027 0.51127535 -0.012575117 1.2765852 -0.2504193 0.33405843 0.16215819 -0.3935415 -0.1960456 0.78665686 -0.07456175 -0.23067304 -0.5697252 0.29580158 -0.09348117 0.43853414 0.0020618013 0.22937451 0.32309923 -0.048598923 0.9096674 0.67222506 -0.14613958 -0.3350895 0.051889714 0.5434471 -0.34753612 0.0743302 0.72566766
9 -0.102438055 0.14256656 0.29072866 -0.025173474 0.109437555 -0.7365337 0.27115303 -0.4702917 -0.15357023 -0.50055933 0.4625645 0.28451458 -0.2700015 -0.11600645 -0.026632234 0.021444585 -0.34102282 -0.17415772 0.14058594 0.08089714 0.1660062 -0.11493929 0.45342967 -0.6744705 -0.07134911 0.2549711 -0.45824707 0.47510386 0.09460271 0.030255577 0.08640525 0.17708915 0.10171073 -0.6029649 0.7806134 -0.12912637 -0.18130429 0.4190703 -0.13341376 0.2301905 0.44187263 0.2699854 -0.7492381 -0.59488165 0.1587301 -0.3801608 0.45859912 -0.21866746 -0.3933114 0.5305849 -0.00029634062 0.050631747 0.46399352 0.26597875 0.31113282 0.24915734 0.18821956 0.25224155 -0.4775273 0.2036607 -0.31016687 -0.603516 -0.1691899 -0.017449617
52 0.32594106 0.14245102 0.5438471 -0.496358 -0.06802031 -0.7019456 -0.17168324 -0.5445732 -0.23705386 -0.33174703 0.3554293 0.07173866 -0.420145 -0.15309124 0.000853369 -0.06987701 -0.18719426 -0.5743574 0.022105051 0.053509016 0.29948395 -0.34250334 0.47784045 -0.6823596 0.1414763 0.3689153 -0.62347937 0.1438613 0.19100994 -0.1115234 0.26320475 0.4606814 -0.15233733 -0.47382978 0.42339104 -0.25278214 0.102477804 0.3461285 -0.15437455 0.06420006 -0.043968026 0.010074712 -0.49582016 -0.42126507 0.32698923 -0.12700094 0.44636744 -0.22836788 -0.4549864 0.52972907 -0.11795979 0.014454988 0.19182427 -0.03415347 0.22801052 0.3265053 0.30172428 0.10328971 -0.5981398 0.33702457 -0.31563628 -0.46893254 -0.004958742 0.11923678
25 0.21472916 -0.6310182 0.4261714 -0.27701235 -0.39740887 -0.699769 0.066815965 -0.4166321 -0.096479975 -0.19018917 0.32134408 0.2992525 0.07708112 -0.5598964 -0.18970652 0.11247757 -0.0027228713 0.33774534 0.21592456 -0.27250114 0.09546177 1.0818703 0.66326225 0.38675773 -0.124305725 0.7436683 -0.24526966 -0.111499816 0.34181872 -0.24701782 -0.8950046 0.214779 -0.59328175 -0.31409845 -0.40114683 0.31776807 0.6062837 0.026659083 1.0315077 -0.10959641 0.22772531 -0.003145633 -0.30574623 -0.23067828 0.706595 0.07573826 -0.23082481 -0.46853206 0.16847914 -0.07109643 0.051166926 0.2437323 0.20750254 0.32165414 -0.12275958 1.0003868 0.727819 -0.012167733 -0.30720046 -0.18335283 0.41614652 -0.2307654 0.027354544 0.6146671
64 0.33486754 -0.40342727 0.12534955 0.34710416 0.05950592 -0.5708495 0.15673994 0.30545166 -0.31516135 -0.34835193 -0.069496326 -0.5377189 -0.29319715 -0.02689708 -0.354157 0.44952798 0.53400224 0.13299234 0.57211256 0.13381171 0.09645352 0.4605803 0.38273126 -0.3280639 -0.60648453 0.47529072 -0.4985392 -0.42312878 -0.79058033 -0.6373841 -0.050236054 0.03723969 -1.3096248 -0.0023717678 0.75392795 0.16212945 0.49439222 0.13359064 0.8924445 -0.59793174 -0.42923373 0.43540075 0.314051 -0.4087429 0.07506535 -0.017442027 -0.19979863 0.052630458 -0.04561925 0.6273111 0.24615414 0.22455429 0.087631114 0.54794586 0.7711344 0.23535666 0.30983266 -0.27578607 -0.0581426 -0.3380215 0.3340074 -0.6987024 0.60827 -0.01013668
68 0.46640122 0.049258925 0.79928803 0.12061603 0.11333382 -0.17950661 0.3125376 -0.53399444 -0.25676176 -0.17525117 0.43508998 -0.4478127 0.015553085 -0.1011364 0.08751657 0.40040228 -0.35687938 0.014914921 -0.14028849 0.18016288 0.45310694 0.6715278 0.14250253 -0.27260804 -0.2587661 0.18735991 -0.42798105 -0.6497817 -0.4740861 -0.14475869 0.016783513 -0.4502954 -0.9756413 -0.23096998 -0.15064827 0.044727027 -0.5690929 0.018487703 0.43484637 0.57596534 0.43644905 0.3095899 -0.16952293 -1.1381812 -0.6423358 -0.5699673 -0.28633255 -0.4980612 0.019777825 -0.2794303 0.43691605 0.11691439 0.04833586 0.5407071 -0.059265915 0.9848367 -0.104409225 0.023337353 -0.32694414 0.5925183 0.5079454 -0.5961302 0.6838189 0.2588591
50 -0.051464014 0.5739832 0.31949157 -0.22253002 -0.5542041 -0.75658715 -0.22443154 -0.52391493 -0.18974051 -0.56300235 0.4931342 -0.043673996 -0.41144362 -0.34947133 -0.1833945 0.042585008 -0.023144074 -0.100941084 -0.2677983 0.23641078 -0.050133977 -0.10397456 0.6490568 -0.6202865 -0.0054534106 0.4338191 -0.42744026 0.10554534 0.17322087 -0.06252738 -0.10115556 0.6889058 -0.101544574 -0.6078902 0.12286524 -0.08611455 -0.21066238 0.27953926 0.22516862 -0.25671586 0.038956948 0.19014698 -0.69340795 -0.5634711 0.24720728 -0.027195716 0.45945925 0.18238531 -0.3648562 0.45498505 -0.039311085 -0.09038416 0.39030677 0.1219917 0.107933894 -0.2250885 0.32828122 0.28397986 -0.7004492 0.2715735 -0.29670152 -0.48796266 -0.15497375 -0.0873323
32 0.46075583 0.26263466 0.4362374 0.2867661 0.052035242 -0.89934313 -0.07185697 -0.46071535 -0.24757268 -0.4599969 -0.15015729 -0.21502292 -0.38574016 -0.692023 0.5936384 -0.047691524 0.099809155 -0.009166971 0.44806895 0.38563928 0.047081534 0.4427805 0.13791116 0.43687788 -0.108817145 -0.06859499 -0.6002734 0.15937884 0.43419895 0.0907122 -0.66200817 0.8146782 -0.28198618 0.38829374 0.37456083 -0.6433477 -0.37400034 0.41846794 1.0545648 0.298838 0.033994853 -0.24768718 0.55798566 -0.70442593 -0.49871668 0.15417172 -0.11693151 0.18367617 -0.050254975 0.29245645 0.07508053 -0.19856799 0.33020213 0.22205834 -0.062535286 0.6849404 0.25952584 -0.54580086 -0.2607873 -0.6081268 0.25473133 -0.64994013 1.1926928 0.04388973
11 -0.14847301 0.111313954 0.17208554 -0.032348804 -0.038001087 -0.68889505 0.01767334 -0.4229311 -0.041566312 -0.12836607 0.3157773 0.04872434 -0.3596621 -0.45866752 -0.010759377 0.04545084 -0.04758204 -0.41365167 -0.17288901 0.405879 0.4681554 -0.12623307 0.43913814 -0.84917057 -0.055867273 0.2995816 -0.8094987 0.28450286 0.3046069 -0.090319924 0.34524363 0.08767679 0.05615573 -0.52820516 0.29916164 0.066089876 -0.34733126 0.40505552 0.17648235 0.20972036 0.07008225 0.008727029 -0.49908665 -0.48247623 0.45302314 -0.41054392 0.43096158 -0.096713305 -0.61135644 0.580368 -0.13006955 0.44339305 0.2903484 0.16184522 0.59520274 0.20585231 0.4675462 -0.009605822 -0.37887135 0.10602063 -0.5735585 -0.3589328 -0.2581669 0.0151358815
69 0.33012477 -0.17980169 0.85762817 0.18007664 0.24011187 -0.35697323 0.24837461 -0.27226007 -0.082012355 -0.45309842 0.65180665 -0.67460304 0.062237896 -0.04684248 0.13206275 0.40636235 -0.23653856 -0.16127211 -0.009154113 0.06686617 0.42787248 0.8075487 0.23942855 -0.18918893 -0.5172903 0.29448053 -0.39830378 -0.4047751 -0.551257 -0.07577347 -0.22644645 -0.6365793 -0.9167647 -0.47287762 0.07536682 -0.18161166 -0.64518434 -0.27099964 0.4109434 0.4798037 0.5227716 -0.085374124 -0.38396502 -0.8569925 -0.6423171 -0.5018375 -0.073311195 -0.49111244 -0.011353052 -0.063887015 0.41121247 -0.10526789 0.019518213 0.54546607 -0.24464951 0.9552662 -0.13904588 -0.12867452 -0.08041614 0.51518035 0.42476615 -0.22475149 0.6449214 0.096217036
36 0.488276 -0.208387 0.04616185 0.043475695 0.28697762 -0.6063479 -0.051459055 -0.15010352 -0.72928727 -0.120746545 0.28586525 -0.40566784 0.04878365 0.10462705 1.214897 0.69775766 0.035459902 -0.16455507 0.075678654 0.2619531 0.09666736 0.78749406 0.19887453 0.11205728 -0.16592553 0.7247916 -0.04105681 0.15374227 -0.12857422 0.30107716 -0.17745121 -0.29335707 -0.17517409 -0.34074962 -0.849227 -0.34656048 0.543331 0.6898992 0.735241 -0.3416954 -0.40784743 -0.18125452 0.33338016 -0.8951812 -0.2541242 -0.22915663 0.2125426 -0.4094721 -0.007817827 0.54788953 0.21969785 -0.1061034 0.16683154 0.85118335 0.48868972 0.3797535 0.34966478 -0.069934815 -0.6551435 0.028280098 -0.047514744 -0.72996527 -0.19627772 -0.07600807
63 0.26516715 -0.22723784 0.1992953 0.23989797 -0.06619859 -0.48962173 0.10084776 0.39544162 -0.33371362 -0.018971931 -0.25953308 -0.3066296 -0.4110356 0.13824414 -0.28815135 0.45297626 0.4897505 0.037739806 0.56340414 0.00052363606 0.099450864 0.5810457 0.4833024 -0.28918526 -0.5129539 0.6689169 -0.7553313 -0.4539119 -0.6989852 -0.8011047 0.017781671 0.12785918 -1.033232 -0.22959156 0.750992 -0.06340339 0.35097435 0.090529054 0.80137366 -0.58815277 -0.50809544 0.42394853 0.42251408 -0.30852118 -0.18032812 -0.010514763 -0.15073393 -0.06539452 -0.06707477 0.6422522 0.3628955 0.19001839 -0.024143398 0.52932274 0.68697804 0.41201892 0.35210603 -0.47726464 -0.1352983 -0.15650861 0.28990185 -0.56352204 0.40955937 0.08070302
62 0.30762976 -0.1479438 0.21394613 0.17395958 0.037138514 -0.58367485 0.11732853 0.08871847 -0.53802323 -0.25940147 -0.16774806 -0.30715016 -0.2174074 0.050626677 -0.16306259 0.17351532 0.5495033 -0.008717022 0.72523093 0.2731082 0.06300666 0.6037141 0.47537634 -0.46697953 -0.5634108 0.4398839 -0.5719246 -0.5997714 -0.6522213 -0.6428402 0.029984143 0.24165031 -1.1754756 -0.056968085 0.75383466 0.1520061 0.6014774 0.06526944 0.45934469 -0.47803122 -0.47428524 0.30816907 0.3866664 -0.43339896 0.1291021 0.18804848 -0.41573226 -0.20265874 -0.2763303 0.54910123 0.13975072 0.18140048 0.22051795 0.5198923 0.6817846 0.17566796 0.14037332 -0.26138183 -0.12625116 -0.06329247 0.0932519 -0.543485 0.5206147 0.30203736
24 0.096518435 -0.71162426 0.34534 -0.26719832 -0.18615624 -0.67059904 0.033203006 -0.4586965 -0.3605397 -0.22171418 0.340517 0.29559237 -0.03969716 -0.4978851 -0.058210414 0.33005208 -0.001119197 0.3579775 0.2773489 -0.08511585 0.33148494 0.77007496 0.56778044 0.42212233 0.13260177 0.33457437 -0.13595778 -0.1289783 0.31814268 -0.19493565 -0.57325715 0.2487383 -0.27930176 -0.32594064 -0.1177826 0.18956065 0.46931335 -0.092393324 1.2984027 -0.15654108 0.05801759 0.20046766 -0.13456903 -0.049685124 0.5399664 0.004341245 0.063203864 -0.5612915 0.21926144 -0.07798554 0.16842915 0.101386644 0.5235587 0.27562323 -0.15315768 1.1192163 0.72085255 -0.011180968 -0.2746942 -0.25330108 0.603862 -0.1732322 0.23505916 0.8600367
1 0.5547214 -0.5444625 0.9789753 0.15721872 -0.0037918682 -0.9072951 0.7569879 0.27081987 -0.26044253 -0.25908905 0.7049672 -0.31607538 0.17288868 0.018256292 0.6029488 -0.12131957 0.18807359 0.29574808 0.7120854 0.06723224 0.34866336 0.6031572 -0.7680217 -0.051760115 -0.482585 0.12985165 -0.78168404 -0.25798696 0.32090455 0.1767585 -0.40540293 0.23652463 0.18277098 -0.30970734 0.7670023 0.07325878 0.261546 0.671445 0.41752923 0.19898768 0.13323593 0.48257622 0.4261841 -0.05577251 0.171476 -0.43462598 -0.22261949 -0.50143075 0.36330554 0.68943334 0.40125483 0.34719932 0.030829621 0.011895926 0.2639707 0.7771799 0.3005404 0.45742056 -0.22898243 0.10123069 0.3543532 -0.6374839 -0.12979142 -0.40038368
61 0.53912973 -0.3274351 0.18665896 0.031373776 -0.028475815 -0.5005234 0.23378848 0.16843659 -0.64383703 -0.33228564 -0.06542932 -0.368383 -0.41163388 0.028009985 -0.11876596 0.24044944 0.5491181 -0.23672676 0.87472296 0.06754808 0.16091995 0.46105748 0.47130373 -0.4440065 -0.46882477 0.5835596 -0.7055016 -0.3125411 -0.7254091 -0.74511784 0.013402101 0.2936995 -1.0028282 -0.16996543 0.6528766 -0.028934652 0.4152633 0.1595244 0.46125782 -0.59812474 -0.5589368 0.62480897 0.18389107 -0.5803396 -0.08193669 0.14033538 -0.16613804 -0.02305862 -0.123169705 0.47721812 0.0020080134 0.06515213 -0.11875322 0.32425946 0.36627814 0.35380328 0.21209954 -0.4779539 -0.07736987 -0.10193842 0.25840974 -0.18363796 0.30731922 0.24111146
31 0.4390807 -0.112472266 0.29310685 0.51809263 0.38941815 -0.83174926 -0.23700333 -0.31295875 -0.27685577 -0.32103348 -0.22582425 -0.4434897 -0.4066273 -0.7321734 0.3640939 0.02433245 -0.027039034 0.17618965 0.5356849 0.49142322 0.29729226 0.5268873 0.13665368 0.38146588 0.014322759 -0.09950929 -0.61776006 0.1501804 0.46719962 -0.0333953 -0.55892885 0.8367114 -0.116109826 0.16953647 0.2731245 -0.5019092 -0.13384625 0.43677425 0.9600633 0.5256166 -0.031056272 -0.30259687 0.3228855 -0.6127238 -0.48399585 0.20707913 -0.018951181 0.21817903 -0.097117625 0.33481878 -0.087266564 -0.0719818 0.38340974 0.31011042 -0.22119437 0.5659076 0.31919885 -0.513645 -0.41379118 -0.3327964 0.37826294 -0.38270265 1.0960268 0.06541461
60 0.416331 -0.25273225 0.43562004 -0.01077772 0.03719395 -0.59071666 0.061427634 0.066901945 -0.50233996 -0.26164922 -0.19117755 -0.28378895 -0.6446964 0.2118725 -0.106748946 0.2551932 0.29096615 -0.27039817 0.66955024 0.10908527 0.1627437 0.5591229 0.44380647 -0.20946315 -0.26678747 0.6234426 -0.75088483 -0.7065256 -0.4989571 -0.6333629 0.043418206 0.2704791 -0.96571475 -0.1811772 0.82362 -0.07270026 0.5272092 -0.032060962 0.07437056 -0.68464077 -0.5706646 0.22100374 0.294966 -0.35246179 0.21248356 0.21248625 -0.28531137 -0.34516016 -0.05579574 0.60815316 -0.07801536 -0.07791433 0.0039826147 0.3783243 0.50240195 0.38248333 -0.034251317 -0.5173052 -0.39302695 0.08133034 0.21448582 -0.39034292 0.48886752 0.294602
37 0.5210263 -0.2562791 0.043399427 0.28012326 0.42870393 -0.6069293 0.20020537 -0.03899914 -0.76399416 -0.23014012 0.10694512 -0.567818 0.10936894 -0.07341675 1.1084776 0.5503674 0.068285786 -0.51337224 0.004286339 -0.037137788 0.06532361 0.68356985 0.078019254 0.017607272 -0.076328605 0.42005935 0.15919004 0.19064513 0.12449844 0.2336284 -0.24495275 -0.1379541 -0.50659317 -0.2885576 -0.79376286 -0.119125955 0.22547783 0.47421965 0.62176263 -0.2788805 -0.28741542 -0.17760547 0.3711292 -0.71992475 -0.12439722 -0.18526962 0.13216531 -0.49575615 0.36695445 0.48505598 0.076345645 -0.21108688 0.16287324 0.79381555 0.77810097 0.15214825 0.47825268 -0.12096832 -0.71549755 0.17770438 0.025793005 -0.90667766 -0.24049023 0.15696578
40 0.4393018 -0.05014239 -0.013761118 0.049528856 -0.15688093 -0.6045556 0.36999592 0.24675645 -0.8071654 -0.11770081 0.41000202 -0.52313304 -0.07698409 -0.010047088 1.0108379 0.61126494 0.3669503 -0.5679632 -0.20710199 -0.060156062 -0.028756842 0.71246004 0.27384394 0.07048258 0.31326666 0.44283813 0.22613873 -0.2537082 0.13138564 0.13329732 -0.54449576 0.18024077 -0.5230518 -0.26453972 -0.81332916 -0.115985386 0.20453821 0.3959893 0.41334242 -0.10311974 -0.32932794 -0.14927913 0.36399704 -0.5903783 -0.2760297 0.2687316 0.16559705 0.03309125 0.41908172 0.55392635 -0.053561416 -0.12392421 0.30206376 0.81218237 0.4469146 0.0065817474 0.532329 0.10525426 -0.46171975 0.52651054 0.40130788 -0.7364486 0.047654822 0.03705845
23 0.37034592 -0.44229847 0.36748078 -0.06825722 0.051130753 -0.58844024 0.07292658 -0.37223926 0.028719852 -0.44802436 0.08567632 0.27699932 -0.08981698 -0.54757065 0.027624069 0.025721384 0.084218144 0.16912198 0.20109558 -0.18449996 0.40385774 0.85580546 0.65898204 0.23325886 0.13782759 0.4889221 -0.18340819 0.004165869 0.49492007 -0.29623407 -0.94342095 0.23803644 0.006913432 -0.08204001 -0.15293117 0.26383558 0.46272054 0.02097752 1.1458259 0.14836092 0.033889238 0.24285804 -0.12570769 -0.09224036 0.36059412 0.3075818 -0.1046045 -0.54784745 0.06303082 -0.1870436 0.35089642 0.3224765 0.40564167 0.39711437 -0.050306924 0.9014048 0.66726154 -0.39817017 -0.30761927 -0.34084487 0.49253216 -0.21084535 0.26874495 0.67782545
2 0.4160749 -0.21595752 0.9704683 0.37834415 0.2126654 -0.46406382 0.87587744 0.14677985 -0.3933943 -0.19563307 0.8322551 -0.2780487 0.0045457045 -0.119558536 0.44642058 -0.17314194 0.2507861 0.42569357 0.70399404 -0.16047865 0.18045083 0.7017451 -0.7895295 -0.11626321 -0.477955 0.31489417 -0.7492519 -0.236639 0.2719237 0.1833073 -0.23631407 0.04538718 0.15260197 -0.36608925 0.6590806 -0.08274982 0.21788393 0.47582898 0.43853435 0.1587278 0.35264453 0.10869703 0.17911018 -0.15030079 0.18946078 -0.3232515 -0.13782376 -0.38035718 0.099042 0.7269656 0.49951136 0.24056311 -0.032278433 -0.032542806 0.2669449 0.9083901 0.33681628 0.43904555 -0.1170049 0.21829554 0.249887 -0.52840865 -0.023605527 -0.45971197
22 0.16085203 -0.37391412 0.16537753 -0.034678835 0.10274005 -0.62196374 0.26783952 -0.5735519 -0.07056094 -0.23205438 0.040842414 0.13204798 -0.29001093 -0.6488139 -0.17920148 0.35284227 -0.12177731 -0.061642908 0.36108473 -0.23360065 0.46599567 0.927012 0.58825684 0.36696246 0.17899849 0.117724925 -0.29122064 -0.03343446 0.43374902 -0.06269354 -0.6446682 0.08167922 -0.079941735 -0.15926245 0.066826224 0.31108254 0.43349677 0.21739216 1.3586309 0.2427912 0.012456124 -0.07393959 0.035067275 -0.026952343 0.2603336 0.1380682 -0.13368413 -0.5468795 -0.083964854 -0.0726028 -0.13323013 0.30081096 0.45186564 0.26186922 -0.28149763 0.7055701 0.6391838 -0.13832353 -0.24239534 -0.37828174 0.35462445 -0.1620766 0.40218103 0.66912234
39 0.5251867 -0.42829418 -0.10583666 0.11444214 0.071908124 -0.8055093 0.30863145 0.2748924 -0.8308177 -0.0015067563 0.24296515 -0.48859498 -0.38242024 0.2301623 1.1076742 0.6691207 0.2040062 -0.4075796 -0.093020715 0.18891852 -0.0660283 0.56858104 0.14518042 0.041871756 0.21955134 0.46909997 0.08332054 0.12793355 0.13184308 0.21888575 -0.43602657 -0.069531985 -0.67995626 -0.2978639 -0.87481844 -0.19217908 0.12553541 0.28289083 0.62268555 -0.045839477 -0.4340922 -0.0183559 0.45925424 -0.56792474 -0.29160047 -0.007144462 -0.052340027 -0.34805995 0.35353997 0.3095379 -0.1031849 -0.19357407 0.49441722 0.73854905 0.39120415 0.03154347 0.49316636 -0.02386847 -0.5392823 0.43759662 0.1085865 -0.9013799 -0.20433392 0.1530274
21 -0.068236545 -0.37193173 0.31356242 -0.0013863267 0.18018544 -0.37088978 -0.016874477 -0.3201328 0.12739053 -0.4037992 -0.1302828 0.09105281 -0.4020084 -0.71396834 0.037749913 0.037000325 -0.028791586 0.08708154 0.32705155 0.10844711 0.5313129 0.6475821 0.6228837 0.22282569 0.08324134 0.013538926 -0.3202462 0.23929349 0.30293527 -0.05066412 -0.5842072 0.22300328 -0.085739434 -0.10885297 -0.17639273 -0.0050898 0.13870765 0.31768408 1.1441648 0.31822243 -0.018847533 0.13440527 0.07775253 -0.06879033 0.36423138 0.33713377 0.022338163 -0.36124536 0.24784707 -0.1528724 -0.18756379 0.5175248 0.42619097 0.4575042 0.032067705 1.0899974 0.5599269 -0.20371458 -0.12259517 -0.34000945 0.53171587 -0.29092905 0.4613513 0.54810196
59 0.6280259 -0.1124838 0.3352321 -0.15927494 0.07512704 -0.48320338 0.08259263 0.045804236 -0.66645855 -0.23570485 -0.14075147 -0.06485864 -0.4574749 0.07064416 -0.04093068 0.07731451 0.6609436 -0.4064467 0.9058247 0.048703983 0.41887906 0.46855015 0.43454316 -0.36735985 -0.5367398 0.4298821 -0.787462 -0.5495425 -0.48904186 -0.7505013 0.094656 0.48676112 -0.8821235 -0.109914914 0.32531682 -0.16862053 0.30698717 -0.07817253 0.17751089 -0.45922595 -0.754822 0.34728402 0.16938438 -0.5026453 0.04135459 0.13728885 -0.34403715 -0.27469638 -0.28251132 0.66752124 -0.115713656 -0.01635476 -0.06302057 0.2220117 0.26635528 0.53927004 -0.027765905 -0.24071337 -0.3616068 0.15999934 0.21892062 -0.22109951 0.18605159 0.4419676
44 0.110332526 0.12399941 0.14050479 0.20060097 -0.6810108 -0.56373274 0.5514535 0.17526509 -0.28377149 -0.1725799 0.5015531 -0.48255724 -0.37633482 0.01259307 0.21892558 0.1763427 0.7401047 -0.33656308 -0.4850743 0.03733785 -0.201447 0.39575005 0.11451858 -0.15548652 0.15859309 0.33172244 0.06027498 -0.027435351 0.16395836 -0.044107746 -0.6159239 0.18067071 -0.24577677 -0.56974286 -0.39080155 -0.3956285 -0.07780804 -0.064976715 0.53383404 0.056183323 -0.203207 -0.061300524 0.21360408 -0.13559587 -0.1140871 0.1709585 -0.13758422 0.45689818 0.23163633 0.49859735 -0.33477765 0.12104815 0.9129672 0.45951483 0.47504574 -0.15287055 0.41447577 0.07269114 -0.27385727 0.9555362 0.38728106 -0.760674 -0.061563883 -0.01833723
43 0.46242434 -0.18274754 -0.15661944 0.10059793 -0.6434867 -0.6033932 0.56502444 0.21798338 -0.4667536 -0.2946217 0.75859445 -0.5666225 -0.48297662 -0.044558596 0.4214766 0.5347916 0.44686064 -0.36718974 -0.24500735 0.037341278 -0.22532058 0.39732167 0.26027957 0.15460338 0.22296782 0.21051805 0.019013165 -0.17138317 0.100465834 0.14145236 -0.656714 0.17050983 -0.23236203 -0.5724425 -0.58724666 -0.26920822 -0.12035936 -0.13877502 0.58152574 0.097362876 -0.47827417 0.0012830611 0.22482067 -0.36796552 -0.09368522 0.20125401 -0.18606442 0.42892808 0.47671515 0.53343457 -0.018344363 -0.004992647 0.34205884 0.28649753 0.5428081 -0.3159065 0.5023976 0.034497093 -0.40149364 0.8152315 0.3074305 -0.67131424 0.1177225 -0.03151932
38 0.3331776 -0.3278775 0.028435053 0.118884645 0.32988903 -0.7670361 0.060418945 0.18770672 -0.88179886 -0.24813327 0.52072257 -0.2668203 -0.023595393 -0.023241783 1.1903149 0.58258337 0.28765315 -0.36576417 -0.028947147 -0.088477276 -0.13097835 0.8295469 0.12134321 0.08714172 0.27803808 0.5127216 0.021847926 0.07623881 -0.23959973 0.15385261 -0.38947517 -0.14815636 -0.3360031 -0.18977147 -0.84871745 -0.09081822 0.16461399 0.4394395 0.6665392 -0.22390914 -0.35221416 -0.123182476 0.33574036 -0.6411398 -0.21872789 0.08862015 0.25070593 -0.1961684 0.27880004 0.6162941 -0.25503683 -0.008074978 0.17374401 1.0819764 0.36271203 0.029741965 0.17053322 -0.00069409254 -0.526362 0.30087367 0.18774617 -0.8780229 -0.058552172 0.076713294
30 0.35208127 0.0849352 0.3401395 0.30228063 0.19282402 -0.65204966 0.104575984 -0.3745399 -0.114954785 -0.32715583 -0.19554792 -0.17801386 -0.48393112 -0.5410549 0.42223406 0.23092036 -0.12673315 0.13474439 0.3049924 0.59582376 0.24515197 0.8346115 0.2641308 0.1996983 -0.12049349 -0.28098097 -0.67660415 0.39243534 0.52771544 -0.056720298 -0.610987 0.66883713 -0.16634527 0.084234975 0.22504802 -0.55553085 -0.09235527 0.30482584 0.98650855 0.32702914 -0.039558735 -0.35596868 0.28982657 -0.38229215 -0.36684301 0.41671062 -0.028882738 0.09840201 0.094128974 0.26478344 -0.14337093 0.08684997 0.11257592 0.16821444 -0.23857494 0.6949569 0.32931033 -0.4009908 -0.24228045 -0.63294876 0.44637644 -0.5614384 0.9673027 0.37501556
29 0.031028373 -0.06890816 0.014525828 0.063301444 0.40373883 -0.7303452 0.08230647 -0.48632985 -0.23346756 -0.2870628 0.04608134 -0.30382738 -0.30222294 -0.82297176 0.20201628 0.05432399 0.20454042 0.0884548 0.56923705 0.5437054 0.5255777 0.66497517 0.4921058 0.5973745 0.18571986 -0.16429129 -0.761565 0.20350347 0.60435414 -0.27582088 -0.504838 0.35043645 -0.054972365 0.12421884 0.014956052 -0.29402858 -0.06982942 0.3491598 0.8991138 0.27640003 0.21351601 -0.09182949 0.3324014 -0.27513546 -0.23741421 0.2570832 -0.11670106 -0.095655434 0.1698039 0.020215286 -0.22665195 0.09483032 0.4644389 0.28548497 -0.014476896 0.69603443 0.27460742 -0.5621466 -0.13430902 -0.46615908 0.43477738 -0.23572187 0.94728756 0.0985026
70 0.48668548 -0.35386273 0.8736024 0.14271952 0.08369169 -0.17631337 0.3388078 -0.28079635 -0.24910517 -0.46293646 0.6000056 -0.5896494 0.18393546 -0.024915606 0.027307432 0.22070996 -0.3056047 0.17268477 -0.20534585 0.17888142 0.5195078 0.85902566 0.0042575113 -0.26904663 -0.4800968 0.36948508 -0.57506144 -0.6303197 -0.33977836 -0.032821402 -0.3070993 -0.1808058 -0.5325699 -0.29950035 0.16047652 0.054630015 -0.59904444 -0.33244437 0.30838513 0.48096645 0.3980101 0.12828854 -0.21808566 -0.6562929 -0.72708744 -0.6451244 -0.13364802 -0.5239754 0.028626863 -0.26126212 0.53686374 0.06370826 0.1908841 0.5130302 -0.061782 0.48322397 -0.35894382 0.09671931 -0.30014294 0.2694448 0.40440112 -0.5675384 0.48299992 0.007804577
28 0.16731273 -0.24335 0.029521916 0.271859 0.22616671 -0.49799913 0.19112584 -0.6342605 -0.07776663 -0.20301673 -0.27109572 -0.20859501 -0.47537482 -0.9982239 0.16580975 0.093764514 -0.023425877 0.13879664 0.30003932 0.25821236 0.33082512 0.71867913 0.2690855 0.19826587 0.0025095646 -0.013427056 -0.40960342 0.2108589 0.53868735 -0.1850344 -0.43021536 0.08738989 -0.054276623 -0.12543304 0.1399258 -0.353817 -0.14868113 0.37465408 0.8875046 0.63026476 -0.15450434 -0.2243286 0.15126109 -0.12411729 0.16112427 0.32560503 -0.21080065 -0.17889456 -0.014905387 0.20198278 -0.35260785 0.17359611 0.39157936 0.4424563 -0.14484578 0.8783521 0.35072157 -0.63102216 -0.0917502 -0.5435482 0.52149504 -0.26214296 0.6390446 0.30892074
42 0.22128329 -0.14803734 0.09706001 0.33342394 -0.4883874 -0.68295455 0.45233977 0.23520833 -0.5113199 -0.21474582 0.5399633 -0.6148253 -0.28583744 0.01278822 0.61533797 0.5005649 0.65593904 -0.15641561 -0.33200234 0.07507966 -0.198126 0.6173988 0.36480114 -0.06660364 0.48669007 0.17577279 0.27880713 -0.16651005 0.14617158 0.11633421 -0.6438571 0.3201983 -0.37992963 -0.38274693 -0.65912485 -0.23698688 0.057216927 0.045905165 0.4583747 -0.16364798 -0.43223697 0.078011796 0.46594086 -0.4654901 -0.32074526 0.18548515 -0.14698865 0.14045039 0.2967254 0.4076911 -0.24628301 -0.21273558 0.5753594 0.42675588 0.51786804 0.09004728 0.23835975 0.10123349 -0.5170224 0.8543572 0.35429052 -0.6754184 -0.17870384 -0.061612543
57 0.6608997 -0.14782378 0.42500308 -0.42450747 0.124423504 -0.784206 0.00998798 -0.12416639 -0.7876245 -0.31312123 0.069416516 0.05572091 -0.61350554 0.11270404 0.11272847 0.09563676 0.32906076 -0.4635548 0.7195679 -0.019555988 0.27950338 0.35156503 0.4334097 -0.6816977 -0.23660836 0.67216146 -0.95430017 -0.47225326 -0.049261443 -0.46619684 -0.11061516 0.61563635 -0.7073674 -0.077074505 0.3379048 -0.10508448 0.03281329 0.15548737 -0.25898373 -0.48215732 -0.5939835 0.2557535 0.091554165 -0.45111015 0.14109996 0.22041155 -0.17576183 -0.58081377 -0.27137026 0.570362 -0.25799254 -0.24516883 -0.3043796 0.22795452 0.11651176 0.49006563 -0.12853841 -0.3669298 -0.51595974 0.104433104 0.06692284 0.05794551 0.18268129 0.4307076
16 0.37736678 -0.028763372 0.10244013 0.0306118 0.08007785 -0.34882957 0.21842837 -0.048836354 0.12887318 -0.42397448 0.433311 -0.584706 -0.76830566 -0.8645603 -0.61562717 0.48759425 0.07321515 0.041984312 -0.31517187 0.63871455 0.60639894 0.16283788 0.47905278 -0.5006723 -0.28381082 -0.1520375 -0.7562809 -0.075469844 0.2386223 -0.074760884 0.04334205 -0.22624345 0.2897906 -0.49121237 -0.4807309 -0.08370755 -0.081507474 0.44482744 0.749075 0.24852653 -0.2115723 -0.13775606 0.37626866 0.049091976 0.3497503 0.6473665 0.32257625 -0.011064617 -0.23768228 -0.12759696 -0.5554672 0.26269814 0.49520797 0.47820118 0.2938422 0.29717672 0.37153542 -0.07485079 -0.044027828 -0.32465428 0.4343258 -0.32304972 0.09527318 0.27076533
41 0.5732607 -0.148082 0.1978322 -0.025877243 -0.24352235 -0.80386347 0.43109283 0.23934774 -0.44999322 -0.41329205 0.47995496 -0.441899 -0.19018209 0.0829696 0.9297739 0.6343833 0.38924485 -0.3248747 -0.32392117 -0.04869815 -0.20311378 0.53311867 -0.17129193 0.07203795 0.13392185 0.3462812 0.17837843 -0.2795425 0.054617397 0.05062217 -0.6302743 0.10853002 -0.41207007 -0.2858513 -0.7877065 -0.22626328 0.031557627 0.117234185 0.7862618 -0.13760644 -0.58556587 0.029064596 0.28316543 -0.48253706 -0.19087197 0.06947904 -0.12491165 0.31095412 0.2677186 0.2916133 -0.30818143 -0.18902847 0.5754089 0.56954163 0.45993346 -0.15354122 0.4753276 -0.066735566 -0.49358276 0.6806604 0.23804064 -0.6269232 -0.10970999 -0.057436038
58 0.66081345 -0.24094275 0.34536076 -0.15187691 0.0147212045 -0.55397654 0.2799316 0.05137811 -0.91351354 -0.36965165 -0.00031859506 -0.052646153 -0.55521464 0.031318 0.032367095 0.042055774 0.16138667 -0.47540796 0.8287364 0.2556995 0.14589049 0.35238326 0.28970274 -0.3673924 -0.278666 0.58088577 -0.853909 -0.44223285 -0.4937805 -0.46701792 -0.053979415 0.3661006 -0.66616344 -0.025184443 0.4337347 -0.19427711 0.40520936 -0.06859433 -0.17333637 -0.5589677 -0.42163116 0.4731972 -0.006799413 -0.4490313 0.178784 0.24897586 -0.13031785 -0.19414385 -0.43489453 0.55968237 -0.22885361 -0.15357399 -0.16323973 0.28154594 0.38301903 0.6702239 0.015668428 -0.501799 -0.44664094 0.23732999 0.024793386 -0.17008525 0.40562445 0.6799392
3 0.31835684 -0.18329127 0.8631362 0.33862135 -0.30264646 -0.6603043 0.61226225 0.051817324 -0.2124567 -0.29623404 0.65902275 -0.53222984 0.27028534 -0.15322655 0.3071419 -0.0764403 0.23756309 0.41665873 0.6318699 0.2512294 0.17970231 0.5291823 -0.76493335 -0.20733003 -0.4191279 0.34210935 -0.75026345 -0.048540145 0.2514207 0.018542346 -0.22794844 0.025109662 0.15826513 -0.47780934 0.4593081 0.081836164 -0.13218085 0.33875898 0.25107685 0.20013905 0.30332 0.48811877 0.22086772 -0.09197218 0.16638757 -0.38903695 -0.19642659 -0.57297885 0.25661603 0.7332611 0.5411402 0.53454393 0.29111314 -0.092941 0.15210009 0.6341813 0.09886006 0.62982976 -0.16076194 0.30442443 0.26507035 -0.45757893 0.07076847 -0.4391683
45 0.077250116 -0.042575594 -0.108545914 0.04907604 -0.46958658 -0.541014 0.7608853 -0.05714012 0.020489395 -0.32879543 0.5771432 -0.560711 -0.2062697 -0.23187687 0.025873441 0.43115187 0.69158703 -0.35701212 -0.19523944 -0.0808531 -0.27459624 0.18438184 0.37239015 -0.2480706 0.3126614 0.14680214 -0.0163327 -0.23656665 0.31662068 0.17747578 -0.6155406 0.2503628 -0.17352346 -0.6472354 -0.26973227 -0.19645992 -0.4244453 -0.369193 0.48441827 0.04268465 -0.38097748 0.011622609 0.009614562 -0.22122477 -0.17002115 0.08264491 -0.12882297 0.29310834 0.19794796 0.4566248 -0.2964207 0.17688562 0.7266286 0.24335858 0.67157096 -0.114261925 0.213054 -0.013264733 -0.18332648 0.8648517 0.09444147 -0.56760085 0.054174293 -0.36038935
56 0.66603357 -0.073620245 0.31019703 -0.1850563 0.15702164 -0.5538587 0.061053846 -0.10835203 -0.6767063 -0.42024732 0.004412031 0.29550725 -0.53806376 -0.023072802 0.23390988 -0.094014294 0.070905976 -0.7372879 0.55169725 0.16421823 0.40574697 0.17704053 0.5160037 -0.4604537 -0.22281009 0.56549275 -1.0546578 -0.46512705 -0.18548153 -0.49515474 0.37697116 0.58026063 -0.6435931 -0.19747126 0.3460885 -0.2652986 0.17950627 0.0605523 -0.06407825 -0.48035428 -0.23360915 0.31411335 -0.1195801 -0.54931504 0.43277344 0.16748348 0.1003569 -0.20952134 -0.22220403 0.5972623 -0.34926483 -0.3283124 -0.01418041 0.14214109 0.025092335 0.562173 0.011916889 -0.1809835 -0.6661992 0.29009974 -0.13532424 -0.18811055 0.00043807647 0.6069002
17 0.37783113 0.020493846 0.3360352 0.15919732 0.052591015 -0.24192582 0.4072249 -0.24577914 0.2592063 -0.35208938 -0.027058095 -0.45704588 -0.31102332 -0.8332031 -0.29615504 0.503239 0.20087853 0.12042952 -0.16670036 0.55634916 0.51506025 0.45921206 0.57712156 -0.23493333 -0.23680566 -0.08364218 -0.71189666 -0.17723297 0.4910727 -0.17458661 -0.07217457 -0.24306886 0.33010125 -0.27223527 -0.32351416 -0.1451781 -0.2510597 0.45730445 0.7125815 0.23404618 -0.2321891 0.0025239063 0.47972175 0.071211055 0.4091993 0.5196849 0.42368364 -0.28112915 -0.45944482 -0.032694407 -0.64931315 0.28933862 0.58780295 0.6125833 0.4422761 0.74032044 0.028298229 -0.21755572 -0.01726511 -0.60815024 0.13845018 -0.15780427 0.35614356 0.17043677
6 0.3735218 -0.2713681 0.34692824 -0.027378364 0.07815131 -0.35678256 0.34313807 -0.22310989 -0.091875784 -0.3157241 0.90729606 0.03540588 0.07041757 -0.07016561 -0.13435248 0.021528795 0.0855717 0.2537963 0.1659231 0.03445176 -0.037499238 0.19587275 -0.058803104 -0.62719667 -0.42422503 0.30520612 -0.71981174 0.24876006 0.15009792 0.39170393 -0.22356427 0.12757547 0.19077194 -0.47316536 0.7546841 -0.24857987 -0.50797653 0.16699475 0.09945326 0.09221298 0.6789542 0.017520549 -0.40563682 -0.45205927 0.008789847 -0.39260632 0.239911 -0.48216724 0.22672583 0.54138297 0.56720364 0.02672871 0.25230432 0.26259378 0.015960962 0.12681493 0.08441896 0.50861967 -0.44114533 0.3927642 0.016380202 -0.45586592 0.19555221 -0.1655303
75 0.009238341 -0.19676115 0.6078798 0.16148406 -0.7842717 -0.4118326 0.8079667 -0.16055548 0.17199112 -0.6306327 0.7350506 -0.62166786 0.15159674 -0.090628155 -0.31765458 0.09421536 0.5174083 0.11072504 -0.06704154 0.30961922 0.16936797 0.3107973 0.11337148 -0.23958759 -0.060564384 0.20327431 -0.21644217 0.044075593 0.2584199 -0.06800187 -0.30652678 0.09065032 0.34182733 -0.5994408 0.32055235 -0.24852732 -0.14114024 -0.28647348 0.16750711 0.29040083 0.11767424 0.012488653 0.022828473 -0.19412775 -0.2558465 -0.47481516 -0.42165196 -0.05228657 0.4212204 0.599434 0.18726003 0.35572428 0.45803607 0.19835088 0.40380588 -0.17303056 -0.017508084 0.2898012 -0.23794991 0.6118601 0.38797757 -0.42932022 0.19537507 -0.39916286
76 0.105100594 -0.18123434 0.5575262 0.06541124 -0.40773043 -0.69709486 0.7472552 0.0682989 0.04032879 -0.3725885 0.8987097 -0.41947466 -0.26457375 -0.13845415 -0.41879568 0.20729464 0.55075395 0.19096178 -0.08157314 0.22901897 -0.0870616 0.25115266 0.16623302 -0.15442368 0.16935048 -0.090820104 -0.09077136 0.26747718 -0.08425968 0.04565586 -0.1898703 0.09031988 0.037464228 -0.94368976 0.2312122 -0.21942931 -0.40765974 -0.26222777 0.4600228 0.36995235 -0.0052453317 0.11809247 0.005597739 -0.104835674 -0.29332232 -0.1850492 0.01530182 -0.13829164 0.16390854 0.31321043 0.1443875 0.3632905 0.83756787 -0.03065467 0.5588565 -0.33949432 -0.05534151 0.075969465 -0.04145587 0.6530418 0.4646846 -0.28233436 -0.14105538 -0.3217815
7 0.25081554 -0.13247994 0.47968414 0.03048572 0.08543447 -0.31452143 0.41082898 -0.121584624 -0.2833982 -0.20932457 0.45667621 -0.013591204 0.14659323 0.12592298 -0.21929896 -0.15365842 -0.2659864 0.17413121 0.16439854 -0.07597108 0.071704544 0.13803585 0.14581536 -0.49537376 -0.58556986 0.56881094 -0.61564356 0.270335 0.38259688 0.36707097 -0.36403722 0.36080873 -0.06407807 -0.42075065 0.59427875 -0.38816968 -0.271991 0.25492936 -0.18995145 0.23288642 0.6928269 0.008260811 -0.71173424 -0.340432 -0.074123085 -0.5959031 0.5426326 -0.4273082 -0.30290967 0.71671623 0.3707989 0.087695226 0.39140466 0.26417005 0.062057808 0.22034307 0.34749597 0.4677888 -0.27241534 0.2207815 0.037922375 -0.88067627 0.041871805 -0.10530687
55 0.41780555 0.04449364 0.42303294 -0.55785704 0.037695326 -0.6878764 -0.05042185 -0.33515376 -0.69291455 -0.16085993 0.12567341 0.18654151 -0.590574 0.19813877 0.06555506 0.010488603 0.08763844 -0.601155 0.5841963 0.13517715 0.35436818 0.17353193 0.356557 -0.44248295 -0.034026023 0.68610483 -0.8073117 -0.15161467 -0.07135243 -0.42802355 0.0537412 0.66199833 -0.59889823 -0.04175436 0.35528108 -0.19188878 0.03208012 0.10831983 -0.18877986 -0.14175813 -0.4823027 0.22942841 -0.46494293 -0.6594002 0.4720615 -0.0050781188 0.36669615 -0.28419128 -0.61968607 0.5367637 -0.21134081 -0.20252974 -0.18112747 0.08981547 0.31058976 0.4150619 0.1494823 -0.33364162 -0.6544167 0.23061405 -0.20424086 -0.29190674 0.17623973 0.5091673
54 0.49403796 0.10343071 0.5501545 -0.4307193 0.0898749 -0.7698237 0.037869383 -0.30632043 -0.58043015 -0.34535736 0.18627219 0.3623158 -0.42415053 -0.30782473 0.027793502 -0.17895934 -0.26079425 -0.6209091 0.28412881 0.06811753 0.19529097 0.034868166 0.58659303 -0.6743092 0.015237964 0.58722234 -0.7410818 -0.083793186 0.18849769 -0.23677349 0.30761757 0.77861124 -0.61228156 -0.17935556 0.36780614 -0.19732569 0.0037988964 0.18080784 -0.18384406 -0.4033963 -0.20230798 0.14174862 -0.31542608 -0.7479477 0.20804149 0.14670984 0.034949735 -0.21925253 -0.51779646 0.60699475 -0.2564098 -0.11740474 0.0020307295 0.1597613 0.1757521 0.24865435 0.24400261 -0.3586434 -0.5816625 0.20291871 -0.4167874 -0.21896242 -0.16069846 0.5546966
72 0.44226408 -0.1160304 0.9599409 0.017698554 0.27192184 -0.26083016 0.32994506 -0.2428647 -0.045498375 -0.5998925 0.7492557 -0.61543685 0.21856855 0.19910054 -0.05849208 0.13900726 -0.042374324 0.4336408 -0.12501293 -0.06572541 0.22369054 0.7601456 0.13362138 -0.45236328 -0.29208001 0.26668277 -0.42058152 -0.2366425 -0.033617903 0.07814281 -0.17760392 -0.042067412 -0.29461628 -0.2851125 0.44416276 -0.2080442 -0.40771028 -0.3701044 0.16397521 0.3197488 0.34464583 0.05033971 -0.28740895 -0.6710407 -0.57492876 -0.7478221 -0.10070589 -0.4754216 0.09150288 0.08393256 0.5538772 0.28709477 0.31088015 0.17567986 -0.028030535 0.633435 0.0016245905 0.42802423 -0.053964376 0.4028543 0.19075522 -0.46424967 0.49262786 -0.27418587
48 0.39591852 0.5474431 0.11761408 0.082003735 -0.8373126 -0.91078013 0.07322511 -0.5732544 -0.49774808 -0.35440493 0.73726046 -0.39955914 -0.13855053 -0.27782276 -0.14680988 0.106293246 0.06005417 0.15881622 -0.57109076 0.17221354 -0.23557167 0.079752 0.6568428 -0.27256444 0.25444794 0.4097264 -0.3799898 -0.044216957 0.37621757 -0.13987374 -0.35494035 0.4453654 -0.18648876 -0.74284023 0.26622018 -0.36325413 -0.24615231 -0.32209054 0.26457787 0.13053457 -0.11906315 0.24184352 -0.4405117 -0.16624704 0.13070588 0.36781016 0.51666343 0.25440565 0.04669922 0.49193317 -0.12524955 -0.0090556005 0.29403585 -0.35968837 0.47949728 -0.17470911 0.17661102 0.014599458 -0.11126862 0.48495492 -0.15320677 -0.5208734 -0.14471878 -0.34452993
73 0.23780818 -0.045775924 0.8548564 0.18297628 0.1069928 -0.3190584 0.741004 -0.20992665 -0.24495646 -0.40195215 0.7900835 -0.38314813 0.25515282 0.11284798 -0.17771639 0.109179236 -0.13861422 0.3369622 -0.1757032 0.13803926 0.43248254 0.5939775 -0.2738884 -0.34103474 -0.68207103 0.36324576 -0.5198797 -0.19661513 -0.16163875 0.23067719 -0.45040208 0.0997443 -0.15073176 -0.3665686 0.46263063 -0.25429118 -0.3630037 -0.031025037 0.39485544 0.13045171 0.45135534 -0.027387265 -0.43613195 -0.28625306 -0.4288555 -0.5487606 0.030928234 -0.3413284 0.14178406 0.18140261 0.6816975 0.092478 0.24392693 0.29706627 -0.11274252 0.17379677 -0.11299464 0.35332856 -0.3597786 0.5562652 0.3150631 -0.36073902 0.31547758 -0.18800007
18 0.016887128 -0.10620093 0.12591517 0.27188897 0.11697975 -0.08787002 0.21438783 -0.39319465 0.23968999 -0.47438288 -0.032146815 -0.44786915 -0.76455295 -1.1276039 -0.30880815 0.5180575 0.08487439 0.027027382 0.06013062 0.40070346 0.6168692 0.62653613 0.26767594 -0.1153795 -0.30435452 -0.2433123 -0.73021936 -0.055834454 0.48996338 -0.25941923 -0.3880097 -0.26555395 0.28990573 -0.24342488 -0.23033114 -0.07305214 0.02183125 0.4310717 0.6029361 0.22806986 -0.15591925 -0.028411333 0.50300944 -0.090593845 0.43841702 0.42345512 0.30949792 -0.5223063 -0.06559199 -0.052372728 -0.31668192 0.20985991 0.41797522 0.53950524 0.23311411 0.61708796 0.45263234 -0.16951999 -0.13289504 -0.2951925 0.23828441 -0.10074721 0.35608 0.26769656
71 0.4966864 0.0490502 0.820302 0.035350546 0.03241617 -0.31974435 0.5848956 -0.38224542 0.02270726 -0.5271273 0.6954515 -0.6500135 0.2979779 0.030884355 -0.24985275 0.23772255 -0.1444084 0.44114387 -0.11272206 0.07921388 0.40641138 0.6532927 0.043544095 -0.30864567 -0.5372067 0.07217898 -0.32650012 -0.370283 -0.39507744 0.2265915 -0.06445413 0.048402026 -0.44501433 -0.3554156 0.20366181 -0.09158335 -0.35089818 -0.13259843 0.41892788 0.21520056 0.34258488 0.000428808 -0.33061886 -0.56365126 -0.62758666 -0.6539205 -0.09630049 -0.55877227 0.06430416 -0.020281035 0.56261086 -0.02414995 0.094925605 0.49308667 -0.24521802 0.7596811 -0.13981415 -0.040472195 -0.45521888 0.6180339 0.4586928 -0.34817848 0.46517956 -0.30275688
47 0.10960519 0.27386588 0.079224706 -0.23470488 -0.63733405 -0.57146287 0.112068735 -0.42770088 -0.4392787 -0.39910382 0.60918844 -0.35464182 -0.070241466 -0.23805566 -0.27311102 0.2801881 0.049796782 0.20705159 -0.46229696 0.22690651 -0.18595375 0.28962052 0.47500226 -0.42270616 0.39347872 0.04412567 -0.60604614 -0.05345844 0.25862756 -0.14824058 -0.42456838 0.17086565 -0.0954108 -0.47886145 0.11901749 -0.25609356 -0.47189495 -0.06989541 0.3102853 0.34398377 -0.1551592 0.42891756 -0.11518651 -0.2650725 0.069494665 0.23496443 0.12934984 0.3026058 0.1173 0.7193841 -0.04431933 0.2144202 0.5892565 -0.3903083 0.53512007 -0.3462239 0.33374688 0.026221694 -0.16553968 0.91539633 0.19409563 -0.3795286 -0.19052845 -0.3658896
74 0.1201352 -0.15133256 0.71119034 0.008373891 -0.4371031 -0.55135804 0.7674116 0.0007495052 -0.16917396 -0.44540396 0.7647318 -0.52579665 -0.052283265 -0.05188523 -0.24191642 0.027498962 0.5912013 0.49213216 0.015264515 0.027265709 -0.14259784 0.39841038 -0.3460963 -0.20983 -0.24064001 0.0034874475 -0.5116822 -0.05425646 0.12579195 0.17697017 -0.5461159 0.29043037 0.00080726034 -0.5217297 0.17589614 -0.3237695 -0.5332297 -0.2645988 0.19320881 0.1475936 0.38627213 0.23300293 -0.20389898 -0.32334694 -0.15812908 -0.5056773 -0.12312263 -0.34137452 0.07718683 0.2972496 0.21614888 0.2606812 0.3803489 0.17705818 0.16612142 -0.1803194 0.10159621 0.29827476 -0.22897607 0.5685254 0.06890765 -0.3466427 0.13359165 -0.5125976
14 0.096194215 -0.14129843 -0.036133397 -0.008533698 0.007594537 -0.17124988 -0.017980287 -0.16626264 -0.024384728 -0.3702093 0.29793456 -0.3113783 -0.6671368 -0.732012 -0.49491906 0.34392005 0.17961809 -0.08651341 -0.25806722 0.3130129 0.13469175 0.0724388 0.69977534 -0.73535717 -0.26234803 0.1864782 -1.079165 -0.33100483 0.36539018 -0.0006327491 -0.011055592 -0.32705426 0.22841966 -0.38212833 -0.3593652 0.014045459 -0.46866238 0.47710076 0.29920298 0.22375359 0.021667195 -0.12955384 0.17659797 -0.18814869 0.47084466 0.14199598 0.7578761 -0.2704604 -0.60604334 0.15414937 -0.668722 0.18053389 0.3507506 0.36843404 0.60487854 0.33661532 0.22712335 -0.09607782 -0.079959035 -0.10356553 0.07076669 -0.4876182 -0.35601446 0.13530537
79 0.05120625 0.020007083 0.029168965 0.08487243 -0.5825892 -0.22907768 0.34022775 -0.1002611 0.16560173 -0.4109588 0.41543922 -0.70059824 -0.8886248 -0.7745693 -0.49477538 0.36162454 0.39955685 0.06627822 -0.30386463 0.21558602 0.28107527 0.21851262 0.3052981 -0.44205517 0.03620416 -0.14067529 -0.7091733 -0.17150655 0.25018808 -0.21791257 0.10636612 -0.18594758 0.2312685 -0.83570075 -0.22964735 -0.06270467 -0.17794329 0.25715792 0.12386646 0.19565713 -0.32854682 -0.0038685508 0.17794248 -0.1037361 0.1911382 0.3304947 0.23668437 -0.0029674266 -0.3572457 0.12443605 -0.6535409 0.0021319566 0.7298104 0.39472148 0.59144026 0.15432014 0.046223212 -0.26638454 -0.19560574 0.045241024 0.5216211 -0.59966713 -0.3416178 -0.13297457
8 0.28212413 -0.09705428 0.27828944 -0.15443252 0.051674824 -0.5317238 0.13892232 -0.19105358 -0.11064182 -0.06519546 0.6098948 -0.06698659 -0.19949631 0.118973896 -0.0757645 -0.34037068 0.10766759 -0.049763188 0.17200245 -0.0055694655 0.28677288 0.05488034 0.1787237 -0.6492232 -0.19003801 0.49261045 -0.8398544 0.4584488 0.18020792 0.30975756 0.17800304 0.19726594 0.27209887 -0.5330047 0.6898895 -0.23699161 -0.3121145 0.23006809 0.050146803 -0.018468384 0.4590999 -0.2855487 -0.763085 -0.6047493 0.3065328 -0.51756305 0.50223446 -0.38079083 -0.036233842 0.6436932 0.1906946 0.26607516 0.19519491 0.18822701 -0.1519636 0.2856899 0.28837824 0.33605003 -0.29013067 0.24012116 -0.07099327 -0.7634458 -0.024793569 -0.21716721
4 0.3606076 -0.31068155 0.9795826 0.17618822 -0.11364427 -0.5542237 0.619199 0.01259779 0.079246394 -0.28263623 0.9367989 -0.52421284 0.0621567 -0.19781145 0.1639702 -0.022722058 0.10875215 0.3425024 0.35791522 -0.27963826 0.20210604 0.38447946 -0.4524014 -0.3398937 -0.30901122 0.30337006 -0.63633215 -0.15134205 0.2379813 0.30836704 -0.33794388 0.13470429 0.085201286 -0.45922416 0.52637297 0.03832556 -0.017828533 0.3324782 0.3065663 0.02108892 0.32357118 0.32813182 -0.0841473 -0.070094 -0.18987858 -0.36947462 -0.21527256 -0.21726663 0.0028344784 0.37200612 0.5308059 -0.039808244 0.17074537 -0.097401716 0.16340984 0.37173665 0.022282787 0.5790301 -0.33293086 0.33453745 0.2449822 -0.5456761 0.15453869 -0.7164835
13 0.033474393 -0.06263971 0.17419867 -0.030278662 -0.32248077 -0.399509 0.040583063 -0.29917884 0.017026229 -0.38924164 0.13343032 -0.11994545 -0.2898599 -0.88046885 -0.35108405 0.242858 0.04273708 -0.2907249 -0.2589872 0.4137963 0.37234867 -0.16875829 0.61413467 -1.0537723 0.09864698 0.5154958 -1.0499653 0.1463421 0.5027362 -0.059134163 0.31653926 -0.41540745 -0.07356525 -0.47818285 -0.16140276 -0.09005042 -0.30922586 0.5880126 0.25348032 0.2243235 0.20303565 -0.023607368 0.18107603 -0.15984152 0.56862444 0.10074112 0.4933198 -0.35307488 -0.47093165 -0.059306223 -0.41315278 0.19494748 0.26331735 0.8001326 0.6224221 0.13210613 0.33004323 -0.08294864 -0.2435068 -0.25315773 -0.32994512 -0.47006625 -0.26859513 0.09409262
19 0.12319142 -0.20363869 0.32875633 0.23898949 0.22883415 -0.42436606 0.19027337 -0.3191032 0.12740164 -0.19408113 -0.024362193 -0.089605674 -0.4758605 -0.9789331 -0.102916405 0.18555774 0.24331076 -0.120825715 0.30048746 0.4089002 0.5294385 0.82045573 0.66869104 0.18506128 0.052946884 -0.10510594 -0.5623521 0.10657642 0.36773857 -0.072603084 -0.21697709 -0.25125065 0.17061636 -0.19027889 -0.1600556 -0.1031698 -0.10278135 0.5407994 0.875822 0.5141406 -0.08912229 -0.18970047 0.3064996 0.119630605 0.2667283 -0.0051903767 -0.07312165 -0.16268845 -0.1829021 -0.07914392 -0.32574755 0.49742356 0.33827788 0.47191572 0.26021236 0.85042316 0.4130866 -0.5431238 -0.019021163 -0.54857355 0.44020727 -0.1900365 0.26197758 0.5626881
78 0.119935155 -0.0277905 0.6571531 0.31415525 -0.572809 -0.16230327 0.3787495 0.045830134 0.2416571 -0.45210493 0.5380746 -0.5688211 -0.6645879 -0.8563715 -0.58730906 0.3392915 0.23185882 -0.045196474 -0.24586867 0.4462361 0.0050464813 0.107455686 0.51766944 -0.25590628 -0.15250929 -0.20853043 -0.35695046 -0.16125335 0.11216928 -0.19802345 -0.10822018 -0.17866644 0.25883391 -0.831746 -0.335252 -0.27180117 -0.1674212 0.23574449 0.37958935 0.22401907 -0.39167172 -0.18156542 0.3442445 -0.08053751 0.1689109 0.2690816 0.30671835 0.23506945 -0.28761426 0.620191 -0.50769854 0.38706252 0.5914497 0.1417548 0.8135085 0.027672084 0.18591514 -0.009673742 0.074514806 0.31359035 0.3921369 -0.5189398 -0.1980918 -0.170739
49 0.24972558 0.062344294 -0.01507401 -0.020271473 -0.6120631 -0.79161817 -0.031730838 -0.50200045 -0.13445744 -0.5908625 0.55585796 -0.093987085 -0.11281587 -0.12840647 -0.34680542 0.11467914 -0.11857456 0.31360862 -0.4514036 -0.014039761 -0.109190345 -0.040388912 0.54429674 -0.6263971 0.2612367 0.3501989 -0.5430739 0.21066356 0.3446473 0.07782394 -0.2097744 0.62081987 -0.108125836 -0.44134128 0.30177355 -0.36770445 -0.22709778 -0.07172188 0.5599158 -0.016073413 -0.106245846 0.17269711 -0.38818952 -0.41035083 0.37721696 0.062447906 0.41964063 0.5173538 -0.37218767 0.41890585 -0.13966966 -0.29172027 0.41005713 -0.26445416 0.52758574 -0.21956883 0.41100478 -0.18560705 -0.6149292 0.5819228 -0.15721357 -0.67751235 -0.2561722 -0.28309464
53 0.15623705 0.21386446 0.31852153 -0.23231457 0.07418061 -0.99114764 -0.0054614907 -0.5427567 -0.4441255 -0.23381855 0.15304089 0.33392993 -0.38506246 0.004488272 0.16574964 -0.086331226 -0.044437923 -0.6653024 0.51798636 0.3114589 0.46033803 0.014249004 0.57866126 -0.6603142 -0.07450332 0.69441116 -0.7816854 0.06889642 0.15413395 -0.17777771 0.20164429 0.34550855 -0.22962019 -0.2838732 0.36476213 -0.18317205 -0.21398698 0.12124078 -0.07287283 -0.13542931 -0.07031344 0.19075812 -0.5632719 -0.6921347 0.5349751 -0.0071406807 0.2079386 -0.08163058 -0.5088029 0.4869488 -0.36997992 -0.23069635 0.04322597 0.032267388 0.06882119 0.24942651 -0.0027922478 0.012558485 -0.6891008 0.34282923 -0.27499783 -0.32989988 -0.19995865 0.3356719
12 -0.12800735 -0.06034809 0.056620732 -0.18220435 0.00880624 -0.6832728 0.10498326 -0.3634736 0.12247387 -0.50076604 0.39470458 -0.07291073 -0.40309343 -0.428828 -0.27481183 0.25152487 0.046301417 -0.3717372 -0.14477606 0.29241186 0.21941228 -0.2747735 0.6379615 -0.84221184 0.17251532 0.24711552 -0.8131261 0.06954795 0.37137866 -0.18543139 0.5261986 -0.083366126 0.0882407 -0.42399365 -0.060859494 0.12041267 -0.41877404 0.6891156 0.48149654 0.3586771 0.31205493 0.048649885 0.045743115 -0.4989813 0.70709884 -0.07147742 0.87197286 -0.41438055 -0.5237695 0.3441351 -0.42958713 0.09116858 0.15068755 0.43941417 0.48039475 -0.01611449 0.18085982 -0.1390733 -0.43230176 -0.31434095 -0.1949123 -0.49397674 -0.06973463 -0.1543602
77 0.17683305 0.20458056 0.039359633 0.2127386 -0.60483867 -0.34906384 0.640196 -0.083319 0.05908173 -0.34400788 0.6095585 -0.7614529 -0.65899223 -0.61088353 -0.3070951 0.40100676 0.6716172 -0.013304252 -0.42185572 0.24063845 0.15403327 0.41924337 0.46491247 -0.3093754 -0.015901437 -0.11689596 -0.24143584 -0.1821004 -0.024535943 -0.03812418 0.18874425 -0.38713652 0.22680001 -0.86420506 -0.10461047 -0.078259856 -0.17498112 0.06457664 0.4571672 0.35153773 -0.20075707 -0.04087209 -0.037453767 -0.017934427 0.1475398 -0.048600588 0.068568766 0.26067334 -0.14927849 0.37753934 -0.08814011 0.2827901 0.5109904 -0.08182468 0.8997027 -0.0467369 0.2578841 -0.19323273 -0.23217669 0.69317883 0.47468105 -0.34196967 -0.49724782 -0.09404252
66 0.41599393 0.23901516 0.598697 0.09406039 0.20207348 -0.4413675 0.1461487 -0.5529864 -0.50701594 -0.54734975 0.46705565 -0.6898465 -0.13844618 -0.012247682 0.20282632 0.5663839 -0.65672 0.0059238453 -0.31062794 0.06304673 0.487897 0.8741837 0.3989134 -0.38911945 0.026711924 0.25862315 -0.6027332 -0.8575759 -0.44325662 -0.23515154 0.052156657 -0.4741732 -1.3385016 -0.23576565 -0.38235468 0.16204035 -0.70220876 0.009266209 0.6477365 0.41279477 0.44646993 0.21012175 -0.1284749 -0.93456465 -0.6266629 -0.3084097 -0.113972075 -0.42247802 -0.0071642874 -0.34024704 0.40264067 0.05581455 -0.10440477 0.46166933 -0.14307128 0.98151714 -0.12091995 -0.16669327 -0.038985133 0.4621664 0.338248 -0.28435582 0.66380453 0.1261031
34 0.4412278 -0.2364639 0.1957563 0.22932726 0.5031225 -0.60305196 -0.16908775 -0.27492723 -0.78871536 -0.22459362 0.16547956 -0.49850821 0.3449461 -0.021899873 1.104055 0.5740449 -0.09766267 -0.09354412 0.07121317 -0.014353145 0.20182143 0.7753102 0.2174484 0.015747638 -0.2585683 0.54173213 -0.11567773 0.4089721 -0.18672496 0.11178314 -0.10406591 -0.23760897 -0.1924345 -0.3521586 -0.93874806 -0.30199367 0.49572667 0.7417248 0.7628851 -0.3689188 -0.28816506 -0.1393561 0.35413563 -0.9296121 -0.2496679 -0.2781157 0.2783472 -0.67433697 0.18162996 0.6787897 0.20363149 -0.1571975 -0.04352753 0.6261396 0.9043534 0.3432907 0.18839487 -0.09109495 -0.7632746 -0.12326853 0.053211328 -0.71764684 -0.23740542 0.15187843
27 0.23901176 -0.8387162 0.45172384 -0.2025993 -0.31115505 -0.74212146 -0.059271723 -0.57111955 -0.32709834 -0.1499603 0.34766167 0.47999823 -0.035760686 -0.68557185 -0.048111558 0.08934526 0.30248514 0.23947309 0.06671249 -0.1401525 -0.08343279 0.8424272 0.69893616 0.16014446 0.05263144 0.78218627 -0.078645006 -0.30558693 0.1087234 -0.10498791 -0.82527906 0.26935166 -0.6914921 -0.2657768 -0.3292148 0.19655667 0.6298919 -0.14614226 1.2283837 -0.028184064 0.28366446 0.082053214 -0.44961354 -0.18769488 0.727837 -0.17059714 -0.25466394 -0.3457718 0.14015178 0.045705285 0.38180792 0.17355706 0.08152194 0.13456498 -0.21697284 1.1013255 0.77588624 -0.0545747 -0.2435301 -0.16680269 0.598619 -0.47006264 -0.20907833 0.57685035
65 0.27426112 -0.24430616 -0.053167693 0.4273031 -0.15132914 -0.4355982 0.059333906 0.24241759 -0.40415323 -0.12344592 -0.24607398 -0.35805017 -0.24642535 -0.013682755 -0.13079949 0.42141533 0.70894265 0.2845004 0.45453626 0.035799094 0.015617188 0.7586791 0.57046175 -0.5759179 -0.6223566 0.45185074 -0.71563774 -0.57125837 -0.704732 -0.6857674 -0.070708364 0.13468885 -1.1848776 -0.346461 0.8286356 0.025262939 0.5300886 0.426059 0.9057531 -0.47532228 -0.39094922 0.40023825 0.4791049 -0.52624816 -0.05997897 0.046028495 -0.25674474 -0.14096157 0.020120842 0.526031 0.49187806 0.25984764 0.089152105 0.62948036 0.51577055 0.1721559 0.36772293 -0.3643258 0.077628545 -0.17167795 0.09373669 -0.45423132 0.48696378 -0.018406821
33 0.21093126 -0.06354701 0.30804214 0.3779937 0.07858278 -0.7609492 -0.29737315 -0.3216042 -0.24110135 -0.39357236 -0.22473167 -0.2648036 -0.37177914 -0.5538719 0.55107236 0.16559564 -0.032004178 0.09428451 0.6450629 0.54237753 0.109719224 0.54263616 0.009065008 0.3705911 0.11462176 -0.30086538 -0.8355074 0.1456948 0.55520374 -0.05885096 -0.5059426 0.9327686 -0.33270687 0.0793816 0.4530484 -0.6008415 -0.16340013 0.3964803 1.2587267 0.5016364 0.121335775 -0.38161662 0.46321872 -0.7580184 -0.5675658 0.20373714 0.028340967 0.08325851 0.07135586 0.23365939 -0.05664721 -0.24028309 0.09517524 0.24480668 -0.006563181 0.56569624 0.14882635 -0.48845854 -0.53962225 -0.2692879 0.3281048 -0.600343 1.0908277 0.0724452
0 0.3169942 -0.28690267 1.1027372 0.55882263 0.20154293 -0.7642334 1.086873 0.057411965 -0.336697 -0.32408315 0.59468955 -0.07407606 -0.04731814 -0.09964391 0.6392223 -0.16684836 0.31935838 0.24734508 0.8167718 0.107800916 0.27654627 0.6720449 -0.8145173 0.025042668 -0.16851935 0.5034211 -0.74811 -0.13234405 0.14509605 0.015730321 -0.30868334 -0.062415477 0.085770294 -0.25471464 0.80996424 0.0048835175 0.464491 0.8239402 0.4485108 0.12633018 0.21067125 0.34197485 0.5418079 -0.11031995 0.19918133 -0.339767 -0.14831273 -0.4889322 0.4548585 0.54907864 0.3751936 0.23473597 0.070629686 -0.026495306 0.21261965 1.0206411 0.1218821 0.48096985 -0.19834931 0.35001695 0.44694006 -0.5831249 -0.15575369 -0.47247246
