883 64
281 0.5596644 0.2905005 0.9085846 0.06094175 -0.5277882 -0.12658322 -0.18496363 -0.28793833 -0.18538608 0.00035693916 0.7955522 -0.36063054 -0.16600955 0.2907537 -0.16411175 -0.09767724 0.6629984 -0.13200922 -0.07776331 0.9992462 -0.41158247 -0.64677036 -0.10694493 -0.9788373 -0.02110292 0.5455592 -0.41191733 -0.45623636 0.10038175 -1.1290091 -0.56286806 0.34838548 0.100120604 -0.33347824 -0.020146733 -0.069938436 -0.22222029 -0.05704272 -0.47239825 1.2563528 -0.79712844 0.53044975 0.08612739 -0.39601755 0.8120596 0.3505318 0.21224259 -0.6610439 -0.2471436 0.3372605 0.7602328 0.0811875 -0.59343314 0.14641008 0.6164776 0.061037358 0.005140959 -0.31263947 -0.34563652 -0.1521182 0.15705815 -0.03061662 -0.38675445 -0.7656933
98 0.7697127 -0.2915713 -0.18627658 0.37023404 0.723739 -0.5081055 0.36969125 0.04864921 -0.16464612 0.038704984 0.84576285 -0.29428908 0.10146373 -0.4048999 -0.5312389 -0.5838798 -0.27647075 0.31227887 0.5066701 1.1885972 -0.6020341 1.1502106 0.16602762 -0.952795 -0.2503328 1.3159977 -0.8170669 -0.46955854 -0.038556542 -0.7153683 0.7581745 0.42426234 -0.31631008 -0.314956 -0.12407316 0.3638158 -0.6396553 -0.15246224 -0.5122329 0.008368656 -0.33640832 0.3664202 0.21900693 -0.44363356 0.18511342 -0.14558244 0.2197563 -0.6950103 0.24511082 0.45659116 0.5123587 0.79565036 0.4251434 0.9453872 -0.54284376 -0.26344165 -0.003818859 0.2704224 -0.0034828964 0.23517624 0.20077433 -0.47681645 0.12697347 0.023694612
351 -0.06352156 -0.2687381 -0.31019428 -0.20550042 -0.06300733 -0.9531792 0.15327351 0.041847598 -0.15929288 -0.44545805 0.1650733 -0.5204819 -0.69346976 0.07775539 0.00489951 -0.24275924 -0.29312938 -0.35625404 -0.054791022 1.4170974 0.17657143 0.27136937 -0.8020983 -1.6265333 0.30021948 0.06923582 0.14519344 0.2196856 0.714236 -0.7354362 -0.1775793 0.5637278 0.7005822 -0.3491161 -0.18057725 0.01313676 -0.17052221 -0.23017222 -0.59752035 0.30233252 -0.40462762 1.0198102 0.42032993 -0.108835034 0.79088104 0.24823081 0.46956402 -1.251965 0.0062335096 -0.24184287 0.57118934 0.39521474 -0.5704463 -0.13697717 -0.13706781 -0.31635717 -0.42557546 0.10526436 -0.59790593 -0.5479837 0.08798919 -0.34960067 -0.45966184 -0.15496244
68 0.5310963 -1.0554718 -0.28049612 0.3564465 0.11927212 -0.74455094 -0.8368082 0.48842064 -0.4179715 0.9518407 0.5942294 -1.0436833 -0.21724145 0.25302628 -0.046483874 0.036669645 -0.6098259 0.49765727 0.047387112 0.4123051 0.031765908 0.32804894 0.18872765 -1.416019 0.5698524 1.2635765 -1.4896337 -0.24754883 -0.15042919 -0.43104902 0.17795575 -0.09528732 0.9446047 -0.48647293 0.25615388 0.60763633 0.30805367 -0.1622515 0.2063583 -0.087991655 -0.70297706 -0.2808255 0.49861172 -0.2633887 0.57037103 0.15982512 0.12231454 -0.73282397 -0.17878847 1.0238233 0.584132 0.61386055 0.20662932 0.123416774 0.23307158 -0.029523844 -0.08822455 -1.1770728 -0.91986924 -0.32234958 -0.86729825 -0.50880915 0.26218334 -1.1803281
661 0.50722045 -0.014805208 -0.51613975 -0.40963027 0.5550928 -1.2480992 1.1913606 0.049643956 -1.1401359 1.3408555 1.0807848 -0.40550366 -0.9901234 0.7323569 0.10018313 0.57455957 0.44473773 0.2546913 -0.093711056 1.0600163 -0.07949382 0.37998465 -0.71912336 -0.71087307 0.27098703 0.36797076 -0.96622324 0.2705681 -0.13726828 -0.73455155 -0.24494797 0.377762 0.47491464 -0.4457413 -0.23746677 1.0333683 0.19917892 -0.42519623 0.2938171 0.4579105 0.15703963 0.480652 1.3840768 -0.6286597 0.32166687 0.38128537 -0.06717339 -0.1884214 0.56205183 -0.025688754 0.411856 0.3481318 0.46197024 -0.59053147 0.32848883 0.32720342 -0.26289284 0.018478911 -0.006777781 -0.1848642 -0.21157086 -1.0214589 -0.48599812 -0.2949601
417 0.5159063 -0.33696094 0.2510278 0.40421903 0.27587727 -0.46898136 0.19207586 0.04753152 -0.44194448 0.38312173 0.660317 -0.7505234 -1.3601289 -0.77118766 0.30756977 0.52872646 0.7260887 -0.42043164 -0.6618436 1.4838814 0.33491448 0.6517474 -0.12836687 -1.5367439 0.9774481 0.8996174 -0.8010953 -0.12242667 -1.0282779 -0.41170883 -0.31491596 0.19431773 -0.5335165 -1.0281802 -0.50290287 0.5410725 0.7283354 -0.42082042 0.121987484 0.2632121 -0.109889604 0.5822865 0.5100004 -0.15585917 0.8032586 -0.27876154 0.10300837 0.49883622 -0.5188099 0.11970793 0.40329266 -0.20327358 0.030483868 0.26161224 0.10927448 -0.4923885 -0.4336644 0.655202 -1.0265216 -0.03455638 -0.6923803 0.6379869 0.40503883 0.42179558
629 0.13387543 0.28353742 0.11392797 0.54110444 0.04013563 -0.19108962 -0.013709612 -0.18266065 -1.4250441 0.19750659 0.6963402 -0.9959737 -0.07177323 0.15677737 -0.6060004 -0.43295527 -1.0232753 -0.106422395 0.18599053 0.51723427 0.20088634 0.82632774 -0.7137652 -0.5494734 -0.73057294 0.5449918 -0.86843115 0.60903203 0.0890293 -0.17668283 -0.86126894 0.33290535 -0.19554044 -0.344774 -0.032994002 0.15404965 -0.05288452 -0.5515524 -0.15299655 0.012599554 -0.7484096 0.38742477 0.47203657 -0.072806545 0.5733025 -0.5374235 -0.09048654 0.047353864 -0.081994824 -0.4411136 0.4442725 -0.4333897 -0.12023963 0.6275229 -0.53462404 -0.22408924 -0.06702701 -0.94041157 -0.9775144 0.08480591 -0.46710962 -0.781502 0.03649249 -0.65198666
430 0.55162084 -0.46423176 -0.538439 0.24026805 0.38771325 -0.24100201 0.3468933 -0.6485411 0.08430657 0.77194124 0.17384219 -0.8022416 0.0022181976 -0.17367513 -0.56433505 0.09034449 -0.40931287 -0.80563664 -0.14164118 0.83953327 -0.4822562 -0.050711658 -0.5468448 -0.5159464 0.11208211 0.38915777 0.17892191 -0.06243497 0.056906827 -0.10485356 0.44628784 0.23555756 -0.053608105 -1.1881429 0.060557757 0.18927088 -0.6142033 -0.44348446 0.7633336 0.91907907 0.03863591 0.5853042 0.09859174 -0.33672363 1.0029056 -0.017062707 0.6139615 -0.23097637 -0.15457237 -0.06806896 1.3302574 0.059819978 -0.24494174 0.3940089 -0.6057257 -0.24697393 -0.2930914 -0.19727488 -0.26840797 0.5148072 -0.9819689 0.14698692 0.49304354 -1.0217062
188 0.33246502 0.35053954 -0.23500901 -0.2509166 0.828875 -0.6437023 -0.24251494 0.07019644 -0.8554394 -0.032019548 0.6164087 -0.35521525 -0.63705236 -0.2708598 -0.42838588 0.7823689 -0.6439624 -0.59689987 -0.04427376 1.1714461 0.67109823 0.14123307 -0.54940253 -0.86768705 0.17584266 -0.15923178 -0.93272334 -0.45357588 0.559428 -0.5812381 0.10602381 0.08076178 0.3499641 -0.24836813 0.11246566 0.3814645 -0.2407795 -0.5539165 -0.5346664 0.76886636 0.20788175 0.15102094 0.021566328 -0.046322033 0.62846446 -0.15584807 0.12663646 0.4427162 -0.007144183 0.8030211 0.320054 0.090927646 0.17342831 0.079889305 -0.40020812 0.033557765 -0.0225709 -0.9945754 0.88738143 0.5341257 0.21451254 -0.42873412 0.6265958 -0.23611872
741 -0.7492091 -0.54870504 0.2543472 0.33266553 0.5211242 -0.45435572 0.060676076 -0.29094225 -0.50230974 0.59551233 0.023553988 0.73432 -0.047497492 0.6625752 -0.16578086 -0.1619674 -0.46331704 -0.38671 0.1867491 1.0280458 -0.6468911 0.041845392 -0.7797873 -1.2033805 0.14029443 0.8094001 -0.647669 0.4020549 -0.31568062 0.0838364 -0.16419546 0.5000417 -0.020951295 -0.8878246 -0.10953622 0.47993964 0.41083708 -0.65588903 -0.35686225 0.5143315 0.32899278 0.1364938 0.21174534 -0.3019284 0.8494045 -0.43629265 0.43638834 -0.46502718 -0.09848493 0.957045 -0.47350892 -0.11259186 0.1401169 0.2680046 0.22706021 0.19391905 0.87531686 -0.2489725 0.02625689 -0.3707909 -0.5140002 -0.40366963 -0.17692313 -0.92814
728 0.45977065 0.50599337 0.74497044 0.25014424 -0.38764513 -0.12039619 0.1392458 -0.3149402 -0.36219862 -0.015066642 0.7632693 -0.47802705 -0.65396434 0.54988897 -0.17151532 0.07298701 0.80562735 -0.0032736743 0.01330402 0.55760556 -0.5849573 -0.8835575 -0.17062281 -0.7305209 -0.08863475 0.53930426 -0.43904033 -0.64791846 0.12695841 -0.93171316 -0.4941036 0.3387539 0.01732085 -0.071250655 -0.067660026 0.10429859 -0.31815043 -0.34677368 -0.59502935 0.99465185 -0.45004758 0.60425925 -0.2284048 -0.34119043 0.61532754 -0.063826144 0.073594026 -0.5103345 -0.34288993 0.71033025 0.8330759 0.2369562 -0.8051794 0.31055558 0.8517293 0.13105257 0.16761689 -0.5927038 -0.6015096 0.32068905 -0.10679617 -0.2765999 -0.3273575 -0.73562545
38 0.015895022 0.34436303 0.15527461 -0.64143896 -0.38894176 -0.53560686 0.16518095 -0.5252896 0.37582138 0.4689943 0.82515764 -0.31228355 -0.1427377 0.502791 -0.37727767 0.26637286 -0.076213785 -0.1639809 0.03653284 1.1076596 -0.39562598 -0.23794267 0.08795551 -0.8429287 -0.325191 0.6092068 -0.8615443 -0.41920963 0.026792206 -0.993297 -0.7495411 -0.11390907 -0.40886095 -0.64919364 0.5719509 0.3260831 0.7140451 -0.5615161 -0.009422945 0.57586205 -0.6787207 0.23527494 0.8475184 -0.9609446 1.0157751 0.20338258 -0.081743814 0.2586937 -0.17341192 -0.0060581476 0.7772034 0.5839085 -0.46541202 0.542778 -0.221595 0.6432966 0.20690706 -0.10002608 -0.01366965 -0.16264658 0.22311103 0.05094211 0.09621053 -0.09486208
159 -0.03902784 0.33766693 0.46591887 -0.82010025 -0.20028654 -0.561161 0.039815128 -0.31411818 0.3566268 0.38619187 0.838767 -0.08378876 -0.20471221 0.3878231 -0.2578316 0.081337355 -0.27154854 -0.18544687 -0.07234332 1.1337584 -0.1273865 -0.017124154 -0.37472662 -0.90904826 -0.42663383 0.7900519 -0.9361465 -0.22384626 0.17655933 -0.89708865 -0.58999914 -0.46050328 -0.74968064 -0.08156708 0.60439897 0.1947961 0.8769064 -0.47231904 -0.3005579 0.4073908 -0.6409439 0.13873228 0.5407033 -0.7552616 1.0841621 -0.09508556 -0.15564394 0.3047589 -0.2771092 0.15332821 0.47934735 0.6410567 -0.6073083 0.9696282 0.087049276 0.5869979 0.2083394 -0.03265086 -0.24096212 -0.2760219 0.39880416 -0.13233395 0.27897173 0.14207187
864 0.88482034 0.5075653 0.36299044 0.07394917 -0.46214706 -0.3785069 0.040126145 -0.23371053 -0.4079312 -0.13520207 0.534839 -0.48830575 -0.46909583 0.25931242 -0.27047 -0.26608196 0.36829928 0.030293949 -0.21046507 1.0042977 -0.34304664 -0.39805314 -0.31756625 -1.2687571 0.09401518 0.42418665 -0.32877678 -0.0075440374 0.09244561 -1.2136258 -0.5688828 0.58786964 0.53312606 -0.4847481 0.29087016 -0.13679059 -0.35660565 -0.11784717 -0.41118526 0.8417907 -0.7215785 0.6556357 0.017301844 -0.3253587 0.84457165 0.15478007 0.21044064 -0.88096875 -0.24137454 0.18688898 0.6620427 0.4944057 -0.7771537 -0.17925379 0.5616362 0.053506155 0.11561268 -0.26785016 -0.24901931 -0.171622 0.32961777 -0.16006993 -0.38902205 -0.69854265
46 0.07519919 0.7103111 0.016304472 -0.3279809 -0.7455551 -0.1391314 0.10727015 -0.5016144 0.4167558 0.24893552 1.028343 -0.057356946 -0.23097074 0.3650441 -0.0050678034 0.07354152 0.078187734 -0.04261291 -0.10097357 0.874062 -0.23645008 -0.043436736 -0.017356094 -1.0316844 -0.42796314 0.7069856 -1.0581865 -0.71722585 -0.11464991 -0.861986 -0.62714237 -0.22361659 -0.25031534 -0.7813673 0.63058126 0.17041753 0.55657846 -0.42320022 -0.25378954 0.8333328 -0.48000878 0.3003777 0.7864336 -0.5902635 0.8902719 0.111378685 -0.24033698 -0.34823042 -0.33432707 0.11356177 0.69500536 0.4193058 -0.4568174 0.7402833 0.053093717 0.6880527 -0.13007186 -0.11474396 -0.28326666 -0.4219161 0.22431631 0.16107112 0.4093001 -0.26349032
139 -0.24668434 0.1303483 0.53507507 -0.27994984 0.88558394 -1.6597286 0.08594905 -0.7707779 -0.2444872 0.20616293 0.6087097 -0.5057497 -0.021022944 -0.37022573 -0.19409882 0.54067 0.2880513 0.22449313 0.058409046 0.4098121 -0.12280129 -0.1293918 -0.090776 -0.7987517 -0.266461 0.30524525 -0.3187215 0.57124513 0.08447349 0.2635289 0.6956142 0.15331535 0.3231567 -0.8278801 -0.1636886 0.102666914 -0.24042091 0.2773762 -0.32880574 0.7026066 -0.60817075 0.8477863 1.0747372 -0.586511 -0.072956674 -1.0838488 -0.36850756 0.17495911 0.1586088 0.74195087 0.7066516 0.06881509 -0.41416436 0.032522533 0.047929745 -0.07472623 -0.05447145 -0.23175159 -0.631851 -0.25783896 -0.6058627 -0.40691516 0.12882406 -0.42766786
863 0.0779692 -0.40705004 0.24205513 0.17556661 0.71104056 -0.889515 0.48487586 -0.46669894 0.3378626 -0.067423165 0.6259056 -0.13480225 -0.5514179 -0.5253062 -0.16016325 0.1453618 0.01934544 -0.3157978 -0.7773051 0.49428558 0.19297516 0.011019314 -0.7555204 -0.6452183 -0.0046825726 0.55412036 -0.48528406 0.02636927 -0.048342288 -0.68643796 0.7864283 -0.031428702 -0.40877268 -0.119147904 0.10809902 1.0790187 0.80121166 -0.66097385 -0.17289253 1.0202247 -0.48911285 0.5922161 -0.18790767 -0.59626853 0.17774837 0.7415476 0.32218155 -0.7436586 0.49107844 0.54126 0.23217835 0.54264337 -0.50863343 -0.41445178 0.3571965 -0.019580465 0.4540686 0.64274114 0.08821873 0.7744485 -0.9203706 -0.17125723 0.21734135 -0.0525693
715 0.53334683 0.60030234 0.39262924 -0.10211135 -0.4928985 -0.3272992 -0.0820026 -0.6065121 -0.2415727 0.23912846 0.6738916 -0.57774764 -0.2520111 0.48668286 -0.044534992 -0.22184846 0.8732269 -0.2947283 0.007981226 0.8338776 -0.31390506 -0.36591494 0.05122279 -0.83921134 0.12045581 0.52742904 -0.7152362 -0.63295984 -0.21959922 -1.0850528 -0.96287596 0.040216185 -0.029512202 -0.33218643 0.27615508 0.050900117 -0.107673936 -0.18353236 -0.30392262 0.97343606 -0.8174478 0.48107985 0.4962951 -0.40602204 1.0110639 0.16083206 -0.01417818 -0.67538154 -0.5052194 0.56023306 0.5803223 0.3483105 -0.5011618 0.43228808 0.53988296 0.19588989 0.20241678 -0.26961443 -0.20689325 -0.20827945 0.059762985 0.060932986 -0.16789123 -0.38443333
457 0.28368083 -0.2374855 -0.74392945 0.045804325 0.22450447 0.23212676 -0.66957116 -0.62747365 -0.118452385 0.008519186 1.3594394 -0.22785701 0.017349374 -0.4374679 0.1849386 0.86701417 -0.027692528 -0.47416803 -0.51725686 0.19909106 0.039460674 0.6176639 0.003203588 -0.66645235 -0.958483 0.7001552 -0.9036068 -0.22360931 0.071117856 0.17146909 -0.29948735 0.25849843 -0.5051121 -0.9984254 -0.33726302 0.49775732 0.33875656 -0.5964729 -0.06545165 0.618623 -0.099467464 0.41201574 0.68144697 -0.41109064 -0.051964734 0.21250832 -0.038190447 -0.95013314 -0.669805 0.7191086 0.44820473 0.1385949 0.112111315 0.54690343 -0.0430038 1.047345 0.17296398 -0.3817493 -0.49389085 0.21260303 -0.05778668 0.12252171 -0.22906944 -0.7596903
275 -0.16677994 -0.2970827 0.30726126 0.42151937 0.7439743 -0.51653504 -0.19090788 0.1876648 -0.5280114 0.080584705 0.10133695 -0.078928955 -0.56952107 -0.37532812 0.16017666 0.4257578 0.112571776 -0.48898453 -0.2669864 1.2346938 -0.019942058 -0.010261486 -0.250927 -0.399863 0.036467124 0.80803394 -0.80700105 -0.09114923 0.29894856 -0.20368794 -0.4355957 0.20550305 -1.0616515 0.2097456 -0.16871288 -0.036441255 -0.3194571 0.1797209 -0.028560549 0.1981141 0.043769017 0.015218278 0.06854471 -0.59139246 0.3933134 0.21877873 0.3938182 0.40958795 0.23992617 0.69049096 1.1937476 0.7773153 -0.08590507 0.08053466 -0.034691922 -0.079554014 0.3234078 -0.39135766 -1.4976928 0.7975493 -0.37985188 -0.34880447 -0.7194015 -0.9378218
39 0.4709181 -0.13675116 0.17371388 -0.43003345 0.44433287 -0.8611671 -0.04521437 0.04071763 0.17376578 0.11722346 0.18826608 -1.0490018 0.096774995 0.031944904 0.3820857 -0.08239927 0.39212945 -0.12143149 0.04124651 0.45301694 -0.66522694 0.56770307 -1.1068865 -0.5187805 -0.37271044 0.30204165 -1.1133349 -0.5979124 0.17410226 0.073284015 -0.18026519 0.67630357 -0.9692184 -0.40066317 0.19063748 0.33898368 0.4723523 -0.20043848 -0.9785171 0.14624459 0.10161751 1.1673769 -0.47605821 -0.1360321 0.7957841 -0.10978333 0.3092202 -0.30217138 0.063000016 0.49217573 0.20300443 -0.15923716 0.88358355 -0.62961644 0.113383226 0.06329012 -0.483155 -0.13119785 -0.85013485 -0.21263038 -0.100534365 -0.0058237924 0.68055344 -0.34065735
114 0.6784136 -0.4370881 0.3242331 -0.22591627 1.1168607 -0.32454014 0.34436598 0.15565065 -0.05530279 -0.094604306 0.48074088 -1.0407943 -0.027588803 0.036541566 -0.10986009 0.050317578 0.3487657 0.6453842 -0.15036064 0.3496986 0.3077321 0.199098 -0.6567772 -0.84970206 0.10919528 0.28035283 -0.17713447 -0.26037228 -0.06186726 -0.023868872 0.029615521 0.52243537 -0.27004376 0.13498284 0.6942124 0.39205974 0.13844489 -1.5395155 -0.35155526 0.26464692 0.36554354 0.9027682 0.8540012 -0.1116147 1.0384147 0.2321303 0.38066468 0.08299452 0.07442533 0.25531733 0.18109013 0.3676668 0.5879791 -0.13317157 -0.36576018 0.286621 0.3185987 -0.4890213 -0.9002766 -0.60243076 0.082826376 0.46627542 0.25573018 -1.0377917
13 0.38172388 -0.576077 0.21415713 -0.5998643 0.6410794 -0.8383027 -0.15299971 0.1590786 0.14882693 -0.085622184 0.19588612 -1.2262584 0.14067234 0.32776576 0.0008576236 -0.21975535 0.0954366 0.13019787 -0.2023813 0.38175848 -0.40863734 0.36642003 -1.1927629 -0.29236615 -0.18698767 0.3904746 -0.9861714 -0.5817966 0.24927971 0.23433653 -0.3207738 0.7350625 -0.83994853 -0.5676558 0.5411198 0.67373276 0.115713745 -0.42297772 -1.1159694 -0.0023487746 0.07512741 1.0296401 -0.019339211 -0.096025005 0.6767967 -0.21740484 0.06710495 -0.3967562 0.43464467 0.30943504 0.36418277 0.10832965 0.65005726 -0.650841 0.1447622 0.13972403 -0.009468721 -0.36364204 -0.7151107 -0.3167984 0.108575106 0.2723603 0.4965776 -0.37898093
256 0.73799235 -0.23568565 -0.33673656 -0.3734618 0.6099719 -0.044505652 0.29880527 -0.09219385 0.09755125 0.88769954 0.948723 -0.16210382 -0.21689062 0.43902436 0.61041856 0.6400403 -0.41224375 0.17734401 -0.6814651 0.7858646 0.30213258 0.4823707 -0.72758836 -0.56720346 0.46778366 0.1223 -0.2593241 -0.08079862 -0.4589191 -0.31841123 -0.18878387 -0.07149451 -0.7100499 -1.0801295 -0.10488239 -0.55631506 0.19981562 -0.3954315 -0.91312283 0.6503893 0.18206203 0.29801065 0.60379755 -0.31817257 0.08142224 -0.37881288 0.27870196 -0.4558937 0.2551103 -0.060927577 0.26474118 0.26269263 -1.0232898 -0.055935662 -0.20825896 -0.8577658 0.74326 -0.73656136 -0.6923378 0.09896887 -0.20371169 -0.95755976 0.18305477 -0.15439025
229 0.17931813 0.21336246 -0.32505822 -0.41086507 1.0043017 -0.56087273 -0.2689204 0.13442136 -0.8871285 0.058699645 0.6961375 -0.7490667 -0.9685667 -0.10477044 -0.14501996 0.5832991 -0.46393147 -0.3626546 0.09366772 1.47796 0.7983966 0.3750526 -0.119833246 -0.70937514 0.062498976 -0.2810911 -0.9175345 -0.29371518 0.5460366 -0.69549036 0.38069633 -0.18904026 0.22380508 -0.0865012 -0.038254052 0.3857503 -0.1904234 -0.4477785 -0.40097365 1.0113949 -0.29526013 0.07505455 -0.48607656 -0.06842919 0.524857 0.03221236 -0.06699218 0.3915686 -0.12259131 0.6987578 0.31487477 -0.1049053 0.374983 0.09020797 -0.08282897 0.30019838 -0.1801179 -0.7742619 0.5802211 0.4235314 0.11311426 -0.08766274 0.67228454 -0.43228495
247 0.4306439 -0.39475006 0.6531728 -0.32193407 0.67050344 -0.4980778 0.0059897765 -0.045293376 -0.19863053 -0.010378822 0.52699596 -1.2407166 0.018870063 0.09820478 0.04128244 -0.14256956 0.22165112 0.4668513 0.2850758 0.2990435 -0.16982667 0.3398918 -0.8220944 -0.6830403 -0.035612594 0.18071415 -0.3423311 -0.856495 0.06389255 0.49945542 -0.005008501 0.2758274 -0.27813897 0.18965238 0.9742294 0.40582466 0.18920444 -1.4276243 -0.28984737 0.2596002 0.3512183 0.7521067 0.8682233 -0.13855803 0.701722 0.07807588 0.33974805 -0.4697186 0.28329933 0.44094002 0.020077806 0.63420665 0.6727559 -0.33455998 -0.29927158 0.1289875 0.024443012 -0.5178076 -0.9697068 -0.5262577 -0.21000816 0.30455542 0.3346679 -0.8640257
605 0.5701408 -0.3000433 0.488031 -0.49509364 0.85628885 -0.18350375 -0.12408086 0.015941404 -0.11577952 0.022482352 0.32650667 -1.4706255 0.2953475 0.07753528 -0.055915657 -0.097552694 0.49412078 0.27839074 0.121621065 0.4111532 -0.5088518 0.30383903 -1.1083993 -0.67774606 0.09166723 0.22458753 -0.5985767 -0.1860547 0.36046252 0.45794493 -0.26098424 0.217191 -0.70873415 0.12542048 0.53722566 0.40082458 0.16068847 -1.1452001 -0.72282225 0.0043440773 0.2794534 1.0690689 0.47442162 -0.45313168 0.76310754 0.18207043 0.54606915 -0.4572238 0.4952313 0.2783168 -0.023102207 0.19898723 0.45063224 -0.09998347 -0.10159766 0.2357923 0.054386258 -0.38096163 -0.8847069 -0.18272872 -0.14144568 0.5800136 0.37357086 -0.6357999
455 0.19133508 -0.76993686 0.13373454 0.6941337 -0.31254932 -0.4543427 0.679086 -0.61237574 -1.0427132 0.32938063 0.5286989 -1.5677569 -0.09891511 -1.0827898 0.30060497 0.36059713 -0.06729338 -0.27236828 -0.16936791 0.3090063 0.34176868 0.47965607 -0.67055327 -0.48769495 0.18774368 1.3104485 -0.1756443 0.09055276 0.27631113 -0.100743294 -0.33562842 0.28667307 -0.63195264 -0.56559944 -0.14881232 -0.13905917 0.51260746 -0.4557389 -0.60666174 0.789508 -0.24098901 -0.2811655 0.25438914 -0.083336554 0.915307 0.020638637 0.3166509 -0.18052953 0.13922785 1.2150635 0.56053966 0.55240875 -0.07503028 0.6584094 0.33744425 -0.34402376 0.65155315 -0.054000214 -0.26715288 -0.11501058 0.4993977 -0.09461503 1.0312366 -0.45303327
317 0.25713217 -0.2529208 0.45462102 0.38719425 0.81862396 -0.93870705 0.493335 -0.3929683 0.3856508 -0.18432985 0.62972844 0.19929036 -0.5515252 -0.9762361 0.12724613 0.18282254 -0.16378088 -0.3527311 -1.1706164 0.49497885 -0.33351713 0.46585593 -0.3566359 -0.60228777 0.9104854 1.0386308 -0.66012156 -0.49899846 0.11880287 -0.79023325 0.58466244 -0.19435214 0.055399526 -0.034323998 -0.044498574 0.9851207 0.7894455 -0.5143838 -0.07677178 0.9176075 -0.27242348 0.5810759 0.34398457 -0.9235775 0.23264448 0.81924725 0.21261455 -0.7197456 0.27577302 0.6640827 0.20604421 0.71114194 -0.48773953 -0.83005023 0.07492059 0.23741128 0.22200695 0.04905291 -0.04330601 0.09405072 -0.8169922 -0.30861172 0.7577053 -0.5084349
340 0.14922361 -0.24727789 0.28310803 0.10506432 0.45051202 -0.06764719 0.08627105 0.021303944 0.11762213 0.7373267 1.1019882 -0.14283869 -0.5406194 0.12722577 -0.042429868 -0.22237276 0.025596552 0.42868719 0.15693595 0.48490888 -0.37156853 1.1395699 -1.0796744 -0.54777175 -0.25302687 0.19728132 -0.044274356 0.6342911 0.9984233 -0.15646982 0.19441637 0.22866194 0.14282984 -0.59380573 0.105357334 0.56565 0.64135534 0.032999773 0.20502137 0.83462805 -0.49111906 0.32749802 0.51710147 -0.21436045 1.2119282 0.6855363 -0.10516279 -0.68407357 0.38841134 1.0076118 1.0780681 0.068713695 -0.116431974 -0.4280966 -1.0096123 0.26071903 0.5426129 -0.48414677 -0.4196439 0.7640975 0.80239266 -0.8951991 0.40482616 -0.6449887
656 -0.23622778 -0.49974638 -0.09498855 -0.11146261 0.049071644 -0.58749497 0.3937837 -0.8847651 -0.39849448 0.2633131 0.9293487 -0.49408984 -0.32119405 -0.20829861 -0.33562014 0.18918751 -0.9422962 -0.48685378 0.16874044 0.6533021 0.5255405 1.1306545 0.032026503 -0.5890667 -0.06397861 0.37874472 -0.6018098 -0.036853712 -0.20871978 -0.33307007 -0.07062186 -0.18284027 -0.12940204 -0.3295747 0.1615724 -0.29346222 -0.1717588 -0.1448527 -0.43886676 1.4576901 -0.31707588 0.06343484 -0.2547942 -0.82457286 1.0606961 0.5129188 -0.32556257 -0.27429238 -1.0051515 0.13183531 0.09379124 0.42024037 0.29145822 -0.7799521 -0.15493736 -0.32425222 0.23244767 0.4856298 -1.8747534 -0.24502738 -0.6730863 0.077746995 0.5339693 -0.24722926
799 0.7483158 -0.626521 0.5291617 -0.2512547 0.09550025 -0.8178242 0.3358531 -0.20105082 -0.6692761 0.636325 0.21628235 -0.69868886 -1.4585786 -0.30178258 -0.08377291 0.25629228 -0.23264204 0.169122 -0.18446606 0.64259434 -0.30803308 0.6118803 -0.31843108 -0.9867721 0.046111923 -0.14860708 -0.20834059 0.14717272 0.35998073 -0.5703556 0.33086666 -0.10843498 0.18652771 -0.16564439 0.06813498 0.3588632 0.42124173 -0.64385945 0.24326745 0.6679677 0.23469855 0.33043528 0.4938134 -0.76986086 0.22980453 0.16852902 -0.86060524 -0.7037428 -0.572917 0.14515355 0.39088938 0.20569408 0.16417553 1.5727338 -0.427437 0.22522251 1.2952062 -0.36729825 -0.302666 -0.044600014 -1.0286319 -0.54365176 -0.42085165 -0.5864197
96 0.014909516 -0.52585703 0.45837325 -0.56486714 0.7570422 -0.63906735 0.35005957 -0.24242583 -0.5964673 0.89176834 -0.4167813 -0.5040149 -0.6495259 0.15420558 0.41370565 0.889098 -0.16967633 0.0019007282 -0.6995574 0.35679832 0.11413502 0.73470336 -1.0405567 -1.2937611 -0.3501333 0.56304836 0.053196 0.41765925 0.09766689 -0.88531464 -0.7115043 0.10618159 -0.44028375 -0.4334487 0.44772166 -0.19237968 0.50582486 0.22145487 -0.028554631 1.2898705 -0.8215307 -0.23777352 0.63166857 0.5750019 0.60166466 0.33725676 0.25500187 -0.615874 0.01871615 0.22408691 0.2556152 -0.47765082 0.10961187 0.3293601 0.46993887 0.7950022 -0.4194149 -0.4426856 -0.97588056 -0.039011557 -0.70892626 -0.26022238 0.56964105 -0.43313164
740 -0.20303318 -0.4254821 0.3824275 -0.3934465 0.08424114 -0.35122007 0.6831686 -0.8444254 -0.96581227 0.8741623 0.40705362 -0.4577361 -0.07813052 0.32171038 -0.97592586 0.09508332 0.0386797 -0.5282285 -0.024256457 0.71911335 -0.11027964 0.53671026 -1.0111402 -1.0622122 -0.0025817435 0.07365598 -0.6233017 0.19464955 0.27678135 -0.83900535 -0.043372817 -0.3097166 -0.8449324 -1.087173 -0.04917615 0.028793253 -0.74836695 -0.68594426 -0.22263782 0.5148336 0.19245858 0.69508094 -0.066457525 -0.24111193 -0.85033137 0.36664805 -1.0358007 -0.4537574 0.14870147 0.5808865 0.33669963 0.42101488 -0.34581688 -0.0021790059 0.20308822 0.3321566 -0.3053236 0.23624487 -0.5126663 0.7555111 -0.046749506 -0.8206605 0.64694464 -0.55042523
645 0.33182737 -0.5860651 -0.20167796 -0.8437575 0.62434304 -0.8954748 0.22849804 -0.5973394 0.014457786 0.6676812 1.1182932 -0.8865584 0.2786382 -0.6604952 -0.4374375 -0.53480613 0.07475856 -0.7687168 0.110494226 1.1127033 -0.058387067 0.31198883 -0.90829426 -1.3571608 0.2562488 0.7751912 -0.32768166 0.27445573 -0.53349817 -0.06595569 0.017202284 -0.5023734 -0.58684385 -0.68433356 -0.2914127 0.33972296 0.5000105 -0.08068725 0.03851138 0.6001032 -0.2760698 -0.21559364 1.0377226 0.7411396 0.789366 0.57460934 -0.4951338 -0.58333874 -0.2938254 0.42811278 -0.30816662 0.13437697 0.4381612 -0.3916577 -0.35814643 -0.33259302 -0.09004312 -0.3925131 -0.276506 0.39089292 -0.024682052 -0.35362992 -0.85567087 -0.20070879
807 0.649978 -0.13645281 -0.060793325 0.8618088 1.1161706 -0.74863493 0.34246027 -0.04772264 -0.8059257 0.48292306 0.7764945 -0.74812245 -0.8051264 -0.10977049 0.50927603 0.17135471 0.15220739 -0.1876731 -0.06689389 -0.22456825 -1.2083825 0.58784485 -1.1044712 -0.7036303 0.30336043 0.16638094 -0.55565095 0.051518306 -0.66115624 -0.16084965 -0.121353365 0.20551413 -0.41868624 -0.37388965 0.022859186 0.84830797 -1.3201475 -0.9290918 0.045378674 0.13732171 -0.60249233 -0.4180819 0.5064578 0.27839097 0.84455204 -0.27044302 -0.116374195 -0.1913651 -0.12851296 0.913207 0.34523454 0.09139114 -0.098315105 -0.101813965 0.03596781 -0.12661903 0.51321363 -0.0064788805 -0.32809412 0.96448976 -0.41822764 -0.3824491 0.06506251 -0.062394693
435 0.36230588 -0.7985672 -0.088235654 -0.2462425 0.43008143 -0.49112245 -0.16896744 -0.61878747 -0.9786049 -0.43541387 1.4733069 -0.3854177 0.20235536 -0.31543696 0.4204618 0.17367087 -0.035784442 -0.2861488 0.51721025 0.6560825 -0.7556848 0.89554805 -0.7845162 -0.5365873 0.2891789 -0.27165028 -0.7971344 -0.63744354 -0.20718513 -0.43999982 -0.43667132 -0.11816546 0.45697907 -0.19971108 -0.808905 0.75763863 0.75836027 -0.5004568 -0.6572844 0.20689808 -0.4888721 0.09468523 -0.020771775 -0.18741453 0.94166255 0.17151716 0.59944266 0.15816419 0.033032767 0.12320657 0.9158798 0.27416322 -0.116705626 0.41726458 -0.30145484 -0.54126245 0.010208765 0.32943228 -0.04237148 0.4102369 -0.9080546 0.0013371736 -0.62975895 -1.2544575
684 0.37032896 -0.2150622 0.09448595 0.55792433 0.33153132 -0.7974555 -0.4367297 -0.0462003 -0.3224684 -0.36307853 0.85236216 -0.55262214 -0.107291445 -0.24999885 -0.23864728 -0.07493387 -0.14669111 -0.40130842 -0.6927197 1.506252 -0.81718254 0.4376014 0.3917194 -1.4446145 -0.4662721 -0.31210843 0.05251965 0.6583553 0.6207891 0.05691067 -0.20723799 0.45066285 -0.6689229 -0.65072846 0.15382178 0.011921018 0.3025585 -1.3833859 -0.1963504 0.42542988 -0.53922015 -0.80793804 0.49253818 -0.048962913 0.550419 0.15071268 -0.39118627 -0.12570794 -0.1505403 1.0129634 0.079703875 0.6119593 -0.749552 -0.12168478 -0.1274616 -0.22210625 -0.14342056 -0.019320589 -0.5759016 -0.37758797 -0.4792013 -0.9461183 0.8056418 -0.6357772
284 0.28262454 -0.1079247 0.15796483 -0.12804657 1.418757 -0.63662267 0.2500565 -0.07352549 -0.49815303 0.91131085 1.0457485 -0.22608477 0.29011083 0.09534333 0.6381826 0.029255157 -0.13248232 -0.42413315 -0.20742875 0.310338 0.1769862 0.15503936 -0.5903192 -0.8123372 0.25431052 0.9965022 -0.19626443 -0.42807207 0.82636154 0.09212447 0.17214449 0.44794485 -0.43489406 -0.4535488 -0.27543032 -0.6830693 -0.3686921 -0.064177 -1.186363 0.38499594 -0.6416382 -0.35901555 -0.14945212 0.5017567 0.9800944 -0.30226076 -0.41001415 -0.71911985 -0.2323269 0.5416904 0.89681524 0.8659168 -0.38080716 -0.4536592 -0.6104915 0.6115538 -0.3970052 0.60815966 0.010477954 -0.3642177 -0.41810653 -0.047788374 -0.08659807 -1.2050493
456 0.8629504 -0.114065744 0.3266243 -0.32608864 1.521868 0.027999466 0.56009513 -0.49420336 0.23067 0.33794874 0.6220093 0.47048196 -0.51568973 0.5210381 0.06350541 0.13920915 0.69711816 -0.15722866 -0.26309654 1.0383575 -0.7042117 0.22725134 0.049496096 -1.4986974 -0.066974625 -0.09584178 -0.9548767 -0.04280328 0.72042555 0.027534299 0.27241987 -0.52033883 0.13951859 -0.24344729 0.10179991 0.3160692 -0.054336917 -0.37371555 -0.7936664 0.90177095 -0.24340928 0.33204982 0.3596165 -0.24706958 0.958862 0.43672797 0.094597094 0.31152105 -1.1009538 0.39757225 0.46972057 -0.18858908 -0.14959319 -0.48488998 -0.72706795 -0.49945986 -0.37915298 0.4787183 -0.6772992 0.38779783 -0.85338646 -0.76000404 -0.38173327 0.060138278
225 0.25352708 -0.8145321 0.06585546 0.7337765 -0.32629365 -0.46369818 0.7508976 -0.6214749 -0.7843649 0.2460815 0.48268425 -1.5548271 -0.29888678 -1.1731869 0.24553287 0.44978002 -0.19356176 -0.22944798 -0.2122431 0.31605154 0.09439385 0.4500706 -0.43462688 -0.7009845 0.2584786 1.5070139 -0.24214794 0.42732793 0.51521397 -0.13855498 -0.2932299 0.0624177 -0.39217758 -0.59652036 0.027268488 -0.35119128 0.32852048 -0.3740689 -0.7917547 0.778078 -0.2028605 0.06509085 0.2727451 -0.08940047 0.82133853 -0.14994702 0.30015907 0.0694134 -0.053151835 1.0516024 0.47310412 0.28740615 -0.009181273 0.3593268 0.39223468 -0.18565719 0.7578413 -0.186385 -0.15100795 -0.055153415 0.5280168 -0.31140378 0.9825558 -0.6457286
59 -0.3423109 -0.39831427 0.15973872 0.43105626 0.8860059 0.09707876 0.07884406 -0.3370609 -0.88666147 0.57254577 0.62256575 -0.58792263 -0.5050054 -0.4793399 0.28939432 0.69673723 0.5596961 -0.5147458 0.706999 0.8654635 -0.52141297 0.07873875 -0.04461093 -0.78147763 0.039218232 0.18640621 0.20267655 0.07846936 0.61086905 -1.0967962 0.0981718 0.51381236 0.014787426 -0.8398738 -0.4817126 -0.19592002 0.015163722 -1.1464281 -0.46444023 0.63269556 -0.8477116 0.50498515 0.60632473 -1.0872412 0.65632623 0.15191112 0.31159395 -0.11369898 0.049475186 -0.35367024 -0.05806566 -0.028551325 0.48963886 -0.04463 -0.4199853 0.90045696 0.30814686 0.09295018 -1.0110263 0.874575 -0.52858275 -0.79081875 0.20608468 -0.020467259
635 -0.10698487 0.109286726 0.6674145 -0.11669269 0.01648618 -0.83836246 -0.24207614 -0.6437448 -0.29044265 0.6604382 0.6701459 -0.21265522 -0.54500824 -0.35581863 0.2182906 0.83995384 0.3516545 0.10254454 0.6230603 0.7238993 0.7696266 0.6630505 0.41411164 -1.1097952 -0.046306424 0.549498 -0.34594345 -0.37485904 0.32522124 -0.9396828 -0.30904582 0.81474435 -0.97472 0.31702706 -0.56098187 0.5681952 0.491745 -0.6068764 -1.4462075 0.47928107 0.090779215 0.0812946 0.6676084 0.154992 0.12559046 -0.16848084 -0.855996 -1.010217 0.27623588 0.39135814 0.12144367 0.28895405 0.14233355 0.1919578 -0.32918754 -0.6766187 -0.41687188 0.11666459 -0.827439 0.57629436 -0.5115675 0.14767706 0.17340901 -0.63550794
301 -0.04629423 -1.409393 0.63237983 0.11311049 1.1097872 0.11418462 -0.67660093 -0.4243048 -0.31019154 -0.62299496 0.84254515 -0.41371617 -0.15580039 -0.73171437 0.14227332 0.3002961 0.08505016 -0.48514867 0.07733806 0.4153767 -0.0008353136 0.4065524 -0.84177285 -0.9313074 -0.3694504 0.5278806 -0.8126512 0.15451032 -0.19472066 0.2537769 0.42055643 0.1718949 0.03986945 -0.44340998 -0.13817301 0.66149324 -0.39389026 -0.48038292 -0.48589057 1.0796604 -0.012407673 -0.030867096 0.012612045 0.05227742 0.49525708 0.2301703 -0.34159556 -1.3398821 -0.64541245 -0.050320607 0.55611414 -0.8601683 -0.5022032 0.94004035 0.079504736 -0.054378122 0.2528873 -0.3602353 -0.89924014 0.47987315 -0.046259902 -0.2320203 0.30085132 -0.21792747
801 -0.17607665 -0.46939784 -0.5150019 0.10389154 0.45174086 -0.71411026 0.1488496 0.13434212 -0.72010034 0.03937641 0.67732805 -1.4210973 -0.69592893 0.6684103 -0.09594342 0.45040756 0.28316176 -0.12905097 0.0018427635 1.4858875 -0.003640636 -0.3236987 -0.38700497 -0.52900106 -0.57051015 0.90661347 -0.5129532 -0.29514086 0.2747779 0.37040523 -0.08982948 -0.45526987 -0.38987616 -0.67912364 -0.5730538 -0.09006137 0.027564881 -0.7776476 -0.4932379 -0.056003485 -0.031426623 0.802515 -0.3808078 0.62605864 0.4954101 -0.70724446 -0.3003484 -0.5765669 -1.1020778 0.28092557 0.22976482 0.5765284 -0.10299545 0.6658682 -0.28466785 -0.35503337 0.5293033 0.74313635 -0.55847675 0.5720651 -0.6855856 -0.3011691 0.058272317 -0.07377061
103 -0.018080968 -0.5294871 -0.22018558 -0.058950044 -0.16880456 0.015651401 0.62196326 -0.31439498 -0.11330991 -0.11856193 0.728525 0.08653769 -0.8303673 -0.22352198 -0.25698522 0.58856654 -0.68763727 -0.41091558 0.4370796 0.76455164 0.3558182 0.30133188 -0.80162644 -0.71320426 0.33945054 0.16452911 -0.5445956 0.4674537 -0.21808106 -0.2949087 -0.6190405 -0.2921774 -0.2825407 -0.2807682 0.13464375 -0.046531364 0.1427561 -1.1018496 -0.4278304 1.3628799 -0.03500438 -0.05364675 -0.60770655 -0.17474547 1.556922 0.67310613 -0.7498738 -0.35198697 -0.5367078 0.10495723 -0.3161303 0.83092237 0.024879368 -0.31104285 0.06244021 -0.276534 0.124182515 -0.16328865 -1.5858777 0.16036263 -0.5507267 -0.28352016 0.46077135 -0.82987785
587 0.624786 0.093515374 -0.10886436 0.56217027 0.4820248 -0.32023042 -0.29858798 -0.2810509 -0.57281804 0.34491968 0.77665895 -0.14656243 0.4974497 0.7584729 0.41795605 -0.4399675 -0.10749688 -0.40669957 0.20787774 1.0169274 -0.06519216 0.35796082 -0.56406033 -0.8860014 -0.43148303 0.6299809 -0.877519 0.4698587 -0.6911579 -0.37576675 -0.31913197 -0.1175437 0.24051538 -0.3173982 -0.6220597 0.95271003 0.062264185 -0.9643664 -0.5850772 0.6470706 0.78950906 0.47849083 0.1082045 -0.046973366 0.5983432 -0.2300458 0.06516827 0.29085392 0.07029821 0.8181682 0.9806222 1.003966 -0.80899066 -0.52064174 -0.5324401 -0.261442 -0.30962345 0.15888202 -0.84800744 0.6851091 0.14067757 0.28549242 0.9007453 0.06770915
344 0.42658877 -0.28039023 0.20653227 -0.2034979 0.35164717 -0.65919596 -0.30967158 -1.1362116 -0.57955056 0.6301248 1.5512592 -0.8084267 -0.56857455 -0.72674894 -0.07560831 0.16066962 0.031912915 -1.0248706 0.106006116 0.86700606 -0.08006713 0.10649866 -0.10573323 -1.019809 0.08737405 0.7821959 -0.102201775 -0.2240274 0.40484396 0.59113955 -0.18914527 1.2114929 -0.11036846 -0.42045683 0.46066388 1.1771512 -0.10576006 -0.3845493 0.03970664 0.16237465 0.01895165 0.33455113 -0.14012131 0.18244022 0.16321567 0.4824588 0.002946923 0.2872016 -0.2059191 -0.5978064 0.61749876 0.34018883 0.013626063 -0.14876404 0.6688375 -0.118090585 0.19210567 0.7133721 -0.7905801 0.027265806 -0.1500076 -1.2303826 0.057377193 -0.593351
197 0.8420425 -0.3425189 0.6852767 -0.36475176 0.51612103 -0.008545581 0.33369622 -0.13511759 -0.90467936 0.7971495 0.2574425 -0.4640245 -0.4565387 -0.59738207 -0.13007279 0.082588114 -0.023984578 0.26009443 0.008609238 1.1298599 -0.3227909 0.9040183 -0.4814832 -0.77644694 -0.30978882 1.0750309 -0.37283507 -0.78028965 -0.059911646 -0.8390825 0.44524598 -0.6725016 0.7362762 -0.8294287 0.17145659 0.14731427 0.17227738 0.10110148 -0.8500273 -0.25227866 0.17985861 0.63874465 1.067206 0.079169884 0.18601923 -0.16374728 1.0636187 -0.49673343 0.005358192 1.0287708 0.9054 -0.030507946 0.07984824 0.50070155 -0.16878515 0.22072357 0.1827492 0.6052078 -0.585297 0.6949851 -0.15878755 -0.18905015 0.010783374 0.080287665
185 0.14410435 -0.58618975 0.73264235 -0.3904207 0.56529206 -0.5403195 0.46138564 -0.29042596 -0.5904633 0.8768259 -0.30579117 -0.3185007 -0.44561026 0.04953333 0.46585482 0.872508 -0.08577368 -0.031136174 -0.8388315 0.2456399 -0.14704561 0.8110337 -1.0912523 -1.1650447 -0.11852833 0.4256327 -0.086957596 0.29871225 0.26489043 -0.85573405 -0.86666864 0.09508716 -0.19991836 -0.32997453 0.24705079 -0.045197345 0.67087406 0.17509913 0.134439 1.0567428 -0.57658106 -0.27798876 0.98295456 0.63350725 0.6713674 0.2809657 0.2569851 -0.57463527 -0.22883242 0.20508644 0.3293008 -0.4580364 -0.16043676 0.04238989 0.38267094 0.7018224 -0.5156349 -0.27956265 -1.1427834 -0.014365992 -0.6955925 -0.29096127 0.64375556 -0.60678494
506 0.51927304 -0.09332501 0.9892912 -0.3267613 0.34712303 -0.14648855 -0.4673702 0.004468037 0.13668989 0.05189116 1.0926775 -0.2827901 -0.765931 0.1633422 0.5288909 1.1199496 -0.8227519 -0.0020880462 -0.40052563 0.5221351 -0.6623801 0.107456595 -0.37181854 -0.6022337 -0.2868113 0.8336239 -1.1594721 0.92101604 0.7198683 -0.7286449 0.2712905 -0.060745344 0.4652401 -0.13338201 0.108380735 0.30621967 -0.64921266 -0.6436446 -0.33800054 0.031941902 0.29387188 0.3008094 -0.02953632 -0.85855037 1.147532 -0.6126344 0.08937999 -0.82099086 0.04236396 0.6602093 -0.32171047 0.3616187 -0.29217684 0.19936799 -0.6980537 -0.25829816 0.20210393 0.29522794 -0.8975861 0.18476884 -0.17988516 -0.5981974 0.810149 0.03231209
11 0.30721664 -0.8860911 0.06033953 0.6050613 -0.25572884 -0.4393803 0.9486118 -0.58535546 -0.6875391 0.20668237 0.810425 -1.6118904 -0.3346224 -1.1059482 0.13777614 0.33759162 -0.065713294 -0.08841774 -0.09457123 0.3133914 0.24941306 0.3540011 -0.42230627 -0.6326671 0.05534841 1.4145609 -0.45638037 0.29365093 0.6293512 -0.15281048 -0.38526413 0.44720742 -0.427751 -0.54608583 0.075379014 -0.36349913 0.5750594 -0.4203204 -0.5505012 0.9567626 -0.124630034 -0.24473786 0.1285058 0.17037804 0.67055255 -0.2899239 0.10700372 -0.09891804 0.24247178 1.0396727 0.60581154 0.2849985 -0.22572033 0.3616677 0.15723865 -0.3436454 0.45402285 -0.019123407 -0.34219712 0.15166128 0.6112785 0.098569326 0.7850534 -0.31850937
89 -0.49243337 -0.4829185 0.17881371 -0.38168335 -0.015751185 -0.18458425 -0.4958972 -0.31142423 -0.5079004 0.25131348 0.49095345 -0.7752428 -1.2737931 -0.55025744 -0.29948366 0.3999308 0.0048694834 0.039020628 0.15796225 0.96059686 -0.7000603 0.58274007 -0.7911729 -0.46391645 -0.4781574 -0.066460885 -0.83959216 0.4107099 -0.37494454 -1.2783495 -0.36314887 -0.2856152 0.037245292 -1.122528 -0.2019876 0.5675365 -0.15917347 -0.6745928 0.41535503 0.3291757 0.2414582 0.052836727 0.72628236 -0.36711237 0.20126216 -0.03681256 0.94361925 -0.15306894 -0.27406347 0.15046753 0.38649502 0.6541367 0.38798565 0.1164918 0.5273879 -1.168598 0.5911942 -0.70779765 -0.8090956 0.08560667 0.123086974 0.17038164 0.7368699 -0.6218954
532 0.32763454 -1.0112718 -0.07481643 0.43489048 -0.36370102 -0.5271145 1.2535576 -0.5266182 -0.4020553 0.0825868 0.6146742 -1.4081147 -0.691598 -1.2482352 0.021085063 0.3712504 0.011202263 -0.0048683016 0.005089209 0.49284986 -0.05010904 0.17152233 -0.28561842 -0.99596184 0.13238668 1.389087 -0.4075465 0.45343283 0.6950593 0.16075704 -0.49185973 0.49224225 -0.38753256 -0.665732 0.21448429 -0.59123695 0.63084567 -0.41026846 -0.8568621 1.0616969 -0.07807406 -0.12785424 0.19895639 0.18101262 0.5567387 -0.5165556 0.095753945 -0.07886586 0.21883462 0.85645664 0.592397 -0.0037670108 -0.048512753 0.4290033 0.050084617 -0.11609624 0.35503986 -0.14627215 -0.27832285 0.3374882 0.39057803 -0.2309952 0.56296325 -0.42837524
862 -0.31031018 -0.79177105 0.74031603 0.34843946 0.225982 -0.85983133 0.271268 -0.44156623 0.10094847 0.064434566 0.384393 -0.8367367 -0.21165562 0.102057025 -0.40429437 0.045909043 0.4175767 0.7075695 0.3426775 1.2803396 0.0074762893 0.4422958 -1.232534 -0.66085845 0.7921113 0.10651151 -1.0942603 0.72205734 0.45675808 -1.0788308 -0.22187603 -0.004602072 -0.34931785 0.28346896 -0.26103052 0.2233141 -0.4898532 -0.62730694 -0.9964879 0.4516779 -0.26406258 -0.6514082 0.008080115 -0.47585058 0.2371023 -0.293762 0.4145363 -0.08733517 -1.1306155 0.48670614 1.0734276 -0.28389227 0.10408236 0.19881111 -0.55288464 0.3266055 0.22517318 -0.14498252 -0.52178353 -0.34515637 -0.6124774 -0.6323056 0.5701248 -0.22493489
638 0.041931298 0.17416522 -0.22726044 -0.7155656 -0.013599519 0.20035055 0.69483966 0.30580655 -0.3683693 0.27412045 1.4591908 -0.69214135 -0.67951757 -0.95049703 0.59765035 0.3455733 0.1534761 0.023054158 -0.1544429 0.7595379 0.18984228 0.0066151065 -1.0367908 -0.42253792 0.5164135 1.1192179 -0.7791601 -0.19703893 0.32663792 -0.33478782 1.0343978 0.07534627 -0.2358747 -0.28489977 0.8015887 0.2551765 -0.26443177 -0.11129557 -0.7473897 0.35998026 -1.3533831 0.6515405 0.101951845 -0.10595185 0.2359765 0.104273185 -0.32781023 -0.31848365 -0.46003452 0.09853779 0.17287908 -0.3603559 -0.008021801 0.30889422 -0.28310743 0.03311465 -0.22373968 -0.15533844 -1.2836165 0.2926509 -0.61293674 -0.39836168 -0.49888575 -0.5814391
366 -0.50950855 -0.7713127 0.1619284 0.46929565 0.51062495 0.40129393 -0.44288468 -0.024551146 -0.71656317 1.0190074 0.06895387 -0.6230256 -0.69515496 -0.015312801 0.16352712 0.44398096 -0.18637364 0.103122175 -0.57415116 0.4411743 -0.6083724 0.01009173 -0.06795877 -1.3258485 -0.14039797 0.9353118 -0.31522614 -0.4288251 0.13564315 -0.136712 -0.08894575 0.929073 0.11115654 0.019085838 -0.32213342 0.72187227 0.41159686 -1.0301338 -0.5225331 0.79372925 -0.3067638 1.1723775 0.047371898 0.08387194 0.39551735 -0.54977405 -0.16141047 -0.59134173 0.4745073 0.025642775 0.75714964 0.78313255 -0.21955916 0.43541232 -0.5497319 0.4810401 -0.111965306 -0.17195484 0.038545355 -0.27360833 -0.17185262 -0.8262541 1.2554383 0.095048666
143 -0.07294415 0.22252442 -0.71442413 0.38615602 0.8810538 -0.52240396 0.14320475 -1.1329278 -0.08092916 0.48267955 0.7273078 -0.22701609 -0.035828315 0.083078 -0.44584456 0.81254226 -0.90906763 -0.16870117 0.1297753 1.0174917 -0.63622063 -0.10037747 -0.5682253 -0.34264734 0.02989726 1.3329105 -0.012587083 0.24630381 0.2826114 -1.0512066 -0.27217475 0.28468418 -0.5877784 -0.05480339 -0.37104225 0.29280958 0.3489961 -0.6371008 -0.4864987 0.9281643 -1.1428442 0.0037250505 -0.25561047 0.69637346 0.391552 -0.5383977 0.5623851 -0.5685515 -0.6175364 0.43295673 0.3026617 0.10285967 0.28965387 -0.5654388 0.13438979 -0.25411192 -0.5531197 -0.17858246 -0.3807129 0.2878811 0.10139301 -1.2382703 0.3106997 -0.3023612
666 -0.49886337 -0.6865486 0.2843707 -0.22404873 -0.024411 -0.41970637 0.3542559 -0.8839702 -0.8669229 0.8364267 0.1878142 -0.6385272 -0.15950134 0.33597726 -1.0190226 0.10851992 -0.27097774 -0.49811834 -0.058710523 0.7151042 -0.009862301 0.56209356 -0.9507391 -0.90864515 0.23282301 0.1692432 -0.68176514 0.18224373 0.34181952 -0.7323937 -0.039114874 -0.1604826 -0.71311206 -1.1217929 0.20431009 0.111398675 -0.8601544 -0.6261714 -0.50235426 0.27654177 0.15208426 0.6038578 -0.020607974 0.039416168 -0.6729118 0.4994749 -1.0140944 -0.7270392 0.45495018 0.7355744 0.5357777 0.5411336 -0.45199752 0.19440828 0.16770767 0.32122645 -0.18030106 0.14673786 -0.65152967 0.56522924 0.06004424 -0.60313016 0.46938142 -0.54044837
36 0.22263399 -0.19591096 0.38024297 0.06899277 0.22885972 -0.5855064 -0.31371278 -0.23823194 0.373011 0.34835804 0.81342465 -0.41967383 -0.6293823 -0.9113966 0.2383366 0.7036433 -0.5280363 -0.18812698 -0.5933169 0.7887928 0.01825567 -0.5645337 -1.3983611 -1.3306345 -0.7981485 -0.07324388 -0.28475794 0.61290467 -0.66378087 -0.20635526 0.11611617 -0.5191342 -0.3071684 -0.12886235 0.3454982 0.5643795 0.4373498 -0.76114315 -0.871291 0.7440611 -0.6345142 0.8475358 0.23262487 0.077399276 0.1377433 0.19930382 0.39554965 -0.50909704 0.5418261 0.57291937 0.95112437 0.5154493 0.3087605 -0.16581278 0.170478 -0.27247453 0.43586725 0.86425954 0.06779781 1.0426245 -0.31084213 -0.14378984 0.14473046 -0.6131612
70 -0.05045846 -1.227276 0.76477176 0.01790811 1.1263156 -0.108943745 -0.41898406 -0.42940605 -0.15241356 -0.3582978 0.89126426 -0.26625976 0.056165416 -0.7312214 0.1493135 0.068111576 -0.13102604 -0.27375776 0.01705172 0.4921 0.21061467 0.34019944 -0.83557075 -1.0807133 -0.48658666 0.2514185 -0.6343138 0.068533406 -0.11480152 0.05589111 0.4977834 -0.13594475 0.18572171 -0.4684294 -0.2822715 0.77877116 -0.58514374 -0.8112117 -0.5688239 0.9784635 -0.15721044 -0.13530858 0.046938237 0.12542745 0.5703257 0.27727592 -0.39667338 -1.2986066 -0.5116553 -0.12860297 0.42428452 -0.9931146 -0.68422383 1.0685875 0.219749 -0.19057852 0.39171875 -0.3987546 -0.97933835 0.35824856 0.05921273 -0.15078239 0.41623682 -0.34384787
5 -0.33410645 -0.12958573 -0.10198888 -0.28976294 0.19218701 -0.30727172 0.16005045 -0.636366 0.09683591 0.00048453422 0.4460557 -0.81158715 -1.2110348 -0.811957 0.029471975 -0.25629237 -0.016417114 0.47159868 0.2200025 1.0496126 -0.80428547 0.901916 -0.35024726 -0.92162794 -0.63990545 -0.041810192 -1.2608515 0.012895658 0.02283155 -0.9309747 -0.5740791 0.18558188 0.04770187 -0.939158 -0.2232405 0.5599023 -0.05311332 -0.26957583 0.3691673 1.0004686 0.82807976 -0.13760342 0.6592481 -0.1438867 -0.08170041 0.07374619 0.43212306 -0.23105638 0.033956237 0.48499486 0.085264616 0.32464212 -0.2411909 -0.055082593 0.23089117 -1.1165234 0.23168816 -0.48173138 -0.6161001 0.35724407 -0.21091866 -0.077780694 0.19502522 -0.26042986
239 -0.31210032 -0.32223463 -0.31784913 -0.17614762 0.30000338 -0.79342943 0.22472592 0.21538688 -0.79823375 -0.053159807 0.7508876 -1.4156973 -0.5397656 0.4292671 -0.0026225222 0.65980136 0.48640618 -0.20143357 0.23444791 1.3682847 -0.12869321 -0.18531579 -0.1208785 -0.4395558 -0.53372484 0.79144704 -0.5503959 -0.2564355 -0.03251129 0.4309622 -0.10395678 -0.50791466 -0.24186361 -0.6692104 -0.66382384 0.042459883 -0.15473835 -0.75835484 -0.5396612 0.04298142 -0.1106428 0.57716495 -0.30520582 0.65404934 0.42154422 -0.5890907 -0.20162292 -0.6486174 -0.8905842 0.29806852 0.2552335 0.589013 -0.041666053 0.48105702 -0.3309845 -0.5322198 0.6902566 0.7827777 -0.6272812 0.5922267 -0.8715011 -0.30817166 0.27676752 -0.53251904
477 -0.4386772 -0.7369912 -0.089926556 -0.036072463 0.32196137 0.14943792 0.31340885 -0.10192066 -1.0943851 0.6673379 0.6518196 -0.2928294 -0.2897872 -0.6884383 -0.90890616 -0.53289306 0.20359312 0.0017336559 -0.043982282 1.2128092 0.09294771 0.37019995 -0.6225435 -0.20308381 -0.3848976 0.62353325 -0.27451375 -0.08637108 0.44705024 0.052866377 -0.11697995 0.021295395 0.22931507 -0.5216279 -1.0007616 0.84504664 0.48238373 -0.46654359 -1.0232757 0.60767144 -0.47995487 0.46626222 0.828735 -0.16889894 0.37017605 -0.3459871 0.31428337 0.1677571 0.023340637 0.5895289 0.048320625 1.4783318 -0.013576731 -0.77814627 0.7472357 0.19284843 -0.94034576 -0.256368 -0.3708935 0.078153 0.018776644 -0.38381836 0.08672348 -1.2495934
443 -0.108619906 -1.1143352 0.40691978 0.33238944 1.1957353 -0.050337587 -0.51603645 -0.41796917 -0.14404854 -0.46868435 0.9107228 -0.15780725 -0.051810957 -0.87095094 0.26700413 0.29020852 0.057303417 -0.4252306 -0.32948756 0.35168353 0.33922058 0.49336827 -0.70498157 -1.0790528 -0.33585098 0.38294652 -0.6707799 0.16022684 0.079513066 0.21435463 0.262374 -0.05704815 -0.00015956795 -0.5016077 -0.7136808 0.6347355 -0.5367545 -0.6815861 -0.5787302 0.8091449 0.07116445 0.04359243 -0.03595382 0.07921631 0.37260765 0.4483667 -0.11568833 -1.2199445 -0.65306973 0.08608281 0.5468998 -0.8756973 -0.43399662 0.9581192 0.02365101 -0.01620099 0.3385819 -0.455236 -1.1447378 0.48373547 0.020650866 0.010375341 0.25583005 -0.48418376
754 0.72541565 0.22905073 0.028963985 0.459917 0.56970316 -0.6342475 -0.08871547 -0.34330848 -0.7523398 0.5502528 0.7097286 -0.32864422 0.4725542 0.77834916 0.28701317 -0.3952121 -0.048680827 -0.4640101 -0.007975202 1.0513966 0.035736613 0.38564685 -0.24582916 -0.96999013 -0.18612592 0.8549787 -0.65608305 0.40029484 -0.60530496 -0.428835 -0.38955688 -0.00010487942 0.20294233 -0.15361297 -0.66675663 0.90741134 0.43788514 -0.8719648 -0.31521899 0.23781033 0.6913871 0.21006082 0.03161394 0.038158964 0.6138232 -0.06890865 0.007941792 0.007039006 -0.13645852 0.6648882 0.83303106 1.0604829 -0.86282873 -0.7948732 -0.60121214 -0.049386967 -0.35375774 0.11085447 -0.77283096 0.78722256 0.108087115 0.27903447 0.8705697 -0.14370258
814 0.31994513 -0.21773736 0.5166714 -0.11179895 0.17653236 -0.30779654 -0.21813521 -1.1465491 -0.3819398 0.57417804 1.3383497 -0.6463854 -0.5315637 -0.46964943 -0.026435688 0.22504725 -0.13731167 -0.94925207 0.07671539 0.929745 -0.16690816 -0.066109024 -0.3746194 -1.0701036 0.12035117 0.6740167 -0.3541066 -0.22154479 0.46830666 0.4155448 -0.24020731 1.3177454 0.0014635623 -0.55698305 0.18825851 1.2455026 0.016796313 -0.2959471 0.11824778 0.21357739 0.46927574 0.43050793 0.113820836 0.5431162 -0.053431872 0.39424908 0.18477468 0.19762631 -0.1345873 -0.2625711 0.55574596 0.26685318 0.14401402 -0.14067729 0.42605862 -0.3450403 0.4587974 0.76323175 -0.6945196 -0.18700081 -0.03172031 -1.1578538 -0.0042544883 -0.72668135
756 0.37527296 -0.5989296 -0.10783464 -1.0157404 0.72797 -1.1100795 0.30288684 -0.7325314 0.012646684 0.67681634 0.99178135 -0.6849395 0.16856381 -0.8790914 -0.30814284 -0.31069815 0.08843488 -0.5524016 0.25317404 1.1967438 0.02358778 0.2962808 -0.84969944 -0.8852749 0.42730322 0.5307049 -0.1896631 0.1464863 -0.32106578 -0.1382377 -0.08944511 -0.52688694 -0.8109688 -0.8258752 -0.20229748 0.357582 0.2556849 0.18589365 0.03780759 0.41453245 -0.36036822 -0.3402908 0.88582355 0.6130366 0.94399834 0.62487644 -0.27587423 -0.7282838 -0.2912522 0.70220906 -0.2635328 0.4086411 0.49007946 -0.13636267 -0.13200668 -0.21106596 -0.06282227 -0.53947586 -0.31423327 0.46289197 -0.064984426 -0.16718125 -0.7357294 -0.22822322
49 -0.024449592 -0.532324 0.38245898 0.32002422 1.0388324 -0.979234 0.6148007 -0.09443133 -1.092034 0.8805081 1.0155436 0.59681225 -0.6058024 -0.24171889 -0.49599987 0.43274185 0.054762844 -0.40572852 0.40457195 0.5794492 0.15058753 0.7136535 -0.36460125 -0.8388405 -0.35697052 -0.12529613 -0.9428395 -0.8753877 -0.21707931 -0.3852985 -0.17996414 -0.024590766 0.21031378 -0.035312936 0.16574733 0.15755732 0.78146267 -0.68571883 -0.07025299 0.7029377 -0.3793422 0.5398533 0.27672806 0.8181509 -0.23673719 -0.00414182 -0.014570462 -0.9636311 -1.019075 0.5270543 0.9431876 0.9227572 -0.3546598 0.012259817 0.59780437 -0.5894199 0.3207461 -0.2863298 -0.64227736 -0.30010527 0.40777436 -0.5525619 0.0099411905 -0.06883655
472 -0.3781677 0.06219471 0.7181999 -0.44891354 0.24488664 -0.3457231 -0.50147873 -0.7476719 -0.8671837 0.09670572 0.20767245 -0.6810263 -0.24497105 0.12888984 -0.5557421 0.61412936 -0.60444325 0.09266751 -1.2714285 1.148746 -0.5409323 0.47117013 -0.15613444 -0.60829586 -0.06124404 0.020906972 -0.72125864 -0.5185088 -0.5589694 -0.188176 0.16657771 0.3837987 -0.7751125 -0.27831033 -0.6613792 1.1378525 -0.5341415 -0.3621029 -0.6678509 0.37105623 -0.20724726 0.15918963 0.8122272 -0.42772347 0.7915564 0.134725 -0.023012828 -0.3109818 -0.8688686 0.17793529 0.34008566 0.6606673 0.33997875 0.45293736 0.47837698 -0.027313896 -0.45327348 -0.05398285 -0.17682704 0.51519096 -1.2717019 -0.77938014 0.07239181 0.055484053
760 -0.52205205 -0.9290723 -0.23054786 0.09863291 -0.26717576 -0.03555245 0.5241693 -0.32592463 -0.677106 0.10036926 0.51203495 -0.007903803 -0.3362769 0.3578084 0.71745145 0.28281647 0.4310486 0.2064264 -0.8136158 0.7637437 0.07590557 0.8833117 -0.92209715 -0.85234934 -0.15748866 0.48387453 -0.77746177 0.23762472 0.99901235 0.18538482 -0.29938084 0.5275641 0.42849994 -0.6428793 0.44937035 0.50622535 -0.9876322 -0.5896871 -0.4035539 0.6335292 -0.12297343 0.054950252 1.1450068 -0.91258097 0.9502431 0.04458765 -0.3604196 0.33668151 0.18332253 0.056241255 0.7782475 0.5601752 -0.365814 -0.009473271 -0.17545901 -0.102900125 0.5617601 -0.07079371 -0.580438 0.43323842 -1.2141874 0.2633016 0.13746639 -0.39452732
721 0.8784887 -0.2614016 0.086873434 -0.32590485 -0.0644109 -0.8695214 0.09254965 -0.5139238 -0.9206001 -0.0120863095 0.7519592 -0.27333334 -0.45891273 0.10918052 0.2123204 -0.15207967 -0.3155296 -0.83138525 -0.37547582 1.0134245 0.35939834 -0.2178881 0.10857203 -0.65692574 -0.27679697 1.1972628 -0.7272263 0.7900345 0.45789835 -0.0352727 0.6950594 -0.42908347 -0.2536314 -0.61730665 -0.05861555 0.763293 -0.14443254 -1.2238666 -1.1693716 0.6363106 0.13583642 -0.19786082 0.5960932 -0.1594632 0.696849 -0.09495855 0.66843605 -0.018890863 0.21354286 -0.11587763 0.30831143 0.075000174 0.5720636 0.6884663 0.52263695 -0.61990345 -0.5787783 -0.002074334 -0.78769946 -0.12869 -0.50713956 0.47658178 -0.3870615 -0.54494435
594 0.09790114 0.8922716 0.0919182 0.21226247 0.40577275 0.20110814 -0.2812308 -0.54581696 -0.80161756 0.4624955 0.7423536 -1.5613315 -0.5846306 -0.22050457 -0.087433554 0.015445379 -0.7251915 -0.040126666 0.4897184 1.6116434 0.08793218 0.09788618 -0.09136008 -1.0224763 0.17059037 0.1878233 -0.46709895 0.12440399 -0.05316724 -0.44021755 0.84609437 -0.64741665 -0.48885438 -0.19419162 -0.42770505 0.43906322 1.076922 -0.14564703 -0.6412151 0.87706953 -0.26651186 0.51524085 -0.24968547 -0.013899256 0.06842701 0.33797178 0.2862831 -0.08080043 0.023083258 1.0419466 0.5385364 0.3212382 0.2834537 0.092691734 -0.31292075 0.2726294 0.10735919 -0.5130025 -0.3754076 -0.9369235 -0.8032924 -0.19515026 0.23522256 -0.5181766
658 0.87790394 -0.27272862 0.54845035 -0.24679935 0.73369634 -0.24026665 0.1556487 -0.3818787 -0.59762955 0.79778254 0.2789514 -0.34948775 -0.35051176 -0.5990645 -0.27393553 -0.07549283 0.07649656 0.41069865 0.055415396 1.1870703 -0.37493548 1.046267 -0.49638683 -0.8911484 -0.20188199 1.2174559 -0.1531645 -0.84706295 0.12085725 -0.8307421 0.4899344 -0.3868356 0.6905441 -0.78491694 -0.11351196 0.18808256 -0.005793037 -0.0019042413 -0.9040324 -0.045125037 0.112094566 0.23773661 0.7080977 0.0243618 -0.03909689 -0.05550286 0.97305566 -0.47736132 -0.067368925 1.0804883 0.86865723 -0.12718707 0.07719751 0.5050575 0.050569803 0.3948711 0.21901627 0.69637454 -0.5838652 0.7514808 -0.15433586 -0.08992249 -0.15870643 0.18495303
384 0.24707115 0.05973796 0.28744823 0.038415488 1.4338355 -0.47566435 0.37952036 0.10496196 -0.2916093 0.72412205 0.7164386 -0.22546455 0.03055911 -0.24710894 0.5106388 0.013639382 -0.31399998 -0.43449593 -0.44293657 0.060506605 0.26469785 0.13401352 -0.6331645 -0.9872973 0.40371168 0.78524685 -0.42562976 -0.371632 0.5403072 0.111852884 -0.094966106 0.3409184 -0.361982 -0.40724507 -0.22617725 -0.46992838 -0.09504191 -0.24828926 -1.0690817 0.4654935 -0.573708 -0.2625452 -0.046896372 0.45235062 1.0731977 -0.24466647 -0.65188503 -0.81632346 -0.24241313 0.31550583 0.96277004 0.9691519 -0.22805008 -0.34894404 -0.73845375 0.31573156 -0.19000235 0.56329423 0.31929314 -0.32768172 -0.4149676 -0.24006742 0.0061414926 -1.4538345
822 0.36600703 -0.17231774 0.90415734 -0.39375913 0.3606301 -0.2943692 -0.44261152 0.06524668 -0.16045758 0.101737596 1.322234 -0.16515073 -0.5593168 0.18111278 0.57060766 1.134262 -0.8887495 0.07807149 -0.45270145 0.55413973 -0.62890506 0.22583558 -0.40216985 -0.7356535 -0.30514055 0.8227176 -1.1933208 0.886058 1.0095265 -0.8255314 0.35539594 -0.016586605 0.2825635 -0.21806706 -0.20724045 -0.084199354 -0.5308113 -0.30014482 -0.41154993 0.069238625 0.14580615 0.18630244 -0.36472368 -0.74043465 0.837231 -0.41319916 0.25202838 -0.83913344 0.08152388 0.7298492 -0.2825784 0.3781595 -0.37098777 -0.08195764 -0.6479889 -0.10165568 0.07175637 0.54989195 -0.7812394 0.17173539 -0.23411211 -0.315091 0.55365014 -0.006058964
698 0.24917586 -0.022156982 0.50536084 0.04644033 1.2311329 -0.4688151 0.20971201 -0.011382431 -0.6093972 0.984562 1.0779573 -0.39643845 -0.010053616 -0.2139674 0.51867414 -0.08869329 -0.2718118 -0.5597415 -0.1854631 0.05881043 0.22030737 0.3164948 -0.44898093 -1.0785085 0.06806366 0.63950175 -0.3957497 -0.22089647 0.74418193 0.047244616 -0.10716015 0.47087067 -0.5654122 -0.2304983 -0.2720363 -0.9745632 -0.19297892 -0.39479372 -0.7789057 0.50901765 -0.5308141 -0.13110128 -0.18868753 0.23054981 0.91012865 -0.15794805 -0.64390635 -0.60863245 -0.39557058 0.14300892 0.79223675 0.5401214 -0.19901815 -0.25770226 -0.6678612 0.58589613 -0.04059145 0.52570003 0.276992 -0.24467681 -0.50714517 -0.28844544 -0.25111693 -1.465497
619 0.8772977 -0.5828971 0.7119363 -0.19913043 0.16416162 -0.73078376 0.26403135 -0.3727856 -0.7763589 0.5916689 0.4325871 -0.48680207 -1.5472839 -0.5113687 -0.18810152 0.26591313 -0.22173324 0.2728252 -0.32401207 0.5825192 -0.12242346 0.48204213 -0.18992947 -1.1335546 0.28063515 -0.385672 -0.23171248 0.048111726 0.17129076 -0.39656192 0.07611821 0.021024188 -0.05393545 -0.46134534 0.17573345 0.20051424 0.2739136 -0.55589706 0.37163973 0.58634454 -0.04352998 0.17856339 0.6535119 -0.60636693 0.19572297 0.21582459 -0.78387505 -0.4231798 -0.5598449 0.2982203 0.45694768 0.17898215 0.19559409 1.3777304 -0.69532245 0.19265749 1.3252231 -0.026333805 -0.19791362 -0.054385826 -1.0414065 -0.48169807 -0.23643029 -0.54840785
541 -0.5689176 -0.10366597 -0.18392512 -0.15144098 0.06531844 -0.21808499 -0.24000515 -0.5541802 -0.22156684 0.116574064 0.36708212 -0.84040153 -1.2742516 -0.8478213 -0.036304425 -0.26643386 -0.11513179 0.48028845 0.30202693 0.8082512 -0.55603784 0.7068638 -0.58517134 -0.86677486 -0.44149736 -0.12640092 -1.270197 -0.3020151 -0.12810239 -1.0191349 -0.3595019 0.25223252 0.17580839 -1.0798465 -0.10694472 0.7230646 -0.08342045 -0.09861873 0.52912813 0.79947513 0.3761841 -0.18168889 0.8081862 -0.13232403 -0.084506854 0.2217124 0.4488731 -0.4692284 0.07632562 0.35748714 0.11786018 0.63411105 -0.099876665 -0.2058883 0.03132127 -1.0672151 0.41866833 -0.45642802 -0.8082237 0.24879013 -0.23441698 -0.02029257 0.4916228 -0.42838463
600 0.15076162 -0.21417165 0.272034 0.29917037 0.7220064 -1.0392092 0.6778659 -0.39308143 0.18761343 -0.29481262 0.81691724 -0.006764083 -0.67226005 -0.66504896 -0.065653674 -0.026213482 -0.17771979 -0.47319075 -0.9934379 0.33144075 -0.21366358 0.124579474 -0.5125196 -0.4457986 0.35504574 0.9611837 -0.5720062 -0.39001188 0.024194611 -0.54966813 0.61272854 -0.2499137 0.022776011 0.26001415 0.020021597 0.93072283 0.9271061 -0.57796985 -0.09303094 0.9351375 -0.22575042 0.573278 0.28640437 -0.67686963 0.08986488 0.6584427 0.4171654 -0.76328224 0.44990712 0.43774155 0.11019228 0.77702373 -0.5266502 -0.46310163 0.24981038 0.22222735 0.20531885 0.17560135 -0.1338228 0.33259887 -1.0253264 -0.53777117 0.6603815 -0.5014047
512 0.31874284 -0.8875156 -0.015064121 -0.42555293 0.42104355 -0.6048283 -0.078553356 -0.453673 -0.82543737 -0.33283073 1.3268161 -0.49084318 0.36305273 -0.18174508 0.44928932 0.3225877 -0.09146465 -0.2503986 0.42857125 0.7381219 -0.78713614 0.942976 -0.85191643 -0.6660826 -0.08508369 -0.31090042 -0.7900515 -0.52925074 -0.1612655 -0.53808534 -0.126363 0.14061336 0.4674141 -0.30327743 -0.90558314 0.94583994 0.5844313 -0.45808256 -0.6051232 0.24264589 -0.71761507 -0.050969448 0.16879494 -0.19077373 0.70556194 0.1557787 0.71297896 0.25528535 -0.03489926 -0.14049172 0.8701682 0.13102297 -0.24779028 0.20963003 -0.61611366 -0.36428383 0.22189184 0.19561191 0.2740599 0.25018257 -0.7516485 0.012694021 -0.49491405 -1.1757971
212 -0.3743002 -0.025671361 -0.17539304 -0.032672282 0.3440306 -0.23685281 0.16778184 -0.64455336 -0.115837485 0.13889056 0.41224512 -0.67293406 -1.0635662 -0.9793275 0.066842645 -0.25148895 0.15845399 0.5572063 0.2799753 0.90630674 -0.7967473 1.1598667 -0.39195532 -0.8024352 -0.03015935 0.04550794 -1.0278724 -0.38486528 0.009051941 -0.9365883 -0.81061774 0.6113498 0.19927026 -0.87958336 -0.35247523 0.58506817 0.030887876 -0.19899428 0.57355404 1.2151165 0.59326303 -0.17558861 0.7776259 -0.055881623 -0.013063917 0.22866943 0.3945991 -0.42537937 0.17486069 0.44953746 0.0934708 0.340542 -0.032777075 -0.1296061 0.14058366 -0.95912933 -0.0010069462 -0.7273912 -0.7275463 0.22303839 -0.2926969 -0.23059845 0.44464839 -0.35513723
749 -0.2540197 -0.6165403 0.4999548 0.6428852 0.10994671 -0.8618118 0.30992797 -0.514879 0.3535007 -0.034952737 0.584174 -0.8222033 -0.2652692 -0.08871207 -0.4654371 0.06898012 0.35662726 0.59497225 0.37262994 1.0095258 0.15654185 0.095389105 -1.2894758 -0.9205373 0.8110872 0.21923473 -1.1661334 0.39024606 0.5048581 -0.89686614 -0.1316239 -0.04028528 -0.16562714 0.028477035 -0.1220606 0.48219424 -0.22757773 -0.4664196 -0.59508425 0.23365559 -0.19244523 -0.79921955 0.038610406 -0.6780473 -0.03445687 -0.18042023 0.39136145 -0.3073126 -1.0441446 0.3573165 0.95871854 -0.11479679 0.14660174 -0.10324451 -0.5849783 0.51152074 0.05711119 -0.0988994 -0.50847703 -0.2170152 -0.8038441 -0.5845521 0.59227145 -0.46326992
196 0.03996831 0.5699563 0.053716592 0.077952854 0.6786512 0.06112744 -0.67661595 -0.22435714 -0.78425187 0.5147006 0.8542427 -1.2986646 -0.5861196 -0.4223999 -0.17709132 0.32055196 -0.32592148 -0.7159138 0.44287962 2.0040371 0.44356316 0.3229053 -0.111797884 -0.9567495 0.122040585 0.038054686 -0.84656584 -0.18426621 0.17625113 -0.05185956 0.27536744 -0.45608905 0.22709092 0.05064208 0.090034105 0.63268155 0.5237929 -0.04295556 -0.66582626 1.198394 0.1563624 0.49529222 -0.4230889 -0.052676972 0.05900774 0.3428249 0.22815764 0.08555204 0.17899156 0.9589863 0.18336464 -0.055571914 0.05880891 0.26491728 -0.35775092 0.21497644 -0.13577224 -0.5204142 0.043303426 -0.36189845 -0.5764369 -0.18743114 0.28735468 -0.33546418
579 0.59374285 -0.057247184 -0.45334405 0.019792786 0.34850156 -0.2047852 -0.53212345 -0.7903707 -0.004435362 0.82619596 0.15617104 -0.600882 -0.36744788 -0.4253373 -0.16559009 0.6488327 -0.25982523 0.81756854 0.19830665 1.4369298 -0.07021784 0.027898373 -0.58650655 -0.80384356 -0.101513475 0.49995062 -0.4526178 -0.07650514 -0.40051338 0.083558716 0.2417873 1.1226059 0.1298271 -0.6186665 -0.34201613 1.1273766 -0.28777194 -0.83927494 -0.8400708 0.76684815 -0.41995817 -0.0666171 -0.05191611 -0.3313793 0.92669624 -0.57180697 -0.5509362 -0.003041677 -0.71729887 0.26270738 0.7194062 -0.14283612 -0.1311326 -0.33033124 -0.7975984 -0.32403564 0.91970223 -0.03522509 -0.49402168 0.21736382 0.0075730397 0.31918272 -0.87932426 0.06308394
826 0.1845593 -0.43712842 0.32592776 0.18861175 0.8040962 -0.20248014 0.69515437 -0.16287726 -0.007102099 0.24044113 1.460803 -0.575767 -0.667128 0.503489 -1.0816531 0.8438412 -0.7409595 -0.63595384 0.20170957 0.55339897 -0.5633853 0.36451137 -0.34172413 -0.45122424 0.3340874 0.79399514 -0.39417347 -0.029614622 0.34454963 -0.053130638 -0.14814694 0.7848912 0.8950747 -0.5252271 0.42426494 0.43188402 0.4064225 -0.06316775 -0.6472423 0.10156913 -0.6653981 0.24114883 0.5817051 0.35337275 0.9025047 -0.15049125 -0.6524417 -0.8897073 0.32321146 0.4695057 0.6344681 0.13339797 0.09681485 0.119142845 0.4273162 0.09183541 -0.33444506 -0.24404773 -0.830698 0.6508005 -1.0820035 0.4683891 -0.030896468 0.24543536
24 0.21871778 -1.0733544 -0.037879393 0.2110993 -0.33124754 -0.47479513 0.84791225 -0.5066158 -0.66279244 0.28283727 0.7059802 -1.4962531 -0.5783779 -1.3240644 0.14521034 0.47099936 0.10654916 -0.20178422 0.26986763 0.18679771 -0.13019724 0.28055453 -0.3935906 -0.8237711 0.24700347 1.4597559 -0.24723142 0.3915822 0.31872627 0.016269235 -0.5665513 0.227778 -0.30381015 -0.5381217 0.19977981 -0.40219563 0.484954 -0.39891958 -0.809836 0.8214114 -0.20804347 -0.22728302 0.21756943 -0.04896409 0.651562 -0.53931373 0.09960941 -0.15557745 0.23782803 0.927939 0.79812175 0.20636724 0.0031242121 0.39892566 0.16837865 -0.26197278 0.48258984 -0.20212112 -0.25156954 0.30291936 0.5355756 -0.008373751 0.6896459 -0.73200756
748 -0.57195354 -0.33268234 -0.051056344 -0.018798666 0.1181681 -0.5716021 0.33085975 -0.5370476 -0.20581931 0.20146956 0.92429495 -0.44593385 -0.427768 -0.22317483 -0.22342937 0.28768465 -0.81664306 -0.46949902 0.090661846 0.61301494 0.43258205 0.8631334 -0.1435815 -0.83073044 -0.02936651 0.12096087 -0.6697361 0.096443824 -0.43954152 -0.23051026 -0.22909759 -0.17396155 -0.17437485 -0.28353164 -0.03150738 -0.5454787 -0.12756836 -0.29236877 -0.43087775 1.5836942 -0.43720442 0.035959 -0.3842697 -0.8994905 1.187367 0.27863657 -0.29927796 -0.25032246 -0.8946429 0.28851148 -0.027678756 0.4287079 0.26647526 -0.6506032 0.061869964 -0.4140177 -0.06201757 0.4567212 -1.8165439 -0.19498986 -0.69985527 0.1203394 0.42858183 -0.6263908
53 0.2779996 -0.3019055 0.2889641 0.72072387 0.5085964 -0.37065822 -0.59506863 0.11970012 -0.11594361 -0.3325602 0.93792355 -0.49548104 0.09776939 -0.40228003 -0.16517557 -0.2053199 -0.15166984 -0.27517158 -0.5520047 1.5398039 -0.5932326 0.2968839 0.11286657 -1.3141237 -0.42700332 -0.29681802 -0.07406942 0.49171418 0.61156225 0.12200817 -0.135267 0.38423875 -0.30212185 -0.9268961 0.18588789 0.13107118 0.105969004 -1.2093896 -0.20020679 0.26736194 -0.78581446 -0.7132412 0.44968578 -0.21066332 0.40480602 0.18904082 -0.46146414 0.016758442 -0.14094609 1.0878528 0.1899582 0.69014096 -0.780468 -0.0035594157 -0.15121372 -0.5494907 -0.2145851 0.03265509 -0.64073837 -0.39655083 -0.4570684 -0.7923036 0.74090475 -0.7785827
327 -0.5581698 -0.29671857 -0.010792253 -0.2849971 0.05262438 -0.16802607 -0.2835224 -0.7185327 -0.37211516 0.098786145 0.6653867 -0.7787372 -1.1313888 -0.7137093 -0.08312846 0.062214382 -0.15104827 0.1601032 0.3337549 1.135462 -0.6655649 0.5387851 -0.7051415 -0.52152365 -0.48042357 -0.19455454 -0.88480175 0.122709855 -0.2677839 -1.2927741 -0.36709478 -0.006739943 -0.09143021 -0.9697717 -0.32058126 0.4551047 -0.3140752 -0.52585113 0.3802181 0.26759914 0.320373 0.090438 0.71470565 -0.49010712 0.14537355 -0.128771 0.5544281 -0.3176914 -0.053785555 0.22380196 0.15221931 0.811748 0.31122756 0.20274615 0.35084748 -1.1910672 0.62200713 -0.6769915 -0.733171 0.33990654 0.1495878 0.32886395 0.7244829 -0.6294177
147 0.21648827 -0.7805562 -0.24375999 0.91149706 0.054295927 -0.028988123 -0.76268995 0.036657665 -1.0731106 0.1568047 0.93503934 -0.025653386 -0.47705397 -0.066026516 -0.053090475 0.40489966 -0.07954671 -0.38583025 -0.13191026 0.70348775 0.64630455 -0.0022269532 -1.022766 -0.72597724 0.017470645 0.2346942 -0.94502205 -0.65867436 -0.25846633 -0.37771636 0.7495899 -0.1735749 -0.62222487 -0.6618828 0.043437663 0.7833671 -0.2210946 -0.1685777 -0.08641287 -0.26175377 -0.65862936 1.4180763 0.57090265 -0.31177422 1.3171458 0.4007921 -0.31860203 0.20361653 -0.1562885 0.19171008 0.29957703 0.5811844 -0.65092325 0.14451699 -0.037821963 -0.56103754 0.5849318 0.30635592 -0.6123815 -0.2904111 0.15230925 -0.27646077 0.86555815 -0.95725614
136 0.29506108 -0.096325465 -0.2918685 -0.105026655 0.22253437 -0.34999463 -0.35680726 -1.0746428 0.04262478 0.8148054 0.3910915 -0.5422564 -0.6000154 -0.3154207 0.1567618 0.71086955 -0.31219137 0.65038896 0.483624 1.2626925 -0.026149256 0.016784908 -0.26801088 -0.9377434 -0.086287774 0.38445792 -0.34311408 -0.07479218 -0.47210163 0.031323735 -0.018125221 1.1997415 -0.14475237 -0.18036143 -0.33311632 0.96568877 -0.22398011 -0.83775467 -1.0322288 0.69568497 -0.17935239 -0.14501858 0.033284012 -0.23324564 0.7326558 -0.6125386 -0.8847049 -0.35343385 -0.39959162 0.2548985 0.8642271 -0.012515927 0.07146685 -0.34959123 -0.7790961 -0.42815325 0.49085388 -0.17795078 -0.45834816 0.2953712 -0.08491208 0.38525975 -0.8008919 -0.01769328
853 0.38947198 -0.024671331 -0.08231991 0.771398 1.0526278 -0.8519634 0.22406971 -0.00012208136 -0.9938254 0.41049463 0.7731019 -0.70932806 -0.9916443 -0.11555002 0.39433688 0.0048277327 0.17213945 -0.2579793 0.03394121 -0.20650488 -1.1830437 0.62336147 -1.1465101 -0.9380345 0.27623636 0.033671733 -0.4114275 0.07682972 -0.6003144 -0.2107585 0.20003463 0.037113275 -0.23577034 -0.24963942 0.061159395 0.83398724 -1.3017439 -0.9076832 0.21841764 -0.06033316 -0.59956795 -0.3086344 0.08582631 0.1435858 0.8072016 0.043752097 -0.16465698 -0.2713742 -0.45077673 0.8631203 0.16357383 0.2607706 -0.10413351 -0.29703996 0.1072326 0.055412706 0.19512765 -0.081745274 -0.6258254 0.8325632 -0.5517119 -0.36642846 0.11726295 -0.24769047
529 -0.5000994 -0.54006803 0.33720782 0.3901484 0.41101286 0.26566878 -0.100950874 0.31132272 -0.66682667 1.0841644 0.046208948 -0.6355062 -0.8144084 -0.21391585 0.12405446 0.59947187 0.066093326 0.17629048 -0.38325134 0.6020072 -0.5614287 -0.10682335 -0.04997576 -1.2804451 0.03217433 0.7885147 -0.4388025 -0.28532338 0.106130235 -0.25346628 -0.041099563 1.1642247 0.23777133 -0.21158458 -0.2560801 0.64069563 0.46615452 -0.93950695 -0.3738265 0.53726536 -0.54362184 1.1081344 0.23501197 0.015109008 0.09098262 -0.5718333 0.033462413 -0.4495835 0.3543281 0.03432492 0.8577817 0.7904946 -0.03619819 0.34888217 -0.70689905 0.6784365 -0.1284368 -0.10277145 -0.16885582 -0.053538956 -0.2645428 -0.7469207 1.2686502 0.117746115
804 -0.7603545 -0.7601849 0.0071254675 0.166627 -0.18175253 -0.004304443 0.27863732 -0.3468445 -0.63587415 0.28880176 0.5293938 -0.0665059 -0.3849082 0.105797835 0.87445885 0.35263926 0.48202008 -0.15627454 -0.77245533 0.92414653 -0.0137652 0.884367 -0.6086222 -0.6797115 0.055705912 0.6942049 -0.61529464 0.15672766 0.9036457 0.26561263 -0.4664523 0.5083651 0.370716 -0.13634612 0.35915217 0.5381205 -0.7996473 -0.60939723 -0.3971145 0.44319567 0.05614032 0.018825 0.8041067 -1.0444689 0.8659561 -0.02807573 -0.2852139 0.41139892 0.14254409 0.21528353 0.9487163 0.8407893 -0.51360583 0.3147044 -0.19508678 -0.25962362 0.38474017 -0.24275646 -0.776047 0.33852357 -0.9285391 0.21324281 -0.12343065 -0.6121976
865 0.21987867 -0.19200234 -1.1895678 0.2480735 0.21800305 0.07313179 0.1113671 -0.22044995 -0.4145177 0.25807747 1.0467145 -0.09905314 -0.25065917 -0.75698626 -0.46769312 0.6131008 -0.45835826 0.0772435 -0.528202 0.45051157 0.08219418 0.53035074 -0.5495636 -0.5903792 -0.9387571 0.635725 -0.5879361 0.025109531 0.29942867 0.41533017 -0.116638295 0.28336138 -0.19002005 -1.2218387 -0.6854073 0.7033471 0.38596082 -0.5960316 -0.5378504 0.19744706 0.1681386 0.491837 0.93946946 -0.27088377 -0.36609635 -0.36655402 -0.02922574 -0.6431644 -0.383408 0.74642754 0.36947873 0.9574888 0.25888467 -0.34877804 -0.017462373 0.83312005 -0.40628943 -0.34945464 -0.4005346 0.22779162 -0.20090228 -0.24636461 -0.22240183 -1.0774255
820 -0.53541726 -0.32325846 -0.09574419 -0.05408044 0.15491106 -0.08335693 -0.28632724 -0.6760309 -0.0919312 0.07173759 0.38715437 -0.91875285 -1.3331163 -0.7737874 -0.039967522 -0.049757544 0.124757834 0.2099792 0.56437266 1.007364 -0.8237978 0.641756 -0.55372477 -0.5957659 -0.47535962 -0.062447034 -1.0405797 0.10110836 -0.26883763 -1.0781342 -0.5509083 0.08528516 0.11218789 -0.874592 -0.22357272 0.79505205 -0.009387924 -0.47862253 0.3544357 0.8700893 0.5291889 0.065207265 0.77821004 -0.32499248 0.021387555 -0.14505838 0.64538616 -0.3074171 0.09738274 0.32725134 0.032196227 0.46228674 0.075878754 0.13430826 0.1078191 -0.994339 0.36297497 -0.4824292 -0.90972286 0.37210026 0.08410109 -0.058874115 0.5055347 -0.26106575
805 -0.34712026 -0.48237097 -0.58888423 -0.12886764 0.46727276 -0.5571756 0.48424998 -0.04156012 -0.45069298 0.22152896 0.73473793 -1.2991687 -0.5003149 0.6577599 -0.053566325 0.60921514 0.18528639 -0.24113949 0.33409518 1.2084482 -0.10993987 -0.34067583 -0.15856633 -0.45759684 -0.78098494 0.70685977 -0.68882215 -0.29324648 -0.05309523 0.20378101 0.010514449 -0.62454295 -0.5889027 -0.4384089 -0.29638243 0.28699377 -0.10828048 -0.7507966 -0.41786033 0.03077429 -0.12683478 0.6212769 -0.24053897 0.7324491 0.49525735 -0.85092884 -0.3701139 -0.29610917 -0.796815 0.4250027 0.28838098 0.5529509 -0.15880878 0.7931547 -0.24971943 -0.32105577 0.7877752 0.54109406 -0.7546851 0.5544167 -0.8601386 -0.27587852 0.40426645 -0.089158826
479 0.25139123 -0.35790244 0.46486217 0.67492664 0.6344221 -0.5339658 -0.7255785 0.22316949 -0.0445469 -0.01890002 0.7678171 -0.60786 -0.191554 -0.30937076 -0.15598273 -0.06615929 -0.34557185 -0.3931756 -0.55618054 1.2539573 -0.6726329 0.23011746 0.14411311 -1.4144984 -0.53705037 -0.43927187 0.016590193 0.6503318 0.54837865 -0.28193784 -0.34612337 0.39564118 -0.83622986 -0.7744003 0.16849115 0.3314665 0.09747896 -1.0079154 -0.24554192 0.2213472 -0.70015025 -0.6052645 0.69145554 -0.19347037 0.1551151 -0.039199457 -0.27349576 -0.14550698 -0.31706125 1.0074868 0.09243996 0.6517816 -0.5855709 -0.12569758 -0.14399444 -0.40801513 -0.42225713 -0.089919336 -0.28782648 -0.5519756 -0.092408754 -0.8438962 0.7779576 -0.72059727
19 0.55597305 -0.13268775 0.3748012 -0.43358308 1.2057545 -0.04889994 0.37613848 -0.34709668 0.030874135 0.47250837 0.4313644 0.32378417 -0.6143682 0.20081985 0.0069617014 0.18013693 0.549226 -0.10982348 -0.32528615 0.83022046 -0.65146565 0.10813011 0.07437192 -1.8269076 0.038580175 0.051122118 -1.228847 -0.041797686 0.5627574 0.104365066 -0.049434684 -0.60087955 0.052059595 0.10189673 -0.06711346 0.38213938 -0.046828475 -0.4370974 -1.2113267 0.84561163 -0.27369338 0.51825 0.3641283 -0.13283059 0.7421703 0.4851596 0.105363645 0.32606784 -0.93918973 0.15723188 0.31597403 -0.17483623 -0.3855668 -0.42823246 -0.6487339 -0.6286646 -0.4190389 0.603401 -0.673112 0.45096993 -0.61877143 -0.7265662 -0.42608666 0.12795398
177 0.51741797 -0.035049435 -0.27979892 0.99390846 1.1743225 -0.80098873 0.31213164 0.009250086 -0.7894465 0.44166276 0.7763071 -0.9811173 -0.81969935 -0.36622223 0.60691404 -0.07268997 0.060771435 -0.0698469 -0.40263706 -0.094256945 -1.1804204 0.57105756 -1.1603078 -1.0147964 0.2671869 0.22223727 -0.4897606 0.09472584 -0.40988284 -0.13829312 0.10670294 0.0062748427 -0.037349273 -0.5239977 0.11631684 0.6275325 -0.94598275 -0.7223922 0.04303104 -0.07714704 -0.37196618 -0.24556297 0.22961253 0.29287976 0.85901374 -0.27009335 -0.05187393 0.007448869 -0.29189205 0.7591742 0.25311106 0.23547573 -0.23762992 -0.072339416 0.39005455 0.16128367 0.33721143 -0.2281173 -0.40942097 0.8370796 -0.27643874 -0.6024264 -0.09880871 0.06983615
218 -0.571838 -0.07173979 -0.16193448 -0.042404152 0.471086 -0.3621059 0.33751562 -0.62673813 -0.0016803853 0.0863329 0.3531237 -1.0183445 -0.96746886 -0.7741132 -0.14430764 -0.07894893 -0.052124128 0.52272546 0.4231656 1.0607172 -1.0576384 1.0670652 -0.31815192 -0.8855181 -0.44317523 0.06395809 -1.1165285 -0.4314741 0.28156585 -0.7916449 -0.5781754 0.5808908 0.015678808 -0.91899395 -0.3942918 0.3048368 -0.07078786 -0.16612568 0.57734066 1.3382537 0.51713556 -0.28681841 0.81635374 -0.1495057 -0.14860365 0.3367434 0.29710925 -0.40070677 0.1207049 0.34771547 0.22213691 0.1386648 -0.3107031 -0.45365566 0.15886112 -0.8174714 0.17106561 -0.5521099 -0.4680989 0.35942683 -0.48058087 -0.29994947 0.16170086 -0.27961063
272 -0.4038205 -0.43681082 -0.018345531 -0.29476348 0.0614213 -0.17592306 -0.46818084 -0.39243588 -0.22802484 -0.1211164 0.5165801 -0.73006666 -1.1423763 -0.622757 -0.23766533 -0.0756793 -0.080536254 0.25987208 0.25516924 0.94558424 -0.63153595 0.79892564 -0.7967201 -0.4213278 -0.5688443 0.028044669 -1.0266862 0.13153352 -0.190967 -1.0691066 -0.42639798 -0.1281249 0.11191309 -1.0853142 -0.04157534 0.8137346 -0.17482692 -0.28918648 0.54194856 0.5780939 0.45146757 0.1062127 0.6118773 -0.2018233 0.15058932 0.15575264 0.6418564 -0.19541946 -0.06583322 0.48228216 0.056235272 0.6674468 -0.13984497 0.17051329 0.34302172 -1.2150315 0.58253163 -0.7652174 -0.7102633 0.1973636 -0.11288187 0.084636845 0.67602324 -0.39144966
563 0.32367826 -1.1262044 -0.25851136 -0.4233542 0.505413 0.12978981 0.26889297 0.50025076 -0.20651343 0.21393737 0.66204983 0.55765384 -0.69950444 0.5879738 -0.5243702 0.51428056 -0.47754842 0.3012745 -0.24220076 0.5580927 -0.17200524 -0.3634259 -1.1649383 -0.9151337 0.08975213 0.54042786 -0.8253441 -0.2609099 0.74294066 -0.71910685 -0.42296866 0.0055682543 -0.566601 -0.19507134 -0.10923372 0.57414055 0.3538776 -0.6448946 0.31836838 0.997615 -0.25742418 0.27632895 0.8914141 0.027600763 0.28743896 -0.33923677 -0.2576251 -0.8421052 0.2686724 0.35474727 0.60982126 0.18679039 0.6254479 1.1147158 -0.3697006 -1.1695144 -0.6957081 0.44530883 -0.5726756 0.406118 -0.006859169 -0.4100185 0.19652691 -0.86263233
352 -0.35072127 -0.88256973 0.20984079 0.5618362 0.71021914 0.44488168 -0.1504581 -0.002680753 -0.9762674 0.8233644 0.3128657 -0.63574725 -0.6467355 -0.16426618 0.23985583 0.59097826 0.091448836 -0.1326359 -0.47572055 0.5557491 -0.798787 -0.0729447 0.0019799906 -1.1326102 -0.22787024 0.5243221 -0.40783718 -0.35470733 -0.016962029 -0.35532463 0.07492227 1.2469093 0.08862559 -0.12537135 -0.348824 0.39663795 0.55891156 -0.91775465 -0.51493365 0.6501593 -0.48789915 1.1413983 0.2563303 -0.013977756 0.42442194 -0.47720614 -0.08287276 -0.34942862 0.47443628 -0.118165396 0.8289853 0.3122335 -0.27460116 0.33343965 -0.6936289 0.6427958 -0.30066246 0.07039789 -0.13910556 0.06745193 -0.12717721 -0.7132836 0.9254951 0.22888651
448 -0.13502125 0.09106775 -0.22243798 -0.40871888 0.004130868 0.2076501 0.72457224 0.47876382 -0.20004712 0.56735796 1.1053513 -0.5277349 -0.6498241 -0.7772079 0.63269156 0.39207193 0.048201185 0.10191217 -0.157886 0.8710331 0.24217145 0.14162469 -1.1796386 -0.50354475 0.53432715 1.0752686 -0.8802368 0.16860375 0.27682865 -0.31824544 0.8281181 0.10346982 -0.2050348 -0.3896612 0.7928267 0.2590345 -0.26576787 -0.10523565 -0.89129674 0.31305954 -1.3753495 0.69723797 0.1346568 -0.017296547 0.48758605 0.059217382 0.07076544 -0.40483794 -0.54784817 0.26423496 -0.24353898 -0.5400185 -0.0063416497 0.47361794 -0.15451954 0.1601415 -0.1303538 -0.15825368 -1.1177614 0.167261 -0.5079306 -0.29305977 -0.592027 -0.8121639
155 -0.27788487 0.09458605 0.5172351 -0.19523117 0.08819395 -0.6878443 -0.5693704 -0.5652015 -0.1434566 0.6550973 0.45805728 -0.016140005 -0.6356068 -0.39422858 0.24544415 0.9240346 0.29147786 0.2654289 0.5733434 0.67797977 0.74469644 0.8136293 -0.13880415 -1.3569902 0.19133818 0.54893464 -0.4982427 -0.55969137 0.07021442 -0.96682805 -0.03215998 0.7750029 -0.7891658 0.2701161 -0.49716616 0.59050107 0.38552004 -0.55778867 -1.6204766 0.39171872 -0.29868928 -0.14637022 0.4797218 0.12363089 0.24799633 -0.18217367 -0.9785538 -0.77359205 0.23752604 0.37072796 0.23001602 0.30518422 0.14284576 0.18823062 -0.11587253 -0.5197505 -0.11991234 0.047844376 -0.86386615 0.4846241 -0.28345525 0.3020241 0.06674705 -0.49329823
118 -0.2769052 0.18317276 0.57867336 -0.2770781 0.36641967 -0.36638486 -0.028786711 -0.92563814 -0.8247174 -0.016573433 0.1742492 -0.52708954 -0.3784709 0.02765843 -0.5060254 0.5329779 -0.51920074 -0.005611675 -1.0174896 1.1798738 -0.30087367 0.44584748 -0.5901808 -0.45886847 0.04237915 -0.31372666 -0.6526602 -0.721877 -0.69845 -0.081513785 0.1366732 0.33834976 -0.6718132 -0.27442896 -0.6139433 1.1191161 -0.49786234 -0.24989961 -0.7191424 0.43534303 -0.13043359 0.25826985 1.054142 -0.2512168 0.56095994 0.110981345 0.22557256 -0.37426245 -0.87585866 0.051710133 0.45737654 0.6388544 0.4004202 0.5761739 0.3776987 0.028930461 -0.51645863 0.021019634 -0.5080482 0.14260703 -1.2103316 -0.6768334 0.09408051 0.2679896
536 -0.50294316 0.07343588 0.7664628 -0.17004174 0.3887756 -0.5682325 -0.16013123 -0.7538752 -0.68196964 -0.06486658 0.31582615 -0.3935187 -0.28301218 0.19475098 -0.42249122 0.65330434 -0.5593419 0.13004318 -0.9951167 1.4033262 -0.37081793 0.5296627 -0.27591187 -0.3477484 -0.3044203 0.0016123368 -0.24278185 -0.5991666 -0.40130714 -0.38127974 0.3849149 0.46760812 -0.6627432 -0.26747587 -0.43353385 1.0538749 -0.45903513 -0.62845296 -0.5391465 0.28486878 -0.09782882 0.41057712 0.917916 -0.23884252 0.69646823 0.38907588 0.18127774 -0.099960506 -1.0295321 0.16702564 0.46446708 0.36610812 0.46807125 0.5302644 0.34233558 0.080592446 -0.57993925 -0.2690521 -0.4797535 0.20943457 -1.2447741 -0.77576214 0.12066392 0.2870291
138 0.595272 -0.18332909 0.91330296 -0.38149488 0.0952188 -0.28996766 -0.3710524 -0.051518984 -0.19936976 0.21644473 1.3541358 -0.34732065 -0.75673264 0.2241064 0.45534733 1.2425464 -0.6274519 -0.02880754 -0.3707975 0.69046366 -0.54704255 0.12099873 -0.12083524 -0.71943086 -0.09040638 0.8732046 -0.97815096 1.0687284 0.695632 -0.8381998 0.1957435 0.13037127 0.18362318 0.0971348 -0.06740676 0.19807571 -0.658075 -0.57506466 -0.05736909 -0.013082806 0.30771157 0.48122862 -0.16423312 -0.6647934 0.73279476 -0.32912385 0.25506425 -0.8738829 -0.016379945 0.6801953 -0.25465766 0.002183938 -0.21525462 -0.08544133 -0.8956713 -0.3106225 0.13700308 0.30421075 -0.7679451 0.32714924 -0.40423274 -0.22580029 0.6220914 -0.21846527
610 0.24078031 -0.6410128 0.08941377 0.54293877 0.23657311 0.023932353 -0.7232167 0.30775335 -1.162458 0.15991797 1.1632574 0.026525088 -0.6817448 0.07849527 -0.044478897 0.21183877 -0.081036925 -0.285845 -0.18727036 0.6165343 0.6267586 0.099071786 -0.89008874 -1.0080364 -0.14167473 0.061969403 -0.92707646 -0.5483395 -0.13243365 -0.38846123 0.6897676 -0.08550628 -0.4710589 -0.7122126 0.017083231 0.62862813 -0.10420462 0.11457434 -0.03780995 -0.413364 -0.61200947 1.3058987 0.50346434 -0.3589334 1.0640658 0.40651515 -0.48954654 0.08302184 -0.025073292 0.058156863 0.10394439 0.74694717 -0.7527458 0.12531386 -0.04674641 -0.4548388 0.5673569 0.42844906 -0.58908266 -0.2377981 0.018719958 -0.08118755 0.8502785 -1.123748
667 -0.3643228 -0.28722036 0.17469169 0.68069136 0.9247378 0.20935653 -0.08429253 -0.3513263 -0.9074179 0.69860995 0.5428783 -0.42916834 -0.5840944 -0.3866592 0.38689762 0.63120365 0.25338638 -0.64039123 0.42045638 0.7804923 -0.34816182 -0.09976216 -0.15987854 -0.9066587 -0.26946983 0.14726931 0.23321864 -0.04991037 0.48560923 -1.2101051 0.22564673 0.5097589 0.17015964 -0.7177645 -0.15031883 -0.10418354 0.24383403 -1.1087706 -0.4782852 0.43710953 -0.78764087 0.692939 0.53498375 -0.9044487 0.5282801 0.03400316 0.071913175 -0.14585754 0.11564506 -0.37620252 0.19840142 -0.04141625 0.31876287 -0.28721774 -0.3637086 0.91852224 0.41912833 0.1772144 -1.1180526 0.79477423 -0.52613634 -0.653941 0.5766374 -0.028281309
391 1.30954 -0.868766 0.2504846 0.37700412 0.46679318 -0.28608873 0.098057285 -0.040672433 -1.173606 -0.22024225 0.7702597 0.2967901 0.1205483 0.16638198 0.3416825 0.8267871 0.1146432 0.26510113 0.21795243 1.0668539 -0.120446436 0.04322206 -0.5701028 -0.86668 0.19145073 0.37996563 0.09117904 0.13120991 0.22860444 -0.52623105 -0.270095 -0.49898708 -0.42666945 -0.2266914 0.16945118 1.8279134 0.22591674 -0.2105978 -0.98278993 0.63562024 -0.6709801 0.33126527 0.43534487 0.26017296 0.15291098 -0.1498875 -0.5698656 -0.43940142 0.14282238 0.9725345 -0.17452931 0.36143124 0.07253323 0.06138195 -0.20063221 0.65819436 0.2952581 -0.45853707 -0.8284408 -0.35713565 -0.5244683 -0.9815193 -0.07065195 0.17304559
238 0.4300444 -0.26597947 0.116665885 -0.8051461 0.6956107 -1.0324433 0.15479365 -0.377871 -0.13875216 0.72719264 0.9179995 -0.59010166 0.24227764 -0.8660769 -0.52397126 -0.16434968 0.052169953 -0.81999314 -0.09844271 1.099584 -0.17006502 0.0098867 -0.66516477 -0.98178744 0.3358188 0.3189508 -0.2065031 0.036404956 -0.5934309 -0.38383278 0.06896027 -0.41047192 -0.76584846 -0.63164973 -0.34064266 0.43596068 0.43584454 0.18281218 0.1031063 0.41813377 -0.34715962 -0.29562783 1.0355393 0.6623852 0.7856076 0.53127915 -0.2483295 -0.53778964 -0.23063256 0.68726254 -0.35941818 0.5786897 0.49990875 -0.17855921 -0.40955907 -0.3269091 0.002769974 -0.5551179 -0.7740434 0.4568967 -0.030372823 -0.31169412 -0.87201256 -0.5588088
369 -0.19570273 -0.49899167 -0.07485539 -0.07536026 0.041801583 -0.34467047 0.3497875 -0.77123773 -0.29468706 0.12909572 0.73374796 -0.12400507 -0.26223248 -0.31645915 -0.37328014 0.45717072 -0.8135573 -0.28278404 0.31269732 0.7697123 0.51244974 0.67533535 -0.14257875 -0.5309566 0.10475872 0.18573368 -0.69250757 0.25337088 -0.09128164 -0.2124856 -0.31033632 -0.34958938 -0.033194814 -0.40156293 0.23947282 -0.33849576 -0.01479935 -0.29164335 -0.40441442 1.7133905 -0.2666366 0.2604021 -0.19071455 -0.6987422 1.2336223 0.42941737 -0.5641384 -0.39403066 -0.6321268 0.25628886 -0.06443455 0.54717666 0.4320823 -0.51901364 0.01346336 -0.41079858 0.12719044 0.40669456 -1.8754939 -0.24839054 -0.7487544 -0.17633593 0.57716006 -0.5518997
244 0.025079852 0.4778817 0.4221432 -0.53655 0.16369155 -1.5039661 1.1765698 0.011595504 -0.45738846 -0.040963754 0.84255135 -0.03206564 0.103597485 -0.28989342 0.27408704 0.9787517 -0.38050017 -0.052718338 0.6013463 0.61127305 -0.12338935 0.46381894 -0.68747425 -0.24335027 -0.4009914 0.060971674 -0.15647799 0.4173088 -0.13088124 -0.29164743 0.398702 0.9230652 0.15579845 -1.0150751 -0.122580834 0.5259917 -0.3930193 -0.4966632 -0.34824324 0.7310714 -0.74314004 -0.27886257 0.4196653 -0.026038889 -0.13867556 -0.042434897 0.37889934 -0.10123266 0.2722239 0.55761206 0.6467717 0.5606173 -0.5935146 0.06809405 -0.45354664 0.35095745 0.48319012 -0.07991832 -1.1182139 -0.0681418 -0.18733487 0.23413981 0.5872572 -0.8571929
286 0.37674212 -0.10616407 -0.6214332 -0.26138666 0.26553908 -0.23862132 -0.57596326 -0.80160993 0.109082565 0.8879918 0.2285078 -0.48576736 -0.45967513 -0.29928544 0.15139233 0.71977663 -0.081129864 0.8826989 0.46890977 1.2609084 -0.007859382 -0.021619076 -0.6062836 -0.88706017 0.15772109 0.43944752 -0.48845768 -0.22062305 -0.5269781 -0.010246918 0.26990658 0.9778948 -0.008109037 -0.65198666 -0.28348523 1.0670398 -0.37813705 -0.82147783 -0.80962354 0.8665706 -0.3352641 -0.18745013 0.001799957 -0.286205 1.061049 -0.49690926 -0.5096157 -0.34434375 -0.41796434 0.35807973 0.6331006 0.07216554 0.03954485 -0.19332413 -0.92175865 -0.3307768 0.5311526 0.22947507 -0.6082001 0.11675689 -0.048075296 0.3870016 -0.69952756 0.23359422
733 0.06806379 0.94346833 0.13930814 0.08376144 0.48868698 0.0703155 -0.1980973 -0.40874314 -0.8561659 0.7028078 0.9219232 -1.3500674 -0.66480815 -0.30184877 -0.18168826 0.2309951 -0.41645762 -0.32058063 0.60491794 1.7834351 0.07281499 0.14632528 0.09947842 -1.1678382 0.1646846 0.07616023 -0.59758085 -0.109462455 -0.054808736 -0.18040237 0.8015305 -0.4701446 -0.26817635 -0.17822255 -0.24864005 0.5488637 0.92555076 -0.21807553 -0.61376697 0.7311911 -0.0040870323 0.3639245 -0.39927143 -0.094081625 -0.10809938 0.5312597 0.3076178 0.060243685 0.05174087 0.9176482 0.62192285 0.14452009 -0.008738305 -0.08195463 -0.20994374 0.07595053 -0.09794753 -0.5017741 -0.26522288 -0.7974228 -0.85747516 -0.31296423 0.051903818 -0.48980284
827 0.012974486 -0.3338924 0.5225476 0.7176422 0.296749 -0.7090947 0.31314343 -0.1451163 0.37618762 0.06826681 0.8366916 -0.7650745 -0.28650844 0.06872655 -0.1743089 0.098748125 0.48297054 0.535772 0.3415139 1.1580392 0.1468967 0.4310692 -1.3931619 -0.67218506 0.8577659 0.15729898 -0.9294523 0.5890928 0.36943543 -0.9608076 -0.3993968 -0.18506098 -0.31142634 -0.1960189 -0.38957393 0.31456986 0.028322218 -0.2653696 -0.6986342 0.10351155 0.058532495 -0.6069559 0.05634375 -0.5871778 0.1601527 -0.37251988 0.26897004 -0.3211251 -1.200742 0.33045512 1.1116339 -0.19321945 0.20798951 0.23835133 -0.4061816 0.22096634 -0.03474586 0.07548774 -0.4976079 -0.20110826 -0.7957372 -0.42669466 0.69699454 -0.3164043
335 0.5301554 0.03114118 0.14088535 0.50846183 0.5898516 -0.3495589 -0.25240976 -0.65373164 -0.6798212 0.35329503 0.43824068 -0.23557357 0.5242335 0.78762436 0.4927563 -0.30512685 -0.096635476 -0.2649104 -0.039695002 0.91108525 0.031618774 0.5447304 -0.3747508 -0.92509896 -0.31029797 0.7258169 -0.7315318 0.17601392 -0.46785417 -0.47611666 -0.1951224 -0.10661098 0.1578412 0.0004077405 -0.78724104 1.1360025 0.16152614 -0.77658355 -0.44821352 0.46210247 0.75474954 0.053435028 0.16643973 -0.018766265 0.63273335 -0.039559245 0.18031202 0.024150861 -0.26065594 0.7892623 0.82327807 0.6787464 -1.025382 -0.5264842 -0.24165396 -0.1568381 -0.5215737 -0.1830104 -0.9783328 0.55502945 0.0786553 0.38433084 1.1559423 -0.08381996
696 -0.13705033 -0.19047283 0.10769735 0.0910782 0.075287186 0.058934588 0.0035045326 -0.1364446 -0.058502097 0.7530471 0.8913496 -0.35495794 -0.54014176 0.4530594 -0.020103658 -0.098386005 -0.13477518 0.3948927 0.1660827 0.64668834 -0.5048587 0.99540067 -1.0730412 -0.5028173 -0.12365552 0.0757881 0.02043526 0.62415624 0.6677806 -0.15270793 0.23204796 0.21852936 -0.00019033915 -0.46449617 0.07343316 0.7419555 0.66527665 -0.095007874 0.013832875 0.63024384 -0.46477312 0.27792785 0.64263815 -0.2284572 1.2810421 0.63737595 0.10748012 -0.7014631 0.20733 1.4053073 1.1167297 0.073696844 0.091890745 -0.29840085 -1.121538 0.19754384 0.63631713 -0.35687995 -0.22368033 0.72036654 0.5196657 -0.9250959 0.30130893 -0.69114596
813 0.5836215 -0.34219676 0.45194563 -0.23398589 0.5429708 -0.4187528 -0.015084766 -1.0656973 -0.47146362 0.5922872 1.2826452 -0.73966265 -0.6667107 -0.570716 -0.11753107 0.39439252 -0.09220479 -0.9932012 -0.015568496 0.9193777 0.0124263065 -0.01924982 -0.19325778 -0.75903004 0.3586188 0.6504006 -0.017306907 -0.12510598 0.66940385 0.27915514 -0.3303745 1.1651331 -0.20442748 -0.4805213 0.070284665 1.4916847 0.12503825 -0.63984436 -0.14877892 -0.18646687 0.3568521 0.48165587 0.0028321065 0.41813353 -0.07017003 0.30669948 0.12816547 0.3482214 -0.487848 -0.20539202 0.5581147 0.1914683 -0.080991216 -0.037120294 0.47627005 -0.10307493 0.28331602 0.85913074 -0.55857444 0.0116930865 0.013111073 -1.0145637 0.15425001 -0.6712645
705 0.707676 -0.6951833 0.7679245 -0.23136434 0.1890967 -0.834683 0.1125146 -0.07984832 -0.7384054 0.7421528 0.39548764 -0.8236138 -1.0822122 -0.5892005 0.0019174562 0.17117615 -0.49911946 0.06697389 -0.13629478 0.50530046 -0.31312746 0.5345698 -0.21672052 -0.89617807 -0.060635194 -0.3248824 -0.3575439 -0.0019302007 0.45176217 -0.5402058 0.13464656 -0.07443547 -0.19880083 -0.34256357 0.35060123 0.13572228 0.13072588 -0.4455622 0.15159474 0.72647333 0.1112986 0.30720475 0.5821294 -0.6356251 0.4050462 0.13210374 -0.908068 -0.59320474 -0.53757524 0.10563948 0.4472119 0.16384655 0.39517498 1.1349298 -0.35684758 0.17514814 1.4658523 0.07046539 0.02319113 -0.09722367 -1.0625652 -0.58968043 -0.48507118 -0.6967519
246 0.21356511 -0.7913581 0.28836304 0.21956119 1.0491023 -1.1184293 0.49996743 -0.27870303 -0.9658369 0.6397446 0.9390062 0.53044283 -0.66785955 -0.2360393 -0.55240065 0.44192645 0.016358249 -0.34420633 0.3250425 0.6834783 -0.047264274 0.5934757 -0.19519854 -0.8620179 -0.6743861 0.033673316 -0.72484016 -0.768841 -0.4395477 -0.35213855 -0.27929658 0.100645244 0.064758554 -0.21150048 0.14340748 0.095428325 0.87115157 -0.659218 -0.112281375 0.47656015 -0.324385 0.44090956 0.19782284 0.64910394 -0.2204223 -0.005306983 -0.38598076 -0.77437735 -0.8456883 0.60622305 1.0035126 0.77599484 -0.53948617 -0.0967747 0.5252142 -0.84630793 0.13114299 -0.44050202 -0.25418836 -0.5373056 0.2193214 -0.4648164 0.044107094 -0.14564486
769 -0.48785254 -0.5366341 0.43358016 -0.19222979 0.14641802 -0.5503287 0.4531341 -0.7775196 -0.99039423 0.77906895 0.4772112 -0.45469227 -0.14836726 0.5836825 -0.64577013 0.1015724 0.14858325 -0.72430736 -0.06534171 0.64313984 -0.29964784 0.5754883 -0.88342476 -0.79426146 0.32617292 0.29501495 -0.56261915 0.1564838 0.45589527 -0.7314891 -0.12323855 -0.21738511 -0.8041299 -1.0526549 -0.097721964 -0.17131925 -0.75675035 -0.5780692 -0.3346355 0.42123798 0.39303574 0.583435 0.17899777 -0.018343048 -0.57774484 0.5325587 -1.0480164 -0.4425075 0.20728776 0.51353663 0.25554767 0.7467661 -0.3044785 0.37818858 -0.026304198 0.40844434 -0.50136244 -0.1647797 -0.5368703 0.41536322 0.04075219 -0.5890265 0.78762084 -0.5090711
673 0.011937307 0.7702439 0.029037153 -0.100938156 0.53032184 -0.08811555 -0.3910974 -0.2105509 -1.0011033 0.7805463 0.9172329 -1.4807056 -0.67194355 -0.2790101 0.19678035 0.19764628 -0.5052963 -0.46648952 0.43896538 1.832831 0.37426242 0.12512876 -0.14813177 -0.9821046 0.273739 0.0851247 -0.5076084 -0.29644316 -0.28480205 -0.29351717 0.39510128 -0.25702125 -0.020740269 -0.22216994 -0.07909273 0.5109037 0.47750658 -0.06195281 -0.70438033 0.9496506 0.07786924 0.2964077 -0.48814338 -0.1810558 -0.05967178 0.30115515 0.3066009 0.32355815 0.27676326 1.1577464 0.1930797 0.30264193 0.26798654 0.1815399 -0.22089967 0.08179036 -0.23245464 -0.4979029 0.009237268 -0.56372017 -0.5832598 -0.3346729 0.23934561 -0.47682178
459 -0.8065832 -0.83982223 -0.024998514 0.10531675 -0.20405467 -0.097569525 0.26261318 -0.06363053 -0.8163729 0.1445529 0.42585638 -0.26527208 -0.5553772 0.32983655 0.6373198 0.43596673 0.40715772 0.0749563 -0.97133625 0.7247733 -0.0048804423 0.7148297 -0.8160304 -0.5595209 0.033174668 0.64696985 -0.8163472 0.22939698 1.014746 0.28202376 -0.41179824 0.4831367 0.3627907 -0.6033796 0.16747417 0.54791224 -0.9277214 -0.48422045 -0.5215681 0.79678404 0.04819937 0.003896192 0.9050727 -0.6958364 1.0846052 0.07268804 -0.18086277 0.5073397 0.16804811 -0.015289296 0.8991954 0.5170176 -0.52139235 -0.031034276 -0.39919057 -0.08217055 0.59746915 -0.21496014 -0.59607047 0.026117932 -0.9823316 0.26052278 -0.051724225 -0.46407318
117 0.040632207 -0.5468541 -0.05915176 -0.20260234 -0.0901892 0.17721328 0.46526125 -0.5123606 -0.1444417 0.009632718 0.78775007 0.01635764 -0.8149458 -0.45413446 -0.44547114 0.3583154 -0.6614906 -0.324754 0.43855113 0.8456798 0.24876828 0.42286897 -0.5359479 -0.77724206 0.4236265 0.008160289 -0.4090833 0.27303404 -0.3414518 -0.21934143 -0.6056386 -0.22571148 -0.35712332 -0.23454186 0.032272045 -0.15436153 0.23766859 -0.79877245 -0.42998472 1.459913 -0.2368018 0.044545002 -0.7444283 -0.37800273 1.405659 0.57586 -0.517653 -0.3952068 -0.4702477 0.13762516 -0.22235201 0.7070547 0.29986945 -0.06468461 0.15454344 -0.3185499 -0.017950645 0.31864452 -1.7362524 -0.011514312 -0.7445318 -0.3587058 0.5799149 -0.7869983
482 0.54501 -0.063271955 0.45958006 0.035920665 1.1276453 -0.36248997 0.42594823 0.05023418 -0.55949014 0.8313241 0.68647194 -0.31214535 -0.014347986 -0.3251692 0.762083 0.052880168 -0.8274252 -0.28898376 -0.26762617 0.42808956 0.18644677 0.2466063 -0.45462164 -1.0140227 0.1381725 0.5395035 -0.18979526 -0.41678128 0.53813285 -0.088769875 0.0456927 0.34663045 -0.42144507 -0.50887007 -0.10583756 -0.6866883 -0.15901898 -0.21692032 -0.8730669 0.58659256 -0.29299483 -0.12143459 0.019200733 0.35035744 0.8969704 0.18403253 -0.6658167 -0.7826402 -0.3187157 0.23976083 0.80581355 0.9768045 -0.022718914 -0.17919044 -0.8155877 0.5978267 0.17154323 0.819334 0.31373033 -0.30800602 -0.5834677 -0.40233418 -0.23448457 -1.1782889
325 0.11368792 -0.3768559 -0.1629936 0.47363162 0.12835799 -0.15740024 -0.86399424 -0.03966051 -1.0231698 0.39454135 0.8150577 -0.0057866788 -0.5281529 0.17395884 -0.043659244 0.40279457 -0.30355504 -0.3154411 0.00040473923 0.5347071 0.7757768 -0.06824725 -0.9156784 -0.69680256 0.066628896 0.17138773 -0.5243163 -0.64167345 -0.29589328 -0.39582402 0.6640991 0.19991867 -0.4568356 -0.70994073 -0.03861073 0.8229073 -0.19305003 -0.08618657 -0.3513469 -0.5200132 -0.8584247 1.1197199 0.544567 -0.4633735 1.0612484 0.5043278 -0.48392746 -0.043594975 -0.2717797 0.21078405 0.31230745 0.8785169 -0.51627636 0.13868448 -0.27658767 -0.64899254 0.5431078 0.30134004 -0.6547342 -0.24055208 -0.11286222 0.08270458 0.7954968 -1.0877199
125 0.3678371 -0.8243318 -0.10193513 -0.25072005 0.44084704 -0.54491276 0.22059356 -0.4762549 -0.66891754 -0.6930983 1.3792838 -0.13631263 0.1203174 -0.20577613 0.29626185 0.499946 -0.4298663 -0.414049 0.6404083 0.7846096 -0.76684994 0.9186667 -0.9912818 -0.46033603 -0.105153956 -0.33898336 -0.72566634 -0.6432066 -0.20005044 -0.5503042 -0.110994674 0.025400821 0.36825308 -0.24755065 -0.6524633 0.772079 0.520169 -0.17974405 -0.6627746 0.41741446 -0.5958515 -0.14965922 0.05520784 0.005262303 0.82629323 0.117229834 0.6692667 0.29821196 0.16632177 0.028699756 0.99360955 0.12193526 -0.13518326 0.1098993 -0.53768176 -0.31966528 0.12720951 0.32897848 -0.33552346 -0.02536359 -0.71512073 0.1610259 -0.5534249 -1.246404
166 0.17240337 -0.3719528 0.032877717 -0.041157495 -0.33283597 -0.9082288 -0.1559976 -0.1560612 -0.8299041 0.51715875 1.8202959 -0.24103872 -0.62080604 0.49656186 0.2583509 0.62995934 -0.66641957 0.37008366 -0.2886422 0.6807973 -0.7570854 0.51088315 -0.40817448 -1.2755846 -0.09674788 0.73073965 -0.41939214 0.0058963965 0.7314864 -1.0025567 0.05477033 0.19213471 -0.52045816 0.52038574 -0.03720046 0.38481224 -0.37354204 -0.1298941 0.29043403 0.24166693 0.14514515 0.95195276 0.03866115 0.054025277 -0.43924487 -0.3765573 0.5575982 -0.20946033 0.029205343 0.5492344 0.19519582 -0.4590961 -0.35678858 -0.24861756 -0.40037507 0.032935333 0.25082466 -0.06177462 -0.41809776 0.030136978 -0.8124684 0.4347388 0.33084252 -0.28048253
12 -0.040681683 0.62877005 0.06698239 0.24246286 0.62185556 0.15342823 -0.7118863 -0.5406193 -0.8868572 0.5223208 1.0181316 -1.508034 -0.56139237 -0.44497904 0.035870917 0.16410194 -0.63821125 -0.19773273 0.5076949 1.8061606 0.2665712 0.14320154 -0.044784535 -0.9652177 0.33673456 0.18005748 -0.63395077 -0.25304478 0.10670428 -0.19132286 0.63433516 -0.56183904 -0.16453119 -0.40349665 -0.026522128 0.4868402 0.6230812 -0.029090073 -0.65902436 0.983594 0.19500268 0.34367922 -0.6057687 -0.015565522 0.17085752 0.23138145 0.26606756 -0.10813341 0.188414 0.84807104 0.38277587 0.36916637 0.1333034 0.13726068 -0.057655673 0.32862708 -0.016050262 -0.5468091 -0.15736088 -0.7197303 -0.692508 -0.19664013 0.17016786 -0.28005162
162 0.40858284 -0.9014587 0.17604746 -0.44678074 0.6281089 -0.057287693 0.2582298 -0.78094137 -0.03059335 0.8377679 1.0516257 -0.3740098 -0.91044176 -0.35792872 0.34287977 0.92470866 -0.08590497 -0.4975088 0.22680072 0.64409375 -0.4716205 -0.33780923 -0.67887205 -0.60891306 0.36680508 0.19170819 -0.0075171897 -0.5906108 1.2325073 0.06266413 0.06931383 1.0536879 -0.17235792 -0.8500928 -0.03324854 1.240565 -0.07436613 -0.45164806 -0.27659217 -0.123584226 0.5589826 0.1640916 0.29871666 0.45889306 0.28008053 0.49033722 0.22189976 0.09420926 -0.4735609 0.4125985 0.26920265 0.5455203 -0.1774227 -0.004466716 0.47918212 -0.16572966 0.39280954 0.58002067 -0.50076646 0.05018003 0.13688256 -0.798614 0.08928378 -0.5068279
568 0.16624688 -0.7666554 0.44457313 -0.67126524 0.6050589 -0.19667299 -0.03138837 -0.8189175 0.075617604 0.7685367 1.1691482 -0.5758269 -0.69285804 -0.5531171 0.43824038 0.8837592 0.17579952 -0.6030041 0.0013328105 1.0068482 -0.32547033 -0.0074903104 -0.36988515 -0.7259309 0.5555533 0.39449206 0.00095087354 -0.44761863 0.9471083 0.022308229 0.008554555 0.82299906 0.052712634 -0.7399913 -0.23496154 1.2570535 0.21827748 -0.28031233 -0.19857943 -0.003522012 0.70392066 0.28377873 0.27267727 0.40603152 0.06285676 0.3724655 0.13098925 0.3777591 -0.6854267 0.19961911 0.24755964 0.5285606 -0.12452844 -0.1373312 0.4871373 -0.14816114 0.37660348 0.7542566 -0.60351247 -0.005946129 0.20196337 -0.73463595 0.4945431 -0.680986
554 1.153077 -0.39112103 0.008366238 -0.25750366 -0.15876186 -0.6701541 -0.17669654 -0.48104957 -0.8322211 0.10786996 0.6521738 -0.17604296 -0.8329349 -0.007760453 0.22016415 -0.2616675 -0.35998473 -0.84729356 -0.3628708 0.5276451 -0.086703256 -0.2233836 -0.22331396 -0.91538113 -0.36936727 0.7022608 -0.66451156 0.60561436 0.3858678 0.00075295934 0.70914155 -0.24249336 -0.3406459 -0.5038905 0.22008462 0.64696234 -0.35609332 -0.9056942 -1.2825385 0.2721166 0.14712067 -0.30022836 0.3106749 0.28650925 0.9349764 -0.39113736 0.1918073 0.045838576 -0.087788485 0.54632336 0.6722256 0.38136742 0.5063811 0.8503228 0.46126866 -0.326897 -0.7776509 0.14323267 -0.7388671 -0.39902976 -0.54404706 0.4119148 -0.5426173 -0.50182074
581 1.4001563 -0.78453255 0.2623181 0.17969397 0.42404655 -0.17657408 0.12984145 -0.066724166 -1.2228605 -0.18038605 0.81428355 -0.0232991 0.42445278 0.042859286 0.18440735 0.8194796 -0.2985876 0.449935 0.056715157 0.85515743 0.14370407 0.16515392 -0.61350626 -0.86907005 -0.010361966 0.33339304 0.15727405 0.29268676 0.4136718 -0.5615391 -0.40867746 -0.5319108 -0.2748484 -0.23469225 0.20792747 1.7582175 0.16417311 -0.23876673 -0.9650503 0.68100816 -0.78324604 0.39556766 0.21420003 -0.06160927 0.26217562 -0.0215391 -0.5549768 -0.18017726 -0.14767608 0.82966477 0.014220887 0.5381143 0.06061322 -0.111870304 0.030376652 0.5221164 0.4675994 -0.26984125 -0.9666804 0.029340504 -0.42582533 -0.88778424 -0.23172356 0.3175669
255 -0.15387169 -0.3648847 -0.03947904 -0.053481616 0.028794143 -0.2321782 0.48504573 -0.48240328 -0.09222308 0.016149089 0.6007896 -0.05078166 -0.517183 -0.31541833 -0.5076106 0.41110328 -0.6980532 -0.29641458 0.32464814 0.8436263 0.6273872 0.5199506 -0.5532804 -0.6110014 0.05907799 0.2598489 -0.69757926 0.6113492 -0.46058875 -0.121682726 -0.3535073 -0.3571105 -0.21671928 -0.38239163 -0.034292523 -0.34617874 0.04321571 -0.667212 -0.47156096 1.6501647 -0.22818409 0.07814463 -0.5394527 -0.427421 1.508244 0.33386952 -0.55160654 -0.4066297 -0.53359044 0.031134462 -0.27600858 0.840967 0.124513015 -0.46946034 0.024211807 -0.23725335 -0.023540266 -0.0003786685 -1.6589843 -0.032895934 -0.5740182 -0.06678158 0.6462981 -0.77033013
