170 64
14 0.5502443 -0.6083803 -0.24314947 0.11048996 0.27357632 -0.33630842 -0.12111347 -0.24963443 -0.32481083 -0.19778305 0.03456312 -0.4659274 -0.33334315 -0.047918357 -0.07405821 1.0549467 -0.2742308 -0.040761363 0.030420784 0.22935142 0.17322335 0.12828395 -0.06548781 -0.0899308 -0.14695086 -0.0842719 -0.27380025 0.07360022 -0.18523112 0.64775443 -0.27687064 0.45761684 -0.3404077 0.69820225 -0.5986948 -0.2892431 -0.054407172 0.14825876 -0.016956927 -0.3062982 -0.06675112 0.38126576 -0.24604826 0.25005513 0.12665041 -0.14860377 0.46696934 0.04930607 0.036293503 0.25687212 -0.081378 -0.4421918 -0.22964609 -0.16534264 -0.033408046 -0.31049833 0.82781696 -0.34850678 -0.016843649 -0.09528199 0.011259888 -0.2289145 -0.22995435 -0.3939231
13 0.18164112 -0.022149943 -0.32389417 0.38400155 0.35123238 0.13121243 -0.00721598 -0.20453815 -0.8702195 -0.58123755 0.2480389 -0.66551036 -0.3316747 -0.22959152 0.3436247 0.77113795 0.20064595 0.2610134 0.49237284 -0.19049431 0.3673339 -0.1442112 0.46294317 0.06226814 -0.6753288 -0.12363305 0.2363231 -0.019695893 -0.092747375 0.030786794 -0.048950344 -0.1060219 0.16767053 0.1480987 -0.52443063 0.024879102 0.39108828 0.3742187 -0.12655719 0.062431067 0.15179472 0.05359341 0.56157225 -0.10606608 0.28531498 -0.30713737 0.15520729 -0.1830407 0.53400195 -0.2239404 0.13815236 -0.26799268 0.5413478 -0.3446783 -0.13259016 -0.43253094 -0.19511901 -0.027617183 0.23637015 0.08411332 0.003322143 0.49393433 -0.26748765 0.1501722
153 0.542044 -0.03978968 -0.48209885 -0.13441381 0.5324324 0.05960154 -0.7474965 -0.19292884 -0.3700323 0.030112637 -0.28980857 -0.25981098 0.4809286 -0.30992424 0.09005716 0.26558167 -0.09318353 0.62736833 0.2751153 0.4472674 -0.062027764 -0.2958109 0.01358627 -0.6186638 -0.35460857 -0.4807354 0.13473335 0.029291643 0.025862614 0.92119133 -0.080937006 0.43979868 -0.34890664 0.5517912 -0.47396222 -0.5889174 0.53784436 -0.40743735 -0.084541105 0.032450236 0.3010828 -0.12301334 0.48933613 -0.07631186 -0.28682187 -0.5690284 0.45701256 -0.22842546 0.36855093 -0.5315181 -0.08378032 -0.19837362 -0.73059696 -0.38434538 -0.050833616 -0.25650954 0.03718733 -0.2823537 -0.2814138 -0.28000286 0.39954773 0.13703135 -0.19868985 0.6787352
41 -0.046228282 0.2939339 -0.22191043 0.5354756 0.54460174 -0.13799863 0.13679908 -0.0747253 -1.0217031 -0.7096126 -0.11643087 -0.76905 -0.031624608 -0.19129935 0.22576456 0.5860078 0.13786593 0.5167413 0.5185355 0.32706112 0.107016236 -0.099670194 0.20700099 0.0020899917 -0.052636974 -0.38400024 -0.25434065 -0.16823491 0.06749948 -0.13319297 0.013715036 -0.0567585 0.0015211882 0.2772165 -0.5091082 -0.005908461 0.56194776 0.36401755 -0.098783255 -0.35354975 0.16150558 -0.2795172 0.1887326 0.1330153 0.5149958 -0.070538126 0.51777184 -0.117144816 0.47892374 -0.3691066 -0.32087785 -0.08842712 0.53286916 -0.34013128 -0.33785227 -0.4844964 -0.14578947 0.26242715 0.05605232 0.5054448 0.00078249624 -0.1573618 -0.18319161 0.113254055
44 0.2878373 -0.08821188 -0.17892656 0.50699687 0.59389234 0.22662045 0.04619148 -0.49830014 -0.7870568 -0.47142044 0.060447004 -0.38104165 -0.19863479 -0.41883504 0.3015834 0.5244997 0.30578688 0.30686378 0.675675 -0.017376857 0.3222367 0.08117799 0.2862373 0.34213355 -0.13809274 -0.32688767 0.014227237 -0.19055897 -0.23890005 -0.27723387 0.23393746 -0.114828 0.20942871 0.34876215 -0.49400908 -0.040085558 0.77217144 0.15156658 -0.17863676 -0.15324073 0.32975897 0.010370436 0.22213869 -0.018249618 0.4805512 -0.36775163 0.421543 -0.5640297 0.2671304 0.42996097 -0.013175752 -0.5347664 0.2807446 0.021372586 -0.24037966 -0.19924414 -0.14826983 0.048736904 -0.005796538 0.070495695 0.17823483 -0.091705434 -0.029199097 -0.041223392
22 0.04149365 -0.69252217 0.04147385 0.04332337 0.2704472 -0.0075347293 -0.05023063 -0.13368414 -0.63247806 -0.23546894 0.01977059 -0.46420524 -0.40539187 -0.35054377 0.048671786 0.60477585 -0.20852888 0.09474805 -0.2245894 0.47435683 0.32657704 0.5801669 -0.30351585 -0.14926946 -0.07569217 -0.19671755 0.10498943 0.15306768 0.18019284 0.91612977 -0.13263492 0.32280388 -0.055206157 0.5157872 -0.7420283 -0.14076817 0.17063817 -0.054618217 0.09568499 -0.1366857 0.080275886 0.1492788 0.28895372 -0.060256526 0.27320808 -0.3467113 0.6229565 0.2775302 -0.097352244 -0.21306461 0.032720447 -0.28506407 -0.35192308 -0.2705903 -0.2711266 -0.37603298 0.6589813 -0.20000342 -0.16122286 -0.17373455 0.06201842 -0.11529433 0.05225275 -0.4141251
19 0.39787444 -0.09474124 -0.10962487 -0.22317332 0.4183871 -0.12202574 -0.39690664 -0.49312243 -0.6501739 -0.26606685 -0.018408941 -0.8014662 -0.37447718 -0.63750094 -0.033144027 0.3596216 -0.32363126 -0.13678558 -0.27732155 0.38411656 0.35925958 0.057763483 -0.22854477 -0.04785405 -0.24642797 0.08415693 0.15724346 0.06574293 -0.22313973 0.12213737 -0.1661978 0.08354929 -0.30895886 0.69338256 -0.32275304 -0.3031339 0.26626098 -0.11156723 0.25458086 0.16096605 -0.3776267 0.19287345 0.20704935 0.25430742 -0.030864952 -0.3324572 0.6118981 0.24985397 -0.3045689 -0.035315327 0.256278 -0.628868 -0.49373344 0.117857985 -0.34258 -0.09233411 0.7482512 -0.3815381 0.19457333 0.254514 0.012334664 -0.17614156 -0.11780477 -0.68212515
167 0.28763857 0.018762698 -0.4499248 0.03963173 0.4896338 -0.006965369 -0.6008776 -0.2847585 -0.6015828 0.29826078 -0.2168304 -0.2951463 0.40627375 -0.13121893 0.541593 1.0243368 -0.15799211 0.5124493 0.23312306 0.47264135 0.099305995 0.17519775 0.20159632 -0.46841496 -0.19760822 -0.33115318 0.37477255 0.30079404 -0.31794602 0.66673756 0.19187342 0.8793673 -0.13166028 0.6186494 -0.57645583 -0.63694775 0.31013492 -0.47111192 0.18820193 0.28588474 -0.058165837 -0.19171917 0.13492385 0.22464147 0.022964172 -0.4863818 -0.044969052 0.0414901 0.21919009 -0.09240216 0.19827229 -0.044217903 -0.53393877 -0.29616374 0.073094964 -0.45528135 0.13314742 0.2430231 -0.294038 -0.20194718 0.39962167 0.10707539 -0.48660955 0.5737031
162 -0.13881864 0.04976181 -0.22886357 0.027698884 0.57185084 0.033497456 -0.36026236 -0.21569723 -0.5900193 -0.3840732 0.19899093 -0.31669366 -0.43300906 -0.28730655 0.3991068 0.4755692 0.31124622 0.034151204 0.28836793 0.20385097 0.07128213 -0.36833954 0.25002792 -0.06392106 -0.6073009 -0.11859534 0.07072773 -0.27737737 -0.054954663 -0.5988318 -0.17817208 -0.34345716 0.40799758 0.3722991 -0.61395574 0.26655737 0.8126728 -0.24830006 -0.5391431 -0.18856615 0.43463004 0.4841059 0.023927858 -0.0019056938 0.41471013 -0.5027845 0.13472037 0.06438614 0.51788 0.08556879 0.29766914 -0.3584157 0.28284904 -0.16502558 -0.20131573 0.004286306 0.22081108 0.15539789 -0.08323044 0.01719956 0.28877977 0.30566275 -0.00041570698 -0.46938655
108 -0.06499355 0.17235905 0.034759104 0.20202425 0.12272624 -0.26568004 -0.42617306 -0.4903617 -0.49402186 -0.31900683 0.09863319 -0.2767485 -0.2605291 -0.34423095 0.09279036 0.82779205 0.053507578 -0.17541453 0.046733182 -0.02274982 0.050912816 -0.44684848 -0.11597495 -0.17002447 -0.54307795 -0.2024777 -0.013627197 -0.056659546 -0.343918 -0.58253646 0.19830768 -0.42768466 0.0109509025 0.41557476 -0.30888453 -0.18020463 0.32167313 0.33352754 -0.09308923 -0.27661583 0.27794835 0.008687759 0.08003635 0.19584842 0.34425837 -0.9900527 0.52415264 -0.34881333 0.32106316 0.072880216 0.045288004 -0.6769155 -0.034005817 -0.17350358 -0.1348843 0.086368605 -0.07680273 0.17112073 0.033998635 -0.18662432 0.23287496 0.14179696 0.21441156 -0.7185605
165 -0.11683303 -0.32107124 -0.6694549 -0.22160582 0.16685209 -0.25505462 -0.4481202 0.1711586 -0.19733112 -0.31373075 -0.102134176 -0.74031705 -0.10560337 -0.5078925 0.27643466 0.34441322 -0.14788854 -0.3580961 -0.16059484 0.21669188 0.35144606 0.24334486 -0.22642766 0.023464987 -0.2551071 -0.2605546 0.18755306 -0.09361349 0.01962997 0.39973083 -0.27294722 -0.0039380873 0.032346558 0.8825157 -0.53131336 -0.7058623 0.0871271 0.027932888 -0.004955221 -0.14516449 -0.5141087 -0.1467421 0.15817557 0.1690403 -0.0084210085 -0.4782307 0.9997497 -0.0041397903 -0.19796352 0.24296191 0.15799898 -0.44357315 -0.5145629 -0.14062965 -0.52093166 -0.074693374 0.23013565 -0.47539416 0.26512334 0.2570718 -0.019045126 -0.23990835 -0.09167876 -0.802346
42 0.075749554 -0.04138318 -0.06439136 0.31721205 0.5120381 -0.07598422 0.008454754 -0.11147297 -1.0745379 -0.546512 -0.18761949 -0.8626751 -0.10456341 -0.14168338 0.3521826 0.6429775 0.18396825 0.69770414 0.67506933 0.0744281 0.17089866 -0.24635881 0.073547654 0.006043607 -0.08417677 -0.21427211 -0.28553694 -0.12131551 0.08458673 -0.07830492 0.25954527 -0.11456043 -0.075782 0.03782346 -0.7231954 -0.03487295 0.6208356 0.06519715 0.012851572 -0.4939719 -0.044850223 0.01558486 0.19319934 0.061249882 0.1571352 0.022268388 0.00039106427 -0.10869434 0.1733844 0.05834807 -0.2020389 -0.3879142 0.27128124 -0.12713264 -0.25009954 -0.15921183 -0.41726342 -0.17689304 -0.094753474 -0.0001982754 0.29515702 0.60285026 -0.5331562 0.07318899
29 -0.35597602 -0.20795251 -0.34961128 -0.07463496 0.17361592 -0.33686912 -0.7183828 -0.33783132 -0.29692805 -0.14135703 -0.31141385 -1.1334819 -0.101268776 -0.49245945 0.31451795 0.09678807 0.35268733 -0.39433295 -0.10790668 0.24469891 0.12614617 0.004881172 -0.280133 0.20006184 -0.31853026 0.23021638 0.027680589 0.16644712 0.04520119 0.45608908 -0.17410514 0.06808491 0.008417276 0.7292097 -0.63634723 -0.31893164 0.2609659 -0.15581398 0.32505557 -0.2634089 -0.47944513 -0.27561712 0.14006029 -0.06036628 -0.034479678 -0.5241048 0.76227367 0.16733894 0.074582964 0.2798364 0.13346903 -0.62340677 -0.6535882 0.040926337 -0.25686014 -0.16576003 0.59535444 -0.20269953 0.40950376 0.32952562 -0.08027712 -0.13353488 -0.11215981 -0.900125
169 0.29844242 -0.14142027 -0.1276517 0.578768 0.38627815 0.15660891 -0.26878178 -0.21835922 -0.67262566 -0.75861907 -0.06328563 -0.32480615 -0.56629336 -0.2554369 0.60820824 0.5190244 -0.02666727 0.36971125 0.8610768 0.0035248531 -0.12845577 0.12856463 0.32611877 -0.5294585 -0.48483878 -0.37984022 0.11787162 -0.33776742 0.10876979 0.031892017 0.14475493 0.14674999 -0.002116283 0.2915254 -0.37045223 -0.22198284 0.41335043 0.5619624 -0.39450434 -0.06293395 0.06269081 -0.28713125 0.066542774 -0.020783242 0.36184368 -0.30467337 0.0437354 -0.5258256 0.43783078 -0.09990841 -0.03767221 -0.33944777 0.11994487 -0.22519201 -0.24173266 -0.10858955 -0.12748635 0.2810531 0.27366596 0.23862213 -0.1677192 0.30067286 -0.09196169 0.15494604
4 0.333227 -0.5097315 0.11824374 -0.2360108 0.36252367 -0.16282529 -0.1806388 -0.28786314 -0.11003152 -0.19929734 -0.17156516 -0.77400595 -0.3530322 -0.6536766 0.3331049 0.62643427 -0.14607361 -0.12608097 -0.16153187 0.19845802 0.29785067 0.23434961 -0.40679032 -0.29028785 -0.10055403 0.23134369 -0.09936814 0.20941575 -0.14608628 0.48700735 -0.4095985 0.1563434 -0.3150809 0.68068254 -0.77187717 -0.58881027 0.23031773 -0.017622117 -0.43987224 -0.1321887 -0.043281574 0.073681094 0.21334729 0.2244828 0.29585254 -0.19094938 0.70895034 -0.25046006 -0.09025387 0.28402188 -0.21628577 -0.1452119 -0.3257387 -0.20348495 -0.056554127 -0.38550267 0.605135 -0.034313466 0.2025132 0.026821263 0.09173769 -0.50637484 -0.23710142 -0.50430924
152 0.2607422 0.05875186 0.020379847 0.23889542 0.21328472 0.120750114 -0.39460894 -0.2359316 -0.7664286 -0.47091198 0.25933257 -0.3959565 -0.4157189 -0.23931214 0.3625064 0.7554526 0.40203774 0.008121637 0.2533516 0.12760714 0.33844903 0.04996652 0.20272633 0.048771214 -0.3653626 -0.42002827 -0.15089813 0.030811263 -0.23682182 -0.41335988 0.12725808 -0.6389621 0.22739485 0.8010447 -0.1474326 -0.55974203 0.19426744 0.19353461 -0.2012833 -0.26249897 0.4814095 -0.08471649 0.19568193 -0.03746804 0.28059143 -0.2615959 -0.11859693 0.025907844 0.50479865 0.13031332 -0.12997977 -0.029318998 -0.011006252 0.07200708 -0.34959564 -0.18450092 0.40241754 0.40826324 -0.28009197 -0.092592366 -0.02003589 0.30156666 0.11544647 -0.5577796
30 0.30439132 -0.3531126 -0.08851062 -0.07092527 0.77706885 -0.24259622 -0.3566379 -0.073544845 -0.34605604 -0.24310274 0.13967688 -0.6660225 -0.19602534 -0.29391468 0.20032221 0.44802496 -0.17490174 0.044921715 -0.13868806 0.5312012 0.11473325 -0.09463702 -0.47683376 0.16445744 -0.41202277 0.015003837 0.01130823 0.10841544 0.29973763 0.6157809 -0.20402323 0.122380674 -0.0626922 0.5848244 -0.778782 -0.5603712 0.006968196 0.013244279 0.24083309 0.07772228 -0.118376024 0.06456545 -0.0705825 0.12687032 0.3331107 -0.34197485 0.696169 0.21361208 -0.13579187 0.22080101 -0.23300035 -0.4314153 -0.51123166 -0.1704022 -0.10946311 -0.16636184 0.39987263 -0.36054438 0.08360688 0.6110356 -0.0074651497 -0.5640753 0.018243885 -0.82590365
151 -0.056192957 -0.0056408676 -0.17892064 0.002478682 0.18216535 0.095536284 -0.17310674 -0.46243584 -0.75820297 -0.41672534 0.24045226 -0.57512903 -0.15258695 -0.48854414 0.38280514 0.78613204 0.29510212 -0.18184689 0.2374534 -0.166992 0.019183248 -0.053777028 0.16569938 -0.45770833 -0.28617215 -0.17477348 0.21836667 0.22259557 -0.4572577 -0.31581694 0.13083567 -0.56638527 -0.044059385 0.41402423 -0.5158742 -0.23070875 0.48891443 0.024093349 -0.17963669 0.20749258 0.10066834 -0.09239545 -0.027199816 0.2061911 0.45812646 -0.49843314 0.26210177 -0.2869072 0.47246432 0.4927473 -0.507971 -0.324344 0.1725817 -0.22040471 -0.27578753 0.037526682 -0.11471178 0.4282393 -0.62565804 -0.15037315 0.11329323 0.19736235 0.05821732 -0.5221894
147 -0.032915514 0.043781783 -0.42162788 0.18432036 0.004041096 -0.4205088 -0.50224143 -0.13892941 -0.49574187 -0.5264386 -0.045716073 -0.57191855 -0.224099 -0.28654402 0.20160048 0.68363404 -0.15495943 -0.15281056 0.43550014 0.09852156 0.08436756 -0.003555341 -0.22210366 -0.009029596 -0.378236 -0.25154734 -0.24301586 -0.03653123 0.04139537 -0.2709004 0.1583714 -0.6532089 0.018675284 0.76607555 -0.16871 -0.24052563 0.7454825 0.1505298 -0.29357436 -0.20255968 -0.075939365 -0.2550313 0.35067827 0.08609936 -0.035478007 -0.48200336 0.4927277 0.17566574 0.20936254 0.41545397 0.43668595 -0.69847864 -0.4982906 0.08050462 -0.022729035 0.5430861 -0.4068389 0.38616687 0.14091936 0.23407957 0.60079974 -0.37523955 0.097599894 -0.53856057
92 0.06367136 -0.4219662 -0.23746559 0.03734445 0.1999789 -0.35658255 -0.6232391 0.33745232 -0.23367961 -0.39719206 -0.1850889 -0.3842196 -0.24598329 -0.47093946 0.13334118 0.37372822 0.12982546 -0.033936273 0.16833203 0.20344263 -0.059474338 0.14785141 -0.29931328 0.16090803 -0.5325769 0.06749699 0.067702815 0.281003 -0.20319366 -0.23655836 0.5221059 -0.8494139 -0.2548874 0.79796714 -0.29278946 -0.53271115 0.45523053 0.061701037 0.0150065925 -0.3326583 -0.23017393 -0.5216467 0.56574124 -0.002688927 0.20073627 -0.5798058 0.62335956 0.19942799 0.24524082 0.48284277 0.5164321 -0.6017219 -0.5090915 -0.0587149 -0.48501 0.07119191 -0.22661789 0.02476649 0.12508467 0.35023612 0.16325632 -0.08787832 -0.037853695 -0.79463947
7 -0.058993038 0.2129957 -0.1232841 0.526736 0.47893408 -0.056703452 -0.25472918 -0.3975334 -0.86419 -1.0608215 -0.21332899 -0.47189006 -0.28094175 -0.36025473 0.32683945 0.407767 -0.05283394 0.21017355 0.79694307 0.08598444 0.19544336 0.16128367 0.10133603 0.09752011 -0.61175394 -0.4150473 0.46482033 -0.44294256 -0.040400222 -0.052771445 0.094184436 0.2955836 -0.25101477 0.13896702 -0.5670838 -0.2147647 0.36407608 0.56797004 0.18299834 -0.022790514 -0.24103722 0.13983361 0.21473461 -0.18339725 0.48076484 -0.20438173 0.34847072 -0.40287095 0.5326883 -0.046258118 0.0061174217 -0.019220581 0.52192277 -0.1998668 -0.06283103 -0.24512343 0.17718993 0.4052409 0.11623459 0.15676993 0.10959094 0.6153599 0.035794184 0.15152924
128 0.3688695 -0.06346405 -0.6447725 -0.12670483 0.93695104 0.033220235 -0.7882406 -0.09530544 -0.6508129 -0.3049223 -0.48033923 0.0316133 0.5414046 -0.061897535 0.18935691 0.54105896 0.18968007 0.5653835 0.36582768 0.17679492 -0.101867214 -0.112798676 -0.5936065 -0.23539563 0.09630968 -0.2559056 -0.56372964 0.24578072 -0.08599205 0.84338975 0.019431 0.99568224 -0.21596713 0.5710734 -0.31475055 -0.5552606 0.53051394 -0.23750044 0.22762248 0.13215323 0.55687374 0.14555535 0.7026939 -0.12325764 -0.19318302 -0.40272707 0.6053212 -0.09090207 0.47366694 -0.58660084 -0.13276592 -0.4466848 -0.79594326 -0.2081925 -0.1312989 -0.14351882 -0.22019148 0.031419948 0.16564563 -0.5485855 0.3585224 0.23451531 -0.11302183 0.372004
72 0.1747142 -0.21718682 -0.14613058 -0.07470093 0.4357717 0.19787422 -0.41991687 -0.047664892 -0.747844 -0.27248386 -0.18063582 -0.4771678 -0.52275074 -0.038046144 0.6073659 0.4443565 0.45856348 0.26333734 0.3364327 -0.06394603 0.33318958 -0.7273606 -0.09357696 0.10258718 -1.0795197 -0.36610162 0.13758455 -0.08038005 -0.35560796 0.06182539 -0.32304227 -0.30128685 0.4905638 0.46956733 -0.37480092 0.27574074 0.5169167 0.025557436 -0.26732838 -0.33000675 -0.13175805 0.38433808 0.16854383 0.10468021 0.0070407754 -0.8026698 0.14995115 0.07170227 0.90330154 0.18762358 0.12356451 -0.14726202 0.20170113 -1.0635358 -0.22885188 0.30551335 -0.11067625 0.7081142 0.21003665 -0.4355579 0.2625659 0.19169848 -0.1645393 -0.6037216
17 0.22937839 -0.47783917 -0.27734536 -0.019508516 1.3486923 -0.05162035 -0.48254547 0.39547873 -0.3615819 -0.018408673 0.022247184 -0.37666664 0.6176134 -0.11555972 0.3993409 0.59222853 0.4166196 0.6314258 0.0754317 0.48899582 0.075478084 0.1060095 -0.0268031 -0.60508835 -0.40556973 -0.20295995 0.07036044 -0.2820328 -0.45281282 0.85228926 0.2541088 0.28948295 -0.22007324 0.46237373 -0.43394497 -0.3382342 0.42044765 -0.4852713 -0.18367173 0.052752964 0.10174136 0.19713247 0.10936512 0.058878418 -0.38946804 -0.35585916 0.34264365 -0.0029813584 0.31030124 -0.3153869 0.13827068 -0.24533097 -0.6678333 -0.455106 -0.38687825 -0.3446949 0.120417796 -0.1276629 -0.078189 -0.41162378 0.14379308 0.3380586 -0.25093663 0.6007116
154 0.17175032 -0.2130285 -0.6094341 0.32142186 1.1082804 -0.22839323 -0.29934514 0.015841093 -0.57109153 -0.16892104 -0.18111524 -0.3955181 0.49080724 -0.43571985 0.19284499 0.394991 0.3839867 0.34853387 0.15748733 0.32726407 0.2500707 -0.37085378 0.09919848 -0.6430722 -0.1555921 -0.25839218 -0.10261656 0.14357056 -0.026991548 0.9825233 0.2508918 0.76013476 -0.21152267 0.66715074 -0.5737216 -0.571285 0.2635529 -0.4784729 -0.12417079 -0.004977433 0.054441046 0.02473451 0.16934794 -0.025968531 -0.23666522 -0.3863528 0.23120773 -0.09309413 0.26049507 -0.140275 -0.08962365 -0.17960288 -0.43503767 -0.052458532 -0.27149126 0.016481396 -0.0063530575 -0.16575812 -0.061461523 -0.67177206 0.34080765 0.25088394 -0.3416288 0.6158504
8 0.01823365 0.027168458 -0.3314785 0.08007651 0.624549 0.118383914 0.23452315 -0.5110548 -1.380156 -0.35006574 -0.15113914 -0.46609262 -0.09406856 -0.3364087 0.4439304 0.7699275 0.1232509 0.48991707 0.47947282 0.025677074 0.09554249 0.057315085 0.062398747 0.2886781 -0.14266047 -0.16955532 0.026743263 -0.45075452 0.10958332 -0.11733399 0.048149448 -0.22945562 0.3898113 0.33038455 -0.36964056 -0.39874983 0.58186674 0.32042822 0.012833805 -0.632499 0.009269667 -0.31160235 -0.08071276 0.076669864 0.26637304 -0.17414533 0.29066902 0.01587727 0.38464448 -0.21560629 -0.42881846 -0.121455826 0.5251322 0.027503284 -0.10352687 -0.35846892 -0.35964268 -0.23182479 0.10942375 0.027343795 0.33483508 0.29198667 -0.27083483 0.1236605
61 0.13264841 -0.021480449 -0.9806783 0.6165241 0.7941794 0.24210383 -0.087365456 0.11246998 -0.37024137 -0.10325832 -0.69043785 -0.51411414 0.18911661 -0.43333337 0.55459356 0.13124883 0.2468846 -0.25270393 -0.45300683 -0.33940178 -0.3791973 -0.53611535 -0.65932214 0.08063116 0.0719562 -0.61218125 1.112211 -0.2854685 -0.2405503 0.36537147 -0.013177004 0.30263233 -0.79890376 0.6077246 -0.43104577 -0.24121204 0.91080683 0.70202446 0.1807589 -0.35159627 0.13058479 -0.010052091 0.55531305 0.6304788 -0.17808448 -0.48166573 -0.006697375 0.4384466 1.2595202 -0.25176382 0.11793974 -0.23471934 -0.6689848 -0.080920056 -0.26220545 -0.33211672 0.33572024 0.21740548 0.14447129 -0.02506383 -0.035028134 -0.103689276 -0.9050271 -0.54971325
117 0.49911925 -0.11060119 -0.04539612 -0.23470278 0.42194206 -0.17462756 0.09540919 -0.22788419 -0.86204314 -0.38157493 -0.045615368 -0.53877294 -0.005398025 -0.17345652 0.26506865 0.7722678 0.5387242 0.26450965 0.2706565 0.23206283 0.35367414 -0.050730195 -0.09765152 -0.08180836 -0.3284885 -0.0067102886 -0.05962138 -0.27321506 0.2449319 -0.16135894 -0.0045768656 0.022545842 -0.02063474 -0.09585478 -0.8294998 -0.34657586 0.82306254 0.5212462 -0.08723171 -0.45969936 -0.28139922 0.016374733 0.008176504 -0.095216304 0.16037898 -0.015751705 0.30622873 -0.36920854 0.6808969 -0.3788315 0.054485008 -0.16676277 0.5628658 0.0603098 -0.5211001 -0.5128781 -0.24414016 -0.018670697 -0.07975252 0.28136513 0.11486933 0.3309592 -0.3756738 0.24386904
52 0.46872157 -0.4778222 -0.08665019 -0.10364824 0.37953866 -0.18980488 0.082498446 -0.40011653 -0.44125146 -0.14452331 -0.08301504 -0.44936526 -0.5816373 -0.32992363 0.4348194 0.75757635 -0.0759159 -0.070845686 -0.10840009 0.40999654 0.44856194 0.09125711 -0.16969307 0.026003463 -0.16672155 -0.045544162 0.22903703 0.46317697 0.4492797 0.9392292 -0.24257319 0.15924458 -0.19024743 0.81566495 -0.830224 -0.21279454 0.09624082 -0.09387016 -0.0028736778 -0.007078876 0.0520581 -0.08228818 0.18289663 0.38604206 -0.10042144 -0.15198936 0.5295419 -0.0027159513 -0.33877704 0.071949586 0.002588502 -0.026750993 -0.5281296 0.055820405 -0.28581312 -0.3375671 0.44868898 0.2417066 0.31350365 0.12600936 -0.10045383 -0.051165614 -0.031652004 -0.7451559
40 0.43095654 0.17659019 -0.0779914 0.53229135 0.4933423 0.019014442 -0.08815471 -0.03272675 -0.86773056 -0.5422894 0.24105039 -0.53387743 -0.068250135 -0.27329335 0.28872958 0.7269939 0.4938245 0.23603155 0.49168125 0.048185106 0.06894203 -0.17750768 0.283637 -0.25566903 -0.4861871 -0.27188718 0.3499034 -0.38899803 0.29790235 -0.06059423 -0.08147759 -0.22723114 0.42464882 -0.018822538 -0.5147213 -0.0023834258 0.53019625 0.40271878 -0.05153158 -0.38105214 -0.0074717947 -0.076317616 0.4165327 0.032407828 0.17520215 -0.23475297 0.51341295 -0.44391257 0.48057786 -0.056644637 0.17669764 -0.37065956 0.27508128 -0.4814464 -0.10842107 -0.086342774 0.16741721 0.21349679 -0.09300957 -0.02709313 -0.10445656 0.32685632 -0.30452132 0.1124297
124 0.36864173 -0.1023473 -0.31455213 0.25543523 0.26268896 -0.0722591 -0.039103687 -0.43910906 -1.0159281 -0.4904133 -0.002537401 -0.6601587 -0.39857683 -0.123623066 0.014210935 0.48976016 -0.16914646 0.1151758 0.5221345 0.36037406 -0.20606524 0.41625535 0.104695566 -0.13004664 -0.33817646 -0.18268417 -0.037158173 -0.3877922 0.083429724 -0.00641518 0.13786694 0.14975546 0.07814077 0.3189789 -0.4215317 0.19567448 0.28218547 0.04988214 -0.20127533 -0.1905969 -0.28761283 -0.09398691 0.48618373 -0.022725282 0.53360194 -0.14854199 0.42997026 -0.38689286 0.78655815 0.04600674 -0.32833356 0.19456254 0.4092427 0.103289425 -0.05948931 -0.31639108 0.023976034 0.12938409 0.27928346 0.31972945 -0.17170206 0.39733937 -0.42188084 0.004192152
150 0.08004779 0.16694318 -1.0605441 0.6355991 0.53659976 0.025450187 -0.30322933 -0.08346178 -0.23244363 0.11308332 -0.9443512 -0.46430692 -0.05471903 -0.062251676 0.56939715 0.41851726 0.03363278 -0.3000106 -0.32575002 -0.09357537 -0.30419222 -0.7245115 -0.31574923 0.050019477 0.09023872 -0.64224255 1.0359516 -0.13988991 -0.5471363 0.4327289 -0.12988678 0.27527654 -0.9617533 0.7629216 -0.6892586 -0.4377397 0.79898995 0.75881654 -0.15960255 -0.25750506 0.15858114 -0.2449324 0.549784 0.58247805 -0.042096943 -0.2865473 -0.20195672 0.37287122 1.0622774 -0.25380144 0.16090325 -0.17885958 -0.65550274 -0.23416692 -0.37817857 -0.19895737 0.13907987 0.05290703 0.32831562 0.19517316 0.07838393 -0.11047355 -0.9837154 -0.25553918
98 0.34676674 0.31009823 -1.0227355 0.06803581 1.0187826 -0.63818634 -1.153853 -0.109644726 -0.179253 -0.10411971 -0.15881495 -0.66117984 -0.29498452 -0.37673637 0.21912754 0.11116116 0.091145575 0.45918283 0.3886027 -0.034413304 -0.6466032 0.40936705 -0.39336008 0.18410338 -0.2854191 -0.62566954 0.8952185 0.45802146 -0.29845718 0.17466314 -0.1341222 -0.113695145 -0.72268236 0.30507824 -0.5045473 0.18524058 0.33156508 0.7600742 -0.17930262 -0.6425139 -0.1806382 0.36311755 0.66762674 0.2755638 0.41713646 -0.5546485 0.6155015 -0.45507494 0.053363677 -0.65667593 -0.38426432 -0.32664517 0.17800653 -0.031810977 -0.09831774 -0.30358282 -0.2733033 0.8649977 0.053661797 -0.33606887 0.5462875 0.8563087 0.08347971 -0.4848172
101 0.53554595 -0.16582146 -0.6309889 -0.19209035 0.17697029 -0.27567974 -0.49259692 -0.18228927 -0.27230108 -0.056449436 -0.261265 -0.73470634 -0.37796685 -0.44764954 0.030606648 0.51892936 0.33546096 -0.4709902 0.12180696 -0.0018741484 0.26527464 0.19159447 0.13508792 -0.31146896 -0.30500013 0.26969534 -0.1182292 -0.2312323 -0.26705128 0.10106874 -0.18887314 -0.20135963 -0.37409663 0.6514676 -0.4007355 -0.6243251 0.054320816 -0.06972772 0.057864506 -0.12170742 -0.7294583 -0.048990447 0.48441648 0.17569147 0.031157067 -0.6066892 0.3797319 0.46757647 -0.11579791 -0.23929054 -0.09767605 -0.81508017 -0.40033814 -0.06983396 -0.30635935 0.09917758 0.50691414 -0.22224094 0.54795986 0.20815554 0.23748341 -0.24094588 0.038580958 -0.9568745
71 0.20483951 0.117916316 -0.77308637 0.87717587 0.6077471 0.048669927 -0.33033904 -0.076244794 -0.16560699 -0.092363074 -0.83026356 -0.37945217 0.28389797 -0.31328264 0.5113805 0.28866008 0.1338496 -0.2117834 -0.19824556 -0.35113168 -0.019563735 -0.5153043 -0.479719 0.21712455 0.25865442 -0.65911853 0.91458744 -0.06426999 -0.40148786 0.55272716 -0.23295525 0.1687181 -0.7308618 0.7148476 -0.6309249 -0.47514653 1.0070915 0.6168222 -0.045533206 -0.47755393 0.2300182 0.26090237 0.47844064 0.53030396 0.10653061 -0.32354563 -0.0025581645 0.62928635 1.2040179 -0.37594223 0.32678142 -0.013533381 -0.5605705 0.13516767 -0.58797544 -0.32989776 0.059712324 0.32770312 0.3254225 0.3197138 -0.15282236 -0.15840222 -0.93313235 -0.29878578
160 0.6738955 -0.21303985 -0.83998674 -0.34335238 0.5680995 -0.21349299 -0.29356343 -0.27330106 -0.45427498 -0.8862747 -0.30658555 -0.115597345 0.105569735 -0.34318265 0.043793734 0.4942521 -0.110436454 0.04310196 -0.33454347 0.52288574 -0.34255338 0.28989756 -0.07045077 0.3323688 0.117402054 -0.15922408 -0.26635876 0.5900692 -0.22517508 0.8807788 -0.48031792 0.54504746 0.14291056 0.6543975 -0.5199872 -0.5727869 0.5255979 -0.047084443 0.39647615 -0.29082063 0.15706518 0.29300946 0.6746851 -0.4991825 -0.25162342 -0.2919017 0.7007933 -0.01063456 1.0328629 -1.0403767 -0.52172226 -0.05298972 -0.8615262 -0.30838907 -0.072279066 -0.5036379 -0.006796864 0.19350265 -0.05951071 -0.6256702 0.077432305 0.12555821 -0.16136631 -0.2409984
106 -0.46034864 -0.11205836 -0.74626124 0.14036544 0.43016252 -0.30003387 -0.52536386 -0.23804528 -0.60099393 -0.20991114 -0.06260367 -0.17426907 -0.4756983 0.09499195 -0.20263153 0.49647567 0.28747207 0.39286345 0.2328377 -0.09834251 -0.33904353 -0.23498496 -0.45135948 -0.16121392 -0.12861122 -0.07320999 0.06644659 0.39810038 -0.6166483 0.44260103 0.32785365 -0.8621843 0.086146064 1.0265652 -0.49953482 -0.22219908 0.6007049 0.48246926 0.31756276 -0.58587486 0.10070445 0.3884394 0.5784042 0.26598632 0.30896735 -0.8700247 0.27235654 -0.28284785 0.29502907 0.09538178 0.16738157 -0.51046115 0.041013226 0.04496929 -0.04865144 0.17437461 -0.39279118 0.6748214 -0.28815764 0.27788615 -0.13436966 0.27634838 0.2935996 -0.771275
148 0.04667045 0.11132233 -0.514491 0.12565398 0.1461751 -0.36373582 -0.4800842 -0.26411867 -0.7215142 -0.13173975 -0.25566903 -0.48958614 -0.46284798 -0.27197915 0.100649625 0.26651537 0.16510075 -0.47693613 0.0014965124 -0.43707642 -0.24678384 0.27183193 0.04266848 -0.2146477 -0.64105815 -0.3578573 -0.2564478 -0.21337634 -0.29587612 -0.31358656 0.20902196 -0.35579965 -0.19027616 0.76596236 -0.53251475 -0.37703252 0.11598768 -0.11018987 0.21257217 -0.21974622 0.13477388 0.07869766 0.19120029 -0.118254595 0.1385564 -1.0437676 0.23701505 -0.012224315 0.14408274 0.13679713 0.46520945 -0.49548268 -0.12169709 -0.28981072 -0.12377762 0.3902971 -0.058165558 0.10048445 0.16555223 0.28763628 0.54677397 -0.13290201 0.13219963 -0.8167835
77 0.28558022 -0.059664104 -0.12587431 -0.20171669 0.42222965 -0.60706306 -0.16364285 -0.35163736 -0.5620887 -0.26115966 -0.048669316 -0.33111158 -0.88380796 -0.25908285 0.3314165 0.5711618 0.03090011 0.07777124 -0.22950979 0.88559353 0.57691824 0.48557678 -0.043472107 0.026225016 -0.35992825 0.19599889 -0.012247241 0.076821044 -0.052291285 0.49901068 -0.13870688 0.12305579 -0.6252995 0.638719 -0.57639897 -0.45225492 0.040052094 0.19155021 -0.20061713 -0.14603323 0.17216706 0.0072195637 0.22470093 -0.021154173 0.01930443 -0.029816676 0.28149518 0.26083058 0.08404839 0.049564112 0.28955778 -0.06401828 -0.30085573 -0.2530845 0.0076129464 0.2740679 0.69986117 -0.33472443 0.120489255 -0.28954563 -0.15164587 -0.3566455 -0.1788375 -0.7921196
155 0.5837883 -0.47040644 -0.5271256 0.090339296 1.0182407 0.011475726 -0.44985953 -0.37482056 -0.31898743 -0.739089 -0.55130225 0.32609254 0.055394378 -0.49494117 0.01105058 0.6158972 -0.5898245 0.27080435 -0.15206918 0.27021524 -0.19951856 0.1192653 -0.6056315 -0.031927995 -0.13557169 -0.14438197 -0.42204854 0.50797385 -0.21521398 0.8259459 -0.3612475 0.49507606 -0.17253745 0.5571536 -0.19023566 -0.49888444 0.61401314 -0.12889269 0.31587827 -0.009766024 0.18999915 0.019349469 0.62174225 -0.5766566 -0.09051601 -0.26364258 0.48574167 -0.022837143 0.8838222 -0.8383114 -0.40217105 -0.23300454 -0.72154397 -0.27661216 -0.4605525 -0.61796963 0.07618417 0.17696495 0.0908262 -0.791561 -0.015841618 0.2026817 0.094967395 -0.31576976
118 -0.11930289 -0.3591943 -0.9070936 -0.2662825 1.2957828 -0.32670614 -0.026260732 -0.7744005 -0.7507893 -0.1117796 -0.49806342 -0.30041292 -0.029310064 -0.62016433 0.2597762 0.22840548 0.0463279 -0.23394462 0.7216694 -0.14583753 -0.09851744 0.057526864 -0.45568547 0.57017314 -0.59281486 -0.50760424 -0.42651072 -0.14505446 -0.13571067 -0.061646372 0.093127765 -0.61041117 0.23375556 0.6444702 -1.0620507 -0.24373737 -0.15391436 1.0394325 -0.3675957 -0.5715946 0.3110122 -0.69433236 0.5410792 0.17589322 -0.25451988 -0.3765899 0.2763415 0.6745355 0.61287755 -0.44725356 0.1334385 -0.25474343 -0.4831 -0.11865939 0.07463216 -0.5662224 0.08429314 0.29975724 0.07367568 -0.44105655 0.5453006 0.14795136 -1.0065196 0.2779981
39 0.4205752 -0.3503704 -0.29156032 0.057091225 0.6019087 0.0008854533 0.096300684 -0.01160195 -0.7519191 -0.06384657 -0.3004963 -0.5625167 -0.26815704 0.037054215 0.28666028 0.7062222 -0.37126726 0.11747743 -0.048330504 0.4770224 0.3069721 0.28752628 0.12309953 -0.65395373 0.11348398 0.11251331 -0.090518504 0.5901901 0.101950064 0.27894175 -0.40619442 0.60405874 -0.16974081 0.70602584 -0.7895541 -0.51870793 0.10731334 0.19415392 -0.030340893 -0.11871246 -0.2581996 0.33139905 -0.15094861 0.22895896 -0.13176665 -0.12140712 0.12734216 -0.07374091 0.2461779 0.10451565 -0.1057842 -0.6181982 -0.41854748 -0.29192063 -0.18874583 -0.3239519 0.52350825 -0.059626173 -0.08588556 0.030420315 0.06229423 -0.013960443 -0.041340858 0.31338122
96 -0.19005065 -0.006640007 -0.83320093 -0.15804581 1.1172272 -0.32398608 0.36558244 -0.79294705 -0.91175467 -0.37410054 -0.24364737 -0.34491464 -0.09093358 -0.65206313 0.29437912 0.3372209 -0.06980709 0.17123154 0.7464326 -0.4464688 -0.24520871 0.0038642487 -0.13841704 0.30759197 -0.6931847 -0.4400536 -0.32440516 -0.2456249 -0.30471206 -0.27213758 0.04550357 -0.49183196 0.061419938 0.6234972 -0.98700845 -0.30677572 -0.2775607 0.98456347 -0.20822167 -0.29692054 0.47808394 -0.5492734 0.69105107 0.09333128 -0.66467285 -0.16652341 0.373823 0.45696592 0.7094056 -0.34615633 0.5017696 -0.22755818 -0.5698455 -0.16404115 -0.2095782 -0.56723773 0.29279092 0.12692434 -0.025376206 -0.36685413 0.6187245 0.3075361 -1.0250304 -0.12550491
145 -0.15550925 -0.4656126 -0.89331627 -0.07036153 1.3940706 -0.1350745 0.39135343 -0.9171653 -0.92571884 -0.3896147 -0.53594714 -0.58154655 -0.17607036 -0.4242016 0.19384076 0.2502004 -0.0901786 0.22661589 0.6628758 -0.1419603 0.0039153513 0.06965622 -0.41596732 0.24235812 -0.68724567 -0.2749152 -0.2101557 -0.26606745 -0.20646669 -0.08481236 0.06925066 -0.6471659 0.16791484 0.33019942 -0.77359486 -0.2771138 0.0029696892 0.77253276 -0.21468213 -0.24913588 0.5709785 -0.7249959 0.36909565 0.23065591 -0.22851518 -0.3818083 0.19089486 0.5867265 0.7722177 -0.29941902 0.3282404 -0.2462231 -0.5325674 -0.1088297 0.37321624 -0.60593545 0.019000318 0.34492707 -0.35332277 -0.14510281 0.86545944 0.5365448 -0.9328514 0.09949922
109 0.30800626 -0.5325348 -0.31662884 -0.15385146 0.54529876 -0.1901374 0.08330116 -0.19130155 -0.24505503 -0.77812 0.02080446 -0.43565547 -0.08256503 0.01312484 0.30866122 0.9455692 -0.16769056 -0.10820604 -0.3744036 0.78066105 0.06393574 -0.054251667 -0.02125014 -0.2620237 0.1460117 0.1436249 -0.15874983 0.16939966 0.21928582 0.8481623 -0.27845567 0.4481725 -0.12256248 0.7630572 -0.92788106 -0.4015342 0.093676485 0.086316325 0.02674645 -0.124182254 0.104420796 0.47648284 -0.061917916 0.005862603 0.23702712 -0.2236374 0.12002321 -0.3280091 -0.056950293 -0.5329413 0.27333498 -0.33739978 -0.3564142 -0.02828342 -0.059533317 -0.4955376 0.40148944 -0.12506841 0.021849576 0.040186945 0.3414195 0.13745274 -0.19741464 -0.020477949
26 0.40974894 -0.48631695 -1.0397152 -0.011185974 0.9051489 0.2223531 -0.6385943 -0.47822434 -0.3954949 -0.5260593 -0.38320905 0.120444655 -0.07176983 -0.5600237 0.18125264 0.65576077 -0.34144542 -0.13281901 0.0019710166 0.52417374 -0.28998864 0.29709864 -0.058183875 0.08701604 -0.08401397 0.03924101 -0.3851062 0.41877222 -0.12562571 0.95847714 -0.8454949 0.5169288 -0.29775783 0.51802236 -0.3193014 -0.28119525 0.3281924 -0.21776494 -0.060169317 -0.25008458 0.17563409 0.14126746 0.6982336 -0.53318137 -0.29577044 -0.21662234 0.63840073 0.15951616 0.7591343 -0.50512975 0.001993804 0.27611485 -0.746691 -0.13137619 -0.2009175 -0.4684826 0.105923735 0.06708055 -0.10057969 -0.40968037 0.11313973 0.063599795 0.3655901 -0.391915
48 0.38007113 -0.13495837 -0.53080976 -0.28433108 0.6401131 -0.28654265 -0.08273419 0.31075576 -0.733847 -0.22986737 -0.30795383 -0.40801546 -0.18208875 -0.24952646 0.77880806 0.2993178 0.24393494 0.048971932 0.083528854 0.10183672 0.12734994 -0.9140943 0.01890076 -0.1615159 -1.2110765 -0.27309576 0.18310137 -0.29660547 -0.51612574 0.29162413 -0.4982372 -0.28189155 0.31710985 0.77441764 -0.30579033 0.10666354 0.33550084 -0.16858843 -0.05678223 -0.30194747 0.25212598 0.25871405 0.05624461 0.1766422 0.18543433 -0.6084559 0.171793 0.08284642 0.8041147 -0.3974244 0.19474983 -0.3722505 0.4970828 -1.2517325 -0.5680081 0.53139985 0.018737776 0.7424557 0.27424106 -0.17862752 0.47574544 0.24344702 -0.16189298 -0.35120565
127 0.7348747 -0.72565854 -0.39148697 -0.096852615 0.43266097 0.050634786 -0.089600995 -0.027065843 -0.581573 -0.37643763 0.20029233 -0.40877566 -0.1805882 -0.49268824 0.43130013 0.689674 0.17496021 0.06814178 -0.2184852 0.56503665 0.45951718 0.12838309 -0.2562292 -0.60353553 0.20962296 -0.21602397 -0.23224096 0.21073467 0.20525905 0.23635182 -0.17534341 0.31757605 -0.22033806 0.65429866 -0.97197443 -0.14702196 -0.2560173 0.24200878 0.45321167 -0.33870402 -0.24075575 0.1699302 -0.35782278 -0.10124393 0.25885198 0.013569796 0.25984114 -0.08609757 0.26335156 -0.14997624 0.2058634 -0.35546598 0.058648106 -0.039227646 0.17229393 -0.4247998 0.13347487 -0.1268349 0.13794959 -0.12183965 0.13275373 -0.095688544 -0.31763706 0.10485482
65 0.5579813 -0.25034854 -0.30242348 -0.70230275 0.33992553 -0.019738704 -0.43666548 0.2831831 -0.7318788 -0.6425075 -0.27231693 -0.35609785 -0.31749585 -0.07012956 0.56042653 0.56631285 0.3542793 -0.054982238 0.43779552 -0.07018793 -0.19713166 -0.93807006 -0.057137236 0.13654211 -1.1219192 -0.33079526 0.2910886 -0.3768892 -0.4396518 0.06142492 -0.547729 -0.13856387 0.27789524 0.5918209 -0.56938577 0.1188571 0.66896147 0.024136368 0.1093413 -0.26602823 0.2766269 0.26008892 0.086288236 0.1725129 -0.18596426 -0.7879097 0.17058536 0.19077593 0.65814656 -0.1624784 0.15782496 -0.310192 0.4560723 -1.2006661 -0.5488429 0.31289583 -0.029064357 0.7174228 0.12777418 -0.3617341 0.36331713 0.18408881 -0.6125149 -0.41772833
6 0.30057696 -0.90057755 -0.4060632 -0.14126678 0.44462538 0.04678296 -0.3683467 0.10385342 -0.659131 -0.32009697 -0.022099137 -0.2632219 -0.5838552 -0.4594174 0.1750622 0.64984393 -0.43372238 -0.07070167 -0.29930824 0.62147886 0.23540716 0.1442861 -0.10080261 -0.22747998 -0.40252078 0.041716978 -0.08488845 0.10693661 0.00010602644 0.8878954 -0.40661725 0.6810338 -0.16176945 0.42743295 -0.74523896 -0.06836426 0.3720827 0.14067884 -0.119721405 -0.0410464 0.12792398 0.18241379 0.0894022 0.32351518 -0.3447297 0.16145669 0.67581284 -0.0024377485 0.13452813 -0.18231107 -0.308835 -0.10226906 -0.23726839 0.20684473 0.30132887 -0.2290152 0.21494333 -0.26660177 -0.0016130693 -0.11249506 0.22162855 -0.14935105 -0.040217683 -0.32053378
45 -0.17984645 0.26722434 -0.30043358 0.1243334 0.5721548 -0.08102207 -0.56034744 -0.6627366 -0.63426805 -0.13782683 0.10720563 -0.37308794 -0.4001156 -0.43701428 -0.03055134 0.54686844 -0.0078075994 0.24224722 0.06039748 -0.5473051 -0.28567842 -0.39352256 0.11107128 0.03905194 -0.3520324 -0.11990372 -0.09943469 0.38220376 -0.23902364 0.12988727 -0.029134944 -0.73813426 -0.15011354 0.42541018 -0.41677496 -0.5816595 0.59414786 0.03173074 0.19267415 -0.542281 0.124992244 0.15040822 0.21785381 0.030814525 0.2505912 -0.832965 0.29133835 -0.5659066 0.5341471 0.37654534 -0.03502901 -0.5118153 0.40686 0.16290642 -0.24857607 0.01721584 -0.008212141 0.75760037 -0.62563884 0.050567776 0.07034148 0.18626288 -0.0012732241 -0.7359198
46 0.24716324 0.20167603 -0.29654416 0.18505637 0.34324825 -0.106273614 -0.18408401 -0.7347133 -0.79011285 -0.48702416 -0.28257996 -0.16416107 -0.40581447 -0.6133572 0.31921706 0.41014403 0.49479985 -0.11010968 0.34777057 0.101669155 0.34266758 -0.32285297 0.29057214 0.09165914 -0.48958823 -0.7144008 -0.33626276 -0.108314715 0.07155383 -0.3209144 0.15713036 -0.24309608 0.6055074 0.3359413 -0.371132 -0.20399523 0.098928824 0.29400593 -0.43500906 -0.35065883 0.5150873 -0.06047518 0.2722817 0.5667615 -0.09531144 -0.7503014 0.10887896 0.20151554 0.49423417 -0.034298427 0.2733514 0.0014059441 0.03361481 -0.2616182 -0.39000034 0.07907073 0.06657753 0.22685635 -0.3293063 -0.18290126 0.07064872 0.19975375 -0.29821926 -0.862018
141 -0.16184324 0.7867618 -0.8702116 -0.033494353 1.1008675 -0.69057006 -0.91365623 -0.032452896 0.097143635 -0.10089281 0.41074404 -0.45164934 -0.2590085 -0.51964706 0.19568212 0.13569845 -0.002273871 -0.061531845 0.44869652 -0.24906719 -0.11518368 -0.16087273 -0.6551754 0.3921087 -0.6133087 -0.8663386 0.48957777 0.7145701 -0.5535156 0.60944325 -0.13529019 0.15683743 -0.8528055 0.36509117 -0.62026376 -0.58131146 0.1873946 0.38269076 -0.3193326 -0.39500058 -0.09243966 0.38701627 0.45216858 0.3008446 0.29224637 -0.1043775 0.8309559 -0.084745415 0.050865397 -0.77380013 0.038171176 -0.20489994 -0.3893316 -0.4146314 -0.014367835 -0.72693586 0.46437094 0.7242355 0.51320064 -0.47117308 0.6458053 1.1807883 -0.73413515 -0.6641952
137 0.13956422 0.05360537 -0.72252756 -0.0019628995 0.2734039 -0.2569081 -0.7853081 0.027345138 -0.44908762 0.13679461 -0.5086307 -0.93379366 -0.11035525 -0.5006455 -0.035226647 0.39176 0.14866038 -0.49151573 -0.08587578 -0.055211242 0.5762661 0.34041557 -0.07952385 0.08995916 -0.46834257 0.24005817 -0.18934925 0.22777301 -0.07548618 0.55488926 -0.1610615 0.035991475 -0.117554605 0.8167541 -0.58660865 -0.27018353 0.218384 0.07893104 0.16097808 0.07446349 -0.43387285 0.04705019 0.06703007 0.39713162 0.23555958 -0.49242026 0.7017853 0.35833576 -0.036083397 -0.18373129 -0.12911488 -0.6944368 -0.19013548 -0.09496212 -0.5348276 -0.21621446 0.43218485 -0.07691826 0.45598823 0.29548252 -0.029049901 -0.6179856 -0.28032777 -0.9122631
62 0.6965288 -0.30924916 -0.63971496 0.24096794 0.23538397 0.04580319 -0.61745507 -0.3211439 -0.4891639 -0.22704393 -0.6518796 -0.39129433 0.12799306 -0.13336271 0.32349622 0.55288005 0.13729538 0.8637024 -0.034717727 0.63937175 -0.26441577 -0.0034787029 0.08610272 -0.6054991 0.01436662 -0.41478705 0.41250238 0.18258902 0.16032866 0.32209215 0.37984648 0.7003133 -0.4330404 0.3784807 -0.49825785 -0.44059652 0.37012097 -0.25221723 -0.20624037 -0.07995081 0.09957857 -0.14312492 0.28726017 0.19726501 -0.13668926 -0.8722038 0.23356667 0.2665249 0.1641147 -0.3324075 0.18011543 -0.25785774 -0.29034054 -0.55327076 0.28315315 -0.22738469 0.016601887 0.0018614845 -0.05168913 -0.3173408 0.49361977 0.47262257 -0.3453778 0.8708838
18 0.2607677 -0.25227708 -0.17821766 -0.35022154 0.55580425 0.07023214 0.066982314 0.18624468 -0.6830124 -0.60166484 -0.044177093 -0.2646709 -0.07367121 -0.48664558 0.5644322 0.8334927 -0.11956314 0.19236302 -0.25190702 0.40302545 0.2417082 0.24258433 -0.28138325 -0.066656195 -0.35290372 -0.026722616 -0.11200971 0.12655443 0.28363448 0.9258752 -0.16538773 0.6851304 -0.43226707 0.41034532 -0.80763876 -0.12423834 -0.2629996 -0.14096943 -0.055754084 -0.1679402 -0.3898396 0.15992105 -0.202223 0.11344869 -0.115270905 -0.18727204 0.2530512 0.018930651 0.17948374 -0.049267143 0.071584396 -0.75570476 -0.577262 0.14153406 -0.077910475 -0.35538727 0.173036 -0.17861429 -0.34232828 -0.35352513 -0.036769494 0.00610099 -0.25329146 0.17591915
149 0.6698257 -0.60450023 -0.58864075 -0.036330756 0.2805777 -0.06845904 -0.05051598 -0.15132375 -0.48492718 -0.38554975 -0.28653923 -0.6725209 -0.31615138 -0.35355794 0.24162972 0.78838074 -0.30260506 0.41547254 0.053249 0.6725213 0.3919581 0.44914475 -0.33314312 -0.31842288 -0.08602528 0.38770232 -0.08680733 -0.21938394 0.3531153 0.47271243 -0.05717617 0.605035 -0.2399228 0.47742745 -0.34829843 0.045462474 0.017394636 0.3248828 0.0033467477 -0.13136533 -0.24007754 0.6786467 0.3318396 0.24387369 -0.14121813 -0.25031203 0.32245976 -0.09968955 0.018306771 0.03413295 -0.4570562 -0.086913414 0.050060276 0.20075232 -0.07350983 -0.44583976 0.47100994 0.22682479 -0.12164828 -0.011402343 0.36599925 -0.16562703 -0.115005285 -0.14189379
132 -0.3441084 -0.0006658121 -0.5457294 0.3758832 0.2130844 -0.31053534 -0.7684221 -0.34858418 -0.26576155 0.015086328 -0.2717708 -0.8552788 0.22739941 -0.3447148 0.525166 0.33300287 0.44914705 -0.3092895 -0.15990688 -0.009881466 -0.043960378 0.12547511 -0.5309759 0.13099411 -0.5418579 0.7476124 0.5906955 0.22057298 0.17178069 0.48738024 0.2935405 -0.66863364 -0.032687906 0.88641435 -0.8192007 -0.38196045 0.082242005 -0.23674065 0.1069099 -0.24883217 0.08016357 0.24047068 0.6384937 0.013950482 0.1875301 -0.41219208 0.7765365 0.11057912 0.46594074 -0.0074784383 -0.14628415 -0.77853215 -0.8367025 -0.5428902 -0.40082422 -0.3194346 -0.23010953 -0.141849 0.51270384 0.24936634 0.18523277 -0.2447521 0.20899145 -0.84661347
168 0.24030225 -0.3495439 -0.29059538 0.39429206 0.75145924 -0.08014042 -0.25229043 -0.082835786 -0.6839103 0.20059073 0.13199317 -0.7182291 0.6123522 -0.13887253 0.40838465 0.69511163 -0.150594 0.5732583 0.3495679 0.71150917 -0.14977357 -0.42691508 0.0054125404 -0.7305361 -0.33250067 -0.25513476 0.01798406 -0.008645863 -0.23837855 0.68682766 0.30960092 0.53888214 -0.28656057 0.56804043 -0.4778426 -0.63175076 0.21156396 -0.05086264 -0.260274 -0.14299175 0.4292065 0.17014551 0.047505695 -0.2550713 -0.20189665 -0.2249256 0.2290396 0.09923117 0.28781328 0.26989478 0.3544625 -0.0032654116 -0.3882482 -0.18326373 0.113490224 -0.1384115 -0.35496074 0.16432396 -0.14655516 -0.47032955 0.20523456 0.27754855 -0.447117 0.51417714
122 -0.20972957 0.6274949 -1.1743973 -0.11142815 1.2111274 -0.61146027 -0.85262364 -0.13736272 -0.084703915 -0.36463234 0.11255948 -0.47994426 -0.13345805 -0.5347373 0.21076448 0.15850314 0.10447744 0.21928675 0.6515506 -0.099370554 -0.3382358 -0.012235002 -0.5678677 0.25817016 -0.43820843 -0.69020855 0.8161549 0.70354974 -0.42933738 0.54529244 -0.24343793 -0.024087695 -0.79071724 0.4356308 -0.28007504 -0.5059475 0.09125693 0.31754246 -0.15830894 -0.28090727 -0.29185063 0.3751891 0.22987418 0.33994082 0.54936427 -0.2285823 0.59506446 -0.036004853 0.052447964 -0.7988484 -0.05777516 -0.12497052 -0.18033594 -0.17213038 -0.27667308 -0.5438769 0.25306666 0.7003193 0.5454095 -0.5258299 0.6651761 1.1341532 -0.43278703 -0.77937025
133 0.54288805 0.48795757 -0.690872 -0.3960315 0.404654 0.21070151 -0.07231909 0.07544358 0.18984027 -0.5997974 -0.52674085 -1.0264167 -0.33677799 -0.54122734 -0.11471831 0.4901086 -0.22688346 -0.41285828 0.030350272 0.08611858 0.06723501 0.39130008 -0.55276227 -0.41306472 -0.75784385 -0.64914286 -0.040422104 0.20733826 -0.3343731 0.02988823 0.17097583 -0.15525012 -0.36390212 1.2778431 -0.11613933 -0.6432551 0.63547236 -0.117200695 0.10691943 -0.058053162 -0.16967244 0.042075265 0.1726727 0.21232831 0.41155502 -0.23621728 0.89309007 0.45115295 0.45337337 0.36121607 0.25926283 -0.71031713 -0.5750155 0.056879845 -0.13464813 0.30437583 0.06969172 -0.26665235 0.7813389 0.39099488 0.405403 0.15657572 -0.27086174 -0.46219432
37 -0.19481961 0.005794512 -0.62827915 -0.00087615114 -0.095165506 -0.36570027 -0.7724803 0.007735253 -0.15686037 -0.2584158 -0.29511124 -0.51501614 -0.32669157 -0.2273657 0.2416803 0.3683085 -0.012236762 0.03930645 0.20288928 0.54391575 -0.10105249 -0.054516513 -0.23451164 0.2934325 -0.31352922 -0.16868785 -0.0519713 -0.2666627 -0.28332517 0.3707711 0.63334733 -0.84838605 -0.063872084 0.8942931 -0.2044472 -0.064393714 0.49425742 0.24501202 0.006865319 -0.35104808 0.035440616 -0.22967184 0.6620772 0.17842431 0.19582415 -0.9548485 0.23726639 -0.14100431 0.3403042 0.39498347 -0.008803551 -0.94769996 -0.6138768 -0.04993461 -0.3224868 0.16874477 -0.3833656 0.1043595 -0.076918654 0.44971848 0.28838536 0.26086316 0.35047007 -0.71333486
85 -0.1976344 0.10066325 -0.2960621 0.13560946 0.06302191 -0.068830505 -0.7539701 0.16131279 -0.32466993 -0.20779845 -0.7017569 -0.58493006 -0.16436408 -0.40207505 0.25906402 0.374611 0.31551138 0.004358435 0.24009646 -3.7484006e-05 0.046597417 0.011826523 -0.57637495 0.21886037 -0.3532516 0.3733102 0.21474716 0.16851307 0.14225616 -0.045002192 0.29662406 -0.65887886 0.10701342 0.8526159 -0.2318908 -0.7923921 0.26695862 -0.17629485 -0.23713167 -0.22654676 0.30075288 -0.09466817 0.5263937 0.16639455 0.21855445 -0.6326575 0.44303724 -0.04836935 0.5052142 0.07396551 -0.033211056 -0.8221598 -0.45948192 -0.014707973 -0.038713552 0.14118887 -0.33467352 0.16582397 0.3442073 0.2849575 0.36478108 0.024921535 0.3684036 -1.050477
20 0.33575916 0.24037111 -0.27934632 -0.081640296 0.6321624 -0.084440574 -0.4477968 0.031178128 -0.03995339 -0.22795586 0.029690972 -1.05433 -0.26594284 -0.4057446 0.12731707 0.56080645 0.052103803 -0.39902177 -0.26320258 0.30863962 0.5736379 0.57067454 -0.18742411 0.058889665 -0.44540977 -0.12779593 -0.05439096 0.30505368 -0.48465407 0.21145003 -0.46876356 0.06444003 -0.15629664 0.8815553 -0.20435844 -0.23071 0.26692644 0.14704089 0.032503333 -0.113763005 -0.34368038 0.06831549 0.30066073 0.27052262 0.053542715 -0.5813175 0.70924807 0.23011684 0.045111842 0.23051833 0.33513746 -0.5835195 -0.745833 0.040170453 -0.2881337 -0.023336956 0.5074714 -0.22180092 0.3862762 0.6575525 0.27120706 -0.24164629 -0.09478359 -0.6142902
5 0.123589404 -0.071114264 -0.24315137 0.086862765 0.81374997 0.25441203 -0.21960577 0.39463815 -0.36118138 -0.2684973 -0.38795167 -0.493831 0.29899848 -0.17559783 0.5743265 0.57187533 0.28929272 0.4604909 -0.11503847 0.36313015 0.1300291 0.15611303 -0.13875942 -0.7738033 -0.44448346 -0.36067086 -0.23726055 -0.024225019 -0.22753829 1.1401818 0.1474709 0.58793455 -0.020783057 0.2844235 -0.98367584 -0.71546686 0.10471939 -0.45533365 -0.28644073 0.060403503 0.16324964 -0.12808652 -0.25716448 -0.27495122 -0.35406327 -0.3982921 0.5340171 0.1584694 0.20661633 -0.42129913 0.018923104 -0.046390664 -0.53525877 -0.02791326 -0.1439448 -0.49090654 0.32418314 -0.004596993 -0.27666 -0.25170034 0.20252796 0.24975233 -0.16527978 0.3149414
120 0.18121487 0.5376979 -0.9797708 -0.21590465 1.1680969 -0.7184175 -1.017653 0.0058230697 -0.405062 -0.07236542 0.027776096 -0.3816316 -0.22278307 -0.36288688 0.08862702 -0.19514069 0.13049015 0.14023533 0.48574084 -0.110789545 -0.3589683 0.09376819 -0.56762666 0.30114937 -0.385334 -0.876115 0.77748096 0.7785271 -0.73807 0.5315751 -0.20692609 0.17127751 -0.6808448 0.31455535 -0.6110664 -0.29284173 0.14051248 0.5740913 -0.12823507 -0.549399 -0.18138501 0.26186815 0.29946145 0.36206776 0.57261837 -0.21632844 0.6966023 -0.35928223 0.17296454 -0.5720303 0.04297015 -0.31392708 -0.16854826 -0.31411588 -0.06111058 -0.69694096 -0.03289705 0.8859661 0.3173314 -0.31941104 0.41719642 0.93488085 -0.30348143 -0.7071568
76 0.45445436 -0.6239484 0.037051123 -0.12644735 0.27917773 -0.766735 -0.123599984 -0.38739204 -0.3338033 -0.042395934 -0.10022429 -0.74867266 -0.625084 -0.301965 0.4987802 0.9154299 -0.03231905 -0.45522016 -0.041317683 0.22309199 0.05450497 0.21098672 -0.35263115 -0.32589942 -0.004824858 0.18924248 0.19991946 0.25823507 -0.3389688 0.48098472 -0.13316503 0.049313407 -0.12210129 0.22581457 -0.5409009 -0.70333534 0.25240684 0.1250897 0.1410634 -0.17335053 0.26654673 0.4110642 -0.14392705 0.08299279 0.18019143 -0.34780073 0.682961 0.05512161 -0.022042025 0.24570681 -0.38046485 -0.1356414 -0.10892011 0.19471782 -0.40514174 -0.06958711 0.22923188 -0.14997788 -0.26096827 0.30943933 -0.15458763 0.031316824 -0.32757413 -0.55919236
93 -0.44328156 0.23611946 -0.57774657 0.22870935 0.7672755 -0.39277485 -0.7586498 -0.41658404 -0.47865513 -0.3162845 -0.054536413 -0.058828432 -0.41562176 0.06977964 0.078518316 0.37436515 0.39940348 0.11508936 0.33358702 -0.18848415 -0.6957635 -0.35409206 -0.368074 0.01449384 -0.30786106 -0.42983544 -0.08711338 0.3287684 -0.45095125 0.19659 0.07094089 -0.628051 -0.38903874 0.74457175 -0.5715398 -0.45275417 0.5287129 0.5405622 0.07339666 -0.420632 0.10175989 0.5779179 0.6516689 0.39967227 0.46328223 -0.49788442 0.4585188 -0.5570219 0.29129097 0.21819226 -0.29867604 -0.6491997 0.1654793 -0.02828644 0.06412757 0.34267175 -0.19702189 0.5770902 -0.38686442 -0.051034026 -0.12825033 0.42088965 0.24788372 -0.7279188
104 -0.019260034 0.23029175 -0.12624964 0.018641062 0.6377593 -0.31626552 -0.7904537 -0.42127088 -0.4170609 -0.42739546 -0.3562987 -0.3565901 -0.42214802 -0.23376782 -0.0109786475 0.35044178 0.19147892 -0.4713575 0.18896465 -0.20690237 -0.032531153 0.08603408 0.048095632 -0.40992403 -0.4400466 -0.4402773 -0.3272987 -0.13719133 -0.21597429 -0.2834475 0.30966067 -0.5693695 0.33512014 0.68179715 -0.31953567 -0.29073545 0.6937382 0.32659 -0.197825 -0.02913526 0.12158839 -0.029187365 0.3562574 -0.09706321 -0.11590556 -0.62329584 0.14259034 0.38306373 0.33665434 0.092410795 0.4278855 -0.6547529 -0.052928187 -0.3413305 0.13310167 0.17813516 0.080718465 0.024026625 0.10152045 0.38541093 0.53751004 -0.02548526 0.006484551 -0.8857927
15 0.08058397 -0.17660794 0.2148567 0.07976893 0.52985287 0.029704263 -0.036511235 -0.264447 -0.614953 -0.4688512 -0.06008796 0.000857509 -0.094760664 -0.566215 0.34012246 1.1071931 0.05471415 0.21178503 0.41866246 0.08242836 0.08363869 -0.003587469 0.25536212 -0.10240992 -0.298999 -0.38872457 -0.12581195 0.17015904 -0.12559856 -0.43646258 0.5812558 -0.5593153 0.16117649 0.47230616 -0.1963933 -0.24637868 0.4713782 0.13827223 -0.18136111 -0.2517248 0.13207601 0.073245294 0.34150583 0.29701072 0.44103956 -0.8463284 0.5930952 0.037298497 0.40633863 0.6068116 -0.16871336 -0.08260598 -0.09384792 -0.026224053 -0.18709877 0.28124422 0.20955642 0.2384265 0.14798556 0.46244258 0.20708899 0.11720037 0.12468214 -0.2923672
146 0.042050418 -0.11865414 -0.32070717 0.21360394 0.0187432 -0.44821504 -0.5755664 -0.3205002 -0.42480463 -0.27514133 -0.36550224 -0.18348637 -0.023751702 -0.44816133 0.3579271 0.3125297 0.082708895 -0.047167666 -0.13136101 -0.33457127 0.069072805 -0.2880067 -0.11507146 -0.1691655 -0.36384863 0.10971661 -0.018807162 0.038592033 -0.1863046 0.09307324 0.32864514 -1.0349585 0.09521815 0.8433362 -0.17397593 -0.43034077 0.40394646 -0.0038350315 -0.31658068 -0.16138862 0.036590885 -0.124618776 0.29105264 0.23545913 0.096707955 -0.563833 0.5693654 -0.13049525 0.5704396 0.33080688 0.36112013 -0.90973985 -0.24479705 -0.14319114 -0.1332086 0.19780451 0.31807202 0.32938308 0.16448933 0.23548621 0.6211479 0.275743 0.5211199 -0.7717124
78 0.005947563 0.19564457 -0.2849567 0.07990097 0.4864761 -0.36377704 -0.06732636 -0.8508935 -0.78968734 -0.73668337 -0.24358863 -0.094377905 -0.37092975 -0.7286534 0.28602952 0.26850185 0.338256 0.09354163 0.5833581 -0.11269742 0.1872554 -0.25841844 -0.25465706 0.11146894 -0.6830303 -0.75395864 -0.26876777 -0.19946031 -0.089148216 -0.3671 0.2626592 -0.61423147 0.37797722 0.84424394 -0.16183369 -0.16715592 0.12548064 0.5342563 -0.42190006 -0.091784835 0.5083367 0.03040282 0.50691575 0.014926382 -0.15082678 -0.6624636 -0.024119327 0.47326076 0.53322446 -0.45446286 0.007189749 -0.19778353 -0.08457755 0.031961698 -0.411266 -0.12461837 0.4949976 0.12593044 -0.056334868 -0.28458476 0.286642 -0.14204255 -0.5841624 -0.6734883
119 0.31110996 0.46024805 -1.0245825 0.040765893 1.0874382 -0.3691394 -1.0912853 -0.20401163 -0.07468186 -0.335233 -0.069531664 -0.52260435 -0.2427523 -0.39775833 0.16497582 -0.16119626 0.12651534 0.17793451 0.58092946 0.012402341 -0.72226214 -0.13261808 -0.22401594 0.09468302 -0.3268745 -0.5540592 0.69765747 0.47713855 -0.644663 0.5084389 -0.18179849 0.034747608 -0.73975384 0.13982622 -0.2691731 -0.3273509 0.2330808 0.7818819 -0.22471978 -0.7033123 -0.1874799 0.2949764 0.5080296 0.365482 0.5222977 -0.44904068 0.65363294 -0.20409378 -0.15059112 -0.55211425 -0.19992813 -0.5530079 0.14329249 -0.075487964 -0.22744133 -0.8090119 0.061840884 0.83398855 0.38366348 -0.45968625 0.693925 0.8832981 -0.13246009 -0.65734726
121 0.07279238 -0.41782072 -0.76902694 -0.23501049 1.3318815 -0.17792019 -0.06612346 -0.7786805 -0.54655915 -0.22721231 -0.6448316 -0.44416463 0.16715 -0.54106486 0.49939567 -0.45951533 -0.012833181 0.2864266 0.7239768 -0.20021105 -0.07430046 0.15039474 -0.47978792 0.8660862 -0.85361147 -0.3330212 -0.12470817 -0.12324767 -0.37299088 0.11669826 -0.14733194 -0.3995406 0.26493293 0.85211504 -0.9423428 -0.5232161 -0.14967507 0.8375708 -0.35069954 -0.60609376 0.45359755 -0.59430903 0.2696166 0.41412443 -0.1741947 -0.39225084 0.47925356 0.9910928 0.5703272 -0.48712766 -0.07709455 -0.2589095 -0.8414211 -0.12535483 -0.5430665 -0.90606666 0.076971516 0.5019502 -0.05277703 -0.20298158 0.43120807 0.14773057 -0.62036985 0.30177796
129 0.5840886 -0.30038047 -0.64065856 -0.24453573 0.3293891 0.018993802 -1.0032115 -0.43900734 -0.37680563 -0.5265123 -0.47254464 -0.25314805 0.2753936 -0.015879069 0.23035909 0.47781876 -0.04295893 0.54233956 0.59498876 0.43996432 -0.58184206 -0.013872452 -0.22734417 -0.35752138 -0.15561752 -0.5993822 -0.065364875 0.458755 -0.35577002 0.95918375 0.3525132 0.44664982 -0.08858559 0.4901751 -0.47501984 -0.2762895 0.2886333 -0.61798996 -0.07788835 -0.052499346 0.42866367 0.10067648 0.3380682 0.054118186 -0.3744879 -0.29673156 0.2983641 -0.09645956 0.70802444 -0.73646754 0.13742125 -0.14502391 -0.8359131 -0.3837334 -0.057318754 -0.38143706 0.011655585 -0.41064557 0.09099245 -0.31585196 0.18548346 0.21382944 -0.13140368 0.33232367
70 0.57776815 0.12318766 -0.95634323 0.3499169 0.54396594 -0.031470925 -0.5861968 -0.24628925 -0.5386684 0.24085242 -0.6407415 -0.3880814 0.6032963 -0.51612294 0.44185522 0.4919549 0.22666186 0.80158645 0.0023327696 0.2852929 -0.15542224 0.0114724655 0.20160837 -0.709246 -0.49447557 -0.3683489 0.63185966 0.38418078 -0.013154082 0.30912095 0.26279932 0.89991504 -0.29143086 0.6306002 -0.49679577 -0.55503166 0.47479033 -0.15353155 -0.1621396 0.047285482 0.20639554 0.0148210805 0.36592603 0.0853922 -0.2396746 -0.5539135 -0.07268466 -0.026506834 0.20398742 -0.086493626 0.19205381 -0.2930323 -0.49663883 -0.1651561 0.474301 -0.6134804 0.28818658 -0.17058788 -0.07389601 -0.07953684 -0.067178845 0.16285338 -0.60969865 0.44914046
64 0.2531209 -0.05099567 -0.98390085 0.7664154 0.9245308 0.40061375 -0.13660565 0.17359328 -0.3483701 -0.02774481 -0.67549133 -0.40414014 0.041580006 -0.1274508 0.5262566 0.38354978 0.072212316 -0.39226505 -0.44504762 -0.42985237 -0.4207946 -0.43780518 -0.6784243 0.42845032 -0.16389406 -0.6637798 1.0763298 -0.24620554 -0.25233448 0.61011827 -0.427311 0.23952447 -0.89945334 0.79605114 -0.5486745 -0.34361026 0.83319503 0.7071367 0.057192437 -0.3144516 0.21479669 -0.1890307 0.6770244 0.6173004 -0.08644736 -0.44392717 -0.1984136 0.6597972 1.1958022 -0.17786703 0.049967267 -0.2001071 -0.43689188 0.09561868 -0.43101698 -0.055544436 0.004802331 0.025345309 0.19106181 -0.12433915 0.34884417 -0.08673132 -0.89298344 -0.77439445
107 -0.21015729 0.23847185 -0.28826007 0.0054509817 0.32273144 -0.47488526 -0.3698941 -0.48597077 -1.263071 -0.49401876 -0.25286716 0.07347606 -0.26445496 -0.54354715 0.16424046 0.33778813 0.012181513 -0.09436573 0.6703966 -0.20793732 0.2836568 -0.11109607 -0.12615155 -0.079780936 -0.41353562 -0.84982693 -0.3899986 -0.06853053 -0.19027147 -0.4525518 0.07385232 -0.40445593 0.6225936 0.676386 -0.42649245 -0.111496925 0.124120474 0.37853223 -0.33594233 -0.37719384 0.38901094 0.03582397 0.64665395 0.19106753 -0.17152634 -0.7558691 -0.12348889 0.42976072 0.44436243 -0.08448077 0.4496078 -0.5107261 -0.3499937 -0.19634812 -0.47293615 -0.010324609 0.36828637 0.32448405 -0.12064409 -0.072537735 0.0071013053 -0.032246687 -0.22712226 -0.58099496
32 0.42592776 -0.5277835 -0.6772169 -0.23550954 0.5160256 0.34841505 -0.67766905 -0.36300159 -0.23407869 -0.73921245 -0.63626754 -0.13295636 -0.055611182 -0.55150765 0.006067203 0.3667757 -0.35352787 0.03510704 0.24311319 0.6784383 -0.72734565 0.4327583 -0.25225294 0.0035788894 -0.19249496 -0.22458664 -0.30373397 0.60790974 -0.3056183 0.8884355 -0.5042458 0.3762928 -0.22175068 0.3553468 -0.71104795 -0.61553425 0.39754418 -0.06811311 0.2370047 0.1209288 0.3720714 0.6772968 0.8542646 -0.27290535 -0.35741568 0.11162854 0.4911287 -0.11445748 0.9294049 -0.5906708 -0.33113095 -0.09078692 -0.7485794 -0.31647438 -0.49922216 -0.1069833 0.23444344 0.0462608 -0.076020956 -0.51173663 0.08072019 0.1428723 -0.41378492 -0.047783658
88 0.12182695 -0.51976377 -0.23004733 0.675921 0.7876049 0.22458476 -0.24341656 0.16783416 -0.5843709 -0.15435584 -0.620032 -0.72323686 0.07748428 -0.79331577 0.34062093 0.3192388 -0.047833193 -0.1463488 0.23883165 0.3023189 -0.19255641 -0.32835105 -0.28255624 0.33917648 0.5174812 -0.5673741 0.40546265 -0.9437651 -0.2074596 0.48348677 -0.019930175 -0.18476385 -0.9605832 0.51165617 -0.40768147 -0.2946498 0.986461 0.5045079 -0.11259549 -0.5277888 -0.06221486 0.3607001 0.49904513 0.5654965 0.2053742 -0.20017383 0.4534333 0.42750645 1.1207869 -0.69800055 0.23304136 0.05437204 -0.35761437 -0.30343983 -0.08699215 -0.64799154 -0.7296797 0.730585 0.5492897 0.5703444 -0.022639947 -0.11104831 -0.9054056 -0.3657043
75 -0.020463869 -0.5040839 -0.41036165 0.68244475 0.7051417 0.19400829 -0.14896199 -0.14965168 -0.2259813 -0.26135027 -0.68701816 -0.5911565 0.12819718 -0.76374274 0.83129025 0.2546512 -0.15491594 -0.20795588 0.24385214 -0.108209416 -0.012116205 -0.48244828 -0.06650896 0.41191646 0.53010356 -0.6682771 0.5395224 -0.51842743 -0.43162113 0.50204396 -0.10580669 -0.20641306 -0.97145236 0.7724408 -0.45112962 -0.40287575 1.2481515 0.5150704 0.20356302 -0.7894925 -0.31010205 0.3525968 0.5286882 0.7748576 0.1670638 0.0016596548 0.07377266 0.3844414 0.8438866 -0.49386266 0.21029916 -0.096353814 -0.4420168 -0.53043133 -0.2510619 -0.81813306 -0.43042487 0.600731 0.6397991 0.24183331 -0.14552501 -0.22540478 -0.6571219 -0.2463346
31 0.64004713 -0.19272517 -0.5954943 0.08403629 0.79171497 -0.04044613 -0.41603613 -0.31853697 -0.45240733 -1.0015002 -0.36478433 0.14639899 -0.024642585 -0.35519755 -0.003451936 0.31471437 -0.37857473 -0.0062061283 -0.12277821 0.33731064 -0.368003 0.42205372 -0.3999095 0.1175561 0.013522317 -0.012806699 -0.46859333 0.54125977 -0.18705264 0.7395394 -0.6058529 0.6399731 -0.09404214 0.4880998 -0.5225842 -0.3560703 0.63617814 -0.12110889 0.15281668 -0.29485342 0.47503737 0.20631734 0.818642 -0.33540973 -0.2579205 -0.36398804 0.57782316 -0.109992765 0.792068 -0.6507878 -0.3023488 0.06458819 -0.75289845 -0.38643262 -0.5702349 -0.6419803 -0.051650263 0.016400844 0.257985 -0.7829818 0.04906788 0.053873945 -0.019546673 -0.45038268
91 0.5208694 0.36162546 -0.6716538 -0.22724786 0.2641888 -0.14853828 -0.14775914 0.06608376 -0.12083193 -0.4911849 -0.30139697 -0.9527494 -0.19991478 -0.48059863 0.15086254 0.4275909 -0.28578573 -0.32390478 0.13267927 0.33992136 0.0980341 0.60857016 -0.42425644 -0.010772246 -0.64904636 -0.7207055 0.062107526 0.23616701 -0.26447585 0.05211902 0.22797836 -0.34863406 -0.20580035 1.04224 0.37475365 -0.81136656 0.5343087 -0.07287431 0.25667623 -0.46020702 -0.05297383 -0.025288375 0.5001069 0.53887635 0.10245002 -0.4626035 0.4367316 0.3719743 0.25882936 0.4537561 0.17283794 -0.9474911 -0.46587637 -0.1475119 -0.044248253 0.46503085 7.8685625e-05 -0.32052973 0.64721435 0.30268973 0.11489489 0.14059596 -0.04345951 -0.5835324
21 -0.048825067 -0.0737912 -0.43438843 0.16923968 0.16092089 -0.31376415 -0.82944024 -0.30189276 -0.31748876 0.1491118 -0.061028704 -0.6861772 0.059837785 -0.31834137 0.16829915 0.28474396 0.052164897 -0.47339687 -0.18517898 -0.05978368 -0.05145764 0.14647083 -0.49749002 0.2864237 -0.57862544 0.5944294 0.28758153 0.24319437 0.25343668 0.5875097 0.30636138 -0.34624892 0.053566277 0.7756169 -0.9269602 -0.6633815 0.20188075 -0.38698888 -0.0068640457 -0.44030425 -0.10749588 -0.029810125 0.13583003 0.25048047 0.08524889 -0.42684016 0.6887887 0.06793668 0.4811074 -0.098944515 -0.27947947 -0.63245624 -0.7405071 -0.2270117 -0.64824444 -0.02754001 -0.06317131 -0.16995382 0.42186594 0.57170135 0.062615685 -0.17532083 -0.0090082865 -0.9243347
57 0.5255531 -0.02401978 -0.07953664 -0.3092468 0.7330117 0.04310814 -0.4856574 0.45084438 -0.7708075 0.16304135 -0.16543603 -0.67629343 0.3757238 -0.4408647 0.84472114 0.09092014 0.22386959 0.40704298 0.52292556 0.14143847 -0.035860274 -1.0561556 -0.800965 -0.25583956 -0.9225919 -0.38864517 0.30228582 -0.14652744 -0.939767 0.9424808 0.12333664 0.2987104 0.067598455 0.8261358 -0.6095856 0.042152427 0.5134761 -0.5292978 -0.06354489 -0.3474194 -0.05481504 0.21948366 0.1220295 0.39383805 -0.55057245 -0.30932698 0.635261 0.38158524 0.27661765 -0.3852059 0.25202128 -0.27523035 -0.13085786 -0.835755 -0.9517213 0.41088805 0.02660719 0.3503593 0.18185948 -0.4995758 0.39815715 0.50563115 -0.30557734 -0.014685353
163 0.57632786 0.34086692 -0.7142725 -0.31323442 0.491219 -0.3033601 -0.085895084 -0.08419165 0.2151989 -0.6364177 -0.43502536 -1.2983727 -0.36045223 -0.45290303 -0.13796568 0.3420439 -0.20454763 -0.3814887 -0.20983419 0.21341799 0.60445315 0.48741195 -0.46308023 -0.022883324 -0.5157542 -0.608021 0.078861445 0.012118356 -0.43754435 -0.09937846 0.3465449 -0.23403172 -0.031372424 1.094846 -0.15938155 -0.76214355 0.6058838 -0.2602321 0.2888395 -0.1177615 -0.33422154 0.27365106 0.18086018 0.2598777 -0.0025345655 -0.3549004 0.5840304 0.27824384 0.25800726 0.1435423 0.21328403 -0.5888009 -0.6543948 -0.094290204 -0.09910436 -0.015836898 0.24965313 -0.18913016 0.3876876 0.29562142 0.20892768 -0.15746903 0.09090809 -0.4047949
90 -0.36655593 -0.1543702 -0.7600379 -0.19128685 -0.21187516 -0.26183882 -0.7612046 -0.35282606 -0.09454457 0.28860503 -0.068353586 -0.72852063 -0.0011308116 -0.29416314 0.6564377 0.5378472 0.1630581 -0.19897924 0.20086215 -0.21404679 -0.25360745 -0.054866865 -0.54916936 0.089189984 -0.65556896 0.56730306 0.04503489 0.17321688 0.26626554 0.35502085 0.49873012 -0.36873424 0.08393779 0.5626109 -0.77990586 -0.7003414 0.26579496 -0.14614008 0.47497842 -0.0921059 0.08660111 -0.10615254 0.57449144 0.18526989 0.26620576 -0.20250255 0.73403585 0.27647167 0.8046946 -0.06485517 0.031165995 -0.7578539 -0.6645683 -0.3983116 -0.44309795 0.02738868 -0.2010446 0.0637418 0.3972044 0.47030243 0.1937072 -0.069411896 0.12622397 -0.9593395
68 0.56624097 -0.18365999 -0.10984837 -0.14824033 1.1682708 -0.223837 -0.2728583 0.5878474 -0.8275829 0.0006750197 -0.2694841 -0.6512778 0.4943613 -0.021914987 0.48462 0.19227932 0.28378943 0.40158132 0.852177 0.28919515 0.05756818 -0.95778877 -0.5505733 -0.41684547 -0.9428801 -0.22805862 0.37399954 -0.18333833 -0.7755052 0.76038605 -0.00885218 0.38207698 -0.01022643 0.9581839 -0.55355823 -0.4146117 0.38903147 -0.8643612 0.07833104 -0.24750456 0.15275799 0.1266728 0.33563152 0.43809736 -0.5266602 -0.5394587 0.64017624 0.28033367 -0.038426347 -0.44376323 0.50498265 -0.06527701 -0.17382053 -0.39406672 -0.8414261 0.15129994 -0.15737307 0.33003432 0.51744395 -0.63885677 0.43510744 0.3472419 -0.21068792 0.20645364
87 -0.02623173 -0.3654534 -0.16241308 0.82130516 0.6682923 0.07290734 -0.24484296 0.09082073 -0.7166482 -0.5769341 -0.4859667 -0.80260813 0.21028939 -0.5457945 0.7134693 0.51123106 -0.16608651 -0.25487846 0.32437205 0.16675991 0.02836387 -0.36744633 -0.095614865 0.09174119 0.22122847 -0.64210546 0.35201693 -0.7144232 -0.023297256 0.515453 -0.017322227 -0.49507168 -1.2969805 0.5381596 -0.21576138 0.003652681 0.98965025 0.34953523 -0.06707639 -0.6660229 -0.19571777 0.14625911 0.45717144 0.5259822 0.23252189 0.014176807 0.38427424 0.46484762 1.2420712 -0.7565876 0.09317405 -0.06744725 -0.14361347 -0.15992738 -0.092299156 -0.9390773 -0.54982173 0.6021648 0.44343698 0.34305057 -0.0052970694 0.010751599 -0.6095682 -0.075272165
140 -0.17715307 -0.3655116 -0.82780373 -0.18964414 1.2944492 -0.0062664854 0.18372415 -0.9652014 -0.80410796 -0.3635687 -0.5777033 -0.2337059 0.2018815 -0.6143114 0.30260816 -0.3474225 -0.0092689665 0.09236493 0.61812407 -0.085571535 0.17281972 0.03640848 -0.37111524 0.65240574 -0.68726814 -0.45873234 -0.12603855 -0.11069151 -0.48584962 0.046283543 0.010663131 -0.5106222 0.103433914 0.90672815 -1.1306506 -0.411995 -0.08611732 0.96480536 -0.06999926 -0.2005668 0.5394402 -0.75317305 0.44156554 0.16436495 -0.4506271 -0.35155657 0.52737737 0.80802095 0.33423057 -0.6054934 -0.013928762 -0.24156983 -0.6238278 -0.24728128 -0.12568717 -0.691888 0.08755671 0.38196248 -0.008868162 0.026350675 0.4891143 0.4734651 -0.8634583 0.05657729
51 -0.13361292 -0.22179933 -0.32859564 0.6125399 0.61684865 0.11104652 -0.25074026 -0.114170544 -0.40469575 -0.3246648 -0.7631469 -0.3706175 0.2677269 -0.45332912 0.60638696 0.2715844 0.25845876 -0.30815673 0.18081166 0.077211335 -0.23264389 -0.3189567 -0.32013425 0.28924286 0.38240883 -0.50804704 0.61704713 -0.49338755 -0.65604293 0.4198479 -0.29636723 -0.06632206 -1.2263469 0.8960228 -0.40209273 -0.25708067 1.0223886 0.48317078 0.009103513 -0.5190628 -0.0614254 0.33915904 0.4432189 0.7617394 0.22334221 -0.13661423 0.057253495 0.5017266 1.0392569 -0.49682295 0.24976055 -0.18364649 -0.84317654 -0.25644952 -0.35105938 -0.64466876 -0.352582 0.6555871 0.36985967 0.42016783 -0.31235313 -0.022500902 -1.0312883 -0.33647898
55 0.33838904 0.11542273 -1.0849193 0.75078803 0.27568606 -0.08750849 -0.49074715 -0.13696489 -0.39777094 0.32794285 -0.9909108 -0.30892494 0.17451686 -0.025846748 0.6915591 0.52316535 0.16078798 0.14221403 -0.064401895 -0.31705528 -0.33448383 -0.6187107 -0.6197612 -0.10453382 0.15040377 -0.33624843 1.1924 0.33906755 -0.5188822 0.14890383 0.03919235 0.36181483 -0.43439993 1.1095357 -0.38843396 -0.6731731 0.88324213 0.76603335 -0.23462045 0.06584667 -0.060947426 -0.13349563 0.20023867 0.595963 -0.14646873 -0.5674824 -0.12516816 0.30551016 0.76204544 -0.067026064 0.10684537 -0.17980766 -0.5665323 -0.32159385 -0.39755118 -0.37882262 0.5624278 -0.014280847 0.3104194 0.032184374 0.038992077 0.10003778 -0.9731978 0.21315467
56 0.49808 -0.17485271 -0.19141899 -0.08816713 0.9246874 -0.057671815 -0.3062322 0.34095547 -0.59871006 -0.003898711 -0.3970131 -0.48059967 0.26853812 -0.23683979 0.5345342 0.1583928 0.2629358 0.21649615 0.48251483 0.29426676 0.0835806 -0.99075323 -0.9477714 -0.22241367 -1.1666288 -0.56942225 0.53069234 -0.18735386 -0.50981283 0.68327695 -0.38222435 0.05764093 0.073376864 0.7648558 -0.59915394 0.009499399 0.38689935 -1.0077056 0.028747838 -0.49202478 0.09220719 0.171556 0.042738516 0.40517583 -0.30239704 -0.23408985 0.48191717 0.48873016 0.45567808 -0.53955626 0.13222557 -0.48991883 -0.10602499 -0.84641486 -0.90332395 0.5888909 -0.23121297 0.5971443 0.089869134 -0.5251198 0.2561597 0.46926972 -0.41846198 -0.34393907
54 0.41082254 -0.043345954 -0.045667116 -0.19850074 0.86350834 -0.025893798 -0.33638534 0.43805405 -0.6028847 0.018915158 -0.5506739 -0.631346 0.045665666 -0.43160868 0.85129493 0.28016323 0.15442415 -0.05950363 0.16666624 0.14108661 -0.1200521 -1.0910301 -0.8539369 -0.09527582 -1.0143301 -0.3864818 0.48196912 -0.18439668 -0.76768625 0.5631549 -0.23520495 0.05093507 0.2432605 0.80085486 -0.55333817 -0.19034158 0.11293108 -0.57044697 -0.32240117 -0.4510478 0.15243173 0.5401136 0.0052829757 0.21510541 -0.43454152 -0.58327436 0.46183005 0.22604485 0.54677105 -0.53622955 0.13356628 -0.41968825 0.29450148 -1.0176357 -0.8819407 0.47663534 -0.19556 0.69964856 0.2555412 -0.3883918 0.10800567 0.5086829 -0.27356565 -0.17490411
16 0.21472207 -0.25114846 -0.3067787 -0.41117117 0.38425237 -0.15418114 0.045227308 0.06937026 -0.8645819 0.06090018 0.057996213 -0.41953123 -0.8594173 -0.2344555 0.5056823 0.40456632 0.1031043 -0.1893706 0.3120409 0.8351366 0.073862076 -0.06972807 -0.35156587 0.27852038 -0.42283994 -0.34065643 0.49471512 0.6619741 0.6194927 0.8544851 -0.010347435 0.4772187 -0.61110824 1.2325441 -0.83806336 -0.7780007 0.33167455 0.063461825 0.076587796 -0.16961862 -0.0004102101 -0.23574187 -0.031685956 0.5472816 0.11254616 -0.61807287 0.38997698 0.46606976 0.43825978 0.3921368 -0.33982465 0.26235822 -0.42950106 0.13942735 -0.67254424 -1.0489584 1.0646273 0.40860185 0.296976 0.033931848 0.2769006 0.040921308 0.033816233 -0.66642106
53 0.1808557 0.08527787 -0.8998199 0.8536908 0.6075849 -0.061533477 -0.43150383 0.060913324 -0.25939956 0.07648107 -0.85201794 -0.24761178 0.13904193 -0.0538102 0.48540848 0.19462746 0.09346356 0.29702255 0.06749278 -0.25684977 -0.18722919 -0.49832097 -0.5316859 -0.14843422 -0.1073461 -0.30872104 1.2557782 0.116190694 -0.39556724 0.21165079 -0.15573883 0.30991608 -0.70103645 0.85042006 -0.48534235 -0.8576007 0.7970489 0.76229423 0.12011911 -0.40685356 0.18082389 -0.05511946 0.5028121 0.7879259 0.09049772 -0.52922827 -0.34188172 0.30067378 0.8765656 -0.038552698 0.17442217 -0.18950173 -0.7524492 -0.30138978 -0.40463793 -0.19791466 0.48449463 0.036165446 0.16704957 0.23020396 -0.068124466 -0.1954119 -1.2175553 -0.023337014
49 0.52238274 -0.087706 0.10425712 -0.098032035 0.5422019 -0.025153257 -0.4928331 0.2780589 -0.5065888 -0.12245715 -0.38235378 -0.33135852 0.067656085 -0.037274692 0.72392964 0.18692134 0.18261392 0.28235367 0.01672616 0.011459925 0.1107361 -0.9283024 -0.54872864 -0.044287164 -1.2642158 -0.27833465 0.17832953 -0.28901127 -0.84859574 0.59560865 -0.26846454 -0.24006079 0.15641932 0.9828353 -0.9196297 -0.116434164 0.4972568 -0.5601296 -0.1026644 -0.39600673 0.03381536 0.28303775 0.22755152 0.23654094 -0.008031894 -0.23260163 0.28006363 0.39898846 0.66876715 -0.3269294 0.27000904 -0.36284965 0.56730527 -0.98614645 -0.6565633 0.43876573 -0.10409809 0.76964676 0.36330137 -0.37983856 0.33771446 0.34964505 -0.31526136 -0.3077593
24 0.19031249 -0.37776306 -0.8587551 -0.36358255 0.43193227 0.30683932 -1.3431922 -0.20996758 -0.920325 0.112796575 -0.7261174 -1.2232742 0.10146265 -0.13633771 0.35190848 0.05681207 -0.2804463 -0.56430054 -0.29661354 -0.14124902 0.7086639 0.2216207 -0.1814186 0.09747105 -0.7382424 0.26904687 0.007786909 0.07416851 -0.3132975 0.6313089 0.07932897 -0.32950953 -0.9568622 0.60793436 -0.40736976 -0.17190029 -0.025379453 -0.033212833 -0.14883019 -0.50452334 -0.21260568 -0.094367236 -0.080817804 0.5261413 0.46601063 -0.58594084 0.4450078 0.26668853 -0.077972874 -0.6593708 0.39169782 -0.5701748 -0.40991402 -0.046133693 -0.4096982 -0.32703662 0.7059847 0.28143632 0.7088919 -0.16244325 0.19531913 -0.48815867 -0.41462803 -0.6807687
143 0.43480697 -0.028276004 -0.52419794 0.078814134 1.0414758 -0.11463193 -0.5438643 0.16730067 -0.67097825 -0.016327083 -0.2659037 -0.3093873 0.32105196 -0.2115093 0.28107816 0.37726796 -0.14625873 0.25477108 0.18821716 0.2736842 -0.012311768 -0.18294516 -0.41520372 -0.4936773 -0.10526665 -0.23290125 -0.38801524 -0.018585455 -0.07370937 0.91116345 0.24964356 0.6876393 -0.1257909 0.6197346 -0.45683444 -0.51698136 0.6638962 -0.05358125 0.42740515 0.19705804 0.32021195 -0.26398176 0.48559472 -0.15005253 -0.111117214 -0.3827189 0.40974247 -0.16183592 0.07214361 -0.41030174 -0.0069704326 -0.3085514 -1.1337483 -0.27089384 -0.0007528746 -0.29146916 -0.42555115 -0.043130863 -0.2410939 -0.7938299 0.3137776 0.64131534 -0.057904202 0.33605355
83 -0.03463453 -0.12031348 -0.0022399293 0.59208643 0.7455014 -0.3346058 0.022247767 -0.03757736 -0.54806054 -0.49938843 -0.53524005 -0.75149864 -0.12744977 -0.6730407 0.43622783 0.7912783 0.17966561 0.080765955 0.49234796 0.096982524 -0.006905766 -0.33257848 0.05657711 0.14554206 0.30367175 -0.7046107 0.20894244 -0.94420874 -0.037205104 0.39091274 0.012765111 -0.2697836 -1.0878725 0.46189958 -0.7194953 -0.13097979 0.9924802 0.44945595 -0.2775052 -0.6508908 -0.07775394 0.30386946 0.30051696 0.49907392 0.49570304 0.21581458 0.4713909 0.39110336 1.0511425 -0.6772805 0.08680138 -0.06403866 -0.22148538 -0.46580905 0.25514466 -0.39514157 -0.5825493 0.613824 0.4008591 0.3654482 -0.18767813 -0.071467064 -0.5159082 -0.2125153
103 0.035173684 -0.45901176 -0.6019706 -0.25392163 0.33533472 -0.2254487 -0.7470139 0.15888269 -0.48400447 -0.63491005 -0.7143563 -0.83986646 0.14720076 0.05546447 0.7998019 0.28769985 -0.07319079 0.026099987 -0.81557894 0.14425614 0.10515162 0.26111624 -0.52961636 0.2783416 -0.60655886 -0.93573743 0.14697938 -0.2179883 -0.25478095 0.2832575 -0.13588367 -0.03424573 -0.47005463 0.3294499 -0.59597605 -0.68505955 0.27559662 -0.045363083 -0.28988966 -0.4040774 -0.6974124 0.042415816 0.16743629 0.22830015 -0.46858868 -0.45557874 1.2665935 0.2217985 -0.41043285 0.34543929 0.053153306 -0.15061706 -0.7189215 -0.28513873 -0.74500686 -0.42422697 0.28317952 -0.20148924 0.2467494 0.7237472 0.5599897 0.038936473 -0.36023957 -0.8735192
74 0.6150235 -0.06466406 -0.98736125 -0.32586634 0.47524717 0.43740758 -0.5915079 -0.09845258 -0.85473174 -0.884566 -0.041593626 -0.09068199 -0.34670645 0.27417827 0.9138314 0.21289451 0.07716806 -0.0497411 0.23481129 -0.41061443 0.658717 -1.0926741 -0.657422 0.36312175 -1.0181195 0.23038842 0.30806905 -0.11266758 -0.019205872 0.1260711 -0.07679265 0.042520918 0.15951675 0.38210493 -0.38204107 -0.32253546 0.37413007 0.12578897 -0.57738805 -0.47845706 0.36251923 0.49108687 0.44431978 0.049714684 0.33798695 -0.1441772 0.401735 0.18690248 0.930038 -0.10316865 -0.020845441 -0.0740719 -0.2301983 -1.1432551 -0.28692293 0.050637275 0.09004405 0.40494436 0.37176207 -0.05014031 0.048666313 0.63927114 -0.7728238 -0.47554764
135 0.5305158 0.31040335 -0.5294657 -0.5531743 0.25734925 0.048292175 -0.051175024 0.48986727 0.12435552 -0.56878805 -0.45363688 -1.0389414 -0.29517207 -0.8328066 -0.17438683 0.162875 -0.38084385 -0.29226905 0.007283444 -0.09893977 0.4337306 0.22458315 -0.4768053 -0.44971505 -0.6801685 -0.82924306 0.03739117 0.2590999 -0.7034492 0.085507065 -0.026854353 0.0020744489 -0.52041084 1.0054657 -0.025899258 -1.0650374 0.83776534 -0.29190588 -0.15581262 -0.35529548 0.16439654 0.23146565 0.21203424 0.19244675 0.25536367 -0.39492375 0.9911591 0.8785795 0.872325 0.3759975 0.42699483 -0.98717225 -0.6638049 0.07122721 0.033946395 0.009714854 0.13372926 0.04904513 0.62094754 0.44996288 0.54564244 0.2838459 -0.089164175 -0.256498
79 0.1278262 0.42679304 -0.9921501 0.047444154 1.0519788 -0.7195233 -0.8962911 -0.52807415 -0.102610126 -0.1934036 0.00355538 -0.27349728 -0.37784094 -0.20691185 0.3414012 0.16591838 0.1735402 0.39818436 0.57652324 -0.36965877 -0.9862106 -0.09465649 -0.30385327 -0.13288583 -0.3549048 -0.89815176 0.70063895 0.62770194 -0.47738266 0.5322994 0.04186484 -0.23152037 -0.42639548 0.22210331 -0.83164144 -0.33621982 0.5706581 0.46018267 0.04412634 -0.23058285 0.08050466 0.3109598 0.7157397 0.27481857 0.38224444 -0.44475895 0.5751751 -0.2147466 0.0627626 0.3301876 -0.40593565 -0.65173507 0.4484755 0.21582772 -0.0070773982 -0.11121309 -0.33566996 0.5789784 0.09591365 -0.2838115 0.13917536 0.33331004 0.33205825 -0.85918975
66 0.4943297 0.20238514 -0.8595023 0.66297615 0.4001878 0.16217354 -0.48451787 -0.23142572 -0.1941768 0.16271497 -0.87859344 -0.3682404 0.1860105 0.010821303 0.5301709 0.30074003 0.22366796 0.20719087 -0.13351272 -0.15422285 -0.3985275 -0.6839712 -0.44280702 -0.24267782 -0.044655822 -0.28142852 0.8970122 0.3976872 -0.52987903 0.38904658 0.29023546 0.5144932 -0.49197116 0.97895473 -0.56593794 -0.88196194 0.49537674 0.6459282 -0.14446472 -0.17421263 0.26490924 -0.1455253 0.49714655 0.6490967 0.031552296 -0.79611486 -0.38027516 0.0080896 0.61151606 0.03525845 0.3037045 -0.18285893 -0.7411625 -0.25876346 -0.20959191 -0.45103973 0.5179887 0.0066386145 0.12914759 0.27658045 0.20036817 0.019106422 -1.1464753 0.28627977
82 0.33865583 -0.09465567 -1.1044028 -0.36459863 0.18228234 0.76803654 -0.6024143 -0.39825937 -0.81015164 -1.0699809 -0.0329109 -0.27724946 0.18973757 0.047080413 0.59095246 0.54573697 -0.1486578 0.041021034 0.08339351 -0.16556557 0.8809641 -0.86189127 -0.57424766 0.056437206 -1.025689 0.17909794 0.36365354 0.09633153 -0.073578656 0.30585742 0.12230252 0.21925445 0.0056968164 0.26117986 -0.51701754 -0.116631 0.50917995 0.23873451 -0.70435065 -0.5970669 0.40310815 0.24310894 0.18343993 0.1444047 0.5093078 -0.14551757 0.12443077 0.15099367 1.0077312 -0.15540755 -0.1459135 -0.04381222 -0.067564 -1.1777116 -0.20313357 -0.22237346 -0.044497326 0.6950734 0.50316095 -0.034717526 0.21339701 0.74463296 -0.6422122 -0.3323048
73 0.0106226 -0.032075536 -0.6159021 0.5714168 0.8129411 0.0919993 -0.4600858 0.0204686 -0.2776441 -0.092665836 -0.5669051 -0.6040588 -0.0683495 -0.538323 0.615004 0.3305758 0.020097625 -0.2008664 -0.20205149 -0.13309939 -0.28569478 -0.6333358 -0.44609493 0.03707962 0.48666683 -0.73793346 0.8556188 -0.42225984 -0.3946431 0.22078052 -0.064404756 -0.014895916 -0.8744612 0.7782441 -0.38916546 -0.56445 0.90721285 0.47866878 0.019974938 -0.5312925 0.013810153 0.051115762 0.7431924 0.6711377 0.15535356 -0.2091327 -0.014732289 0.57068914 1.038006 -0.5228275 -0.019718183 0.07452678 -0.6237944 -0.2608237 -0.3539192 -0.52768207 -0.22412829 0.28513348 0.45733604 0.15726705 -0.41011313 -0.31704545 -0.96582514 -0.29546472
95 0.1886413 0.5144328 -1.1344134 0.20439965 1.0277113 -0.8080643 -0.97844857 -0.11110109 -0.42090428 -0.48304427 -0.2513812 -0.48638874 -0.23196265 -0.087134935 0.16269103 -0.07380011 0.24905424 0.10273994 0.54825896 0.030710746 -0.8522959 -0.14752477 -0.37571076 0.19780032 0.040072188 -0.73066187 0.6536867 0.8092704 -0.50773805 0.4481412 -0.049789216 -0.016265322 -0.47661135 0.121404625 -0.59245634 -0.20659968 0.2704442 0.53954154 -0.24741818 -0.47817427 0.07223806 0.27394468 0.4605618 0.11611623 0.44972312 -0.5938681 0.8333096 -0.22384235 0.115998775 -0.02716571 -0.32340991 -0.86156315 0.43975282 0.32693708 -0.069447294 -0.060963593 -0.21713376 0.7208768 -0.014618879 -0.17182668 0.40986994 0.58544534 0.068883255 -0.7073
116 0.21486388 0.2858476 -0.6311747 0.4213589 1.0137988 -0.26366243 -0.8124982 -0.04455841 -0.6562696 -0.5199599 0.002100182 -0.5888688 -0.3301158 -0.22280475 0.06323499 0.21016453 -0.20291878 0.25107726 0.24575028 0.3575004 -0.13628459 0.12581085 0.084324196 0.17036226 -0.640718 -0.85717887 0.898664 0.04743476 -0.04048534 0.44334233 0.17663355 -0.13400121 -0.85214674 0.2032922 -0.58974326 0.12508093 0.06570504 0.9551632 -0.47998735 -0.3986732 -0.15765151 0.54482615 0.24954803 -0.054072946 0.12566023 -0.53398883 0.6958668 -0.5018783 0.33396193 -0.6451377 -0.3715512 -0.34246176 0.45434597 -0.03306569 0.06201703 -0.42578268 -0.19376048 1.0475856 0.22382316 -0.09800663 0.54044664 1.0879006 0.0006648956 -0.15846607
134 -0.7637901 -0.057512447 -0.2600918 0.6447573 0.22239496 -0.40827572 -0.97996926 -0.35197264 -0.31193987 0.4236372 -0.24764216 -0.6315915 0.20245363 -0.7541922 0.46144575 0.37245843 0.14168674 -0.32699054 0.017624434 0.14282843 0.28094995 -0.13390136 -0.46440613 0.19651148 -0.559818 0.5968975 0.46611196 0.05777206 0.18707044 0.26927978 0.43435076 -0.42579615 -0.2783377 1.0642141 -1.150695 -0.8978062 0.26237613 -0.07703182 -0.006682345 -0.33229917 -0.006686 0.40632918 0.47555116 -0.10203398 -0.0720612 -0.37569845 0.51896614 0.40559345 0.49206454 -0.13643682 -0.08925296 -0.7215604 -1.152743 -0.63602537 -0.52592844 -0.08675082 -0.27108037 0.114893526 0.43915468 0.2821044 0.3175184 0.34047118 0.28076348 -0.8325413
9 0.68648654 -0.3472664 -0.5348185 -0.0724219 0.61644673 0.029203352 -0.91309685 -0.12144781 -0.3616688 -0.45294708 -0.19865805 -0.30601057 0.14949758 -0.22697178 0.48890445 0.38052917 0.20301454 0.6673988 0.6832827 0.19207168 -0.32154426 -0.06413714 -0.2266202 -0.1668235 -0.15527658 -0.28574967 -0.10193835 0.38934827 -0.2394326 1.0349253 -0.08145087 0.43317732 -0.20786281 0.28549597 -0.2564559 -0.7762566 0.59759384 -0.37250447 0.23626134 -0.21885613 0.20588681 0.06682851 0.43844998 -0.33901268 -0.4795583 -0.57775956 0.14789003 0.00441458 0.37884435 -0.62906486 0.1449811 -0.30614907 -1.0131135 -0.32514894 0.071527615 -0.17660926 -0.076953836 -0.16989167 0.10167531 -0.64231396 0.32321414 0.12344613 -0.123510964 0.50047016
144 0.10518272 0.17847016 -0.97153544 0.17477848 0.75349164 -0.15257318 -1.2093502 0.17091982 -0.5204727 -0.36485067 -0.01796686 -0.6932111 -0.35499802 -0.37407243 -0.0621307 -0.0034092146 -0.21918397 0.2575464 0.5213851 0.2683235 -0.49380624 0.28065208 -0.14452738 0.33643058 -0.31845176 -0.78448975 0.91967416 -0.029453838 -0.13670294 0.5664231 0.1833949 0.14296387 -0.41027108 0.2556038 -0.6196356 -0.04094807 0.27976006 0.91687024 -0.3672448 -0.5393022 -0.20921062 0.4383279 0.3725917 0.34353292 0.5732397 -0.35962892 0.59319204 -0.22699116 0.31843513 -0.5434313 -0.2562728 -0.32618305 0.4227197 0.07389642 -0.11565567 -0.71001947 -0.21111766 1.140321 -0.12032051 -0.4084707 0.5906468 0.98401296 0.09942507 -0.35702536
67 0.43695602 0.12335999 -0.9929764 0.40359193 0.2655295 -0.09606162 -0.740043 -0.39313456 -0.1572801 0.023581792 -0.55241454 -0.33120176 0.5151005 -0.042290967 0.5150939 0.5065369 0.32188836 0.44809243 0.07574816 -0.052194744 -0.17289147 -0.39303082 -0.2397373 -0.58122224 -0.008884756 -0.44154045 1.2072161 0.24435706 -0.38061693 0.25708354 0.19265723 0.55806965 -0.53857815 0.81310105 -0.72249883 -0.86125153 0.65942144 0.39091995 -0.20059627 -0.10721516 0.2732898 -0.45111197 0.34469226 0.54729927 -0.2134804 -0.6095309 -0.2716044 0.2270134 0.38017365 -0.17249924 0.2619094 -0.36280346 -0.79759085 0.13670966 -0.1750887 -0.13352525 0.19205025 -0.24378721 0.23150955 -0.057781607 -0.18197733 0.21040738 -1.2358665 0.2095818
69 0.50734526 -0.12925541 -0.07002153 0.13260062 1.2946407 -0.0013486559 -0.5919982 0.37300178 -0.67176694 0.058761504 0.1835653 -0.8826236 0.49658862 -0.25540522 0.38689485 0.07916823 0.42349097 0.34141034 0.37684146 0.7199644 -0.07642923 -0.59320307 -0.5518885 -0.3565884 -0.634603 -0.38979712 0.046079792 0.07611788 -0.9016002 0.89373136 -0.052380238 0.41789952 -0.09903372 1.024776 -0.38723242 -0.29294217 0.61761284 -0.7945445 0.22761717 -0.118908435 0.11798911 -0.030571418 -0.027552158 0.079261675 -0.47526416 -0.4885759 0.43248433 0.19564211 0.0472133 -0.5830968 0.24707586 -0.19152106 -0.18264705 -0.508565 -0.89182836 0.04693499 -0.3005917 0.4484214 0.25939935 -0.36871222 0.40893167 0.37246263 -0.3801259 0.48246527
50 0.40221772 -0.12985165 -0.7089324 -0.24007054 0.3651586 0.090465136 -0.46957588 -0.23171097 -0.86291397 -0.8404934 -0.12276599 -0.09133049 -0.5483446 0.02257227 0.6846732 0.46217528 0.018117713 -0.16362196 -0.085983425 -0.17538828 0.5383876 -0.8708355 -0.6639683 0.4656274 -1.2535177 0.16517864 0.5152568 -0.044215787 -0.30660138 0.57088566 -0.15586951 -0.27929312 0.37906152 0.62452525 -0.17599316 -0.11849232 0.5469661 -0.0571457 -0.84911615 -0.49256697 0.46864188 0.3586772 0.18475944 0.110616274 0.25547934 -0.29750353 -0.123280175 0.20476201 0.91837627 -0.06839397 0.13712275 0.03757053 -0.015772754 -1.2690144 -0.4371314 -0.014621575 -0.07360593 0.41560555 0.0951187 -0.4312109 0.088607356 0.61589265 -0.7008638 -0.68128216
81 0.4460584 -0.086578175 -0.8880044 -0.39107144 0.5127032 0.53939277 -0.43959072 -0.46993715 -0.96217847 -0.9215677 0.2726229 -0.4723882 -0.05178763 0.21529916 0.5926304 0.521655 -0.35268262 0.4105201 0.15501675 -0.50626475 0.73164207 -0.8455373 -0.547432 0.13924636 -0.99850446 -0.016129866 0.36640987 -0.22882333 0.2693009 0.24578045 0.18632556 0.34405208 -0.18544528 0.20564666 -0.43967727 -0.17333016 0.68933797 0.5182809 -0.6273808 -0.43724802 0.25754827 0.13600062 0.30904815 0.19493459 0.58154655 -0.078989774 0.20748657 0.08725448 0.9681209 -0.2204 -0.1699781 -0.09413069 0.059010994 -1.080863 -0.1049847 -0.3420891 -0.012897203 0.15685154 0.25596997 0.16121197 0.020116823 0.89149785 -0.39997977 -0.32758155
58 0.2725106 0.3567351 -0.9304575 0.4393665 0.41200623 -0.16055988 -0.9068125 -0.54367363 -0.057675723 0.08432349 -0.64074993 -0.36309054 0.2988247 -0.32229117 0.5669442 0.41626137 0.33264077 0.5259558 0.0726774 0.14886108 -0.18219085 -0.27397582 -0.5005659 -0.61900634 -0.09979032 -0.47195813 0.77678835 0.30222586 -0.13377388 0.39694178 0.2570878 0.78675294 -0.4687067 0.77410895 -0.6231161 -0.61098707 0.7925349 0.3228637 -0.20873824 -0.15517116 0.23216903 -0.07091226 0.72710997 0.43702635 0.07038147 -0.64158314 -0.3917581 0.40568125 0.37594315 -0.17989083 0.40352917 -0.19798885 -0.5505625 -0.09117106 -0.051249314 -0.37198082 0.35922724 -0.50669485 -0.1805157 0.06743926 -0.15963222 0.17486846 -0.7388994 0.65131384
100 0.11546815 0.14282605 0.072654486 0.44273198 0.72935975 -0.20377313 -0.015502591 -0.25090945 -0.84347224 -0.3921451 -0.38780007 -0.78324854 -0.15235095 -0.7094139 0.7482454 0.68130326 -0.09627518 0.28171358 0.2729527 0.4122054 -0.019985627 -0.22042958 0.27031693 0.06409655 0.54547167 -0.5827313 0.13562113 -0.7672312 -0.16866486 0.22498715 0.2612188 -0.44921324 -0.9350086 0.24981707 -0.3662238 -0.08630087 1.1332221 0.44800958 -0.123754725 -0.42846444 0.1851642 0.22147408 0.07729788 0.30490234 0.4259876 0.3021222 0.61426604 -0.17847858 0.9391381 -0.53402984 0.080878295 -0.4612435 0.0029344095 -0.5385509 0.027245022 -0.5957278 -0.3995328 0.5532767 0.31487015 0.325983 -0.2731514 0.09569593 -0.7101942 -0.3029432
80 -0.00049544504 0.7188624 -0.72933024 0.2879723 0.84332544 -0.51096195 -0.7696435 -0.59204656 -0.30926323 -0.16463028 -0.19028766 -0.20051888 -0.30675676 -0.14498468 0.23911169 0.35012332 0.20408402 0.3125769 0.2675484 -0.17701696 -0.908449 -0.007113623 -0.52943146 -0.11693338 -0.0031720418 -0.53352934 0.5224765 0.56804806 -0.6586445 0.46842006 0.17130123 -0.41464877 -0.24005185 0.4103889 -0.76128775 -0.2950976 0.6617912 0.41443577 0.030040247 -0.6222454 0.100841284 0.10431064 0.37382635 -0.06993348 0.60417765 -0.59099036 0.5582344 -0.26673222 0.018422311 -0.09272783 -0.39817712 -0.79948056 0.36378393 0.019119458 0.018550163 0.17100102 -0.045783598 0.7815172 -0.22100683 -0.15479273 0.050850816 0.42564175 0.20567243 -1.132902
38 -0.15193623 0.015551623 -0.4495796 -0.19790384 0.016792228 -0.506193 -0.578297 -0.12609953 -0.59942675 -0.22993632 -0.17729634 -0.70692205 -0.024400314 -0.51674104 -0.21916713 0.4094589 0.27252036 -0.09774382 -0.29076016 0.33678964 0.067911714 0.39365023 -0.6120577 0.07686367 -0.5907943 -0.07999847 0.070426226 -0.1660225 -0.066509284 0.4174804 -0.2004368 -0.6100273 -0.04185093 0.2657918 -0.56181794 -0.7026658 0.4556319 0.04711231 0.25194973 -0.023826223 -0.2733907 -0.04822728 0.36417136 -0.026203165 0.057622414 -0.55343264 0.3448603 0.08277226 -0.13443466 0.47339675 0.022464048 -0.42156115 -0.78633374 -0.16425292 -0.46075487 -0.04542965 0.19157952 -0.027774747 0.30180076 0.5288914 0.23258829 -0.2887669 -0.046773467 -0.76289004
113 0.27727944 0.24260388 -0.3656356 0.4394535 0.7539031 -0.37351692 -0.82886285 0.09845567 -0.65259874 -0.9601942 -0.0863921 -0.7341727 -0.19815198 -0.2981411 0.34723422 0.6039505 -0.3202727 0.24596569 0.43842956 -0.09515602 -0.26675716 -0.041516803 0.32129326 0.17374721 -0.6490651 -0.6774343 0.82089967 0.07636288 -0.005315818 0.35609972 0.23562324 0.2566977 -0.5401323 0.36912504 -0.56438637 0.29805002 0.0914839 0.9969114 -0.23512062 -0.40245134 -0.064887054 0.35404617 0.11526607 0.26955304 0.4396748 -0.17079611 0.90693325 -0.4385102 0.30872768 -0.39612827 0.06876667 -0.108393475 0.60954976 2.7553659e-05 0.09658567 -0.19166675 0.012488705 0.94932073 0.005718154 -0.16915755 0.4021119 1.0736097 -0.10050572 -0.1130171
89 -0.042642392 0.08529011 -0.5318041 -0.55994207 0.22211882 -0.08404369 -0.24353172 0.07406077 -0.17715873 -0.3831139 -0.26643062 -0.691241 -0.38596407 -0.42827052 -0.040611405 0.5191172 0.18746044 -0.2902345 0.23949131 0.29507726 -0.064565495 -0.014144852 -0.2883204 0.03789129 -0.25617108 -0.43795034 0.12941378 -0.017009284 -0.22728513 -0.14940228 0.6745338 -0.56267315 -0.10117939 1.0887775 0.013894291 -0.6374556 0.44854787 0.3198812 -0.22043604 -0.43669474 0.025070595 0.023200862 0.28177157 0.029206768 -0.055176694 -0.5511449 0.68227434 0.114251554 0.29371682 0.4333857 0.3134579 -0.78819656 -0.45280132 -0.27563286 -0.22685653 0.57790905 0.045102272 0.07008985 0.31362343 0.49402815 0.6368001 -0.23166074 0.10721198 -0.39883864
102 0.31698778 -0.06680597 -0.563549 -0.1921226 0.646216 0.16522905 -1.1264977 -0.18262005 -0.6677072 0.081872344 -0.69476104 -1.1277351 -0.1396371 -0.29713327 0.23188974 0.35175917 -0.29273605 -0.6407403 0.11740868 -0.30123246 0.6324582 0.15892632 -0.087673925 -0.21631666 -0.79249555 0.3820204 0.2383393 -0.10308804 -0.35334828 0.70035625 -0.052688643 -0.06366126 -0.5208928 0.55613375 -0.566798 -0.15808038 0.3573634 0.3639481 0.19899179 -0.45814595 -0.30242932 0.2506609 -0.13131449 0.49088362 0.6082104 -0.5331113 0.6610525 0.15067278 -0.2961429 -0.111074746 0.18172249 -0.17330545 -0.64257884 0.14946474 -0.41032028 0.0027201178 0.64809895 -0.11660092 0.7148081 0.009734572 0.031409796 -0.6809421 -0.008514478 -0.5385923
59 0.4007892 0.23540746 -0.9252182 0.61189234 0.33877948 0.109174125 -0.83872235 -0.46017748 -0.17609136 0.08770302 -0.60854447 -0.29388627 0.228531 -0.15795092 0.33983418 0.66079104 0.32156584 0.50238013 -0.024551697 0.361794 0.062277637 -0.09213099 -0.3493876 -0.7006534 -0.104042165 -0.45815897 0.75169533 0.08604916 -0.12051613 0.36544958 0.23298085 0.5653128 -0.2895249 0.54060256 -0.4422495 -0.8000202 0.5711511 -0.020387018 -0.26011038 -0.21912374 0.27133948 0.07721169 0.28377473 0.49528214 -0.33272555 -0.730632 -0.42441338 -0.20634238 0.23879753 -0.36156076 0.20908172 -0.46522057 -0.5750292 -0.08720644 -0.058058687 -0.63126016 0.35654417 -0.20502542 -0.054921266 -0.3182412 0.02819904 0.2613456 -1.0201459 0.5444315
94 -0.043745827 -0.06931764 -0.63538986 0.1268312 0.9335276 -0.4302706 0.113931954 -0.7547741 -0.9781779 -0.3657045 -0.5357229 -0.18754679 -0.34921288 -0.4834384 0.17590573 0.0757114 0.009800364 -0.1002171 0.89725935 0.0015046038 0.46629828 -0.0045558354 -0.4249942 0.45518577 -0.6475673 -0.38503113 -0.36344624 0.07984602 -0.18703695 -0.40773612 0.0061857663 -0.65054625 0.12088334 0.64273727 -0.7272518 -0.46541935 -0.18462804 0.7876651 -0.14095925 -0.11329494 0.69668764 -0.4965122 0.95896995 0.2003403 -0.49894273 -0.20629755 0.23915374 0.4187763 0.86012226 -0.3533496 0.41814315 -0.37403178 -0.2424188 -0.10717283 -0.42137522 -0.024199491 0.45961174 0.08444206 0.009851895 -0.5196133 0.7457284 0.16257244 -0.89259154 -0.20447864
159 0.13410926 -0.095863126 -0.66357845 -0.09029723 0.2902345 0.3939696 -0.3550251 -0.20197386 -0.9099248 -0.74964845 0.029769126 -0.12235993 -0.5309933 -0.20535251 0.40816712 0.16591375 0.025084244 0.0587971 0.28606987 0.12669414 0.37899184 -1.1732513 -0.23935784 0.36562932 -0.9821711 -0.037530474 0.30677238 -0.16694097 -0.3711144 0.3744367 -0.37952635 -0.30601552 0.3913979 0.6650717 -0.5603693 -0.044305954 0.52621907 0.058297615 -0.39233175 0.09467811 0.24508539 0.39299375 0.1522663 -0.1207769 0.14243688 -0.63550407 0.17145988 0.20339184 0.77442384 0.08244659 -0.004860275 0.009575418 -0.07540702 -1.0741128 -0.4667161 0.52803195 -0.15872711 0.5103098 0.08699763 -0.2296004 0.0024710372 0.6047529 -0.8001411 -0.7875386
99 0.20699029 -0.115559265 -1.0982459 -0.27345395 0.44606495 0.60769796 -0.25698426 -0.36164922 -0.86151993 -0.985223 -0.09466906 -0.50782967 -0.29217494 0.20538485 0.35225666 0.67719734 0.0079538785 0.36356077 0.15046525 -0.43039984 0.76683587 -0.51682526 -0.3250712 -0.083157726 -0.9883543 -0.090527594 0.37397975 -0.27073184 0.2964249 0.24236287 0.19153824 0.24905655 0.07310387 -0.03945176 -0.49343368 0.06327188 0.63443345 0.5428653 -0.37630862 -0.5029491 0.35870722 0.2406905 0.21873155 -0.132422 0.5351751 -0.29491776 0.22988401 -0.3307058 0.93120843 -0.19160251 -0.16698192 -0.25111803 -0.050888333 -0.6041129 0.23300686 -0.20694341 0.016303446 0.35480267 0.4406326 0.038051017 -0.009604012 0.835239 -0.632013 -0.3157221
3 0.42557192 -0.4785059 -0.24705118 -0.18410896 0.26729408 -0.2056597 0.16927873 0.12848842 -0.70726466 -0.07976629 0.15709792 -0.3721147 -0.58727205 -0.15643498 0.66065794 0.37483904 0.30254728 -0.1894163 0.25224677 0.79400015 0.3005571 0.12486241 -0.44603142 0.35090902 -0.20874451 -0.49055865 0.25087032 0.37334055 0.40960425 0.5260541 -0.20803036 0.40063554 -0.5433943 0.9482961 -0.6406261 -0.58601844 0.42588207 0.16062856 0.038772155 0.35331526 0.05612942 0.022139274 0.3293647 0.6281243 0.15868667 -0.76187336 0.81268483 0.097042456 0.05105376 0.12068854 -0.5399049 0.08171888 -0.5566782 0.014376964 -0.4185966 -0.5836609 1.1305317 0.16226664 0.28269678 -0.0026413638 -0.004737614 -0.058417264 0.025720326 -0.6716503
23 -0.0406244 -0.47401652 -0.3237104 0.0040702233 0.41999066 -0.5539756 -0.8037011 -0.13029948 -0.26499537 -0.8557237 -0.55997175 -0.6116959 0.07295062 -0.16881059 0.4107465 0.41711256 0.13502051 -0.05974265 -0.4472494 0.1599778 0.46100208 0.28980997 -0.6838983 -0.068535484 -0.34428316 -0.5948764 0.25111625 -0.06512377 -0.3022604 0.4229548 -0.33272433 -0.09455625 -0.16230428 0.4137306 -0.5575146 -0.5985767 0.12392126 -0.066090524 0.047036797 -0.2824505 -0.6250356 -0.013224741 0.16743869 0.33918345 -0.22708696 -0.20202644 1.038717 0.31102479 -0.2314192 0.32084256 -0.05647676 -0.3416286 -0.6194407 -0.18404792 -0.64640987 -0.19196722 0.4252981 -0.2597197 0.5483316 0.70664763 0.29656583 -0.15294573 -0.056826618 -0.6170312
115 -0.45837238 -0.7825504 -0.7755594 -0.0027325458 1.0201063 -0.02910994 0.15100373 -0.80373216 -0.86264074 -0.19314782 -0.13192089 -0.551397 -0.26967925 -0.6410432 0.22618398 0.6093859 0.0808264 0.12766257 0.6439095 -0.30937186 -0.066699445 0.08201767 -0.2950171 0.42115355 -0.497429 -0.26739 -0.41644248 -0.40184447 -0.047354303 -0.2055678 0.118069604 -0.40215075 0.14451613 0.39498228 -1.0046135 -0.34865287 0.33055812 0.63225406 -0.41588953 -0.56156236 0.72662675 -0.5616514 0.05988078 0.28256872 -0.32880574 -0.28363684 0.5361356 0.3855129 0.6714657 -0.2725245 0.12242087 -0.18278375 0.14701866 -0.17888774 0.056007095 -0.5060006 -0.14215927 0.062751904 -0.22045352 -0.15257744 0.6892499 0.57562006 -0.86149 0.3757424
86 0.26981345 0.246881 -0.43538964 0.18471405 0.5001112 -0.44162026 0.16274829 -0.6194551 -0.9796995 -0.36568448 -0.4905246 -0.069733866 -0.47091994 -0.7127226 0.6123338 0.2610672 -0.07288456 -0.07304052 0.5173943 0.056815017 -0.046325397 -0.059436686 -0.355856 0.50638115 -0.67830056 -0.7197791 -0.29731265 -0.03997334 -0.5982595 -0.41331476 0.14518695 -0.59937644 0.66848016 0.49626365 -0.86989343 -0.35555002 0.104858644 0.6880256 -0.33081895 -0.38159597 0.6417242 -0.42534253 0.7744916 0.17367628 -0.48121354 -0.25831142 -0.021708155 0.38205457 0.5566329 -0.37386563 0.16850664 -0.20845494 -0.27211875 -0.10349157 -0.15618664 -0.02743393 0.5095139 0.13552855 -0.049521457 -0.28057757 0.69812477 0.23049235 -0.575653 -0.6399621
60 0.12847553 0.08729097 -0.15754282 -0.0133083165 1.098399 0.16773868 -0.30723953 0.1826889 -0.36530942 0.23520847 -0.11224822 -0.77192426 0.70799285 -0.22435051 0.47387993 0.32652247 0.32126436 0.5067924 0.4670151 0.7798679 -0.24548675 -0.5315802 -0.17195359 -0.4655467 -0.44304144 -0.34431943 0.16630025 -0.22675869 -0.64740616 0.7950675 -0.15113921 0.53775495 0.058279138 0.75312525 -0.7091709 -0.46063974 0.6265599 -0.66298825 -0.049696844 -0.16381693 -0.32276785 -0.016156966 0.020729825 -0.117760375 -0.3159645 -0.68763745 0.56478417 0.08942608 0.2154386 -0.50331384 0.23954421 -0.2998582 -0.28199485 -0.4297571 -0.38948515 0.022765363 -0.18087636 0.07240782 0.19956091 -0.8946694 0.30573612 0.13806042 -0.33684295 0.39902055
156 0.37239623 -0.13353987 -0.9085949 -0.19407247 0.48256385 0.22173971 -0.6999565 -0.41920856 -0.4111376 -0.42858294 -0.47086364 -0.0391969 0.013589975 -0.40853077 0.5273128 0.22359277 -0.27809355 0.58641833 0.39483228 0.40221435 -0.5833864 0.10337314 -0.29785717 -0.22932538 0.029162902 -0.4334391 -0.013569323 0.6845009 -0.12302522 1.0267837 -0.009051663 0.16152963 0.032732893 0.22786103 -0.41029325 -0.37323475 0.45213112 -0.4761113 -0.13481922 -0.15595111 0.4269524 0.6467116 0.711425 -0.14892484 -0.58016837 -0.28648427 0.5712372 -0.2761759 0.76089495 -0.879501 0.054473992 -0.3395763 -0.9181694 -0.43983096 -0.26617298 -0.13619858 0.4403226 -0.23435353 -0.1786572 -0.31337988 0.23548767 -0.103607446 -0.40483406 0.33527264
33 0.7518889 -0.21826516 -0.7033317 -0.12304868 0.7029109 0.3017891 -0.66842484 -0.5970369 -0.25285748 -0.63480073 -0.72494876 0.07434077 0.026677977 -0.13831528 0.10343427 0.4122607 -0.12410355 0.3390388 0.73160654 0.6104121 -0.47226834 0.3381266 -0.36679193 -0.09048799 0.109836176 -0.1482496 0.16000602 0.6589298 -0.3565837 1.0252861 -0.25739905 0.18799058 0.025610423 0.52361447 -0.6803348 -0.45795795 0.3074972 -0.105911784 -0.18990786 -0.08003742 0.29602224 0.5253291 0.75729716 -0.27800488 -0.66726196 0.14105107 0.6986496 -0.23121522 0.8826668 -0.82043374 0.08037895 -0.14942928 -0.8619384 -0.39480224 -0.24960223 -0.07068615 0.040394206 -0.23194596 -0.29757863 -0.34726742 -0.2368727 0.0644178 -0.27095824 -0.097226106
114 0.35108104 0.14073747 -0.2714266 0.7068501 0.42731884 -0.33616918 -0.6844205 -0.0008058259 -0.8677368 -0.80953777 0.15280436 -0.46059135 -0.4730965 -0.36735493 0.09671573 0.5233193 -0.43888497 0.37893385 0.37883678 -0.2134313 0.058575995 0.14526168 0.24494518 0.12961987 -0.61980283 -0.86044586 0.6439039 -0.14057894 -0.18397191 0.39053285 -0.06271311 -0.112681106 -0.42004076 0.08634852 -0.54510975 0.094163336 0.324627 0.83970577 -0.2599544 -0.2648807 0.09824397 0.4988028 -0.14860164 0.19678138 0.5358517 -0.27826935 0.76213825 -0.338389 0.5554671 -0.24934313 -0.33032408 -0.014404236 0.50341165 -0.08839964 -0.16000865 -0.18870805 0.21517378 0.74506164 0.24082471 -0.14009866 0.6140863 0.84089136 -0.21952337 0.34178683
43 0.30333042 0.20305134 0.032554436 0.62985504 0.8415009 -0.38374582 0.46370718 0.05778636 -0.92464805 -0.6772603 -0.49080515 -0.7104567 -0.14858773 -0.5968597 0.3783075 0.4078233 -0.18341908 0.15621744 0.5330073 0.0681542 0.09126905 -0.18665479 0.56615824 0.0044753226 0.06716099 -0.5739716 0.11460445 -0.5137003 0.1921895 0.26569524 0.14187169 -0.50233454 -0.5866865 0.20002332 -0.50677764 -0.25427318 0.94720894 0.087652214 -0.16852035 -0.19404817 -0.19484344 0.37291536 0.12380563 0.21073711 0.78094757 0.117355235 0.3827209 -0.24800472 0.67624754 -0.4804179 -0.17353012 -0.23673108 -0.13140127 -0.22511254 0.2738934 -0.45782468 -0.39264748 0.71091247 0.051217686 0.18510617 -0.13721202 0.11678978 -0.5592444 -0.21581164
