358 64
100 0.9835332 -0.13688053 0.24838375 -0.22971906 0.30595067 -0.0247363 0.43830016 0.008308587 -0.14310181 0.84899354 -0.83946514 -0.84120345 0.09260231 -0.18031082 0.019203553 -0.32849947 -0.03802194 0.23123315 -0.15769741 0.15230674 -0.30516636 -0.47158825 0.21120499 -0.10572665 0.1443006 0.15124147 -0.22908589 0.34985074 0.37123248 -0.43667668 -0.15263364 0.47671708 -0.6553255 -0.5050577 0.20221289 0.19242635 -0.22333339 0.63529766 0.5861394 -0.055246424 -0.123900145 0.06340765 -0.3625247 0.97070086 0.49598888 0.056411747 0.09773001 -0.38752735 -0.28117746 -0.541398 -0.5447224 -0.52244216 -0.44399145 -0.4114147 -0.22437225 0.40949306 0.17564459 0.05113694 0.1588213 -0.0023356087 0.13063398 -0.8167525 0.9660043 -0.06450933
197 0.98215514 -0.03489007 0.17322248 -0.20994751 0.19678938 -0.0767859 0.4246149 0.019942312 -0.28410298 0.9591029 -0.89862126 -0.76747 0.117646955 -0.20760874 0.1565823 -0.37050077 0.101518065 -0.055183362 -0.21663117 0.077703424 -0.079640165 -0.65802026 0.16822939 -0.16582313 0.05024753 0.07760299 -0.06745424 -0.0049185962 0.3956306 -0.5023033 0.039908342 0.15130454 -0.5373808 -0.26959914 0.17852522 0.3168429 -0.28794274 0.9978383 0.8097561 -0.15915789 0.12710436 0.21173489 -0.5490292 0.36229667 0.5515859 0.25999472 0.31369478 -0.27211246 -0.14551039 -0.26616853 -0.28183147 -0.61938006 -0.29061007 -0.36325678 -0.14134413 0.7579768 0.13946955 -0.1255774 0.191217 0.0655089 -0.22895393 -0.583294 0.91802937 -0.127689
17 1.0533242 -0.15964338 0.13245645 -0.25993493 0.25150424 -0.05353327 0.388427 -0.015055042 -0.2692385 0.9560558 -0.90356797 -0.81832755 0.27561384 -0.029461483 0.13426907 -0.34460303 -0.055173744 -0.32184303 -0.101796836 0.27871248 -0.30697596 -0.10399786 0.24573478 0.036351554 -0.17748065 0.026093915 -0.021180121 0.23073061 0.481249 -0.43732843 0.052283373 0.17780715 -0.7335055 -0.20115602 0.34638798 0.09760307 -0.22709742 0.7668551 0.4781889 -0.12333449 0.17279404 0.20036994 -0.47816157 0.7844724 0.70719314 0.2653019 0.20965469 -0.5357356 -0.043383427 -0.45231616 -0.44460967 -0.26833364 -0.31514907 -0.4844586 -0.27049306 0.71659684 -0.07524912 -0.050698675 -0.14181772 0.14729412 -0.36182857 -0.52755696 0.68904054 -0.24370912
177 1.1588523 -0.25629872 0.09778365 -0.42312384 0.23034644 -0.059839677 0.1667646 -0.075231664 -0.3129251 0.72238326 -0.7298262 -0.8290036 0.13547501 0.1311237 -0.018484313 -0.088482976 0.2745657 -0.19455658 0.12112413 0.042138174 -0.14113487 0.118976384 0.24060133 0.2828266 -0.42753384 -0.1882774 -0.1925853 -0.034420457 0.05629206 0.14481339 -0.009723845 -0.097274326 -0.86889374 -0.32923496 0.012112517 0.21923366 -0.5675481 0.82648057 -0.010832197 -0.19805512 0.15674536 -0.17877771 -0.8866638 0.5289329 0.54809344 0.24047333 0.20945117 -0.82288104 0.10665209 -0.74358517 -0.61852235 -0.510813 -0.29362866 -0.14761096 -0.08846153 0.62256366 0.2010873 0.069895245 -0.018400878 0.5036974 -0.39549372 -0.59708285 0.5633331 -0.059103046
252 -0.12823136 -0.10090317 0.67454666 0.4461961 -0.38970116 0.17292929 0.21727027 -0.014138666 -0.32440048 -0.7021589 0.8930659 -1.0772308 -0.4441129 0.5126481 0.7050391 -0.332733 0.119975194 0.004000842 -0.07089647 0.079341 -0.24096012 -0.25043458 0.22262184 -0.32935134 -0.11295784 0.08115112 0.059541598 0.21885912 0.15747806 -0.03876756 -0.1376267 -0.16491605 -0.19523695 -0.077494815 -0.20128426 -0.15845165 -0.12550893 0.585425 0.23016748 0.09775375 0.087552495 -0.17835279 -0.34294862 0.46119824 0.7216883 0.157677 0.5261114 -0.56028104 0.053286616 -0.46660244 -0.46316397 -0.35296378 -0.13990583 -0.39924335 -0.21399193 0.2733873 0.13398758 -0.09541039 0.25019276 0.21118413 -0.377281 -0.56404436 1.4329088 -0.11102541
67 -0.15861723 -0.101340495 0.6388236 0.44994932 -0.3672488 0.14363012 0.2172094 -0.005284917 -0.35917163 -0.69260544 0.87100935 -1.0683029 -0.51102096 0.5310008 0.7615695 -0.2845939 0.120157 -0.016214078 -0.062988535 0.052098487 -0.21582933 -0.10709161 0.2024516 -0.16314419 -0.119412765 0.12087232 0.07476514 -0.019687759 0.11363004 -0.19872786 -0.09840707 -0.018760966 -0.29948685 -0.037185997 -0.23396854 -0.13643329 -0.2092306 0.6187069 0.18814738 -0.095207624 0.080787405 -0.07853816 -0.084109336 0.63045704 0.6669653 0.21580943 0.5175205 -0.6504429 0.069713704 -0.43359935 -0.364022 -0.44264925 -0.13378826 -0.2754804 -0.33541927 0.3012095 0.14241521 -0.08021121 0.44915536 0.1714549 -0.27988946 -0.7074671 1.2854995 0.07031171
159 1.0620035 -0.17899565 0.15158269 -0.5895502 -0.21490793 -0.19437967 -0.46306017 0.08478475 -0.41251236 -0.03275783 -0.6062365 -0.34465244 -0.32575873 0.4227482 -0.2606214 0.10655521 -0.0872067 0.017858861 0.21504463 0.24820593 -0.3300338 0.2513698 0.10108477 0.13602985 -0.051052105 0.5713401 -0.2660728 0.25988773 -0.051060244 0.28263846 0.34169766 -0.30784965 -1.0852369 -0.4098503 -0.04975842 -0.3588428 -0.42679548 1.0455602 -0.79677045 0.019087594 0.5805157 -0.03877737 -0.7392038 0.026821733 0.43465704 0.124812715 0.4517744 -0.41018876 0.26264128 -0.68691593 -0.46797964 -0.48153096 -0.570907 -0.30012602 -0.20392327 0.94188124 0.20634735 -0.06649579 -0.17849539 0.54382104 -0.069032 -0.8618972 0.7699523 -0.06683763
348 -0.10290667 -0.42470455 0.53870016 0.15080391 -0.31295678 0.14510949 0.19673626 0.14606218 -0.34997943 -0.6462478 1.1980236 -0.9746785 -0.22967516 0.41686618 0.6531162 -0.3452946 0.09974921 0.13616817 -0.1496752 0.063415 -0.09555427 -0.0595019 0.19986854 -0.14621131 -0.07465297 0.11042892 -0.13669154 -0.12020194 0.16729344 -0.22064492 -0.06550188 -0.2665514 -0.35793442 0.03267351 -0.04758947 -0.31785917 -0.2679271 0.62640417 0.4754766 -0.21145593 0.039884176 -0.45208386 -0.15269776 0.43485838 0.6735063 0.109156035 0.39860025 -0.3574083 0.21973236 -0.5659574 -0.34903848 -0.566596 -0.08884758 -0.50355995 -0.20910826 0.32647112 0.06602082 -0.13044083 0.10715658 0.18224688 -0.21454233 -0.69108415 1.2490729 0.020379774
275 0.09416256 0.20185746 -0.33332506 0.6925749 1.1847072 -0.88443726 -0.689282 -0.59269875 0.015914869 -0.034296397 0.12942167 0.39763334 -0.53026235 0.23587202 0.04937549 -0.7830519 0.18548924 -0.05615198 0.14806668 0.039921153 -0.19070718 -0.18794253 0.20092992 -0.08414941 -0.12849356 -0.0713944 -0.098617464 0.11433519 0.3272272 -0.45753333 -0.1525464 -0.19542518 -0.28618044 -0.2489562 0.31052467 -0.44759628 -0.36195973 0.6429984 0.08183544 -0.069030024 0.24978156 -0.024258684 -0.6053033 0.48168242 0.62736696 0.6258119 0.36220014 0.013751762 0.3153513 -0.7036719 -0.34147045 -0.46518958 -0.50192654 -0.5255501 -0.23628248 0.0045547877 0.16074887 -0.20457867 0.36863 0.28996885 -0.008497717 -0.7162986 1.1826456 0.04220139
57 -0.11125023 -0.42014214 0.48920953 0.15982012 -0.32232776 0.1390436 0.2008567 0.15509574 -0.36486307 -0.656615 1.1661028 -0.96994895 -0.21611358 0.42301616 0.63841504 -0.39001492 -0.042893548 0.029136846 -0.15103643 -0.03392281 -0.18357378 -0.053862207 0.14095856 -0.047625042 -0.19532216 0.10300407 0.014057994 0.024247136 0.17168166 -0.40272442 -0.15179147 -0.16493167 -0.29654148 0.1828068 -0.15811181 -0.3389895 -0.26112092 0.655368 0.24003549 -0.03471589 -0.029264614 -0.37507832 -0.15384336 0.5232252 0.6575391 -0.05385684 0.44082922 -0.47596982 0.22119334 -0.554063 -0.42229345 -0.57457215 -0.11246561 -0.62476194 -0.15136486 0.3866133 0.2822986 -0.08913303 0.23136967 0.13807325 -0.11207988 -0.5899823 1.2691678 -0.10623269
183 0.068167984 0.30412465 -0.016274733 0.035987873 -0.06335381 -0.018468147 0.00095547 0.118039615 -0.13929062 0.04408043 -0.10194548 -0.04136976 -0.11490114 0.14625636 -0.13131636 0.14989044 0.14891067 -0.19000652 0.478461 -0.039217465 -0.14709327 0.19920512 -0.010585551 0.25298 -0.20164263 0.08678392 0.16862878 0.08015839 -0.03204032 -0.2811988 0.038460974 -0.38128933 -0.5741618 -0.18141635 0.1336526 -0.4286742 -0.13532393 -0.9247642 1.0158898 0.67398345 0.16455759 -0.32052574 -0.8504698 1.0884068 0.7513074 1.0574527 1.417331 -0.1598374 -0.13473314 0.04630657 -0.0532046 -0.8886468 0.51898813 -0.5027019 -0.14767742 0.9900447 0.35981938 -0.39401048 0.48587233 1.1285878 0.40673047 -1.4224787 1.2917523 -0.35414454
274 0.08438444 0.2440234 -0.35846278 0.7056096 1.154405 -0.91261375 -0.64563483 -0.5571677 -0.036896512 0.019304685 0.12614281 0.3990362 -0.54746443 0.23138998 0.06995857 -0.76419437 0.11183671 -0.071553476 0.23781453 0.05433856 -0.19221456 -0.3112782 0.20644327 -0.22876422 -0.11865031 -0.08455506 -0.24575043 0.16347443 0.1951624 -0.42617947 -0.06122252 -0.3468608 -0.38045716 -0.42171666 0.36429322 -0.42512608 -0.1199625 0.49341583 0.0076703005 0.013671701 0.3238205 -0.031887364 -0.46195748 0.4709777 0.87058455 0.5773608 0.39523733 -0.18793754 0.3163354 -0.64494115 -0.39951003 -0.50305384 -0.43860245 -0.5818084 -0.21841851 -0.03415331 0.2068107 -0.041451924 0.41379935 0.23993595 -0.030681971 -0.7293414 1.072882 0.065816134
31 0.11490295 0.2390081 -0.3583959 0.68041444 1.2131432 -0.87949723 -0.69101435 -0.56904167 -0.0026671265 -0.026121069 0.1354679 0.37811166 -0.509678 0.28899828 0.06072209 -0.7963739 0.17133917 0.05590259 0.16380139 -0.020261033 -0.21215744 -0.10130569 0.19037388 -0.17751609 0.008931284 -0.22854178 -0.22855866 0.04234635 0.12624401 -0.57549965 -0.1370311 -0.24751474 -0.34415558 -0.32696542 0.23344833 -0.55491483 -0.30395532 0.6021936 0.15997183 -0.10555443 0.23039943 -0.012438872 -0.5455062 0.49795374 0.7512835 0.51650405 0.44116536 -0.115204856 0.38041475 -0.64755386 -0.3744907 -0.5841024 -0.3483868 -0.6673726 -0.03203811 0.079780735 0.0626082 -0.114541024 0.3485257 0.34297797 -0.16418982 -0.6671662 0.9639774 0.042394515
311 -0.00940228 0.20087942 0.41204417 0.3768475 0.3015275 0.072429925 0.89675206 0.1725929 0.33093178 0.7610314 -0.670764 -0.3802755 0.46519905 -0.5153148 0.38521978 -0.58172584 0.524373 -0.07169714 0.13253598 0.6646636 -0.30194375 -0.14436942 0.181667 -0.13213709 0.043986693 -0.027011309 0.13426846 0.08474098 0.2579251 -0.73160434 -0.1836887 -0.108580455 -0.28920236 0.070539206 0.29136658 0.39472032 0.25325164 1.1792045 0.07070568 -0.4923094 0.26534253 -0.47917998 -0.46899864 0.7321477 0.5318198 -0.1441175 -0.083059974 0.024799034 0.5627647 0.077512205 -0.22794606 -0.84507215 -0.1104231 -0.8379472 -0.36721563 0.7769606 0.16108578 -0.28184056 0.5314542 0.6235734 0.23579548 -0.6562983 1.1544377 -0.08609821
312 -0.34646156 0.3554644 0.38998324 0.62224513 0.16238475 -0.04074593 0.85252273 0.3899188 0.34057835 0.6203513 -0.56525743 -0.17365341 0.27001277 -0.49430642 0.4528053 -0.50365275 0.34855747 -0.16385467 -0.08524704 0.77957773 -0.3199444 -0.21511182 0.19781691 -0.12603076 0.078107476 0.37097916 0.3229233 -0.042736724 0.2881171 -0.66307575 0.08498962 -0.34350318 -0.50929916 -0.3216689 0.19352981 0.48461527 0.43571907 0.87106 -0.033813782 -0.49101177 0.5992308 -0.3557441 -0.6326503 0.53897715 0.7944402 -0.24688615 0.040278003 0.024528462 0.51488733 0.06733063 -0.2607742 -1.0548325 -0.30992562 -1.023156 -0.3008401 0.8506424 0.19388899 -0.12104126 0.40418008 0.52391744 0.12951933 -0.5443617 1.0161915 0.0053663063
161 0.36915812 0.59375155 -0.4187969 0.2986595 0.47505298 0.10241732 0.45802537 0.024939436 -0.8713731 -0.73520815 -0.121013425 0.3976361 -0.022346122 0.016826985 -0.6402447 0.048834894 0.37826774 -0.5140731 0.14514466 0.3969289 -0.6051773 -0.39688092 0.023002068 0.050517656 -0.0027797315 0.33015078 -0.19754834 -0.07309183 0.13486692 -0.017852686 0.16573814 -0.12448926 -0.22734603 0.010419052 -0.67621267 -0.39647663 0.038273185 0.43875256 0.64008594 -0.61983174 -0.1544707 -0.7362154 -0.22662273 0.794617 0.8196724 -0.43107846 0.5902497 -0.49375263 0.32437757 -0.25672537 -0.429705 -0.2941798 -0.15232845 -0.14305986 0.08743128 0.7218782 -0.07030833 0.6070903 0.11539789 -0.19103913 0.1518421 -0.55495614 1.4945358 -0.3720501
68 -0.21251428 0.22598012 0.7653791 0.4958242 -0.35405818 0.17016962 0.13041799 -0.18962154 -0.36496985 -0.48690802 0.64775264 -1.1533622 -0.7650936 0.6299466 0.8645874 -0.07946864 0.46409127 -0.114354804 0.0785615 0.11455561 -0.10488051 -0.18617494 0.068092845 -0.21310583 -0.28813386 0.10374825 -0.060403187 0.17550826 -0.010799755 -0.19600454 0.027676268 -0.0029057635 -0.35454088 0.1541145 -0.33409297 -0.24725713 -0.16117315 0.6703801 0.36286798 0.0013975116 0.13718298 -0.28019327 0.06387391 0.65503776 0.62637556 0.1333028 0.35822114 -0.124318354 0.18227139 -0.5712863 -0.44422024 -0.2678481 -0.22841372 -0.5679651 -0.12464042 0.41943523 0.40546328 -0.16144294 0.22467506 0.22224286 -0.32839063 -0.5807026 1.2488024 -0.0755417
253 -0.19927882 0.2137236 0.7538485 0.4647828 -0.38949504 0.15241207 0.08725823 -0.22642492 -0.3446955 -0.46251184 0.6788521 -1.1845119 -0.7855526 0.62924725 0.8619667 -0.09214096 0.32536578 -0.31398404 -0.004350007 0.109458596 -0.31148592 -0.19321214 0.1720276 -0.31948358 -0.10447979 0.15889786 0.10256145 0.1301557 0.050614253 -0.1230553 0.12963672 -0.13604745 -0.409496 0.29856074 -0.33451 -0.32745525 -0.20315051 0.6970364 0.33899242 -0.042169176 -0.0036522406 -0.18771473 -0.08045454 0.663308 0.5431859 0.22759704 0.24141753 -0.15726615 0.1830073 -0.6183387 -0.5433224 -0.40024832 -0.15377103 -0.5305915 -0.29769966 0.29994142 0.25921828 -0.10855562 0.07527436 0.31861567 -0.1907787 -0.63116676 1.200692 -0.078046754
329 0.8319747 -0.076924466 0.24058153 -0.033909302 0.30949596 0.010525301 0.6107039 0.06459064 -0.09660702 0.9880434 -0.86332434 -0.75117 0.34588203 -0.26218307 0.19189931 -0.43962705 0.3265645 -0.077648535 -0.16869862 0.40101415 -0.05042332 -0.45662633 0.09038314 0.13586242 0.040264998 0.3147344 0.0298606 0.25341746 0.4664452 -0.38909474 -0.22456165 -0.24413589 -0.37322608 -0.23245929 0.23154709 0.27700946 0.030723307 0.886739 0.63573956 -0.10704944 0.08342062 0.21562845 -0.8326772 0.69228476 0.6677815 -0.12621783 0.23783375 -0.18785273 0.0068854755 -0.47872782 -0.3456952 -0.36817932 -0.07405689 -0.72852445 -0.31537098 0.62273824 -0.024872007 -0.21612039 0.07537617 0.21989317 -0.36895728 -0.5460002 0.85758466 -0.048181806
125 0.19263072 0.31771258 0.12779176 -0.4671728 -0.7629746 -0.12410501 -0.39706925 -0.25571376 -0.68804455 -0.07754851 -0.807461 0.9632139 0.2876879 0.2896338 0.77840066 -0.22728698 -0.14073814 -0.075520046 0.107312486 -0.44993985 0.6123835 -0.29184684 0.04125175 -0.5702484 -0.20234874 -0.008474664 0.14141324 -0.08889976 0.20257656 -0.4635893 -0.07083676 0.07181963 -0.113000005 0.2222013 -0.29858997 -0.046740025 -0.14716074 0.66596955 0.8373019 -0.09468945 0.21432588 -0.20874833 -0.24455337 0.5858119 0.7478982 0.3842482 0.45136696 -0.64983594 0.20197311 -0.676882 -0.30407393 -0.58061576 -0.13626833 -0.5840179 -0.3139833 0.18917562 0.026175493 -0.2287434 -0.0072156778 0.042510547 -0.055448286 -0.19841638 1.4593703 0.108891584
187 -0.49328178 0.27632508 0.09962854 -1.2498903 0.27936497 -0.41503513 -0.4722773 0.6669538 0.1821354 1.0111532 0.7777346 0.36238694 -0.1119016 0.016937725 -0.25358418 0.3769489 0.27799225 -0.186147 -0.046993986 0.33914903 -0.040450923 -0.17886691 0.24573268 -0.17581308 -0.06256442 -0.004595401 0.08405371 0.3440332 0.015677389 -0.25605026 0.048339345 -0.034687772 -0.2638738 -0.054527257 -0.10289181 -0.34493104 -0.22888029 0.6672604 0.4461063 -0.13223402 0.19949494 -0.5401226 -0.21735357 0.62869364 0.8086339 -0.20063317 0.14964426 -0.25705603 -0.042569526 -0.48528612 -0.42211476 -0.27009097 -0.024247903 -0.4498787 -0.3007871 0.5009431 0.44561875 0.081851915 0.35344785 0.09490615 -0.05852979 -0.78838795 1.1814405 0.016520785
233 1.1242115 -0.34669548 0.15284197 -0.34718162 0.3118066 0.002362812 0.1505405 -0.102734245 -0.19623403 0.7228749 -0.5893147 -0.6894275 0.15625916 0.24183255 0.027565008 0.045023452 0.28545353 -0.11554789 0.21509708 0.12187914 -0.1357865 0.2052825 0.14478618 0.12560719 -0.8473522 -0.076685704 -0.2334389 0.017990809 0.22702907 0.20935112 0.18653615 0.09095374 -0.44626132 0.11786279 -0.088325754 0.03735658 -0.8973492 0.7717907 -0.2204457 0.13218807 0.034446336 -0.07951265 -1.1235788 0.5726916 0.7497007 0.2173287 0.4777183 -0.54129934 0.35255533 -0.90979147 -0.80108404 -0.60697424 -0.40876403 -0.22203024 0.06756498 0.40311477 0.32218212 0.42038012 -0.04652962 0.2620667 -0.13572489 -0.6072373 0.59047246 -0.18193503
103 0.91019064 -0.09982129 0.26952654 -0.1907081 0.3674828 0.04987177 0.52885044 -0.024005225 -0.07997855 0.9683545 -0.8603241 -0.862137 0.3519805 -0.076270394 0.08324335 -0.3890628 0.38824272 -0.36640647 -0.4099117 0.28015578 -0.3703658 -0.23716715 0.08399663 0.061349113 -0.010960727 0.17427221 -0.012674864 0.093460746 0.3001094 -0.44362545 -0.2918637 -0.27195096 -0.47124162 -0.4835704 0.11858867 0.37936768 -0.42534253 0.81580806 0.35674492 0.0019353704 0.15312482 0.3582412 -0.4039078 0.4831219 0.6306028 0.30232045 0.35079002 -0.35523674 0.097256415 -0.21383612 -0.6078867 -0.24513283 -0.21807016 -0.59307665 -0.33220655 0.76036507 0.13372102 0.090034455 0.29979187 0.16053973 -0.15436715 -0.4713169 0.9772198 -0.114982165
70 0.35897684 0.41268954 -0.6901041 0.8498636 -0.60346997 -0.33648288 -0.54445803 0.95318055 0.5352803 -0.09225017 -0.275628 -0.3330497 0.41958916 -0.10099392 0.22584601 0.90375155 0.2440016 0.36066312 0.22880374 0.16136533 -0.25122115 0.054092724 0.46977016 0.14037953 -0.047914475 -0.10118709 -0.04872177 0.35801154 -0.0023284007 -0.22514515 -0.046021458 -0.22650859 -0.13683926 -0.20269284 0.20208968 -0.0383678 -0.3659746 0.76548797 0.5342616 0.11794279 0.07185133 -0.15610132 -0.14629845 0.3087313 0.6458785 0.5169457 0.4490223 -0.14991267 0.1347883 -0.65557826 -0.6286811 -0.3539685 -0.33873788 -0.7734855 -0.26204416 0.008978994 0.54113686 0.049145807 0.40063426 -0.057827424 -0.13033716 -0.47303593 1.3586797 -0.05603699
266 0.395876 0.61052376 -0.41789052 0.059228946 0.70771205 0.042444944 0.6143244 -0.0776404 -0.7390166 -1.0359545 -0.13891883 0.3178733 0.030551754 0.01796898 -0.6305211 0.4772929 0.32366952 -0.19313729 -0.025256118 0.47842667 -0.46557584 -0.37091568 -0.18260413 -0.20529331 0.099945724 -0.08985358 -0.08802334 -0.15382352 0.18399084 -0.08424617 0.27661696 -0.08709802 -0.27972955 0.011484906 -0.442147 -0.38709092 -0.08765161 0.4148519 0.64873415 -0.6397582 0.13776527 -0.52019155 -0.21939224 0.8306449 0.75878525 -0.2682288 0.39160228 -0.5045551 0.3217235 -0.35019335 -0.43760735 -0.50573725 0.010517783 -0.07561587 -0.25187913 0.748702 -0.10738577 0.34511733 0.13657294 -0.122924164 -0.009769466 -0.70060295 1.2813367 0.061543327
338 -0.55995834 1.4133153 -0.6348776 -0.3982779 -0.30825695 0.8338499 -0.15061048 -0.52166224 -0.25534847 -0.1652118 0.20599367 -0.19766803 0.09420566 -0.3641414 -0.2617426 -0.3607559 0.103800006 0.14511439 0.21929252 -0.3449609 -0.123614505 0.17947216 -0.031146646 0.101637796 0.3083663 0.17534824 -0.4296215 0.15075082 0.0066455854 -0.23287597 -0.09899717 -0.41541052 -1.0068997 -0.47516808 0.24428707 -0.15932702 -0.5247205 1.0187716 -0.14288953 -0.009706022 0.33755776 0.020741621 0.15035151 0.26179975 0.15053591 0.3375054 0.6368713 -0.39314058 0.054324146 -0.53540385 -0.28549767 -0.50435495 -0.45080706 -0.65472 -0.4600569 0.7426277 0.21005268 -0.17389579 0.16548169 0.353047 -0.10917248 -0.502808 1.1285069 -0.15998729
73 -0.4008182 0.68316394 0.33836216 -1.045242 0.28659743 -0.43571988 -0.6319586 0.41154703 0.22867353 1.1785249 0.6648077 0.45130166 -0.102582365 0.105669804 -0.17217849 0.5943357 0.16020143 -0.3994541 0.008124295 0.5263221 -0.23144002 -0.023629284 0.16760366 -0.15507373 -0.22632697 0.010553745 0.022112437 0.19927472 0.14391702 -0.47520167 0.2920039 -0.1650478 -0.24411343 -0.18636237 -0.020386456 -0.37319264 0.054212958 0.72282594 0.41639945 -0.04600936 0.24307491 -0.3542544 -0.4773128 0.579117 0.37925553 -0.16481133 0.29632983 -0.38633874 -0.034199417 -0.55890876 -0.4044876 -0.3044755 -0.03961942 -0.4156202 -0.20003596 0.5182716 0.3171557 0.22884224 0.21410337 -0.0847034 -0.09727584 -0.69807625 1.3546809 -0.11714503
284 -0.26009256 -0.05642915 0.28727552 0.14414455 -0.14390817 -0.4884909 0.25015053 0.033279702 0.52422696 -0.1890611 -0.5166058 -0.0037700578 -0.039851125 -0.28282204 0.28363448 -0.46273017 0.12446646 -0.41678083 0.19402097 0.36685726 -0.3502911 -0.24291363 0.2757254 0.09056383 0.22396073 -0.40348807 -0.123310454 0.03876307 -0.19762142 -0.054259054 0.41368264 -0.34490016 -0.69477195 0.06486028 0.108360074 -0.81967694 -0.98607755 0.44467276 0.13368611 0.24823561 0.820237 -0.23473807 -0.09918516 0.8450361 0.24985181 -0.59756905 1.2088785 0.0815355 -0.81849 -0.66643405 -0.12632097 -0.292561 -0.06716857 -0.5032191 -0.33554733 0.29014638 0.29056856 0.762414 0.08307554 0.22998981 0.059300393 -0.50695026 1.2413386 0.2600974
76 -0.43557304 0.61782146 0.3305748 -1.0868198 0.31081963 -0.43235883 -0.60194397 0.43832645 0.25225252 1.1230321 0.6490019 0.45909604 -0.14250818 0.08132409 -0.18903531 0.6115634 0.47098488 -0.32887214 0.1318865 0.33424705 -0.11980248 -0.16067103 0.1185352 -0.10636221 -0.026481649 0.08092138 -0.037218556 0.061023988 0.08206596 -0.48039043 0.24890468 -0.06435893 -0.15991789 -0.2900469 -0.00626532 -0.2481195 -0.2308343 0.58570504 0.40818727 0.04898948 0.16890302 -0.3041879 -0.6045701 0.5466868 0.35369676 -0.247303 0.3243508 -0.43135703 0.025495939 -0.53757995 -0.40726504 -0.2138959 -0.095617644 -0.45366663 -0.19689454 0.6072484 0.40512174 0.18355975 0.33789375 -0.17006007 -0.21844697 -0.8858733 1.3289794 0.015150392
185 -0.12229672 0.1462049 0.19196232 -0.5063627 -0.83293253 -0.11027478 -0.38098487 -0.32502192 -0.43238783 -0.34242737 -0.87975115 1.1048422 0.45810533 0.38580593 0.88512266 -0.30435637 0.13246332 -0.22885312 0.050290897 0.028244533 0.4465839 -0.072606295 0.17600141 -0.36177582 0.013652291 0.06332772 -0.09656662 -0.1400316 0.07127529 -0.25084022 -0.14996219 -0.13911629 -0.33697748 -0.032759868 -0.32731086 -0.19251686 -0.4211989 0.45497036 0.5599452 0.041195437 0.12411643 -0.23116061 -0.16454522 0.7831081 0.8111407 0.36702174 0.36209995 -0.737246 0.22934176 -0.71686584 -0.42841172 -0.33444485 -0.08451944 -0.72454524 -0.35526463 0.18714805 0.23917125 0.020916365 0.4655564 -0.014877365 0.07744868 -0.3244923 1.1337801 0.05283015
278 -0.26745516 -0.11284759 0.34338614 0.053827405 -0.18429878 -0.37524405 0.20230867 -0.0728929 0.5540363 -0.23842709 -0.5981558 0.12662424 0.14001206 -0.23418963 0.3498781 -0.534949 0.1833943 -0.3767562 -0.023497296 0.19242951 -0.40999836 0.112684056 0.069343664 0.09546919 0.16558681 -0.29582787 -0.44843414 -0.058784205 -0.21071732 -0.263293 0.20048948 -0.31256273 -0.59585065 0.008856324 0.052441616 -0.7361628 -0.9155435 0.4330545 0.2510175 0.2637609 0.8212512 -0.43105778 -0.08841836 0.9286163 0.33248273 -0.7050248 1.0325428 0.14534007 -0.60351944 -0.97170717 -0.09656709 -0.18728487 0.082126714 -0.47040865 -0.344381 0.260152 0.39965054 0.912509 0.19631727 0.24206014 -0.0547123 -0.55006075 1.0920594 -0.15843263
155 0.35134804 0.45099142 -0.7356988 0.8522764 -0.6597129 -0.369333 -0.5837996 0.95155764 0.51117796 -0.07570269 -0.28915805 -0.34728456 0.3188789 -0.12794158 0.23787282 0.8966259 0.3461021 0.26743242 0.18568887 0.045955893 -0.36413804 0.1469082 0.3187154 0.01168407 0.025216138 -0.06970859 -0.11870845 0.1566533 0.026972232 -0.34229687 0.111109115 -0.19265522 -0.18918805 -0.17654772 0.22609338 0.053082574 -0.11965424 0.8791712 0.629769 0.18936168 0.07238833 -0.15463857 -0.12740315 0.23760913 0.6871073 0.49696368 0.5659484 -0.13928479 0.19996022 -0.8908955 -0.41213104 -0.46367958 -0.3550311 -0.6249394 -0.12629867 0.09539395 0.44460937 0.17802452 0.43308848 -0.011309803 -0.11571349 -0.5713355 1.1988758 0.10531807
267 0.43294233 0.5712089 -0.43551186 0.085888006 0.666808 0.060566302 0.5810387 -0.10436276 -0.71868026 -1.0029331 -0.11769287 0.30916294 0.063340254 -0.0128718475 -0.6216076 0.44662657 0.47888455 -0.39410624 -0.018230578 0.42767337 -0.48086178 -0.3538684 -0.35434446 -0.08512455 0.07611835 0.10853551 0.031205626 -0.26294732 0.36497405 -0.0040476327 0.13699219 0.11007701 -0.23781842 0.04636345 -0.39174822 -0.44147593 -0.013234713 0.4171629 0.5336179 -0.5119449 0.15327288 -0.6130849 -0.37124306 0.8461332 0.6572696 -0.18216093 0.4093877 -0.31278086 0.39347613 -0.5031966 -0.38306385 -0.45916182 -0.08781187 -0.15139598 -0.30505922 0.7023478 0.07592076 0.40303615 0.15347257 -0.18396749 -0.07266681 -0.59317833 1.3210193 -0.11094793
188 -0.5242041 0.28939918 0.106510825 -1.2601185 0.26471475 -0.45538193 -0.49349183 0.65063566 0.19475953 0.9978212 0.7832285 0.3758355 -0.12090347 0.04234468 -0.25682276 0.35936382 0.1909325 -0.11032432 -0.00048649887 0.19437 -0.20937572 -0.064260386 0.18369852 -0.16051723 0.01102109 -0.103212535 -0.0026256507 0.056144767 0.21920535 -0.285274 0.15775454 -0.06681875 -0.31265783 0.032652546 -0.15880455 -0.2748868 -0.23278676 0.7641662 0.6077192 -0.077022485 0.19404535 -0.48602074 -0.47603324 0.58307695 0.75588834 -0.14911588 0.15721619 -0.08585024 -0.032567352 -0.4249482 -0.44446942 -0.16088818 -0.16444097 -0.41413912 -0.2801892 0.44746637 0.43879795 0.0325593 0.23501141 0.052730534 -0.2076939 -0.8228202 1.2094142 0.0045120204
232 0.4177928 0.5792287 -0.5034454 -0.014169367 0.66178846 -0.10953655 0.58548295 -0.2341557 -0.35607222 -1.175345 -0.17112164 0.09673871 0.18627925 -0.017111585 -0.59477615 0.73575664 0.47287866 -0.34169096 -0.17048664 0.3218086 -0.07355429 -0.23133357 -0.22656752 -0.30942896 -0.11380887 -0.0031489932 0.24226607 0.004456228 0.2944539 -0.124562405 0.09925022 0.005566324 -0.477685 -0.28433314 -0.52050215 -0.33410785 -0.054500856 0.40586963 0.35678053 -0.49063447 0.23198804 -0.5715591 -0.16220468 0.91436404 0.9073553 -0.28249022 0.4095396 -0.3731537 0.021575954 -0.20318066 -0.28174537 -0.45008308 -0.20247899 -0.42979848 -0.09271512 0.6285232 0.08937476 0.2586295 0.3310514 -0.16144848 -0.16102867 -0.60755694 1.1433058 0.011686193
223 0.3948463 0.42161953 -0.69386935 0.76219475 -0.5786135 -0.39808565 -0.54689294 0.7235458 0.71857446 -0.24680693 -0.27779597 -0.38791326 0.491135 -0.18864192 0.15705252 0.98342425 0.112859264 0.06960511 -0.026386308 0.13308182 -0.28319174 0.052550938 0.5788101 0.07425427 -0.20010002 0.16512066 -0.103889175 0.3222811 0.0096346345 -0.52449477 0.02344362 -0.39894167 -0.05565954 -0.19394824 0.052277386 -0.2030804 -0.1556607 0.8251629 0.47525835 0.17693585 0.013243724 -0.35679916 -0.08584949 0.44345456 0.7740038 0.29147992 0.41623798 -0.22603464 0.10901699 -0.8256958 -0.4231747 -0.5821561 -0.11536504 -0.61769783 -0.09313698 -0.01885237 0.22058949 -0.022751408 0.3074305 0.102960646 -0.20629176 -0.53980625 1.190254 -0.18505187
282 0.4397095 0.5763765 -0.49081922 0.0502167 0.66235864 -0.043286074 0.6260607 -0.20477702 -0.5465122 -1.103422 -0.13780992 0.1828982 0.17631626 -0.034719866 -0.6115356 0.5768218 0.31921914 -0.5144367 -0.06757518 0.22258095 -0.28004715 -0.25509048 -0.11147269 -0.4777301 -0.06309351 0.017842522 0.13652155 -0.04334381 0.3221292 -0.034214836 0.105500214 -0.2516503 -0.36986434 0.07530877 -0.33057222 -0.49216098 -0.2640346 0.42647702 0.484097 -0.53783315 -0.060641516 -0.46760935 -0.3138185 0.84485495 0.7417221 -0.4046118 0.27614254 -0.41007715 0.18953294 -0.27664086 -0.43378085 -0.18100163 -0.1949311 -0.29675925 -0.34040552 0.73381793 0.14751443 0.24342215 0.004318878 -0.13345125 0.11514128 -0.7877613 1.2661457 -0.26258576
184 -0.11233411 0.15435395 0.22481391 -0.47855324 -0.79348785 -0.079851314 -0.35690737 -0.29714254 -0.45441133 -0.30744743 -0.8846882 1.1200067 0.53647035 0.40470353 0.87623113 -0.3148861 0.30223274 -0.112170115 0.025080971 0.15906298 0.47655532 -0.13567592 0.10210473 -0.3137231 0.029334936 0.057808854 -0.22870182 -0.24441347 0.009196432 -0.46301565 -0.07493183 -0.15593922 -0.2209386 0.026760673 -0.34452742 -0.20925501 -0.23738801 0.4582108 0.58363867 0.017845802 0.17566119 -0.3767093 -0.19210517 0.7342934 0.7147393 0.3534069 0.52127326 -0.5095788 0.3212023 -0.79185534 -0.37176406 -0.17371075 0.0693843 -0.74823976 -0.33611837 0.22377345 0.13815005 -0.19565226 0.31267512 0.071137205 -0.17890276 -0.40228364 1.2456349 0.14923938
71 0.37257427 0.41600582 -0.6173681 0.67594934 -0.55662805 -0.35955262 -0.5213072 0.64052886 0.7884384 -0.26854196 -0.2771863 -0.4313963 0.463211 -0.15883303 0.09719721 0.9402387 0.3134206 0.10460592 0.09202246 -0.0018963095 -0.2711776 0.20733765 0.5633961 0.011770358 -0.23897299 0.12833512 0.0850655 0.29619402 -0.17473127 -0.4569778 -0.05983579 -0.26795384 -0.09455767 -0.305383 0.17590477 -0.11277144 -0.23290576 0.9255878 0.585798 0.13931355 0.067239285 -0.26379612 -0.080515034 0.45871827 0.7479451 0.35925692 0.35689127 -0.41239557 0.061720137 -0.74380493 -0.4025862 -0.4951459 -0.21386972 -0.67042625 -0.050340936 -0.09929331 0.21203798 0.04207885 0.44663364 0.22210371 -0.07463835 -0.5245696 1.1174896 0.084925994
72 0.38628387 0.4049204 -0.789767 0.6492627 -0.4077908 -0.46546364 -0.37651458 0.59589463 0.7219166 -0.34059945 -0.2936566 -0.43481293 0.47593024 -0.1698927 0.1967669 1.128233 0.28537095 0.12268361 -0.010383436 -0.015264089 -0.22113894 0.27089235 0.18795873 -0.20469663 -0.04672341 -0.035453882 0.10202842 0.22535779 0.16433772 -0.5114114 -0.07470082 -0.2009046 -0.09817631 -0.09427919 -0.06285849 -0.06140128 -0.41085327 0.71610385 0.3522251 0.08313538 0.11099343 -0.18624164 -0.27647528 0.40137878 0.5578167 0.18030724 0.45482358 -0.21366887 0.020385884 -0.85725534 -0.35489008 -0.4193858 -0.3616444 -0.6399692 -0.043960076 0.029456949 0.44627196 -0.3121439 0.33532327 0.21451625 -0.24755226 -0.6950523 1.2855301 0.10450939
287 -0.25725377 -0.10436028 0.29095647 0.13701251 -0.10221645 -0.4520786 0.26395494 0.023691854 0.5434019 -0.21820493 -0.51540285 0.018959943 -0.012262628 -0.30892563 0.29306912 -0.455747 0.15484981 -0.41672677 0.090059675 0.35989213 -0.3448845 -0.12798217 0.23921199 0.1936684 0.07038463 -0.3603754 -0.20990855 -0.053695682 -0.048803832 -0.03623706 0.21085429 -0.1547546 -0.53784066 0.111275 0.035000984 -0.79555243 -0.92590815 0.46087164 0.11375282 0.1625465 0.9856956 -0.2773523 -0.13001344 0.8638717 -0.015238503 -0.52153164 1.1364051 0.2278952 -0.75637275 -0.7434821 0.047957473 -0.24593703 -0.23371398 -0.48036847 -0.39040303 0.25159273 0.32641137 0.75903994 0.089711145 0.27407232 -0.0051606162 -0.68397325 1.4357467 0.12655777
127 0.47517762 -0.22577974 -0.26638857 0.09001302 0.22913249 0.05856494 0.19673023 -0.010659514 -0.32602143 0.7911263 -0.22951321 -0.3755639 0.30882278 0.42995924 0.2654012 0.18073514 0.064996965 -0.18542275 -0.017998656 0.601435 0.24198933 -0.13483037 0.580094 -0.35487396 -1.6006267 -0.42877463 0.04050168 -0.2857267 0.030048043 0.28635356 0.4582384 -0.07636575 -0.6099544 -0.15404394 -0.34131086 -0.33688536 -0.96560675 0.19525957 -0.40957808 0.02308404 -0.05091539 -0.50824773 -1.0370772 0.7163175 1.1415085 0.37555373 0.6306012 -0.25338173 0.3974593 -1.1635948 -0.9059752 -0.46530074 -0.29649058 0.24028969 0.12230871 0.14677566 0.72938037 0.5783492 0.13233058 0.25762293 -0.21841295 -0.91519505 0.7175078 0.11523229
210 -0.6792285 1.445653 -0.80116355 -0.26335478 -0.21276149 1.0237689 0.06924925 -0.6555011 -0.21095635 0.1300411 0.2828707 -0.26944497 0.37730375 -0.53277487 -0.15196083 -0.44643524 0.08099001 0.023930144 0.099641815 -0.025858287 -0.041809265 -0.06605039 0.059605263 0.060105246 -0.18187496 0.05881029 -0.42126346 0.32691762 0.08970818 -0.11519905 -0.040073123 -0.3214609 -0.59070134 -0.314213 0.32030907 -0.24075359 -0.4254075 0.7747571 0.042164836 -0.040274695 0.12540182 -0.12295405 -0.061760135 0.44884118 0.25903642 0.34504125 0.5535228 -0.22939481 -0.05549642 -0.795481 -0.23013143 -0.589176 -0.21648875 -0.46164903 -0.47793573 0.42046234 0.22517024 -0.07727347 0.44684646 0.4639369 -0.37157378 -0.54884094 1.2421389 0.05305746
277 -0.31331444 -0.1333426 0.34023422 0.024567055 -0.21948878 -0.43949887 0.19624472 -0.08340183 0.57423735 -0.26299462 -0.6242267 0.118276715 0.10206828 -0.2573252 0.36523205 -0.54061675 0.3025652 -0.3360807 0.12467022 0.19620195 -0.4219584 0.014678684 0.1893567 0.05569529 0.21313888 -0.29475886 -0.33942664 -0.17499493 -0.1709459 -0.05560079 0.18014397 -0.169134 -0.6992031 -0.050096814 0.1565936 -0.6870493 -0.83805484 0.37122658 0.17546998 0.32992992 0.8210458 -0.14287278 -0.016638108 0.9875143 0.4913178 -0.5060273 1.0350778 0.10580153 -0.59160423 -0.9010183 -0.02197823 -0.21168926 -0.009412007 -0.3165235 -0.4634707 0.29004726 0.1470054 0.956802 0.3172038 0.14009371 -0.12004496 -0.47934967 1.2246906 -0.16598536
96 0.6457083 -0.07553288 0.61820585 0.21690357 -0.04764821 1.1963751 -0.71442133 0.17102842 0.47804138 -0.048751384 0.03776646 0.4221967 -0.7015571 -1.2068142 -0.013197576 -0.06287736 0.22380628 -0.30117416 -0.04988069 0.14936064 -0.31072116 -0.187978 0.074564025 -0.28823513 -0.30308738 -0.22955894 -0.0069546504 0.23937248 0.22239032 -0.34497288 0.13012125 -0.315783 -0.7298626 -0.3158059 -0.6897587 -0.31874233 -0.1545655 0.06847779 0.18901527 -0.2242631 0.2249788 -0.1710881 -0.33892885 0.59553987 0.6241508 0.2338826 0.6787624 -0.40364492 0.35813183 -0.5061939 -0.32587004 -0.4827133 -0.4377426 -0.7399014 -0.23817974 0.1268679 0.02477912 0.010267314 0.26039255 0.052403495 -0.061496004 -0.6758815 1.034238 0.23068468
281 0.44859043 0.5945861 -0.4444458 0.028865203 0.67929286 -0.005759782 0.5816369 -0.21446499 -0.52612656 -1.0958663 -0.14168242 0.18357839 0.15805677 0.012576939 -0.64640397 0.5617143 0.34518334 -0.5338883 0.09209769 0.23243693 -0.41980022 -0.28099427 -0.34831414 -0.3797936 0.042189524 0.10383937 0.12957829 -0.10788133 0.19819976 -0.22081952 0.29954353 -0.18754466 -0.33746928 0.07730914 -0.4673995 -0.4669343 -0.289067 0.58156514 0.4499859 -0.41494906 -0.024287358 -0.55139047 -0.4661707 0.84486824 0.8060947 -0.3326089 0.34887812 -0.3377306 0.14989951 -0.20089836 -0.5854947 -0.26025647 -0.0065283896 -0.41498154 -0.19199076 0.5587855 0.16927102 0.26311094 0.04138324 -0.17205273 0.09292539 -0.6657147 1.0988492 -0.1572544
209 -0.71187276 1.4892842 -0.79822356 -0.262813 -0.24731094 0.97440535 0.05191202 -0.67499906 -0.23339489 0.10734091 0.2838929 -0.30717218 0.3392576 -0.51358265 -0.148921 -0.46111515 -0.09527247 -0.06931283 0.06649385 -0.022368891 -0.072799996 -0.06442024 0.14342937 0.031445082 -0.109104104 -0.08123862 -0.14221182 0.17023294 0.13699657 -0.12236729 0.075157896 -0.3053273 -0.70443344 -0.22409879 0.27170667 -0.22182144 -0.41632357 0.99191195 0.18993656 -0.19588645 0.14939736 -0.19062129 -0.10703695 0.42823592 0.14499107 0.46199244 0.68615544 -0.20864172 -0.07288091 -0.7728446 -0.24910675 -0.54405975 -0.43961123 -0.36851847 -0.43280306 0.355664 0.24218206 -0.16285203 0.40710494 0.4664076 -0.10397671 -0.6361285 1.0333905 -0.014322756
174 -0.23590675 0.07025305 0.25470316 -0.43974736 -0.85505676 -0.12563129 -0.34914252 -0.31028217 -0.29114383 -0.4497247 -0.90841943 1.146315 0.5463256 0.3840718 0.9058249 -0.38890696 0.12363296 -0.437391 0.07903746 -0.052539095 0.11677509 -0.12210976 0.14303097 -0.43085477 -0.14901595 0.13796422 -0.24749656 0.13147072 0.047565803 -0.23159735 0.10154854 -0.015977332 -0.29272613 -0.017162446 -0.10591026 -0.36886543 -0.30167678 0.34858435 0.5735279 0.16141824 0.033868514 -0.35900667 -0.4190062 0.8006213 0.5999602 0.19976246 0.46219453 -0.3679887 0.1616359 -0.8272667 -0.324752 -0.41984153 -0.12166914 -0.48736885 -0.240228 0.19305818 0.079713635 -0.096397825 0.32120526 -0.18141522 -0.2578526 -0.56260896 1.2252629 0.12970516
344 0.660076 -0.079724416 0.53432125 0.24891034 -0.07704144 1.182741 -0.7022441 0.18356326 0.44927138 -0.018597512 0.056820627 0.44539684 -0.71375966 -1.257302 0.026051061 -0.075058065 0.41997316 -0.25974756 -0.024591025 0.14556523 -0.20802616 -0.16817561 0.056890927 -0.31867188 -0.3122476 -0.28780225 -0.12609547 0.1446293 0.34218633 -0.354626 0.20697531 -0.24515626 -0.86434674 -0.1649677 -0.57471335 -0.35308576 -0.06761178 0.11811126 0.38134018 -0.25187895 0.18128479 -0.10691912 -0.24791083 0.61136883 0.5675345 0.24756834 0.6686663 -0.23576227 0.3894669 -0.7203628 -0.24424808 -0.29984158 -0.5301541 -0.662403 -0.1805712 0.31939206 0.29575074 -0.053081203 0.35754976 0.019235585 -0.07842346 -0.63939613 0.9554959 0.008556331
27 -0.054044638 0.031789284 -0.19676659 0.82591754 1.3568298 -0.7379337 -0.71846414 -0.554698 -0.045347117 0.03303348 0.07928235 0.40379933 -0.39138532 0.23572657 0.00019259316 -0.6006982 0.17023611 0.10959792 0.008263933 0.08390063 0.13469006 -0.273174 0.06865381 -0.08315683 -0.12220682 -0.047486532 -0.13885735 0.3529277 -0.1859796 -0.4969001 0.0003933034 -0.28033158 -0.3300155 -0.24768697 0.39987528 -0.2651398 -0.4320394 0.6203441 0.13550691 0.18388024 -0.000771509 -0.18535076 -0.4301647 0.4979848 0.6382215 0.49485323 0.4181691 -0.18356256 0.3068294 -0.6339841 -0.39303404 -0.35200772 -0.4586247 -0.62308997 -0.2882596 0.3711797 0.1231523 -0.074228644 0.3653639 0.2595429 -0.13007891 -0.67819244 1.1436445 0.16706795
237 0.41872695 0.5604157 -0.48451272 -0.055998195 0.6219385 -0.22020124 0.5456928 -0.36166066 -0.070075676 -1.2107782 -0.1716999 -0.014771187 0.206055 -0.087892115 -0.552399 0.84798515 0.46290487 -0.36508992 -0.118115455 0.17769071 0.034797892 -0.07213372 -0.3071978 -0.3345691 -0.0019169177 0.028135449 0.31638643 0.025095059 0.29636368 -0.35576996 0.32697657 -0.2617716 -0.46638927 -0.05300778 -0.4026852 -0.17346054 -0.26552683 0.5040652 0.5221182 -0.46803313 0.066491954 -0.42320487 -0.34785306 0.59803504 0.98788965 -0.44572806 0.31195948 -0.32995346 0.0053006564 -0.5434514 -0.39353052 -0.44961885 -0.22297812 -0.069361284 -0.056659155 0.54317856 0.12850912 0.024523942 0.25172237 -0.069309324 -0.049647786 -0.56587416 1.3120369 -0.23736227
350 -0.058921844 0.032050043 -0.22163516 0.83435774 1.3012204 -0.7904932 -0.73956054 -0.58297056 -0.09129377 0.058736943 0.07096528 0.3629968 -0.45310134 0.21776265 -0.022779193 -0.6317016 0.17416184 -0.13837697 -0.03369996 0.1065817 0.21100508 -0.00034679164 0.03285775 -0.08831199 -0.056615874 -0.10192499 -0.19864099 0.3259552 -0.14594822 -0.52369547 -0.111427516 -0.20659706 -0.4131711 -0.23629558 0.3802246 -0.3092912 -0.23051983 0.63724893 0.0857274 0.0095364405 0.027268626 -0.25122705 -0.34662855 0.40977386 0.6987601 0.53498286 0.61230934 -0.15337116 0.2599918 -0.65677506 -0.43953064 -0.5373663 -0.55505306 -0.58501995 -0.35368803 0.26776537 0.080917925 -0.07764978 0.29132596 0.12756959 0.021170083 -0.67483294 1.0980058 -0.06559878
342 -0.26846734 0.056036003 0.3531581 -0.43958232 -0.778053 -0.14280829 -0.35680723 -0.2670542 -0.20016778 -0.4660567 -0.9664374 1.1204314 0.539138 0.47270155 0.89697343 -0.41724974 0.2480846 -0.24032877 -0.16411439 0.1564696 -0.11543587 -0.20214222 0.070931226 -0.39682958 0.20894332 0.1336534 0.08430673 -0.0003243223 0.12273067 -0.33198306 0.13525438 -0.20923252 -0.38576508 -0.021208 -0.17094377 -0.36000147 -0.63953215 0.42090878 0.37200025 0.2707487 0.22824965 -0.30466616 -0.20356125 0.5254014 0.7000702 0.19058299 0.729572 -0.1802359 0.19357543 -0.71954507 -0.497252 -0.386817 -0.005158851 -0.51703364 -0.22215839 0.22317126 0.31080788 0.1892034 0.25987476 0.11564836 -0.065617956 -0.5007821 1.0963731 0.123492435
19 0.25107443 0.4247927 -0.3514868 0.53156656 0.9759127 -1.0485294 -0.5926092 -0.62056667 0.041584663 -0.04313837 0.20675167 0.35164976 -0.6086963 0.18155783 0.051571123 -0.9073333 0.38640413 -0.07817199 -0.047037803 -0.07386972 -0.19130892 -0.16662426 0.2878773 0.090632364 -0.21652715 -0.1566681 -0.17405973 0.27123982 0.018662067 -0.667846 0.11774377 -0.070181675 -0.37880808 -0.10708228 0.49511033 -0.56280166 -0.2794664 0.52287185 0.07081013 -0.25710025 0.15372635 0.035614554 -0.6060514 0.64630955 0.8882753 0.6300024 0.39342293 -0.20893982 0.4290327 -0.60675555 -0.2590678 -0.4815516 -0.42478126 -0.6794533 -0.27371013 0.1286016 0.19979437 0.0026999908 0.60886574 0.17892046 0.091479726 -0.468568 0.93487936 0.13746229
200 0.46174902 0.56107116 -0.51559585 -0.013430611 0.6568687 -0.10117725 0.5827592 -0.2932596 -0.30682722 -1.1621757 -0.14906082 0.09265077 0.24384232 -0.05914228 -0.59127253 0.7242325 0.35084558 -0.31338197 -0.08680585 0.44751945 -0.08756916 -0.18118255 -0.28467023 -0.35663366 -0.15713793 -0.009719566 0.13600019 0.13723736 0.35345373 -0.23596771 0.06382947 -0.11066786 -0.42543378 -0.057435617 -0.5325073 -0.46394312 -0.08719407 0.336073 0.4334696 -0.51547533 0.11409556 -0.7579716 -0.17980543 0.90476936 0.72799706 -0.38728774 0.33005217 -0.25514892 0.09123194 -0.50950015 -0.39069512 -0.3982405 -0.04485648 -0.3997327 0.0033480402 0.74252194 0.1009789 0.15493917 0.21857278 0.00733479 -0.24582225 -0.5590706 1.2048541 0.06627155
341 -0.24990214 0.08849176 0.23248243 -0.46957475 -0.85796845 -0.16753623 -0.33500853 -0.2563013 -0.3520603 -0.44150993 -0.92201 1.1123846 0.41497833 0.38457385 0.92991364 -0.33630508 0.089140974 -0.18430108 0.05888492 -0.033214357 0.2713888 -0.09695619 0.039682914 -0.4360014 -0.006511597 0.10850842 -0.35110548 0.06932872 0.08556945 -0.18384618 0.053611122 -0.19315012 -0.38408467 -0.19029056 -0.21516612 -0.3627312 -0.24450515 0.32101774 0.7404009 0.09378339 0.13497971 -0.32196438 -0.30802178 0.6507205 0.7155908 0.10663262 0.5424428 -0.20338656 0.18416972 -0.92463434 -0.42541304 -0.49505404 -0.13432474 -0.47221482 -0.24823087 0.1996315 0.20900404 0.101015724 0.21053115 -0.17256382 -0.15715301 -0.64731157 1.0876541 0.20803298
196 0.4315458 0.5008685 -0.5875303 -0.03754144 0.58924305 -0.1751877 0.5049617 -0.34744084 -0.07817148 -1.2134888 -0.17773962 0.015205386 0.31606874 -0.083579525 -0.5468004 0.8517137 0.38174123 -0.2985116 -0.1859398 0.33123314 -0.024269858 -0.12236507 -0.19045554 -0.3107134 0.0017399092 0.087646544 0.25469232 0.16203535 0.3680863 -0.35537532 0.32975596 -0.09500071 -0.3949657 0.00073860586 -0.51624435 -0.36187524 -0.26691762 0.543096 0.36547932 -0.44233084 0.057404768 -0.33753484 -0.45981362 0.7655433 0.9843392 -0.2674915 0.16793303 -0.25266016 -0.04852083 -0.3644324 -0.35281685 -0.33148417 0.005007514 -0.16412713 -0.21980146 0.4101493 -0.013381707 0.115819566 0.2925243 -0.015440882 -0.18729608 -0.6454079 1.3637701 -0.29302746
7 -0.73007303 1.4532769 -0.78022915 -0.20964964 -0.1834329 1.0100373 0.084143795 -0.6653372 -0.187577 0.17932224 0.26306537 -0.2874645 0.38356346 -0.45636517 -0.10609852 -0.4164933 -0.17384958 0.07174267 -0.029745538 0.12274725 -0.13907528 -0.17734505 0.22528554 0.055881888 -0.03352453 0.08224026 -0.30742082 0.1155801 0.11400659 -0.17600325 0.096845075 -0.18719973 -0.48707542 -0.24872918 0.049010694 -0.34476274 -0.55407834 0.74373406 -0.08118056 0.18290146 0.0035705029 0.060028106 -0.21817693 0.4650558 0.48224798 0.33882597 0.899344 -0.15620635 -0.0066697407 -0.58904606 -0.45683149 -0.84362507 -0.41873413 -0.5629103 -0.3074574 0.26862508 0.30863464 -0.035543293 0.28782225 0.15396693 -0.13784549 -0.5315232 1.0177099 -0.14477788
220 0.34592935 0.39811507 -0.8216867 0.6555873 -0.45817366 -0.4929695 -0.39782715 0.617828 0.7388882 -0.33986914 -0.29613805 -0.4480345 0.4502092 -0.18185802 0.19802383 1.1115876 0.40228698 -0.064640895 -0.1214259 0.0049155266 -0.1349333 0.14275432 0.26077133 -0.11280809 -0.057626296 0.039686345 0.038814716 0.15916184 0.06687124 -0.51295906 0.070120305 -0.14213191 -0.25405842 -0.22685264 -0.11339982 0.07526171 -0.3714814 0.7352433 0.26504838 0.09306919 0.08302762 -0.18956281 -0.2366177 0.41576406 0.60278654 0.45314193 0.4727691 -0.22185096 -0.072726294 -0.6362195 -0.26662382 -0.3809347 -0.41173765 -0.7044909 -0.18898459 -0.007983771 0.3113922 -0.17618342 0.32756522 0.045868564 -0.30415496 -0.80305195 1.2845652 0.025423579
74 0.3799914 0.38867342 -0.78751993 0.46963 -0.28885525 -0.4667873 -0.24216689 0.4018103 0.82334346 -0.4862074 -0.27096558 -0.48950177 0.48820156 -0.20232347 0.12852845 1.227735 0.3294826 0.11567695 -0.048563577 -0.012164367 0.0059980275 0.043078993 0.22541115 -0.4975736 -0.13180089 0.03679904 0.15771735 0.34907058 0.1037052 -0.32181805 0.23122 -0.40341654 -0.3103915 -0.40459916 0.18057807 -0.21328737 -0.30444 0.6488688 0.44126627 0.13453265 0.1798098 -0.19675954 -0.12170623 0.49417743 0.739818 0.26442584 0.28375152 -0.14592668 0.16129133 -0.82553625 -0.3669926 -0.45840082 -0.13502121 -0.6543074 -0.35289955 0.173263 0.23487024 -0.12137804 0.26986712 0.053253215 -0.32086504 -0.7129916 1.0707866 -0.016064255
166 0.66278625 -0.07675184 0.52048254 0.25360087 -0.11931664 1.158449 -0.7832047 0.1493992 0.45956507 -0.09138524 0.05977174 0.4638362 -0.68095994 -1.2778901 -0.038018513 -0.0921363 0.1418506 -0.111378185 0.017427983 0.30465055 -0.17298304 -0.1557161 -0.042918745 -0.21461907 -0.33230504 -0.18584788 0.04183106 0.057271704 0.2622321 -0.37961772 0.07537682 -0.2965934 -0.67163706 -0.13822547 -0.32258713 -0.5063198 -0.22196901 0.28939182 0.2452768 -0.03525887 0.0641921 0.061944682 -0.3846464 0.9864803 0.7860286 0.017616263 0.5272897 -0.20937505 0.4077423 -0.473817 -0.3517396 -0.17637733 -0.32240465 -0.34578156 -0.30230388 0.17120792 -0.014809231 -0.22517574 0.2176923 0.10067044 -0.11120237 -0.7134528 1.073872 0.07458284
208 -0.38900876 -0.036886685 0.5135209 -0.3641474 -0.5751066 -0.20436372 -0.18382348 -0.20986691 0.045660824 -0.57563376 -1.0132414 1.0403236 0.5788457 0.35161966 0.9115883 -0.4939327 0.15506743 -0.101998925 0.13129272 0.09353769 -0.27705655 -0.18731989 -0.00016676435 0.031079652 -0.06614347 -0.2447702 -0.0085082585 0.19477619 0.14040618 -0.23678686 0.05064849 -0.1051558 -0.2618276 -0.11121983 -0.10919318 -0.23594949 -0.62527287 0.43739787 0.21154298 0.21824959 0.3112748 -0.23111561 -0.13335615 0.7001797 0.55883956 -0.29510096 0.9974624 -0.11491193 -0.111200854 -0.59193236 -0.4685872 -0.39621776 -0.2121995 -0.5612475 -0.3359468 0.09847828 0.4422757 0.28329182 0.035401665 0.008271626 -0.12780963 -0.70991945 1.256913 -0.09434649
63 -0.3854935 0.02365089 0.4081192 -0.430825 -0.6996229 -0.17939577 -0.26545268 -0.2676181 -0.13530175 -0.52809167 -0.9857976 1.0543323 0.58146435 0.46189368 0.93943024 -0.4801651 0.17152444 -0.21698262 -0.08365779 0.3363683 -0.14925326 0.0053482223 0.13211721 -0.13629095 -0.15774728 -0.22133027 0.03312369 0.14163065 -0.035768487 -0.19112442 0.22236936 -0.08622908 -0.54001415 -0.23062189 -0.08850902 -0.48484957 -0.40215442 0.5003582 0.6011301 -0.013116195 0.39977357 -0.20964888 -0.11498619 0.7303626 0.5626296 -0.0344066 0.67609733 -0.09422817 -0.12509923 -0.72867936 -0.34839067 -0.4480103 -0.27907148 -0.6137312 -0.003995063 0.06541791 0.21818574 0.12043601 0.20282811 0.13232616 -0.039140914 -0.51569825 1.1510037 -0.03509072
204 0.39054573 0.40820304 -0.75985426 0.4484329 -0.3186391 -0.50329816 -0.2757257 0.34192622 0.8310126 -0.5060723 -0.26295832 -0.51029474 0.54498225 -0.19325012 0.10972443 1.2174249 0.3353721 0.08104644 0.04698698 -0.13725047 -0.07173458 0.027238933 0.1244206 -0.19724487 -0.15197857 0.09752438 0.28595912 0.12918909 0.06224184 -0.51188385 0.2538449 -0.31737098 -0.39438766 -0.34166282 0.045077045 -0.28265145 -0.1990546 0.6649683 0.3665114 0.17090853 0.2723864 -0.24221456 -0.16344026 0.53052413 0.7653973 0.20896198 0.3335435 -0.055900477 0.17560457 -0.7468005 -0.68142945 -0.5203733 -0.19345097 -0.65022975 -0.33222845 0.049702443 0.3348582 -0.13303182 0.39468333 0.098352 -0.29008985 -0.5194196 1.0282457 0.032048825
160 1.2006648 -0.37778682 0.2473371 -0.5814405 -0.0344334 -0.20051354 -0.25437662 0.0105209425 -0.22213301 0.2030671 -0.7158372 -0.5091353 -0.10632624 0.3394776 -0.19381785 0.05138426 0.045505185 -0.14715342 0.4230653 0.16944268 -0.2288678 0.13261454 0.21551524 0.573702 -0.28175247 0.18720654 -0.17910598 0.44680232 0.1461365 0.3086307 0.3267511 -0.07980772 -0.83881444 -0.32802767 -0.07139331 -0.30291453 -0.2949376 1.053878 -0.48342633 -0.18421347 0.2673168 0.11059355 -0.7564023 0.23343164 0.5392381 0.22318465 0.26947528 -0.4600024 0.16115806 -0.5313423 -0.6587836 -0.5836316 -0.4237615 -0.11266358 -0.27852726 0.80556554 0.22455204 0.23088115 0.3367376 0.66471374 -0.3510157 -0.7867784 0.75580466 -0.09190933
211 -0.33428833 0.009964086 0.44820756 -0.4307222 -0.68118286 -0.18972194 -0.253833 -0.20771013 -0.12798369 -0.52911544 -0.99836934 1.1060047 0.5434693 0.44188744 0.94328076 -0.43886903 0.14092335 -0.04072757 -0.2862254 0.3408495 -0.14294206 -0.028681576 -0.01994501 -0.10578869 -0.23680216 -0.006798856 0.025502969 0.21503082 -0.10680443 -0.12892222 0.10952882 -0.26283485 -0.49128306 -0.108868584 -0.006012507 -0.3133974 -0.5191177 0.44766968 0.5049163 0.07008345 0.40022376 -0.24504337 -0.066465445 0.71121234 0.6646392 -0.053956237 0.67266864 -0.026516909 -0.15702902 -0.7269073 -0.27998167 -0.36770508 -0.23184517 -0.41736385 -0.27753586 0.14177404 0.10097219 0.09044783 0.27063236 0.034129586 -0.0034907383 -0.680111 1.267529 0.123737626
64 -0.39181194 -0.043570593 0.4715637 -0.36639982 -0.58471787 -0.19414082 -0.17119932 -0.2234575 0.014169973 -0.5473039 -0.9991219 1.0405755 0.5584402 0.3565324 0.9439601 -0.4748432 0.11218396 0.016528657 0.04109822 0.130084 -0.4503208 -0.20945905 0.042083584 -0.015717313 -0.005621194 -0.21307454 0.12212459 0.11946691 0.18705177 -0.17015894 0.2507514 -0.09413059 -0.47848016 -0.025080437 0.05844255 -0.1532813 -0.70147634 0.3481114 0.34102634 0.026150389 0.24728593 -0.3635088 -0.091469795 0.84976375 0.42032987 -0.13463406 0.7696448 -0.08131168 -0.081665434 -0.81258714 -0.34137565 -0.39750782 -0.14680488 -0.43905672 -0.347601 0.13474886 0.5936392 0.26201448 0.1555855 0.09489425 -0.23089132 -0.7032158 1.1756096 0.061789136
201 0.44383818 0.4321263 -0.6949458 0.33220485 -0.16033833 -0.53919965 -0.15692595 0.21493216 0.8100635 -0.72304964 -0.24669828 -0.4460041 0.55466247 -0.22120267 0.042557783 1.2701315 0.20977435 -0.09185285 -0.16464499 0.20314617 -0.13577871 -0.012606372 0.026612151 -0.3635529 -0.18255858 -0.23872365 0.11195493 0.24636489 -0.06572174 -0.6377569 0.035762303 -0.10945604 -0.32691935 -0.028317299 0.055528287 -0.21678418 -0.22627711 0.7701525 0.2709152 -0.09268211 0.015342935 -0.27708754 -0.03551643 0.43780285 0.603792 0.3450205 0.61453587 -0.38355204 0.03867929 -0.61871016 -0.51183754 -0.5468395 -0.1195819 -0.52700967 -0.41027552 0.27732912 0.31147537 -0.25934184 0.43047574 -0.0031752673 -0.20930873 -0.71578646 1.0081022 0.027907273
84 -0.71617836 1.4677775 -0.7729811 -0.22668865 -0.16783327 1.0086908 0.10111357 -0.6548281 -0.17654353 0.17664064 0.28424537 -0.28037983 0.37666264 -0.4797349 -0.11114076 -0.41767904 -0.01194939 0.11928459 -0.1650194 -0.028689478 -0.10760048 -0.18855111 0.14045529 -0.0038285244 -0.095032774 0.11507049 -0.30853698 0.21845159 0.16696306 -0.2608789 0.061913922 -0.29143825 -0.43696415 -0.30147168 -0.06174855 -0.35152835 -0.69437784 0.88236225 0.009041564 0.2985663 0.050629985 -0.05004164 -0.26016915 0.54437256 0.22411703 0.40945765 0.7023483 -0.2382227 0.010343339 -0.52091324 -0.38308102 -0.7437999 -0.32754356 -0.6122055 -0.32487145 0.2717664 0.2987197 0.12334937 0.25365356 0.34130642 0.017838724 -0.6754992 0.9444917 0.056923777
86 -0.7713967 1.4683017 -0.70781404 -0.14426696 -0.15134083 0.9347976 0.16355047 -0.5724506 -0.18079422 0.21786408 0.27922735 -0.24957629 0.37351006 -0.44705993 -0.09512223 -0.4101273 0.13410623 0.23322885 -0.19701521 0.15943182 -0.037251253 -0.13875028 -0.076901875 -0.083341144 -0.07500527 0.16306044 -0.32012543 0.042078584 -0.0042859847 -0.13773687 0.06425925 -0.4140866 -0.5326214 -0.2817058 0.15774368 -0.15874831 -0.4096357 0.69990695 0.3874555 0.06516887 -0.16683131 0.09933007 -0.44217196 0.43308592 0.3751871 0.2447359 0.8778963 -0.053795952 -0.11567747 -0.71486753 -0.49245957 -0.6788065 -0.6353182 -0.3924291 -0.33231097 0.018459193 0.33509538 0.20217407 0.20678793 0.4232254 -0.20831737 -0.82218367 1.0099046 0.13113515
95 0.655994 -0.13393581 0.44380882 0.21578795 -0.14911178 1.1733294 -0.8006522 0.088746816 0.49249306 -0.0849128 0.049305797 0.39946666 -0.71557295 -1.3033242 -0.02514925 -0.10265926 0.41308838 -0.27066413 -0.12301897 0.13708581 -0.13551076 -0.24469282 0.019225549 -0.3575929 -0.16129193 -0.12786464 0.013011886 0.06785979 0.4361717 -0.27691945 0.160408 -0.24968068 -0.60302347 -0.19404271 -0.07532151 -0.37555096 -0.4618582 0.28393617 0.17109804 -0.25476113 0.4380781 -0.1020622 -0.38704136 0.91810036 0.5573276 0.3514505 0.5340253 -0.43565056 0.4769476 -0.2386401 -0.4766616 -0.32070005 -0.082752526 -0.26358774 -0.056969937 0.057691064 0.39328262 -0.02405713 0.26742482 0.11423135 -0.21589416 -0.6908566 1.1352297 -0.022812856
164 0.70276034 -0.11376472 0.5771856 0.20749985 -0.09445176 1.209604 -0.7860028 0.094140664 0.50468206 -0.07103684 0.05325396 0.4406691 -0.6710918 -1.2771335 -0.04460786 -0.09315188 0.16022648 -0.13730301 -0.14260186 0.23602293 -0.1857105 -0.029145092 -0.1872769 -0.20384416 -0.30948004 -0.20540503 -0.055815596 0.087887265 0.06453629 -0.3976534 0.05089449 -0.119283594 -0.5166479 -0.1017189 -0.30671492 -0.47570115 -0.2535268 0.28203037 0.28336862 -0.15727726 0.11888838 -0.09524913 -0.49066922 0.69207793 0.8373831 -0.015572511 0.55287063 -0.20536597 0.42819786 -0.42372367 -0.3600644 -0.31596297 -0.40545475 -0.33288357 -0.22498752 0.11940152 0.16691205 -0.12271701 0.36090782 0.1776628 -0.04874992 -0.63005984 1.2264174 -0.08885944
171 -0.29846457 0.06744538 0.32182837 -0.42738664 -0.79610395 -0.14925689 -0.3419346 -0.2758468 -0.22306752 -0.4831639 -0.92610025 1.11621 0.5824292 0.42679927 0.91325074 -0.41939184 0.14150584 -0.36944765 -0.19745113 0.07342193 -0.031969473 -0.18868905 0.110498786 -0.23417507 -0.01618145 -0.0122912275 0.09908687 -0.03611035 0.23777089 -0.27468655 0.033211794 -0.2571344 -0.20506494 -0.15823093 -0.12801093 -0.41449803 -0.5123153 0.4168311 0.55787873 0.13508898 0.37812966 -0.21049345 -0.21205798 0.50539047 0.5603152 0.17330371 0.73282796 -0.30048746 0.2640721 -0.8097511 -0.46846318 -0.20227098 -0.09135422 -0.43808377 -0.44853294 0.270425 0.3241911 0.22063117 0.24534151 0.20789787 -0.14307259 -0.5796855 1.1459789 0.078664936
0 0.5345101 -0.15617892 0.33148384 0.18619275 -0.17371061 1.0803064 -0.75091445 0.08775359 0.4201508 -0.07898248 0.032794006 0.34208125 -0.7246807 -1.1983153 0.01310912 -0.073376805 0.21473189 -0.12867068 -0.0245195 0.41008285 0.1941065 -0.0023722406 -0.018268717 -0.09468215 0.03290141 -0.30438367 0.08842341 0.009776481 -0.020860719 -0.24847227 -0.0072623687 -0.14511655 -0.5922042 -0.2309998 -0.11722959 -0.41023272 -0.37332204 0.23626916 0.30296388 -0.4811903 0.35044235 0.20906036 -0.42589158 1.1722637 0.5886375 0.08079619 0.49339786 -0.25513327 0.60958296 -0.27827755 -0.6055372 -0.21967877 -0.21271409 -0.38004827 0.25865602 0.17054653 0.31796926 -0.15181501 0.22344953 0.14684014 -0.2728505 -0.78407294 1.2081902 0.11447379
193 -0.7651557 1.3968002 -0.72184116 -0.08977864 -0.13054968 0.9358128 0.1676891 -0.5820699 -0.12525249 0.25807688 0.30682358 -0.21881114 0.44262993 -0.4282558 -0.05659123 -0.3930029 0.18571666 0.25195393 -0.19512862 0.55364984 -0.061111126 -0.2577768 0.044686094 -0.031588342 -0.2233536 0.30521926 -0.32914472 0.01778061 0.23230423 -0.20082843 -0.22243601 -0.17804004 -0.4874695 0.016551903 0.033504922 -0.39021477 -0.55630845 0.53521144 0.20957398 0.12302045 -0.17587785 0.096701756 -0.17626387 0.6790862 0.26416972 0.42421696 0.97652984 -0.053730354 -0.08515698 -0.65310884 -0.5660884 -0.66108334 -0.6839112 -0.7041287 -0.21578729 -0.02938992 0.32333577 0.28533736 0.45169556 0.3088561 -0.064657055 -0.88270104 0.9195608 0.2321619
91 0.4069675 -0.07228208 0.11860641 0.16507198 -0.29728577 0.8542089 -0.7246727 0.0681882 0.3462256 -0.047040697 -0.017592847 0.2531713 -0.77501935 -1.0772406 0.057357654 -0.050547373 0.0003040187 -0.18987261 -0.4012347 0.18211365 0.17648816 -0.015253384 -0.10247491 -0.08905875 0.14663415 -0.14033705 0.12952131 0.07504472 -0.11820264 -0.24946141 -0.18079007 -0.38474777 -0.80709535 0.18817396 0.13029517 -0.10372085 -0.21377629 0.5149435 0.1095114 -0.4832797 0.5436528 0.18566105 -0.43779245 1.3408139 0.7351371 0.23130019 0.5804405 -0.3479587 0.750072 -0.16824983 -0.47906464 -0.3218732 0.072881095 -0.0037116723 0.4266477 0.1844763 0.45186114 0.20480813 0.12839925 -0.11946043 -0.16156916 -1.0374458 1.1485922 0.1624666
75 0.37918007 0.39169285 -0.72141856 0.32271415 -0.13954914 -0.5506132 -0.115236394 0.22881807 0.8217263 -0.6673006 -0.25539362 -0.46625498 0.50331384 -0.20751937 0.107440144 1.3086562 0.1001437 -0.13287778 -0.009033007 0.22974688 -0.040555652 0.23449019 0.013984797 -0.2910013 -0.026808891 -0.08224393 0.045582995 0.041840006 0.0021105497 -0.53449285 0.0026287579 -0.040276922 -0.29493186 -0.14694023 0.08767848 -0.33415225 -0.2901135 0.63770515 0.32850164 -0.13295895 -0.058882568 -0.17700212 0.005136763 0.6457075 0.8166332 0.21922043 0.49109447 -0.3742478 0.103658095 -0.6181605 -0.3923537 -0.5204472 -0.365995 -0.7007834 -0.37403584 0.15970887 0.32856718 -0.31081867 0.32022572 0.04039376 -0.24651405 -0.66537565 0.9469017 -0.060534798
357 0.64916253 -0.111845665 0.4819406 0.20160222 -0.14477149 1.1671811 -0.79313034 0.064545095 0.47942442 -0.083578825 0.04552006 0.4038308 -0.7239027 -1.2941005 -0.04446068 -0.10473245 0.3660069 -0.05383569 0.07003887 0.15323806 -0.008930775 -0.25452575 0.03935846 -0.28890967 -0.117834926 -0.14301299 0.003473304 -0.0041980497 0.20956449 -0.37853637 0.20983955 -0.2557511 -0.8412767 -0.008104501 -0.05328504 -0.20854333 -0.3718231 0.18861614 0.1320118 -0.22664046 0.2464773 -0.18623462 -0.2652614 0.889678 0.78748924 0.24038844 0.53688216 -0.3494296 0.4293048 -0.15159422 -0.63339466 -0.21720667 -0.18535599 -0.44699478 -0.01920174 0.076921284 0.3966942 0.098119184 0.21947932 0.07169645 -0.2116848 -0.69554293 1.1676831 0.04477255
2 0.39691755 0.43580872 -0.6409919 0.17966606 -0.0036399637 -0.5532493 0.023201853 0.061068468 0.8216353 -0.83080184 -0.2423344 -0.44474834 0.5011775 -0.24611776 0.016117295 1.3646176 0.19325994 -0.116969675 -0.20943862 0.06392045 -0.21911508 -0.04745849 -0.062623605 -0.4793152 -0.065903604 -0.12156013 0.075573854 0.20534156 0.054096147 -0.17268756 -0.0200869 -0.16520676 -0.4599877 -0.119189434 -0.008526834 -0.19384497 -0.026351618 0.56555104 0.29477596 -0.025131648 0.056044642 -0.22316906 -0.2806609 0.4554823 0.7888063 0.26976654 0.3963293 -0.17148425 0.18665446 -0.5796333 -0.5885177 -0.6270456 -0.28987232 -0.7355451 -0.4402376 0.17284235 0.12000998 -0.10152753 0.027982036 0.0771809 -0.1265954 -0.55848306 1.2558268 0.23896699
77 0.37585196 0.4244036 -0.6585628 0.19986115 0.032643117 -0.53264153 0.039721414 0.090360604 0.81012475 -0.85135555 -0.23742607 -0.38466814 0.52240986 -0.25479466 0.05665784 1.4246494 0.34426868 -0.18038052 -0.06923453 0.0025284651 -0.23326416 -0.20971261 -0.12493282 -0.26064602 -0.19442675 -0.06282176 -0.10141174 0.1619422 0.20858185 -0.28170466 0.07993392 -0.31201807 -0.31483376 -0.04730559 0.07670763 -0.26012433 -0.0853053 0.61664957 0.40781894 0.0065394947 0.1336604 -0.13570558 -0.27944657 0.5450762 0.6903855 0.23643892 0.3040453 -0.35649478 0.12280996 -0.5678396 -0.4652908 -0.57346237 -0.23828039 -0.7436755 -0.42937756 0.114685655 0.25189993 -0.18648255 0.10782528 0.05504647 -0.37631336 -0.6634391 1.1313959 0.2653046
168 0.40251738 -0.096219815 0.04520769 0.18975236 -0.3260914 0.8350445 -0.73188907 0.050022177 0.33998933 -0.01878006 -0.013350485 0.23960087 -0.73626196 -1.0975819 0.05411241 -0.08886299 0.02467429 -0.4247827 -0.21064875 0.11551483 0.1521321 -0.10563821 -0.14241213 -0.07769933 0.08336969 -0.19227268 0.113224715 0.12722898 0.06038201 -0.22234392 -0.2644216 -0.28487238 -0.6130286 0.23405035 0.26444137 -0.19710673 -0.17703307 0.28041008 -0.01434984 -0.33181915 0.5415528 0.35728154 -0.38869944 1.2544241 0.6513429 0.11795384 0.6284097 -0.32685614 0.7851864 -0.16079797 -0.7145545 -0.23584764 -0.11833112 -0.062772594 0.34595346 0.31947684 0.5077624 0.17318061 0.1790049 -0.17014873 -0.32213148 -1.0829041 1.3340386 0.078518435
8 -0.73401433 1.3999491 -0.6976441 -0.17482325 -0.13875048 0.9579482 0.13755812 -0.5991136 -0.13623771 0.21489426 0.28241375 -0.26774514 0.38859987 -0.43945217 -0.10427064 -0.40166378 0.20312901 0.14641488 -0.12156458 0.15271318 0.049641494 -0.2284897 0.117323056 -0.0022408396 -0.11247857 0.24482213 -0.08658567 0.11783338 0.0010940677 -0.085506916 0.05151473 -0.28757355 -0.4008238 -0.30560037 0.21005407 -0.28493363 -0.6524401 0.5943877 0.2834409 -0.01541394 -0.26407593 0.26684123 -0.25510886 0.50583506 0.30471262 0.23477364 0.8421877 -0.13125654 0.01559017 -0.7547595 -0.51807475 -0.75142246 -0.6271084 -0.47348565 -0.43517056 0.1411968 0.26629826 0.2747916 0.32737735 0.54036164 -0.2299619 -0.8515186 0.96701056 -0.004413705
92 0.4782025 -0.06601726 0.22243607 0.21586293 -0.27927762 0.9573817 -0.78089726 0.05097055 0.40526325 -0.02312744 0.006126914 0.30864742 -0.6816824 -1.1521529 0.041496754 -0.11807329 0.042442217 -0.412666 -0.18880822 0.15130782 -0.06748211 -0.0759167 -0.3073701 -0.025618348 -0.16599795 -0.012104708 0.030045096 -0.0034353589 -0.02734327 -0.3753403 0.09777448 -0.3863046 -0.64316726 -0.044562872 0.16575894 -0.31927505 -0.15021472 0.4268548 0.18788001 -0.2685921 0.43740028 0.0075839967 -0.48977754 1.2998508 0.6940851 0.14264278 0.58275753 -0.26827648 0.72725743 -0.066031344 -0.58327276 -0.19355857 -0.025799336 -0.26986024 0.3191882 0.12616698 0.4892408 0.096413866 0.07914588 -0.020935584 -0.5146995 -0.7091842 1.1422248 0.16309592
88 -0.74604934 1.383828 -0.6715833 -0.08365969 -0.12271639 0.9514084 0.16210651 -0.57456297 -0.10198528 0.24743412 0.30328575 -0.22014365 0.43417227 -0.4488815 -0.075195454 -0.41098306 0.2367334 0.1795632 -0.4816121 0.42709896 -0.052987438 -0.36745614 0.060258765 -0.052553974 -0.19790985 0.31271526 -0.2957012 0.0809664 0.046902396 -0.23428968 -0.3226447 -0.23992676 -0.43858573 -0.09874937 0.059500918 -0.4006556 -0.6470762 0.6242563 0.2870331 0.017732082 -0.28228933 -0.07704907 -0.22111154 0.5236293 0.2917462 0.33539617 1.1156257 -0.10082853 -0.090298966 -0.7657282 -0.5388599 -0.80104965 -0.48771045 -0.53602916 -0.15730073 0.052092977 0.47977662 0.16472745 0.358887 0.32947347 -0.060636207 -0.7706988 0.7873118 -0.0437144
93 0.5717171 -0.12990412 0.33756337 0.18481643 -0.18579502 1.0815763 -0.77089816 0.09838212 0.42626598 -0.050365616 0.018247375 0.34585053 -0.7010399 -1.1824121 -0.0006616286 -0.09233651 0.23439915 -0.03928256 -0.11872001 0.32824257 0.18319051 0.077171616 -0.0764349 -0.33035383 -0.12017197 -0.30421865 -0.034408063 0.22875051 0.055593096 -0.2801826 0.16458383 -0.2058452 -0.5172436 -0.19229005 -0.04313109 -0.3483595 -0.2708713 0.30627906 0.2201872 -0.40523598 0.2785823 0.28061983 -0.3349874 1.1204185 0.6639365 0.16495372 0.6131647 -0.17507806 0.6821411 -0.18788695 -0.47152665 -0.23946458 -0.054998253 -0.334463 0.14376225 0.2941653 0.14360073 0.1447874 0.120749444 0.064929776 -0.3016606 -0.8586887 1.270844 -0.015673818
1 0.48726207 -0.07576962 0.2138746 0.22067864 -0.25264904 0.9618486 -0.7403537 0.07060187 0.3710945 -0.0070470166 -0.004702934 0.30767006 -0.69975764 -1.1378671 0.06460777 -0.09634817 0.22778985 -0.37076116 -0.17833109 0.13176365 0.006522441 -0.13980953 -0.17350744 -0.21172619 -0.15359865 -0.0874479 -0.03198848 0.04407152 0.013989426 -0.19429728 -0.076452 -0.41943073 -0.79081076 0.00039991605 0.17305852 -0.352585 -0.12162929 0.4695943 0.17663008 -0.26548663 0.43573838 0.07062041 -0.4589589 1.1019195 0.74221575 0.10747292 0.6011423 -0.057843816 0.6477042 -0.02095203 -0.5681335 -0.28281522 -0.08205627 -0.1392379 0.41510984 0.10947296 0.52147776 -0.0698176 -0.121070825 -0.030481001 -0.31811914 -0.7756912 1.3104233 0.20057198
219 0.22051707 -0.070807666 -0.6851301 -0.018813184 -0.0122166015 1.0662969 0.3836668 0.2098382 1.048389 0.1513889 -0.12064167 0.41710982 -0.7601868 1.4092184 0.14733842 0.09313402 0.075523175 -0.15697345 -0.004860462 0.0059971986 0.043806303 -0.23421939 0.31096506 -0.06443238 0.12635545 0.15001768 -0.06841533 0.18582779 0.1665398 -0.49226063 0.04820192 -0.2379199 -0.30402747 0.0788808 0.27880105 -0.2546162 -0.015227093 0.43149498 0.04043504 -0.3805379 -0.050484132 -0.33884314 -0.6872068 1.0417718 0.37204605 0.13172705 0.64974576 -0.25562838 -0.13441835 -0.57412606 -0.46302748 -0.4723797 -0.5242738 -0.54007924 -0.32762992 0.6415254 0.059686158 0.30878112 0.31446022 0.21390003 0.02303001 -0.16336186 1.0854186 0.033940755
218 0.2227435 -0.046156168 -0.6471306 -0.06271628 -0.0139736505 1.0308242 0.41440296 0.24043636 1.0233421 0.17885754 -0.13256311 0.37708452 -0.8028345 1.3894681 0.15020101 0.11357246 0.18095331 -0.04229991 -0.020031745 -0.14612897 0.013578534 -0.17543803 0.18045372 -0.31171674 0.0839154 0.122764155 -0.2465759 0.13049972 0.08881808 -0.45793822 0.16673078 -0.3551378 -0.08326567 -0.15864775 0.23342128 -0.12997347 -0.17704958 0.49884376 0.21023826 -0.5610859 0.121133134 -0.37498626 -0.74493253 0.9268612 0.39157918 0.2102069 0.833488 -0.15349483 -0.15855622 -0.42932168 -0.3718212 -0.39435786 -0.4678336 -0.40959233 -0.31838033 0.6998484 0.049809106 0.31581807 0.29921532 0.3242159 -0.05166428 -0.19299169 1.0987028 0.13488777
216 0.36807552 -0.056725368 -0.6854828 0.015533154 -0.14573903 0.9462061 0.5704173 0.101356946 0.9608716 0.24077035 0.0033903646 0.5557526 -0.77594715 1.3289883 0.1150907 0.11376859 0.21498354 -0.026510904 0.114225745 0.18136293 -0.049986433 -0.22794095 -0.097974755 -0.15352212 -0.029718112 -0.010854065 -0.29905918 0.069088966 -0.009983658 -0.5204021 -0.12012937 -0.45341212 -0.30643782 0.009213094 0.40953892 -0.21221302 0.006175826 0.5756795 0.18060306 -0.23775378 0.24269836 -0.41313148 -0.7536521 0.76820683 0.33110368 0.16266514 0.59985673 -0.24600753 -0.30220336 -0.5705246 -0.5765972 -0.29054737 -0.4993612 -0.21954662 -0.27745312 0.3804674 -0.060630523 0.09639389 0.5178089 0.266405 0.014555013 -0.29707366 1.17823 -0.08695872
191 0.84853524 0.07596914 -0.006924515 -0.6488489 -0.30384636 -0.01899222 -0.544517 -0.05053656 -0.43299535 -0.25214136 -0.42168546 -0.20084275 -0.26086152 0.2931319 -0.34557799 0.066676065 0.11660546 0.15335274 0.35821894 0.18220574 -0.33644485 0.30668673 0.23323062 0.2722379 -0.09795532 0.53090507 -0.5455875 0.16317043 -0.13027263 0.20491603 0.0100599695 -0.10017884 -1.040463 -0.10668609 -0.050301086 -0.44229114 -0.46359724 1.1175679 -0.9257881 -0.17626828 0.89575636 -0.26003024 -0.43322614 0.13944802 0.24028394 0.11275657 0.50563604 -0.5160078 0.22162548 -0.86501557 -0.19543415 -0.2722694 -0.53306144 -0.3579839 -0.0380584 1.0291158 0.35226232 -0.51281935 0.1264499 0.6751086 -0.17197417 -0.8435602 0.80808663 -0.2684153
29 0.34580725 -0.021739913 -0.6490828 0.038356576 -0.35610592 0.76443744 0.7850069 0.03736079 0.88779324 0.25716653 0.0719051 0.63341385 -0.9288001 1.2473112 0.044803336 0.15012641 0.10717522 -0.12794617 0.2567685 0.023963192 0.020906426 -0.31778002 0.31928506 -0.24996659 0.090844326 0.026898365 0.0027745483 0.030726857 0.108643375 -0.48885703 -0.2643372 -0.41676787 -0.21464925 -0.33759832 0.37193838 -0.3275435 -0.12852101 0.58974516 0.2377511 -0.15428351 0.06152521 -0.22225074 -0.54621 0.87547404 0.4527178 0.025345009 0.63903415 -0.1156958 0.025302047 -0.64042217 -0.36150005 -0.2114879 -0.6849565 -0.2684328 -0.24571368 0.5541186 -0.11097097 0.13543133 0.11324473 0.3866818 -0.037783355 -0.5293927 1.0022941 -0.024218617
215 0.29268384 -0.012256925 -0.68600476 -0.00042118476 -0.18975714 0.91470903 0.59929687 0.117553435 0.91728395 0.23440874 -0.016205136 0.51998955 -0.80102134 1.3039092 0.14212137 0.12604895 0.12697504 0.01997335 0.09487257 0.048101265 -0.050972838 -0.5797935 0.10106203 -0.10383384 -0.10628542 -0.009385015 -0.1689483 -0.09580623 -0.08517917 -0.62022746 0.03032369 -0.46825805 -0.39739832 -0.14245653 0.41254178 -0.22193718 -0.060153496 0.47953433 0.12065409 -0.17585899 0.33689055 -0.63474905 -0.63649946 0.7730013 0.3798014 0.17658064 0.6876737 -0.22147024 -0.11194867 -0.44632277 -0.55735534 -0.317103 -0.53372747 -0.3022948 -0.27443206 0.5294174 -0.021274399 0.08921644 0.4476535 0.14553119 -0.072689354 -0.33109152 1.047756 -0.09215037
141 -0.13572289 0.290439 0.12931265 0.34661818 -0.0755626 0.086384974 0.09374723 0.15774912 0.26958814 0.2867731 -0.1947842 0.08795769 0.065230384 -0.10907633 0.13053522 -0.2888523 0.32814446 0.11756186 -0.12742749 0.067953646 -0.12626465 -0.6039182 0.008722672 -0.71627045 0.022289647 0.018405639 -0.18848561 -0.07388685 -0.07813438 -0.32312655 0.3692655 -0.046076193 -0.04806482 -0.28518206 -0.23806562 -1.0388814 -0.49512017 1.9511132 -0.81477237 -1.1648057 0.03963953 -0.2417471 -0.078354366 0.23589112 0.45954064 -0.2829397 -0.22003533 -0.6835938 0.21859686 -0.93416506 -0.77597946 -0.033979762 -0.7440907 -0.350169 -0.16097897 0.0060825306 0.05329454 0.45929042 0.3112051 -0.5038997 -0.6548888 -0.47106874 1.0618527 0.54141617
246 0.36495426 -0.06452563 -0.68131465 0.005969885 -0.5427264 0.6690604 0.9081089 -0.1432175 0.73555887 0.3658961 0.12259493 0.67294675 -0.9624175 1.1578051 -0.011473857 0.25423586 -0.061811194 -0.009545634 0.020718496 0.25106472 -0.22684313 -0.24225074 0.10739383 -0.13165551 0.028065411 -0.19435167 -0.1035841 0.0338976 -0.050342053 -0.60493165 -0.079053186 -0.302101 -0.39673823 -0.27173775 0.220739 -0.20770076 -0.19850951 0.5591436 0.00790973 -0.32203743 0.20090331 -0.45612887 -0.61768246 0.6803814 0.465196 0.42416137 0.36494106 -0.14524533 -0.036191344 -0.43766516 -0.3251398 -0.41646156 -0.38599038 -0.56844306 -0.28913727 0.2125627 -0.14542636 0.2947 0.08640976 0.3544978 -0.009512687 -0.5257768 1.1530216 -0.02975916
58 -0.2645191 0.5357142 0.8302696 0.6193758 -0.36774257 0.13753334 0.08333066 -0.29475874 -0.27134135 -0.4204211 0.2269939 -1.1721927 -1.0528631 0.65593314 0.7828146 0.013548587 0.41856402 -0.011687209 0.17600979 0.0013214698 -0.15008023 -0.24403574 -0.05505356 -0.036125243 -0.026606089 0.047244024 0.14958982 0.18729518 0.12116025 -0.111074515 -0.06396205 -0.09702115 -0.31613407 0.18852165 -0.44519037 -0.34816307 -0.04553648 0.61476713 0.42425394 0.15485655 0.19554268 -0.30095527 -0.10909428 0.6331746 0.71916616 0.05389319 0.4208392 -0.3056815 0.21980278 -0.6399923 -0.71841156 -0.3207274 -0.09947476 -0.3824862 -0.32169098 0.21324164 0.10510514 -0.045269534 0.29494682 0.2410603 -0.44826135 -0.78968376 0.9218429 -0.09592859
153 -0.11531192 0.27901426 0.121945724 0.31321588 -0.0809173 0.049551085 0.096094646 0.18550101 0.20741408 0.24226116 -0.17653134 0.016898865 -0.004262349 -0.08584747 0.110572174 -0.20409186 0.34336692 0.0026586647 -0.3046904 0.09160819 0.070609786 -0.45382756 -0.034051135 -0.4680754 0.056943957 0.02278377 -0.15377036 0.19095758 0.0072515267 -0.24004574 -0.08617298 0.0037627083 -0.026606878 -0.40051132 -0.24902421 -1.0688869 -0.57824945 1.748681 -0.64189804 -1.273024 0.3378683 -0.23436688 -0.083155625 0.19197893 0.2854248 -0.44641942 0.011059218 -0.7510159 0.4447044 -1.1846633 -0.8755004 -0.2619829 -0.8325782 -0.47028455 -0.22202314 0.04306842 -0.20097345 0.5129216 0.24704923 -0.5988244 -0.7690447 -0.22927773 0.96762025 0.5474317
55 0.40246364 -0.07646608 -0.54955333 0.08911955 -0.67706215 0.52437913 1.0377364 -0.23134975 0.623447 0.44788542 0.20482354 0.7956915 -0.98317 1.023131 -0.102317706 0.32606634 0.23854868 -0.13059382 0.28427246 0.10636555 -0.23873241 -0.36088693 0.03274849 -0.15316243 -0.1842912 -0.13849464 -0.0969246 0.059477504 0.12678076 -0.53148746 -0.06722105 -0.41427767 -0.35898352 -0.21517266 0.59725016 -0.26574135 -0.40354654 0.5567324 0.16992201 -0.29504797 0.07567504 -0.14481439 -0.20702066 0.64523035 0.4614625 0.22334985 0.3854821 -0.19214311 0.0886772 -0.64862186 -0.2148707 -0.4650809 -0.42302287 -0.5949884 -0.15872899 0.3953735 0.2763404 0.11676176 0.22919963 0.26694164 -0.11597852 -0.41940194 1.0439541 -0.20383362
20 -0.20203362 0.3275202 0.22706209 0.3312807 -0.07330468 0.041083578 0.1395189 0.16142604 0.32036653 0.22228657 -0.21303403 0.07929909 -0.012352756 -0.14953755 0.13344778 -0.24608031 0.09776196 0.06250634 -0.09930323 0.23654555 -0.005541918 -0.5411697 0.013817361 -0.34006977 0.013439167 0.14635588 0.018269464 0.12369168 0.07674515 -0.12905622 0.1886249 -0.37028727 0.049284525 -0.24256574 -0.20422067 -0.9353789 -0.5371753 1.7830637 -0.6923428 -1.2031533 0.25254828 -0.07749096 0.039290104 0.34560767 0.6281085 -0.017982963 -0.23383492 -0.7848267 0.016571052 -1.1462947 -0.85114324 -0.0067449133 -0.9197141 -0.3945242 -0.19786213 0.18357293 -0.07998379 0.30326888 0.1381163 -0.91573435 -0.5323168 -0.3400847 0.99644434 0.41280305
251 0.37188417 -0.037976895 -0.62207764 0.057858605 -0.32198668 0.8223685 0.7849668 0.016012391 0.93633485 0.28651327 0.08761995 0.6371391 -0.8824895 1.2655208 0.024055965 0.13915652 -0.06659457 -0.13007294 0.13902496 0.08314728 0.042429566 -0.30828333 0.27985165 -0.34015003 0.079439975 -0.12295014 -0.17207427 0.12624003 0.22280443 -0.37503707 -0.20117268 -0.32159984 -0.18864349 -0.36873484 0.3144609 -0.33886933 -0.088982485 0.6583649 0.20113873 -0.10227622 0.10304871 -0.41526714 -0.5663709 0.63299865 0.4897721 0.12379697 0.5837803 -0.101892315 0.006629269 -0.52945787 -0.31189674 -0.38796064 -0.6625895 -0.38918048 -0.05470136 0.5222456 0.25037542 0.21695516 0.22286357 0.31894448 0.07069733 -0.3585522 1.1111879 -0.16457213
245 0.46197152 -0.087953575 -0.51354074 0.14405455 -0.64782566 0.56712884 1.0535357 -0.21625365 0.7083821 0.4147854 0.22301398 0.8240037 -0.9057261 1.0375688 -0.18174794 0.27183348 0.30116898 -0.193192 0.29607508 0.15184464 -0.07742091 -0.3726779 0.13541585 -0.059794776 -0.07294505 0.0025845238 -0.31794783 0.104236454 0.22699772 -0.6006006 -0.26867792 -0.3613706 -0.27909636 -0.1651343 0.3776403 -0.30797973 -0.36851978 0.59536517 0.0763329 -0.23073466 0.08946814 -0.34119377 -0.2903704 0.560991 0.44246784 0.19608481 0.5422693 -0.19776389 -0.025274415 -0.580214 -0.18472195 -0.4452914 -0.24457577 -0.6005741 0.0043678144 0.27348468 0.13982598 0.039746743 0.24294955 0.25589308 -0.21092695 -0.6464007 1.0308788 0.007215907
244 0.3923874 -0.084986225 -0.4003961 0.18022889 -0.8439844 0.38801134 1.1606945 -0.30936587 0.55564463 0.4899925 0.27634108 0.8573925 -0.93788034 0.88893807 -0.25905573 0.3657059 0.13397361 -0.16464046 0.06872088 -0.0937847 -0.18103762 -0.23739585 0.022846308 0.23411039 -0.04346376 -0.07033559 -0.047750838 0.06948235 0.035227038 -0.4590474 -0.11517539 -0.25453722 -0.23816533 -0.5616412 0.12873408 -0.29338783 -0.2194622 0.58837676 0.07133164 -0.24138571 0.21575454 -0.031610455 -0.5043509 0.6258301 0.65615636 0.065965556 0.44399408 -0.23851764 -0.030841257 -0.48537067 -0.40637863 -0.59866005 -0.3274415 -0.6118879 -0.29842257 0.06317884 0.2220158 0.06743707 0.23598588 0.27222928 0.016208168 -0.49997413 1.0319003 0.02764364
172 -0.118692264 0.34341946 0.10383946 0.32314792 -0.06497363 0.01163736 0.1294909 0.20181526 0.19617437 0.27059755 -0.16589831 0.07076925 0.062727965 -0.045019977 0.11184147 -0.23186761 0.35837817 -0.082128435 -0.1165093 0.17076227 0.0640236 -0.36797807 0.0029283718 -0.6128333 -0.11070223 -0.02217198 -0.4580682 0.15932527 -0.06279271 -0.32989943 -0.038831133 0.084124595 -0.25706923 -0.42591214 -0.31906477 -0.92376167 -0.49448344 1.9820956 -0.6879579 -1.226984 0.27761623 -0.08223309 0.06622286 0.36439678 0.36603588 -0.4464545 0.02929877 -0.56705105 0.43930307 -0.78985953 -1.0998714 0.03817701 -0.8480057 -0.3506254 -0.51868045 -0.15101348 -0.09192904 0.50965065 0.23135267 -0.5646162 -0.75503695 -0.13093688 1.0700253 0.44030446
66 0.40293196 -0.13640155 -0.27836323 0.25601953 -0.9802114 0.33665833 1.2061021 -0.41414258 0.4604164 0.5973334 0.30408004 0.8586409 -0.770431 0.7810951 -0.4631596 0.3861549 0.1658182 0.078461826 -0.107970566 0.058371138 -0.23241732 -0.1989645 0.1658195 -0.111136995 -0.0869745 -0.09604628 -0.19599141 0.3084565 0.13675332 -0.51385283 0.15293337 -0.27678198 -0.24684916 -0.2016043 0.24179874 -0.3907256 -0.2645321 0.6352196 0.04682598 -0.16099343 0.17689605 0.01604911 -0.25047806 0.6585292 0.5973646 0.2269067 0.551166 -0.08931114 0.17312731 -0.6883441 -0.24998054 -0.6249091 0.06792754 -0.37165865 -0.29903045 0.35980657 0.02481911 0.058519397 0.2919358 0.13517734 -0.1143926 -0.51649976 1.0432149 -0.11616163
54 0.42236027 -0.09525444 -0.38862187 0.16474842 -0.86047417 0.4222586 1.1428832 -0.3390329 0.61142445 0.496763 0.26321226 0.85127026 -0.8807127 0.8775397 -0.28769535 0.32920948 -0.056260634 -0.17839803 0.08310976 -0.05445882 -0.35117322 -0.18601485 0.06079731 0.087697566 -0.07919685 0.05353293 -0.21186116 -0.09510626 0.01401252 -0.5170935 -0.08504032 -0.15797804 -0.2317234 -0.29870942 0.20007586 -0.20128623 -0.24209373 0.6421697 0.047514644 -0.298962 0.033078954 -0.11388191 -0.44438335 0.61943674 0.7906575 0.11520606 0.4778718 -0.04422997 -0.0016884306 -0.49563444 -0.33044642 -0.2864819 -0.36581087 -0.5462735 -0.40388727 0.15006241 0.35218558 0.066439144 0.2890743 0.30109474 -0.0070521324 -0.59951264 1.0733614 -0.06260469
56 0.43325853 -0.05348755 -0.6233631 0.0665766 -0.553807 0.6607302 0.8922413 -0.14261435 0.832393 0.34346384 0.15821527 0.70468956 -0.9428766 1.150063 -0.09619477 0.17627908 0.10421326 -0.11589348 0.010444129 0.010708856 -0.26992184 -0.31687137 0.00010584669 -0.17455286 0.19135557 -0.037024528 0.0037568125 -0.10299687 0.027038649 -0.54921573 -0.22086905 -0.28728244 -0.44574067 -0.3533499 0.1921406 -0.13897981 -0.30244341 0.6481598 -0.02839134 -0.104531035 0.11233644 -0.4799036 -0.70071995 0.6846552 0.4342527 0.4534807 0.4441162 -0.09451592 0.027412085 -0.59609675 -0.354303 -0.45337427 -0.28215244 -0.43580005 -0.26723018 0.2632145 -0.0036519815 0.3355447 0.3084497 0.28864047 -0.10766579 -0.45149347 0.9860775 -0.20664693
299 -0.24702133 0.5256256 0.80454916 0.6180908 -0.4002769 0.119249225 0.102738254 -0.31873515 -0.28456843 -0.41685233 0.22712268 -1.1830585 -1.0198526 0.63916826 0.7922133 -0.0015678945 0.44468772 -0.07194624 0.051505946 0.24288175 -0.062088873 -0.137416 0.023813037 -0.05490537 -0.011109716 -0.03101433 -0.072666936 0.10089817 0.05586303 -0.14496176 -0.1188191 -0.047158588 -0.45647633 0.24568188 -0.43456674 -0.45050827 -0.13183059 0.5534025 0.30280074 0.22519809 0.12628374 -0.29828167 -0.07854314 0.59372807 0.69954395 0.21955983 0.3097152 -0.3059187 0.15427461 -0.45556635 -0.745156 -0.36302876 -0.1526298 -0.3000893 -0.42780566 0.23519553 0.15349074 -0.15410382 0.34336463 -0.008599479 -0.4019978 -0.70094573 1.142492 -0.36140078
194 -0.21034005 0.40178135 0.78766805 0.58670247 -0.36347014 0.19012474 0.09817471 -0.26343057 -0.3340754 -0.40823102 0.47526038 -1.151779 -0.8803331 0.6302206 0.860102 0.022085965 0.34980223 -0.22638215 -0.1164224 0.19355169 -0.07026765 -0.20182517 0.1060049 -0.19944309 -0.05926651 0.057898626 -0.21564612 0.35391226 0.12611938 -0.22476603 0.07775426 -0.16089536 -0.13447694 0.09612167 -0.3487637 -0.4376504 -0.1974301 0.59089464 0.40991148 0.16407694 0.23732522 -0.3651841 -0.10180538 0.6392304 0.67082703 0.12897116 0.16614221 -0.6652722 0.105793744 -0.46941772 -0.45239872 -0.3716314 -0.039269723 -0.3281485 -0.28735247 0.3313962 0.37945205 -0.034382604 0.29924563 0.24774192 -0.32392535 -0.73519176 1.0509968 0.037486855
173 -0.15157406 0.30978492 0.20019536 0.35387632 -0.123353176 0.060868092 0.13339476 0.123730324 0.38142744 0.23452252 -0.21279103 0.0985099 0.07515087 -0.23110184 0.06646903 -0.3456773 0.23133878 0.19390742 -0.24762495 -0.08304661 -0.019257989 -0.5207669 0.12025528 -0.20461814 0.072057195 0.12411882 -0.09716088 -0.18360153 0.20252553 -0.45117453 0.100329995 -0.23692912 -0.039584722 0.092835836 -0.3154809 -1.0462651 -0.3364281 1.6616796 -0.72179234 -0.9860209 0.01629351 -0.36768463 0.022216287 0.23502006 0.7362405 0.018955013 -0.32918376 -0.62868255 0.009994067 -1.2249118 -0.7988286 0.103405036 -0.8429543 -0.2733986 -0.017592525 0.4759442 -0.012117491 0.51693135 0.16751178 -0.66481817 -0.74389565 -0.518834 1.0718288 0.53651977
298 -0.20962681 0.422066 0.7832042 0.5911137 -0.333674 0.18511671 0.12050639 -0.2628017 -0.33237895 -0.3750677 0.45866194 -1.1321851 -0.85418516 0.67014796 0.86956364 0.013851775 0.18003511 -0.09825372 0.020812873 0.21769436 -0.14941658 0.036532413 -0.016399074 -0.24489568 0.07675513 -0.05137986 -0.2119018 0.33150694 0.17127086 -0.27510443 0.21283962 0.0774066 -0.0201718 0.19016829 -0.3899176 -0.32697752 -0.17179368 0.5371937 0.3824107 0.01090623 0.22270584 -0.24801897 -0.11484819 0.5949054 0.7640338 0.15576875 0.3359887 -0.5268489 0.15979576 -0.48604026 -0.5226057 -0.39449754 -0.08817655 -0.37375453 -0.2948495 0.30309772 0.36615095 0.0069297026 0.1328793 0.29401818 -0.42608264 -0.6731498 1.157273 -0.052298542
51 0.2786541 -0.18119588 -0.028209379 0.28519094 -1.1019319 0.27667198 1.3053367 -0.5069144 0.35996854 0.56247544 0.30382982 0.8197971 -0.5828351 0.6194992 -0.64466554 0.49899885 0.18037114 0.018445004 0.07885084 -0.044821955 -0.20215802 -0.12954226 0.30315086 0.040201064 -0.03566688 0.004978195 -0.08528607 0.12096448 0.31402633 -0.4839832 0.29771656 -0.22998874 -0.22923401 -0.18120736 0.169447 -0.19378775 -0.25220072 0.55623 0.12892577 -0.2337013 0.3507802 -0.14374742 -0.35000387 0.71698856 0.25811732 0.3059744 0.5431786 -0.28774306 0.11786777 -0.5385367 -0.5972438 -0.3730056 -0.30914873 -0.49216962 -0.22488724 0.12381521 0.43687475 0.044666275 0.2101438 0.27449763 -0.071632385 -0.5686364 1.0725688 0.012348553
148 0.24299724 0.22322477 0.59210795 0.14417426 0.43858787 0.6139868 0.30757102 0.24473782 0.0787295 0.20848137 -0.012820057 0.2100923 0.17636451 -0.14152876 0.049197633 0.103877746 0.14538866 0.24083307 0.6391076 0.030828847 -0.5571434 -0.081523806 0.35345268 -0.29932287 -0.11806675 0.024360755 0.25399235 0.523341 -0.09683359 -0.8193071 -0.05376183 -0.3884283 -0.9322844 0.053625837 -1.2640125 -0.9819288 -0.41005123 0.19728088 0.5892404 -0.2606637 0.38711885 -0.2333775 -0.683557 -0.14480881 0.66489196 0.6599183 0.79023445 -0.4198702 0.26914564 -1.0044893 0.31884226 -0.28575 -0.66427 -0.34763148 -0.9854144 0.16987827 0.43286368 0.10244243 0.60908866 -0.057043917 -0.124441765 -0.29520825 0.7575118 -0.09127449
50 0.18410054 -0.25619444 0.055125855 0.3860504 -1.2016699 0.19406074 1.2134341 -0.544353 0.14636914 0.65004057 0.27273747 0.7341822 -0.48829222 0.45964745 -0.8031731 0.55191743 0.19386855 0.15939887 -0.2314008 0.0077436618 -0.13163131 -0.09913868 0.040666558 -0.07119011 -0.12732781 -0.19347712 -0.039907616 0.32448536 -0.1933599 -0.4596678 0.024501534 -0.18831387 -0.1860897 -0.12607405 0.07413208 -0.28998262 -0.38829318 0.64178294 0.16093045 0.0135335475 0.14330286 -0.33129725 -0.42263508 0.6729993 0.42719576 -0.0027875581 0.6076446 -0.114023186 0.15350124 -0.609992 -0.48155046 -0.32148007 -0.37196255 -0.5686765 -0.19432653 0.49183926 0.20840709 -0.19394541 0.19443658 0.22227034 -0.058501273 -0.48844868 1.0741134 0.008096945
170 -0.1695873 0.28927037 0.29250747 0.32046348 -0.109195724 0.06999579 0.10359362 0.08633842 0.43807152 0.21293688 -0.22940926 0.1317056 0.07284259 -0.23787129 0.1115806 -0.3237033 0.36466566 0.32486477 -0.19269258 0.13218388 -0.18412606 -0.4606591 -0.11320019 -0.35451758 0.0808062 0.17369446 0.024437282 -0.08373123 0.12077309 -0.16700572 0.15922159 -0.17681399 0.17453443 0.055627406 -0.04751516 -1.117084 -0.22200023 1.7914935 -0.61263317 -1.0439211 -0.042265914 -0.16115582 -0.1517981 0.45949137 0.80104804 0.38144696 -0.3302426 -0.8045954 -0.09475239 -1.3223763 -0.51022476 0.02082809 -0.8085959 -0.27722356 -0.030258127 0.3150996 0.022207774 0.46385702 -0.012335668 -0.69517726 -0.5475893 -0.43006152 0.9770272 0.024262737
239 0.32335007 -0.1679453 -0.07844649 0.28793412 -1.125093 0.22068098 1.2564803 -0.47239932 0.33277392 0.6007519 0.30428055 0.8017972 -0.7142724 0.6102606 -0.6237599 0.494289 0.19871062 -0.053609427 -0.13199599 -0.080132045 -0.27061525 0.0738121 0.18128884 -0.010774245 -0.033810925 -0.042945366 -0.13369091 0.0055314535 0.29485133 -0.27585134 0.122127056 -0.30631706 -0.24646312 -0.10493338 0.2044773 -0.1365164 -0.30412132 0.5185774 0.22129461 -0.42177898 0.34584293 -0.19981073 -0.28738502 0.67939013 0.32447475 0.26886895 0.6840706 -0.2577829 0.033203024 -0.6493091 -0.415638 -0.5031342 -0.4504008 -0.5716046 -0.31731287 0.19058096 0.2218437 -0.11478185 0.28125182 0.08618409 -0.07348038 -0.6272844 0.9795624 -0.083665885
83 0.39292043 0.5006348 -0.14954281 -0.6277753 -0.35244933 0.28288493 -0.52558404 -0.22923753 -0.3392991 -0.37425393 -0.20998728 -0.1375191 -0.14719269 0.13137415 -0.3739193 -0.03809295 0.10265344 0.15458754 0.5163835 0.02632205 -0.16314392 0.16888924 0.30699962 0.39388654 0.10425676 0.09025963 -0.45321026 0.32395232 -0.19770701 0.23590672 0.52238107 -0.37290013 -1.1359789 -0.2197644 0.19165632 -0.43181154 -0.13207862 1.4309924 -0.90100837 -0.030480765 0.5007356 -0.2576924 -0.292024 0.1622219 0.15050852 0.30498004 0.26459172 -0.53964937 0.35733292 -0.59592485 0.097308025 -0.41303805 -0.3307556 -0.49367613 -0.3414586 1.0558971 0.25068483 -0.4333688 0.17846425 0.64563435 -0.26996243 -0.6147209 1.1267602 -0.3918648
48 0.023358645 -0.33557227 0.17076993 0.43087503 -1.3093035 0.073873445 1.0615293 -0.63952315 0.021815315 0.6109368 0.20185265 0.6418992 -0.40523666 0.31019306 -0.9421058 0.5838156 0.10276693 -0.17510614 0.09532881 0.17397621 -0.30037627 -0.1547687 0.20081349 -0.18580174 -0.033854954 -0.23018384 0.016575387 0.19769226 0.13293812 -0.39522862 0.13868612 -0.3134395 -0.49810392 -0.18415166 0.17148097 -0.39584383 -0.062069688 0.7357937 0.20232095 -0.031135008 0.07623643 -0.2520664 -0.3149064 0.47389263 0.4547743 0.25138524 0.70550394 -0.18831961 0.0294363 -0.5317617 -0.61326146 -0.5462392 -0.4097177 -0.47977075 -0.07277225 0.17396055 0.057011317 -0.037634023 0.26368812 0.15866478 -0.1604852 -0.51127905 0.9620664 -0.14990628
327 0.3388853 0.15096068 0.71596956 0.17054927 0.47579134 0.77873546 0.22637531 0.25817907 0.1323392 0.16146071 -0.008557463 0.31069514 0.19457549 -0.29752228 0.04380328 0.084085636 0.5887843 0.14011958 0.6396825 0.0359008 -0.48001808 -0.11207547 0.42156288 -0.33298558 -0.4462305 0.091576934 0.025474247 0.6144812 -0.096762754 -0.82413894 -0.048208456 -0.3358626 -0.84352565 -0.063132115 -0.99325687 -1.1173004 -0.36187324 0.047741607 0.5547808 -0.15184027 0.11972815 -0.20241918 -0.49000615 -0.010658985 0.6323669 0.3694734 0.68780714 -0.52244395 0.15650533 -0.76258093 0.48814633 -0.417075 -0.8270222 -0.47898996 -0.8673346 0.16727918 0.3270534 -0.06768687 0.44199428 0.11402903 -0.40315092 -0.28972945 0.9968972 0.07717589
241 0.37979782 -0.12622778 -0.30031535 0.24877109 -0.98886573 0.31202373 1.2250042 -0.3995523 0.44431996 0.5615892 0.30770484 0.8418278 -0.7785475 0.7823078 -0.43922657 0.41400304 0.3046573 0.13686882 0.10958635 0.024464443 -0.12190882 -0.1884289 0.095276624 -0.08914705 -0.09526361 -0.121200435 -0.24267684 0.2567828 0.09819884 -0.41699642 0.043453775 -0.3052114 -0.49101323 -0.18764935 0.07922585 -0.18855828 -0.22850128 0.6472112 -0.018112998 -0.18114966 0.083290845 0.08720414 -0.29739156 0.720627 0.54068553 0.28037173 0.58747303 0.076523244 0.08837376 -0.6350777 -0.3533219 -0.38191432 -0.05175958 -0.7304589 -0.20141232 0.36325976 0.13743934 0.09678058 0.24786751 -0.008274401 0.04641615 -0.50908846 1.0429735 -0.05516801
59 -0.21604782 0.4338433 0.8565228 0.59949297 -0.35364106 0.1867804 0.111149274 -0.27874073 -0.30552354 -0.43924522 0.44486785 -1.1407679 -0.8789722 0.6325971 0.84947205 0.003761681 0.08476019 -0.08899945 -0.024589831 0.27895197 -0.048223 -0.06822943 0.09888837 -0.18769704 -0.11306255 -0.04478344 -0.14617051 0.28030306 0.10351105 -0.25265563 0.106624864 -0.14355311 -0.19360444 0.043969404 -0.42834023 -0.25754538 0.001344362 0.6728039 0.44330308 0.078820996 0.21772106 -0.30686924 -0.042425543 0.60992515 0.69802874 0.16597266 0.19474608 -0.5470101 0.10218255 -0.5479721 -0.5640362 -0.2689686 -0.12658294 -0.24478923 -0.3318009 0.275916 0.4383118 0.10351779 0.21620807 0.3441084 -0.19730526 -0.7516126 1.162971 -0.17997198
238 0.18807794 -0.23856205 0.06633695 0.38099277 -1.2339962 0.1869579 1.2260852 -0.5104659 0.16513814 0.63439816 0.27091298 0.7541635 -0.50569624 0.41941002 -0.7737108 0.54921436 0.25707793 0.038595345 -0.21412529 0.042775124 -0.15578881 -0.17780688 0.09219071 -0.15678301 -0.14303508 -0.08153343 -0.04649287 0.43135568 -0.15560995 -0.31788915 -0.060260266 -0.26827878 -0.29614446 -0.3291469 0.24740438 -0.17222194 -0.29044586 0.6619366 0.10306464 -0.015341145 0.12120206 -0.2701643 -0.29543272 0.71685207 0.5298618 0.15474616 0.656041 -0.42069817 0.048206378 -0.55402696 -0.4059221 -0.23547761 -0.23228146 -0.4656823 -0.30340648 0.39253867 0.23100123 -0.033315245 0.33304214 0.19883382 0.018755637 -0.5042441 0.9542226 0.06394196
265 0.059963502 0.8139968 -0.23622769 -0.5285187 -0.4304812 0.3983254 -0.48344055 -0.21403717 -0.27310425 -0.45984262 -0.080196366 -0.011246983 -0.12658212 -0.039921787 -0.40432006 -0.14232111 0.011914231 0.23310451 0.30418912 -0.07938815 -0.22376905 -0.057343777 0.19768782 0.47733822 0.45336244 0.2023049 -0.3944127 0.5291763 0.034951415 0.32973382 0.14451839 -0.5251492 -0.9039284 -0.5297261 0.08731048 -0.48865026 -0.06102497 1.3965778 -0.61465853 -0.07686779 0.54402345 -0.17062621 -0.35979488 0.01707718 0.2867701 0.26066893 0.6154536 -0.599755 0.11068657 -0.38847747 -0.017874202 -0.4652753 -0.27936408 -0.51672274 -0.53805584 0.95821935 0.25172698 -0.41901138 0.13751818 0.81535536 -0.46498108 -0.55524135 0.944756 -0.11896733
140 -0.17262813 0.29756278 0.23244207 0.31771085 -0.1218724 0.07415215 0.15055902 0.05559583 0.38593107 0.2516901 -0.23560213 0.07114278 0.09670844 -0.27996632 0.09631067 -0.33852297 0.2516936 0.15740356 -0.23877124 0.06085855 -0.09680978 -0.3632367 0.07496252 -0.26532984 0.0075474493 0.0827571 0.05166699 -0.16245121 0.22564568 -0.21247907 0.045900054 -0.36088988 0.012513204 0.023049777 -0.3532417 -1.2116327 -0.023169573 1.5097028 -0.7559506 -0.922078 0.11447584 -0.16611451 -0.12783796 0.24689099 0.7659825 0.44919777 -0.60157657 -0.6452949 -0.28671017 -1.32758 -0.85283256 -0.015754014 -0.85988575 -0.38928497 0.16069978 0.43830535 0.24102227 0.43480122 -0.1925496 -0.577962 -0.17180341 -0.4525263 1.3574467 0.23481576
214 -0.19794457 -0.4679834 0.2183789 0.49993217 -1.1972779 0.07097606 0.94942594 -0.62528574 -0.22439015 0.6516953 0.121523485 0.5519454 -0.37125954 0.14693373 -0.96299213 0.76294005 -0.018896062 0.10994819 0.14139302 0.3503295 -0.17594472 0.053329498 -0.20693345 -0.09076117 0.08357005 -0.1001554 -0.07704701 0.24964406 0.24522331 -0.34528342 -0.05024638 -0.40847448 -0.34108788 -0.31554604 0.1956604 -0.18173908 -0.47070792 0.5870373 0.268695 0.10014229 0.2384221 -0.31985953 -0.36114785 0.620955 0.55961376 0.23007084 0.40445194 -0.31567892 0.087268546 -0.77863914 -0.4389533 -0.33231562 -0.32218626 -0.4595516 -0.17596395 0.22726212 0.21579237 -0.007052792 0.20499629 0.19537495 -0.23264956 -0.4491463 1.0593147 0.10806741
47 -0.19705056 -0.45699134 0.2399751 0.4989328 -1.2090142 0.038484372 0.9448156 -0.6818456 -0.19638126 0.6123758 0.12805265 0.5783846 -0.37455305 0.15220746 -0.9858959 0.71916574 0.06077246 0.08711843 0.043979395 0.10406234 -0.21086603 -0.16175467 0.027085792 0.004523779 -0.21918264 0.034738246 0.048777424 0.23686695 0.2927134 -0.24635965 -0.06016066 -0.42191806 -0.31540677 -0.37399986 0.20204899 -0.22469224 -0.45087823 0.6589494 0.20065175 0.15295665 0.24776617 -0.41425592 -0.2916271 0.7188751 0.5469515 0.24496976 0.38169292 -0.12968163 0.19560482 -0.5865931 -0.25239545 -0.32052377 -0.40219218 -0.6014064 -0.28491545 0.19669044 0.049088072 0.031462852 0.14013815 0.13768907 -0.33933854 -0.63274264 1.0477371 0.03931744
45 -0.38772583 -0.59276706 0.32921848 0.57227886 -1.1531945 0.020819338 0.7401813 -0.6412183 -0.326824 0.63434017 -0.00039137446 0.40930888 -0.25556514 0.07977426 -1.0504781 0.79962814 0.15907958 -0.15635246 0.08675368 0.19349667 -0.051523753 -0.15064515 -0.035563353 -0.060453746 -0.047719467 -0.144195 -0.13279448 0.13623135 -0.05293018 -0.5560539 0.029333867 -0.24812089 -0.381708 -0.36987638 0.11978466 -0.15155455 -0.31052023 0.6228841 0.17301881 -0.19313392 -0.06552987 -0.16789876 -0.121576615 0.40626907 0.45675552 0.19526781 0.59374046 -0.27885348 0.20289885 -0.6278127 -0.32717472 -0.44157356 -0.35585552 -0.51706564 -0.3425132 0.27555513 0.13061717 0.14996232 0.085880004 0.25706592 -0.23778844 -0.92756057 1.1068288 -0.11724587
217 -0.0013995566 -0.3571778 0.12260247 0.4297727 -1.2980032 0.029424831 1.064011 -0.63094854 -0.027651096 0.6500971 0.19491051 0.6303661 -0.4101452 0.32144707 -0.94713473 0.5787574 0.26219282 -0.031088497 0.009593697 0.11595814 -0.2612546 0.027510604 0.2468738 -0.25459883 0.008348078 -0.2607623 -0.15064861 0.021177674 0.13697724 -0.3545757 -0.07949829 -0.23881738 -0.56209326 -0.26885858 0.14988813 -0.35890025 -0.16896307 0.5269348 0.14718054 -0.015278908 0.10836046 -0.16776983 -0.18743762 0.5594777 0.4668075 0.28427014 0.55188656 -0.12262611 0.06185247 -0.37850502 -0.55880785 -0.50394255 -0.54805267 -0.3043598 -0.18805663 0.32039905 0.072654545 -0.029874265 0.3181549 0.22868077 -0.25434357 -0.53874326 1.2410147 0.09294079
328 0.39270234 0.13729219 0.7773288 0.1623378 0.44777328 0.84785116 0.12743305 0.2529622 0.19542116 0.12722033 0.00075482513 0.32423586 0.052685983 -0.39424738 0.036383208 0.081467375 0.39860737 0.3847671 0.4917672 0.045901943 -0.5019069 0.08503487 0.42331034 -0.4895186 -0.2370547 0.07001212 -0.08264958 0.24517962 -0.15767948 -0.8408056 0.066499114 -0.41151416 -1.0147119 -0.31936914 -1.2363967 -0.99390316 -0.43250868 0.22450022 0.5974816 -0.12075611 0.1175114 -0.28705558 -0.5418899 0.15474598 0.6851164 0.49582672 0.5743965 -0.3721013 0.21986346 -0.6179825 0.34589595 -0.4242724 -0.7178167 -0.3305228 -0.8937923 0.06880494 0.46688157 0.010688544 0.27804255 0.08807761 -0.056511287 -0.26371863 0.90454936 0.020893214
202 -0.8877099 -0.87469405 0.44072434 0.9427954 -0.12912697 0.034562577 -0.007987139 -0.6293362 -0.62638146 0.58211386 -0.22301033 0.22262463 0.17753915 -0.14284402 -0.91901916 0.7978363 0.10967084 0.082047306 -0.0637652 0.044217527 0.022359544 -0.23996434 0.07468671 -0.108894765 -0.07194618 0.057186753 -0.15087321 0.17804085 0.040875643 -0.0958482 0.13974032 -0.28973305 -0.40957195 -0.2346269 0.01187971 -0.27975214 -0.19893123 0.71632975 0.2667712 0.16901223 0.3979868 -0.20715265 -0.1001247 0.49589235 0.425704 0.13781707 0.7432366 -0.41599396 0.044812936 -0.5290939 -0.6405109 -0.5332054 -0.34512243 -0.383269 -0.2591917 0.36709842 0.175361 -0.347538 0.30582225 0.07696465 -0.1312142 -0.6041051 1.1430393 -0.049732994
134 -0.14720626 0.28629434 0.35522816 0.29028356 -0.067992136 0.1246708 0.16598451 0.030315636 0.48943436 0.24784146 -0.25027698 0.07878931 0.14732893 -0.28181937 0.07629934 -0.38195282 0.3159664 0.20877303 -0.072770774 -0.14984226 -0.14466526 -0.07020618 -0.43515456 -0.2121865 -0.1233754 0.16675605 -0.09806974 -0.05550277 0.10174158 -0.389676 -0.03388591 -0.3642119 0.38243178 0.08961126 -0.14901617 -1.1337703 -0.117032446 1.3957783 -0.66763926 -0.95799774 -0.061671663 -0.35339427 -0.052052595 0.24308819 0.9773921 0.54489 -0.35528654 -0.64414 -0.36678064 -1.1858163 -0.7234869 -0.06287755 -0.7591875 -0.5583642 0.17280802 0.6268867 0.3199789 0.5361354 -0.19901696 -0.7014622 -0.4714138 -0.49019098 1.2588598 -0.03823903
261 0.32193372 0.17472027 0.71460664 0.16588227 0.47937447 0.77506787 0.24676713 0.2712843 0.12674516 0.14545229 0.010171788 0.30809066 0.15253602 -0.28579935 0.05496178 0.118021026 0.52233976 0.11425126 0.65316665 0.10902516 -0.4411546 -0.049075615 0.5046687 -0.26173818 -0.26063982 0.044454828 0.08319865 0.49733302 -0.19023463 -0.83433044 0.06777162 -0.31423095 -1.0764966 0.014401381 -1.0147943 -0.98236454 -0.4094233 0.058103796 0.5294814 -0.14024673 0.08064202 -0.037977476 -0.54563665 -0.010614084 0.61685395 0.449413 0.50083417 -0.7727566 0.05291237 -0.7713415 0.30949914 -0.36014923 -0.87745893 -0.46892104 -0.96260446 0.07042648 0.27408755 -0.058041397 0.40212244 0.088283025 -0.06574041 -0.277915 1.0423629 0.1894212
260 0.39800867 0.14246753 0.7565945 0.17613141 0.44859973 0.8408217 0.14909238 0.27633846 0.19082582 0.14372343 0.014825055 0.3545359 0.07992835 -0.4159323 0.07760753 0.0836861 0.433474 0.21438046 0.50657 0.1728437 -0.45418102 0.016965313 0.30077904 -0.26282886 -0.34525606 0.15594888 0.039292075 0.2672218 -0.23199713 -0.7377059 0.059894927 -0.4042622 -1.0364939 -0.36343262 -1.1021668 -0.9518015 -0.29646164 0.05241636 0.52083766 -0.22277166 0.20294872 -0.24186575 -0.49238503 0.10757934 0.7195028 0.55374575 0.6636598 -0.38399026 0.17311478 -0.7363395 0.18867745 -0.40409902 -0.69833493 -0.29754755 -1.2041488 -0.0377972 0.376126 -0.11077654 0.32804656 -0.02272281 -0.22331752 -0.19064194 0.9577935 -0.19683899
270 -0.33209005 0.8374172 0.5192307 -0.89023316 0.2771932 -0.39160362 -0.7149138 0.19735111 0.2350279 1.2006613 0.62742853 0.36732465 -0.1415439 0.2087637 -0.03666519 0.7248736 0.24838072 -0.124893695 0.0822853 0.169807 -0.470926 0.011916469 0.25604445 -0.32883802 -0.11504463 0.061081555 0.103228666 -0.07412889 0.090365514 -0.2248586 -0.20047547 -0.09610683 -0.36370316 -0.17376676 0.1150335 -0.4280951 -0.20387024 0.52875316 0.31556806 -0.22374886 0.084226646 -0.4480258 -0.5519581 0.55336297 0.53180695 -0.52717966 0.5394593 -0.3383021 0.045212746 -0.47294974 -0.34195107 -0.36013302 0.031305794 -0.56419843 -0.038846593 0.6942022 0.26358974 0.13816524 0.16586368 -0.2087421 -0.14801551 -0.71464366 1.2941618 -0.016824666
60 -0.5594429 -0.7333025 0.2596237 0.6355398 -0.9803692 0.057950795 0.56247455 -0.7242767 -0.4773143 0.66602725 -0.059948973 0.3424127 -0.11029746 -0.011279741 -1.0569994 0.863215 0.088505454 -0.001539223 0.07645888 0.023966096 -0.38762397 -0.24012138 0.037476033 -0.1155441 -0.030353114 -0.040061235 -0.04250981 0.1153733 0.27436793 -0.32332367 -0.061774325 0.0514369 -0.33579716 -0.08031059 0.059491314 -0.27814022 -0.3276039 0.6048031 0.0027839975 0.040981982 0.35028073 0.006366515 -0.27751896 0.5035604 0.70536417 0.1480818 0.52698195 -0.3640795 0.20044559 -0.66702634 -0.18993048 -0.3906256 -0.24993885 -0.68263173 -0.06776511 0.1973147 0.17292602 0.01247193 0.39397332 0.21029149 -0.13495885 -0.72002935 1.1251769 0.0060497853
116 -0.1408135 0.28277275 0.2919459 0.33869252 -0.12574184 0.07703407 0.16680653 0.04409926 0.47197 0.2662444 -0.2324866 0.0718794 0.16047297 -0.33235824 0.07870787 -0.4041158 0.538426 0.22639887 -0.071114674 -0.18374953 -0.10642142 -0.17066635 -0.25999352 -0.2331999 0.113792956 0.12160432 0.222758 -0.13713442 0.125654 -0.23955223 -0.15576251 -0.2899799 0.22844899 -0.097458795 -0.18890762 -1.3102698 0.07407353 1.3408213 -0.6250879 -0.98698175 -0.017178966 -0.31166437 -0.1229756 0.29139727 0.978452 0.849365 -0.1677334 -0.6492135 -0.5162039 -1.243568 -0.9169682 -0.0900659 -0.50057787 -0.06555194 0.041259117 0.64364874 0.17646717 0.36053172 -0.39181376 -0.33839673 -0.13868551 -0.6037668 1.1810585 0.12010952
117 0.5842081 0.32879096 0.099908836 -0.5116863 -0.7367114 -0.17750192 -0.40877908 -0.29185838 -0.7922845 0.1695877 -0.7814976 0.61984235 0.22856647 0.23213993 0.5652275 -0.26912072 -0.41945705 0.011551758 0.03601866 -0.23341255 0.44194773 -0.2747145 -0.38924065 -0.78114367 -0.12293762 0.5194804 0.17468847 -0.0050035706 0.10626782 -0.6196459 -0.31878027 0.061346117 -0.03176338 0.17958131 -0.32415128 -0.258494 -0.041844763 0.5060544 1.0217028 -0.21754915 0.23444025 -0.2189392 -0.20719628 0.6288332 0.4496172 0.5089441 0.54102355 -0.5116051 0.028980544 -0.4432187 -0.6534705 -0.57541794 -0.29739 -0.81337005 -0.3182955 -0.024334032 0.07911862 -0.022411367 0.2462842 0.20748389 -0.12611102 -0.18987536 1.4962323 0.23015402
213 -0.36608285 -0.5988346 0.3237827 0.53028804 -1.1060939 0.034785815 0.76097065 -0.7240422 -0.33588356 0.61902004 0.04227117 0.43288034 -0.28409484 0.048810188 -1.0301496 0.7880115 0.33637762 -0.14494029 0.07295415 0.19702965 -0.014948629 -0.14423391 0.013275905 -0.005876382 -0.085196465 -0.121297516 -0.036992792 0.09004905 0.0463339 -0.4857192 -0.04074884 0.044519592 -0.4483337 -0.4076893 0.22658023 -0.26653337 -0.41289735 0.8039473 0.13569374 -0.13685054 0.09301756 -0.31425536 -0.1071471 0.44490787 0.51780105 0.37365603 0.5500904 -0.13666578 0.2303062 -0.5952392 -0.25446105 -0.52285385 -0.3373625 -0.43856868 -0.2582852 0.16798818 0.27473274 -0.019278366 0.08696844 0.2262521 0.04808667 -0.6089939 1.1239069 -0.12836598
