307 64
104 0.4138431 -0.29744744 -1.1084633 -0.19024432 0.72620296 -0.23843947 -0.5156207 -0.19140945 -0.81567687 -0.42854488 0.055990748 -0.09603695 -0.24259824 -0.42269754 0.64762044 0.077965684 -0.24058257 0.06860689 0.1984882 -0.018598735 0.02985966 0.013957878 0.24325968 -0.12638149 0.018993396 -0.052084554 0.18593097 0.13348156 -0.11979143 -0.3563596 0.13928601 0.18795788 0.37635204 0.30987296 -0.497895 -0.04335584 0.5275015 -0.041294362 0.20327578 0.23812307 0.3416328 -0.12913959 0.33387414 -0.75428975 0.13762285 -0.43035728 0.34599116 0.32951438 0.15330757 -0.043633 0.4838511 -0.20503269 -0.77068037 0.23562148 -0.018737203 0.34045443 0.042213656 -0.42424908 0.016382417 0.8494787 0.33829162 -0.9309676 0.017357012 0.054261852
46 0.21523342 0.22243024 0.542968 0.08199971 0.13510452 -0.4211185 0.74867487 -0.11243076 0.3801698 0.26641375 0.30688196 -0.03504942 -0.20692654 0.60831505 -0.39455545 0.15673798 -0.2532058 -0.18130618 0.13785644 -0.079334125 0.11520972 -0.0061470987 0.17208296 -0.020895163 -0.39975184 -0.10866246 0.043347973 0.35855383 -0.26162258 0.15102324 0.16137028 0.12694193 0.53378314 0.21818723 -0.20997591 -0.09728616 0.40111515 -0.13386169 0.37374908 0.45517126 -0.016602622 -0.14359905 0.616183 -0.5427 0.3645329 -0.54059505 -0.07296208 0.17265245 0.04040351 0.31439745 0.5526907 -0.7390722 -0.5668227 0.040440798 0.2117965 0.3159553 0.3548695 -0.5600872 -0.10721767 0.62458104 0.0067360713 -0.76016015 0.26045612 0.4234098
1 0.16102663 0.23776703 0.44478396 0.16100888 0.34110293 -0.5146264 0.7616018 -0.062316205 0.4425818 0.55665475 0.15826917 -0.22465508 -0.34581456 0.66589916 -0.39325812 -0.001671293 -0.30981788 0.08567084 0.09590342 -0.052011244 -0.15113612 0.09334651 0.23188654 -0.113909826 -0.3232889 0.08815151 -0.09534422 0.30224702 0.25157002 -0.1555447 -0.07942542 0.025317835 0.56088614 0.22263516 -0.116846226 -0.16232464 0.50136137 -0.41641688 -0.026859488 0.31290707 -0.16375054 -0.16095966 0.7013853 -0.44269317 0.36448532 -0.65847313 0.20145857 0.30401048 0.12965532 0.2546729 0.7675956 -0.5202564 -0.2997987 0.071143135 0.021307377 0.53515005 0.2629426 -0.41561592 -0.13840356 0.6874488 0.062115047 -0.7897434 0.24531089 0.3020756
70 0.13540597 0.34592867 0.5565868 0.08237418 0.40408003 -0.5870837 0.7378385 0.04661744 0.43292582 0.4296055 0.1420902 -0.18202707 -0.27831638 0.6633441 -0.35437346 0.14616692 -0.10273465 0.024399338 0.20159005 -0.0015149512 -0.31429023 0.07748374 0.053911816 -0.12430784 -0.06755978 -0.3309832 -0.27714747 0.13990425 -0.12693739 -0.17529057 -0.015590738 -0.01667382 0.46170345 0.3390532 -0.14356443 -0.13041218 0.29448366 -0.14057387 0.042621844 0.19255278 -0.03336902 -0.08605906 0.5979017 -0.62550867 0.26836067 -0.6212222 0.19905971 0.3035829 0.08345147 0.20801488 0.2396644 -0.65446633 -0.52120525 -0.0335149 0.02696865 0.37970382 0.28222132 -0.5410467 -0.32013676 0.9874678 0.20613173 -0.7924949 0.30173716 0.2530615
57 -0.048031583 -0.5883065 -0.15945289 -1.3433372 -0.6613611 -0.17763862 -0.51349276 0.6382365 -0.32872054 0.3926787 -0.03641935 -0.7020198 0.5104533 -0.55392355 -0.14743404 0.13788128 -0.44431943 0.12246468 -0.05413471 0.028447267 -0.032274783 0.39283216 0.085439734 -0.016913952 0.19727394 -0.004347163 0.01786277 0.28059322 0.0043946495 -0.13233788 0.319909 0.10180938 0.55613875 0.4129654 -0.27047375 0.4146722 0.5790557 -0.06820137 -0.041484766 0.32733408 0.23736301 0.2082254 0.43773142 -0.20047878 -0.4075562 -0.47071645 0.38460594 0.18240193 0.16836102 0.31699893 0.46747893 -0.31310406 -0.8196822 0.2357538 -0.25077027 0.38869545 0.26376134 -0.3137944 0.34312916 0.70784533 0.24708378 -0.35271752 0.3552352 -0.16373277
91 0.071479455 0.40499943 -0.6844579 0.6491826 0.29855737 0.42594603 -0.11170052 -0.82593834 -0.626453 0.30645707 0.6623746 -0.52175677 0.18575495 -0.7923948 0.88199025 -0.18044913 -0.037932035 -0.031877253 0.45237806 0.1314148 -0.08595447 0.060902778 0.28507417 -0.47846028 0.50597596 -0.21872044 -0.069597214 0.21724539 0.11058285 0.10332304 0.22477612 0.25524062 0.83715165 0.009530021 -0.23468065 0.18887559 0.8572922 0.009414487 -0.021854185 0.16029316 0.1382471 -0.0850379 0.5960173 -0.13858896 0.1428286 -0.356676 0.09207654 0.17281052 0.23569201 0.121967584 0.35008666 -0.7417459 -0.65962505 -0.08290058 -0.28223422 0.2479221 0.100418314 -0.2586758 0.25542113 0.59772354 0.025760217 -0.46517774 0.15491207 0.59099096
119 0.25086325 0.31861913 0.5647447 0.21159272 0.29736236 -0.47435072 0.6359563 0.04188607 0.27837884 0.39318135 0.21040331 -0.20922612 -0.27048668 0.75615066 -0.3474525 0.13369016 -0.10023346 -0.35642302 -0.0644124 0.16242868 -0.4309412 0.24261627 0.19604832 0.03696969 -0.16226146 0.10659054 -0.10048813 0.2273805 0.12732476 -0.030733299 0.056335736 0.01976381 0.52211607 0.16832009 -0.27995196 -0.020293564 0.47241548 -0.12122118 0.045409366 0.5192101 -0.08998753 -0.12479582 0.75090957 -0.4185641 0.25187486 -0.7265358 0.24722786 0.1450571 -0.03673844 0.041553732 0.35142538 -0.8992419 -0.18172128 -0.05198014 -0.04719649 0.6658015 0.25664598 -0.26571447 -0.18381038 0.83010364 0.14367214 -0.6797066 0.20155981 0.24786481
35 -0.15864116 0.30631757 0.79854894 -0.10527659 -0.44884083 0.358658 0.17893513 0.05169302 0.2549185 -0.18834805 0.19705941 1.0279872 -0.42066297 0.2683414 0.23476978 -0.4904909 -0.20923969 -0.16095252 -0.02125641 -0.1189958 0.05050354 0.01914457 0.19650821 -0.13632213 -0.04283713 -0.058330078 0.09768328 -0.07702284 -0.23683167 -0.14652935 0.25712892 0.055139814 0.63715917 0.32085565 -0.5572814 0.3972166 0.6618977 -0.37662485 0.1940467 0.19677757 0.05201829 0.14338973 0.41360676 -0.36557984 0.1286161 -0.30155227 0.5328427 -0.014270433 0.4666381 0.14049526 0.57770544 -0.5085353 -0.3579991 0.06590681 0.096041605 0.3356498 0.23237026 -0.40460414 -0.091758534 0.8391509 0.20479108 -0.53161025 -0.14792028 0.3952126
252 0.108359635 0.34037334 0.42251414 -0.008999017 0.29490635 -0.3260453 0.8245338 -0.20964615 0.32893553 0.51611817 0.21913972 -0.07701615 -0.3361603 0.6451398 -0.43648165 0.25606155 -0.29273692 -0.081590444 0.064295076 0.27578646 -0.25738078 0.18412119 0.004764694 -0.22556598 -0.25676218 -0.06253282 -0.26225019 0.15337713 0.03238165 0.16869761 -0.30878606 -0.107876554 0.5818665 0.5833725 -0.27321315 -0.21210438 0.49345562 -0.32810658 -0.052570947 0.49182004 -0.19751173 -0.12569654 0.7030596 -0.37080094 0.36435097 -0.4576919 0.1847944 0.35092238 -0.06805875 0.3064231 0.58132946 -0.62854475 -0.6711856 0.016964005 0.2170892 0.3589455 0.007861871 -0.43590522 -0.26610878 0.5698581 0.23698299 -0.6903873 0.40697032 0.17166409
240 0.23950705 0.29313496 -0.76783395 0.4539799 0.40314418 0.17168708 -0.07060197 -0.8161284 -0.88207936 -0.018730296 0.6282923 -0.29984337 0.13232057 -0.7912618 0.92489094 -0.10585951 -0.11444705 0.105344996 0.019362727 0.10105693 -0.23308568 0.13892023 0.31689176 -0.44457102 0.3657541 -0.271544 0.13037895 0.28646973 0.39558762 -0.29178724 0.057318613 0.017528195 0.5745566 0.06145836 -0.11640232 0.05900986 0.45288658 0.014227836 0.013273916 0.089411974 0.21469022 -0.11238636 0.89095217 -0.13768049 0.16003491 -0.25001004 0.25865996 -0.27179596 0.26862672 0.15697278 0.6626214 -0.42642814 -0.57811165 -0.040120482 -0.09891721 0.34081373 0.35358065 -0.55227315 -0.02195986 0.8360175 0.26727223 -0.5230839 -0.055342674 0.4365912
265 -0.23218182 0.19106804 0.75779605 0.133788 -0.42860562 0.112974785 0.11897604 0.007821799 0.5750852 -0.039285526 -0.032039538 0.9524656 -0.6112571 0.06943215 0.22593603 -0.229547 -0.3813896 -0.0973327 -0.022967322 -0.097307436 0.14848328 0.14567405 -0.0015077385 -0.35543448 0.059547085 0.058163684 -0.08452531 -0.18803152 0.08977071 0.08689209 0.08915127 -0.10004655 0.58415854 0.2982607 -0.48743814 0.25255227 0.71345544 -0.13656391 0.08998703 0.17865911 0.07800369 0.2992494 0.20697317 -0.5729542 0.057892058 -0.49462348 0.41219333 0.07310659 0.3645956 0.1736716 0.47314733 -0.62017787 -0.6455336 0.13554437 0.03205284 0.5261643 0.22956055 -0.46526226 -0.01590731 0.7379073 0.101682335 -0.44656685 0.10727489 0.33661154
65 -0.071580544 -0.11762717 0.46627152 0.31523234 -0.80151576 0.3433858 -0.18993804 -0.02269591 0.063862264 -0.51623607 -0.06894923 1.0786978 0.34337988 0.028976183 0.17259467 -0.70469767 -0.12356903 -0.15116705 -0.17436154 -0.0034159096 0.26774776 -0.28540614 -0.09626367 -0.1852574 0.45362926 0.040144596 0.122980766 -0.21874896 0.030462805 -0.09487631 0.28224763 -0.15775712 0.8556671 0.24602441 -0.26119292 -0.14159127 0.39584506 -0.54499096 -0.13690053 0.24988733 0.008453417 -0.31690785 0.5126096 -0.6991068 -0.05347856 -0.25124544 0.4522249 0.16264012 0.32458988 0.23866986 0.73115844 -0.30333832 -0.836678 -0.17497543 -0.16971043 0.3676955 0.53562856 -0.088414736 -0.05352514 0.78757536 0.020204632 -0.6772584 0.28301874 0.116765946
54 -0.08284215 0.07328948 0.7485051 0.13929279 -0.3774169 0.23478569 0.02215073 -0.08186745 0.46235797 -0.13629535 -0.13234256 0.81136644 -0.21905036 0.21405248 0.21965499 -0.36190775 -0.03404912 -0.31390586 -0.33182657 0.16481306 0.42615876 0.030033145 -0.0048656454 -0.12773255 -0.025096867 -0.053739257 -0.078596674 -0.25233695 -0.045504615 0.059453174 0.7638454 0.09779695 0.5198641 0.12622267 -0.4956845 0.25221145 0.59199846 -0.298954 0.09813033 0.07349197 0.16814686 0.09480214 0.37090805 -0.3575665 0.19033417 -0.52314883 0.48781654 0.15944855 0.11645204 0.1560752 0.511987 -0.55941963 -0.5173702 0.08260295 0.053605597 0.5854425 0.38769147 -0.2291115 0.011380335 0.71452326 0.22133964 -0.67319834 -0.109131 0.41431993
116 -0.08678986 0.21324368 0.81902456 0.09288874 -0.33949748 0.092898704 0.28032976 -0.11059605 0.35829014 -0.20504463 -0.0484462 0.8753166 -0.35515732 0.1717671 0.10265751 -0.16315186 0.06990698 -0.0771246 -0.34994763 0.33788007 0.29726294 0.15798488 0.10884333 -0.31358626 -0.02116722 0.06685234 0.19212243 0.09900373 0.014759349 0.17221802 0.5332698 -0.079452105 0.44058526 0.27149504 -0.44570175 0.35488304 0.41414216 -0.2940506 0.22582546 0.2714239 0.1589135 0.0141552845 0.660576 -0.42620417 0.03277355 -0.65790105 0.26723507 0.018246004 0.124343455 0.25042668 0.53840864 -0.2301333 -0.3394519 0.030824669 0.022263765 0.39151973 0.24071065 -0.6673731 -0.033461634 1.0128654 0.39140964 -0.39927223 -0.099902876 0.4225451
231 -0.0676775 -0.005811256 0.5310231 0.27386752 -0.7082697 0.30093655 -0.07346474 -0.28158188 0.20518436 -0.32559165 -0.18703704 0.9738425 0.21949339 0.14937386 0.094046995 -0.65792876 -0.22839919 -0.15412019 -0.22736214 -0.04943013 0.17980738 -0.22571568 -0.1055099 -0.25111908 0.40451276 0.12957568 -0.08749332 -0.112828225 -0.2599785 -0.04304601 0.51057947 -0.14767271 0.68454534 0.3187846 -0.27200514 0.09146018 0.58603156 -0.09789897 -0.07086856 0.37040833 0.15853223 -0.31750828 0.42452016 -0.4702582 -0.3001074 -0.66779006 0.064724214 0.13762525 0.19805558 0.0769884 0.6635563 -0.5041597 -0.45861164 -0.05583478 -0.0068693506 0.3827692 0.49643448 -0.07265106 0.049823947 0.852683 0.3682431 -0.80053616 -0.045932453 0.11567346
247 -0.018505603 -0.10002488 0.42996028 0.26174405 -0.7923578 0.4422167 -0.24641651 -0.28539643 0.14115298 -0.46572188 -0.38908663 0.8675847 0.47491714 0.054808814 0.12473688 -0.8177775 -0.22391483 -0.16900156 -0.45303756 -0.14493127 0.17992242 -0.45614803 0.06672089 -0.32015395 0.33334282 -0.19666374 -0.10188764 -0.25150257 -0.15941325 -0.12984037 0.4521761 -0.14213398 0.7504316 0.4250019 -0.37399936 0.022380462 0.323754 -0.27751118 -0.0981735 0.22124003 0.13122946 -0.20267098 0.7013414 -0.48900574 -0.10962027 -0.46962428 0.22095422 0.38039258 0.27946338 0.16495904 0.44437853 -0.5254884 -0.51449203 0.022275943 -0.008556313 0.5311673 0.20732912 -0.26694214 -0.25682893 0.72387826 0.21583426 -0.7488518 0.25794128 0.28467667
243 0.0503513 -0.75824857 -0.29487747 -1.3890015 -0.3023987 -0.31551126 -0.7786945 0.8148947 -0.2195764 0.20590681 -0.1182485 -0.6811998 0.35716096 -0.40308094 -0.010982406 0.3670108 -0.34841737 0.08419241 -0.06195687 0.13814375 0.112748615 -0.16918826 0.32788295 -0.27107093 0.21774483 0.10991848 0.079669274 -0.026608007 -0.08959656 -0.007636633 0.37799025 0.42828923 0.64009726 0.43868098 -0.05365173 0.44932047 0.6050452 -0.22280353 0.00054480485 0.39746952 0.1727683 0.24270082 0.63041455 -0.120188035 -0.16444916 -0.51906127 0.38043138 0.051992368 -0.072922654 0.24720438 0.66806704 -0.24801353 -0.6177202 0.13146058 -0.06770232 0.3085251 0.15042207 -0.29863036 -0.057850372 0.8115694 0.2864436 -0.46739465 0.30314383 0.17175385
28 -0.035135124 -0.68075687 -0.32667288 -1.2223372 -0.59912604 -0.28027225 -0.718995 0.7507382 -0.20561115 0.21936758 -0.013032909 -0.5959513 0.3383245 -0.4549831 -0.20235725 0.29081643 -0.28875545 0.2124354 0.10439353 0.14184406 -0.12633446 0.09042231 0.15019518 -0.008777532 -0.010439886 -0.08354615 0.14676264 0.10765618 -0.06305314 -0.09841187 0.5054257 0.20907527 0.5544641 0.5472372 -0.3924688 0.544872 0.3734638 -0.194822 0.06946315 0.28995827 0.38435438 0.11579964 0.529147 -0.1908235 -0.14426573 -0.3830623 0.34011704 0.18005678 0.053368308 0.3084434 0.46978116 -0.46690091 -0.58350325 0.03235045 -0.33369687 0.5264112 0.3776137 -0.17412983 0.49673572 0.7549531 0.13480873 -0.4929058 0.49481028 0.057563048
207 0.41972893 -0.6176831 -0.8816461 -0.6112275 -0.06557583 -0.2725228 -0.5136548 0.09883301 -0.7948919 -0.47672278 -0.018708004 -0.038296096 -0.25093767 -0.4159648 0.2626942 0.08587697 0.019175248 0.32835177 0.15381828 0.13926588 -0.6252344 0.089444876 -0.07003049 0.3413291 -0.0960592 -0.16633613 -0.6948337 0.4603918 -0.21062976 0.014932049 0.2907633 -0.008951885 0.280194 0.07886043 -0.42540577 0.29260862 0.4797709 -0.09031422 0.47715688 0.5589473 0.0544834 -0.05335931 0.40516838 -0.51459384 -0.08793266 -0.3315865 0.6084503 0.5252781 0.45071608 0.4549771 0.9537196 -0.3919826 -0.010208391 0.6251112 0.03734245 0.45252323 0.39505386 -0.2940067 0.117027044 0.81897277 0.2266733 -0.82377523 0.60115916 -0.22546043
118 0.28398463 -0.6340101 -0.7284039 -0.7018035 -0.22029218 -0.3626793 -0.62090176 0.3182226 -0.68832827 -0.29648086 -0.05610853 -0.12658468 -0.1437386 -0.4822583 0.104730345 0.13198353 -0.17291702 0.31308925 0.22461751 0.24621904 -0.35468146 -0.12003971 -0.08740519 0.6441485 0.10244386 -0.15112367 -0.4811704 0.49678624 -0.07230701 -0.17403306 0.3025272 0.026680259 0.3656416 0.26407748 -0.34681308 0.56373465 0.59251374 -0.27133197 0.6688844 0.50586504 0.049500674 -0.3001824 0.35479948 -0.468484 -0.0382933 -0.31054112 0.59413755 0.55975956 0.46103257 0.44701043 0.7137701 -0.52784663 0.112645335 0.58716124 0.29211047 0.49936143 0.41549975 -0.4842625 0.0828168 0.59745365 0.3088258 -0.69405997 0.6989289 -0.12370415
79 -0.5668675 -0.021338513 0.066208504 0.6999491 -0.2468613 1.3911464 0.0574638 0.5947856 -0.7618236 -0.30593765 -0.7430327 -0.9700137 -0.65094644 -0.41249788 -0.6929872 -0.25624865 -0.2741754 -0.004450952 0.28648946 0.3135535 -0.11909217 -0.19453898 0.3615696 0.01761599 0.13287994 -0.062310006 0.1423516 0.42887446 0.11001891 -0.058351956 0.22527608 0.08355252 0.49788526 0.5185165 0.08879687 -0.32057652 -0.1394404 -0.25166303 0.36359376 0.7573631 -0.002386334 0.34310398 0.57762164 -0.23700145 0.3226572 -0.24697152 0.42426065 0.02126989 0.05450272 0.09832971 0.820896 -0.41742933 -0.5714354 0.06864805 -0.22537982 0.16039644 0.43466038 -0.035271686 -0.4715847 0.878284 0.45239258 -0.6061549 0.03870402 0.32942787
233 -0.08752395 0.36750218 -0.03552879 0.14569968 -0.26997122 0.47591907 -0.20681779 0.38137475 -0.75544965 0.19101058 -0.29422185 -0.543232 0.023590347 0.40953338 0.08575547 0.037228867 0.07086344 0.030844329 0.04997216 -0.16947047 -0.060139213 -0.09786113 0.35903713 0.047369417 -0.09465536 -0.29024333 -0.20047884 0.105512865 -0.09527124 -0.4094893 -0.1387591 0.0242849 0.22983988 0.33001712 -1.1074977 -0.85557497 0.006075822 -0.16690066 -0.2122937 -0.7191944 0.15819082 0.1421431 0.4529 -0.0010022499 -0.43872297 -0.5898946 1.4941596 -0.15886874 0.6387242 1.0694767 0.7266908 -0.15609257 -1.8236886 -0.44640306 0.7040508 1.1134131 0.8309952 0.13935971 -0.3007177 0.5091723 0.067645214 -0.29619148 0.9602607 0.8328143
14 2.8502243 0.82196856 0.19929083 0.79352885 0.84705424 -2.458842 0.87943745 -0.36686826 -0.005097017 -1.3977622 -3.3070633 -2.0587144 -2.3543708 0.8041503 3.2669334 1.846182 -0.77524775 0.8354211 0.5191707 -1.6015599 -1.9998882 -0.77129394 -1.1065369 -0.8380384 0.6902737 1.446274 -1.761975 1.5698931 -4.564283 1.6232656 -0.2652473 0.93204343 3.1933835 5.1841393 0.13973081 1.2825853 1.6693764 1.3157773 1.717238 4.860342 -1.4215529 -1.6605083 3.7427466 -1.6457679 0.8412134 -8.5190735 -2.5109155 -0.16102082 2.1610594 0.322083 2.7291727 -5.9183636 0.05547475 3.2619627 5.508815 -1.1598511 2.5976157 -1.2380948 0.5139716 3.984524 2.1004267 -2.0085557 0.028789656 -1.3926382
164 0.1989344 0.36724263 0.49543813 0.24557899 0.40018654 -0.51073396 0.61459106 0.29056877 0.32188296 0.6186832 0.41013315 -0.37163433 -0.2633503 0.78235304 -0.19263478 -0.07992403 -0.17590141 -0.26415798 0.10030498 0.006469373 -0.20313372 0.10117358 0.21739109 0.07337039 -0.09806474 -0.052535042 -0.1751707 0.35700512 0.06526304 0.026296133 -0.14040537 0.03601557 0.57062656 0.49952555 -0.34449503 -0.05363747 0.064399526 -0.14879704 0.0073479726 0.34507716 0.04627862 -0.19194676 0.46139705 -0.56019115 0.29009488 -0.69433653 0.36031494 0.48299137 -0.29477715 0.068681434 0.60849917 -0.62090564 -0.22543499 0.24664997 0.10445899 0.5388303 0.31767902 -0.6738962 -0.079735585 0.72736907 0.18600178 -0.7268477 0.26346442 0.20222035
246 -0.04834326 -0.036070373 0.3767922 0.291769 -0.7659861 0.39276108 -0.25742608 -0.16646515 -0.045160692 -0.5114769 -0.25598025 0.9868389 0.53385204 0.09967998 0.120148234 -0.768058 -0.11547558 -0.14285178 0.07879505 -0.19550127 0.2221023 -0.44406867 -0.46329826 -0.25159803 0.32794118 0.018111208 -0.16023771 -0.12488199 -0.23509273 0.24766111 0.3458254 0.14164943 0.80494505 0.50254166 -0.1367404 0.14351286 0.5470526 -0.42260402 0.064554706 -0.00795776 0.262152 0.02886395 0.5569012 -0.64359653 -0.13579382 -0.20382531 0.3023581 0.25296068 0.17264633 0.11255126 0.48083183 -0.13885033 -0.78775126 -0.089874215 -0.045112114 0.5178897 0.5653077 -0.15580818 -0.16569597 1.0751278 0.07444307 -0.6959768 0.24527653 0.29071483
27 0.13549459 0.2028147 0.7868391 0.17924291 0.047150526 -0.42398375 0.5161328 -0.041880276 0.3785952 0.2155485 0.26549295 0.25436497 -0.14976352 0.54176253 -0.28509483 0.0657264 -0.592636 -0.099052876 -0.13809052 0.054337762 -0.08635203 -0.17821415 0.25453508 0.32851276 -0.22115463 -0.47446838 0.09463884 0.2054 -0.15516242 0.20755896 0.028429752 0.3108573 0.74023324 0.012000812 -0.22748515 0.06667014 0.49036774 -0.051751725 0.2937976 0.76458925 0.11721691 -0.32885382 0.58696556 -0.29897767 0.28039578 -0.29499996 0.2782121 0.3290804 0.28074622 0.29400066 0.4872276 -0.6155073 -0.7749068 0.19960144 0.4015712 0.07156151 0.065502316 -0.36043477 -0.14263059 0.9397324 0.036094192 -0.56124103 -0.110869944 0.2694728
276 -0.8019425 0.094158605 -0.38499308 0.7820211 -0.35476467 0.90902686 -0.43809533 0.27120873 -0.78163594 0.09380181 -0.85494876 -0.6842641 -0.2432965 0.012680681 -1.1069374 -0.5559617 -0.3021352 -0.42153952 0.050879236 0.37542745 -0.17688681 0.11120914 0.38564512 0.05111943 0.25263137 0.19044326 -0.32059667 0.35303608 0.11570426 -0.23928924 0.12598187 0.2435103 0.43921158 0.4495462 -0.023966828 -0.3020927 0.39588097 0.13220382 0.34504592 0.3775057 0.19950709 0.06345548 0.009303612 -0.17363481 0.9349365 -0.31485784 0.03668288 -0.11211361 0.5518393 0.5244498 0.5161475 -0.38860708 -0.9594166 0.30394682 -0.12233753 0.13158615 0.384928 -0.46226516 0.18144031 1.0536903 0.6217151 -0.56157976 0.060889285 0.47039002
122 0.0010479727 0.28382096 0.43723994 0.051452182 0.23967393 -0.4919291 0.64236593 0.012124426 0.5719846 0.45606092 0.10291379 0.04537376 -0.46965054 0.6529509 -0.43158507 0.059580836 -0.13751389 0.009664284 0.3120918 0.2299229 -0.31367764 0.36034378 0.3079615 -0.1307864 -0.21907938 -0.19871919 -0.15738583 0.23020187 0.118619695 -0.12825926 -0.29851276 -0.016563626 0.6745603 0.32166266 -0.34509888 -0.32234165 0.59835494 -0.19041978 -0.02541248 0.37898096 0.1872616 -0.11540395 0.63341874 -0.67978364 0.18523064 -0.41842952 0.37754658 0.32864097 -0.066421606 0.21945871 0.4642119 -0.6744035 -0.264652 -0.1561457 -0.075882114 0.29905125 0.407762 -0.6540125 -0.10884282 0.39192057 0.44848204 -0.70505244 0.40958366 0.429709
109 -0.8257568 0.22002043 -0.48649138 0.699698 -0.37082964 0.877081 -0.41216522 0.28523266 -0.80436593 0.022417441 -0.6989834 -0.65519786 -0.25747392 0.11370235 -1.1746142 -0.5222263 -0.3713924 -0.43432948 0.19001873 0.3642629 -0.16348885 0.022799535 0.48625767 0.17566045 0.30231658 -0.023389973 -0.29603744 -0.027261885 0.084367365 -0.032875948 0.20067571 0.26075268 0.5239567 0.41468915 -0.006113675 -0.1432883 0.12093194 -0.1280085 0.33215475 0.5381633 0.12194465 0.00044533063 0.03725336 -0.040932577 0.7969347 -0.40330216 0.21476565 -0.11642422 0.36140722 0.797945 0.59823716 -0.21502694 -0.76091 0.1755474 -0.36505616 0.12520233 0.53890187 -0.6627219 0.12042693 0.8809392 0.6096363 -0.6470554 0.070276335 0.510313
115 -0.07652257 0.31480867 0.96798515 -0.0061744913 -0.28557926 0.11333624 0.27680925 -0.05940021 0.21863425 0.057060227 -0.09011488 0.82959914 -0.4668412 0.22778514 0.21908738 -0.22824664 -0.33123887 -0.26465496 -0.36132652 -0.042889174 0.2477874 0.09085231 0.24398299 0.04154109 -0.060662765 -0.15877949 -0.13708736 -0.24615957 -0.28086233 -0.07746182 0.17150694 -0.00086573226 0.6681586 0.18270236 -0.16979854 0.24460378 0.87787724 -0.25799635 0.4175971 0.28161523 -0.043643452 -0.049237728 0.5213609 -0.354418 -0.014318141 -0.10653381 0.48974007 0.18651104 0.088329576 0.29394624 0.3609854 -0.64523226 -0.33759454 0.2498381 -0.051861446 0.3261282 0.3800163 -0.4612272 0.22162357 0.92422944 0.052511763 -0.54445076 -0.14903598 0.34060135
292 -0.78793424 0.15330541 -0.29636243 0.77691865 -0.4091351 0.9719956 -0.33462122 0.35489598 -0.89962196 -0.06018938 -0.7261884 -0.6867801 -0.3118324 -0.052405942 -1.1692019 -0.4345968 -0.36628845 -0.12801608 0.16777706 0.3885779 -0.24887155 -0.059533913 0.4024907 -0.18049584 0.11125069 0.11137335 -0.26638237 0.2585973 -0.076568395 -0.11883782 0.16707087 0.23811598 0.43825457 0.45076734 -0.1472768 -0.19338094 0.14241736 -0.12120357 0.4755401 0.6510296 0.16550197 0.042475507 0.20035008 -0.2293666 0.91191703 -0.18569766 0.027240053 -0.3535968 0.5826599 0.62931615 0.4693317 -0.31339532 -0.889949 0.12431692 -0.3304292 0.30273914 0.44796982 -0.5054467 -0.047381584 0.825622 0.4973662 -0.5307477 0.05735236 0.32931927
47 -0.090194665 0.032532033 0.7736197 0.15181454 -0.43427935 0.33311605 0.12803665 -0.04619151 0.38202932 -0.29038236 -0.038517103 1.085105 -0.19332075 0.16065155 0.22950521 -0.45208317 -0.25061935 -0.20566691 -0.011080549 0.16064933 0.013586204 -0.043611493 0.22988349 -0.19584511 -0.08402798 -0.21196312 0.043759372 -0.18621439 -0.072747774 0.08298825 0.44038042 -0.0186527 0.61951977 0.45010206 -0.37925693 0.3762832 0.74093807 -0.37585077 0.047648665 0.20636415 -0.06434372 0.03711775 0.20690659 -0.5213056 -0.09635305 -0.42686912 0.46590504 -0.080791965 0.09163008 0.4413216 0.41669306 -0.31076077 -0.64612657 -0.21599314 0.07181616 0.56291837 0.3658204 -0.5603972 0.1393377 0.7086793 0.10789786 -0.71314096 -0.031843655 0.13621055
217 0.2380277 0.12252693 0.57592523 0.13310884 0.2113087 -0.35881034 0.7234319 -0.0034248258 0.5672007 0.028618269 0.32629058 -0.058159582 -0.024015307 0.5371195 -0.36650893 -0.05269194 -0.24678186 0.13004284 0.09487955 0.2419274 0.4435288 0.3256629 0.05959299 0.24707665 -0.039731972 -0.5022429 -0.03532174 0.14566372 -0.14529271 0.1945417 0.16587639 0.11041281 0.45501915 0.26463535 -0.36840767 -0.16382635 0.32437047 -0.06839531 0.40432346 0.66476434 -0.16319548 -0.2919156 0.7411591 -0.17928688 0.29793465 -0.86995345 0.15743987 0.03708176 0.32569116 0.28988323 0.5082475 -0.67236155 -0.6108125 0.19845453 0.079173826 0.3771193 0.078868434 -0.482446 -0.08430417 0.83120704 0.27755073 -0.54277503 0.22646125 0.48308426
230 -0.12154963 0.032181595 0.5155757 0.25459138 -0.6901426 0.22575767 -0.011623463 -0.120828375 0.2873552 -0.39585578 -0.31478724 1.013854 0.10015432 -0.010366954 0.22408576 -0.7644799 -0.16873421 -0.21188314 -0.0849639 0.034586895 0.32373548 -0.14499708 0.0801385 -0.22487079 0.31366187 0.09546118 -0.1553822 -0.13901137 -0.12624063 -0.079758644 0.30271536 -0.058332928 0.81007624 0.30316785 -0.62656885 0.3285154 0.46501762 -0.2765546 0.06522616 0.27288434 0.25751036 -0.07038311 0.5353741 -0.5062912 -0.12305032 -0.046356317 0.41581577 0.22332335 0.24958833 0.29860586 0.5764633 -0.5094118 -0.6737622 -0.40815592 0.11148477 0.2744645 0.34197542 -0.019127246 -0.08877077 0.78872174 0.20383365 -0.68242675 0.4511941 0.193962
11 -0.06543237 -0.008182817 0.58343846 0.30424574 -0.74453944 0.3511767 -0.1674494 -0.09093752 0.01790437 -0.5230084 -0.14934018 1.0677332 0.39630467 0.080557 0.1284628 -0.6444845 -0.09931246 -0.17591156 -0.119545646 -0.013827692 0.2232284 -0.5322835 -0.12417793 -0.12244353 0.35162845 0.032457687 -0.050202895 -0.15734613 0.003949146 -0.069008194 0.271357 -0.11780285 0.84786135 0.5171327 -0.3759177 0.062803455 0.40921983 -0.14204176 -0.10372792 0.29789162 0.1973959 -0.2112944 0.5310855 -0.44114777 0.024536723 -0.19163129 0.5410217 0.16623138 0.20511532 0.12210577 0.5069719 -0.4938248 -0.57320386 -0.17305318 0.052234683 0.7334328 0.4280887 -0.4190524 -0.12463233 0.6505579 0.1948604 -0.6659439 0.27418593 0.08522505
108 0.06049994 0.46989137 -0.67903733 0.56580585 0.17698255 0.57139426 -0.07898808 -0.6031959 -0.58278155 0.39275554 0.73192585 -0.5179441 0.1723215 -0.6158869 0.86924154 -0.380559 -0.0921968 0.13130212 0.5296273 0.12942569 -0.17577563 -0.24072672 0.21312861 -0.26083112 0.1721903 -0.52447206 0.09348465 0.2146581 0.26112348 0.11697812 0.50261873 0.55026805 0.5311158 -0.012777988 -0.33351597 -0.059708945 0.83798915 -0.22495306 -0.3895297 0.14814788 0.17953472 -0.18048881 0.80091226 0.0472253 0.08076614 -0.24714111 0.004348131 0.17332393 0.20704064 0.39617115 0.40669328 -0.6255003 -0.67994493 -0.37753442 -0.4356894 0.47260195 0.25880495 -0.45511007 0.3432564 0.575257 0.14121215 -0.31436267 0.2635449 0.48439798
59 -0.12492542 -0.02513291 0.33394593 0.33330336 -0.806132 0.5325795 -0.3939658 -0.09523197 0.16325085 -0.55823755 -0.10605929 0.9795302 0.48894277 0.20598973 0.22054951 -0.6772629 -0.06895595 -0.2858049 -0.1133938 -0.23656979 0.08141467 -0.37479118 -0.14041749 -0.105076015 0.40557075 0.08226607 0.087793306 -0.21505387 -0.30154917 0.27483553 0.4923483 0.12958433 0.96044046 0.22362679 -0.25187966 -0.14474896 0.2740592 0.01832202 -0.018999254 0.24440412 0.35351747 -0.118400015 0.73228586 -0.3348084 -0.22082902 -0.58069235 0.46511525 0.26486385 0.049526893 0.12097011 0.6264936 -0.32834575 -0.4594595 0.09165417 -0.26971468 0.6255398 0.32688665 0.04206252 -0.0746346 0.948417 0.36448 -0.8941633 0.20811594 0.12532203
135 0.093243204 0.16525817 0.8854371 0.14386557 -0.3964998 0.066262275 0.23065606 0.12684485 0.09036176 -0.05105961 -0.026924402 0.774184 -0.4462995 0.2586768 0.21963866 -0.20336813 -0.14881715 -0.62806106 -0.039637692 -0.02368525 0.21699503 -0.08528955 0.07831343 -0.21757916 -0.29815984 0.21487202 -0.031204209 -0.23891613 -0.086154655 0.017081257 0.55682373 0.16026905 0.3047589 0.47750142 -0.6520693 0.09654972 0.69894904 -0.23569995 -0.038285676 0.03485246 -0.061587825 -0.10238044 0.5888097 -0.32492605 -0.1769825 -0.6498568 0.37678906 0.09565521 0.36693522 0.14862925 0.43952093 -0.5449165 -0.26980254 0.07982682 0.018085318 0.291985 0.31620845 -0.40164518 -0.10709786 0.905187 0.2736898 -0.4761039 -0.13955145 0.38603294
98 0.29330236 0.25641796 0.6258466 0.11618816 0.20389834 -0.4141501 0.7149914 -0.12907524 0.44983736 0.15374358 0.28691933 0.027619492 -0.15558915 0.5644682 -0.3941354 0.060848754 -0.1829994 -0.029116224 0.05175986 0.14279869 0.20259033 -0.12997882 -0.0053306706 -0.102530375 -0.16921754 -0.27267987 -0.023868598 0.34360382 -0.49200854 0.062072657 0.26759776 0.037779268 0.8086003 0.1579311 -0.22021322 -0.029630035 0.36705047 -0.04854335 0.12223317 0.6697015 -0.0821638 -0.22069864 0.51940495 -0.5147151 0.3334518 -0.5533651 0.36024514 -0.053074505 0.04861839 0.32047442 0.5392318 -0.76352525 -0.6519413 0.3563518 0.0010975976 0.30700526 0.038724363 -0.5316893 -0.21932833 0.6849259 0.12192798 -0.41324136 0.34014222 0.2805083
36 -0.073435545 0.18574283 0.91297215 0.2844777 -0.37350708 0.094775744 0.16499935 0.061899077 0.3489193 -0.23198402 0.054416727 0.9515269 -0.15806194 -0.038679644 0.21334046 -0.2725275 0.1900203 -0.019065952 -0.056571253 0.058003526 0.34617206 0.09065109 0.22038946 -0.12371194 0.084442414 0.21009904 -0.030254195 -0.23258975 -0.0729379 0.11516157 0.62143373 0.028591156 0.5876909 0.5330285 -0.594315 0.36203936 0.7604475 -0.34741542 0.19088462 0.39386436 0.1928313 0.29121798 0.3932177 -0.37231725 0.16205846 -0.6115836 0.31085742 0.17658208 0.33036786 0.29103735 0.5090985 -0.46823642 -0.4388774 0.10244944 -0.03111845 0.1607133 0.24378063 -0.50825727 -0.2083355 0.65219545 0.1869872 -0.68598056 -0.06461712 0.030490072
31 0.23758198 0.18924215 0.7772712 0.07277066 0.09934789 -0.3800201 0.7683935 -0.18198104 0.33198184 -0.012507413 0.34593514 0.18087628 -0.06262847 0.539259 -0.3286684 -0.013196703 0.06350389 0.06656868 -0.16255789 0.24038777 0.23597915 -0.025885884 0.2775255 0.24235049 -0.25252554 -0.31704646 -0.34477845 -0.0462227 -0.12083518 0.16190459 0.32126778 0.0075099305 0.7405777 0.13357519 -0.1961303 -0.16836405 0.17553669 -0.2266081 0.27309847 0.61114866 0.19452527 -0.038089946 0.5137042 -0.3173936 0.28083396 -0.95351905 0.06172136 -0.08259787 0.20767899 0.16184501 0.7221683 -0.48685306 -0.6766093 0.19970664 0.27344486 0.19053312 0.12069223 -0.4584486 -0.059637424 0.8764143 0.24094048 -0.47536844 0.4444899 0.38556597
137 0.010277526 0.47979888 -0.47487065 0.52099395 0.274298 0.5491817 -0.061014958 -0.50596184 -0.60833293 0.36778757 0.82183367 -0.5293741 0.18620273 -0.6526127 0.93498117 -0.23156144 0.105520785 -0.024160264 0.3975127 0.35397092 -0.27304354 -0.31579432 0.2540431 -0.24966009 0.6285333 -0.5819945 0.019258564 -0.018352041 0.12725905 0.04062601 0.30456853 0.34554255 0.53690284 -0.08941877 -0.1857782 -0.12166288 0.86295176 -0.24299997 -0.023446016 -0.010127027 0.4260853 -0.1771127 0.70152074 0.092478216 0.24476281 -0.2743592 0.21447513 0.22597446 0.026746871 0.18734457 0.39147446 -0.7502692 -0.79272944 -0.06715226 -0.25657296 0.39439732 0.084679835 -0.31661662 0.2603515 0.74612015 0.3028807 -0.14283943 0.3196127 0.63238484
10 0.18270656 0.19500618 -0.661249 0.62117416 0.2653428 0.2114816 -0.11339006 -0.88190776 -0.8045326 0.12376507 0.68129736 -0.40646756 0.18367775 -0.8845714 0.843105 0.009763092 -0.06308061 -0.2753767 0.21706939 -0.18655136 0.091969036 0.20749372 0.4596161 -0.21239537 0.2606247 -0.41840345 -0.23885062 -0.19107787 0.24871315 -0.3823079 0.13619497 0.070260935 0.51828295 0.260136 -0.18273568 -0.043370456 0.36559263 -0.013986847 -0.10697696 0.09366457 0.18318 -0.12072358 0.7824899 -0.12988031 0.08852723 -0.25697017 0.29287082 -0.4848975 0.027981497 0.25431797 0.82373977 -0.5840605 -0.49343994 0.21482962 -0.15619203 0.4669388 0.46915942 -0.37108734 0.046813108 0.52930355 0.33205968 -0.85862684 0.06378297 0.5582498
9 0.1666613 0.26832324 -0.56369835 0.6213591 0.3678544 0.21288389 -0.11226343 -0.911543 -0.9393802 0.10688569 0.63246953 -0.38245198 0.28012812 -0.9602982 0.7906151 0.1003659 0.08620649 0.056179993 -0.04899837 -0.22232817 -0.12253545 0.102834605 0.3106074 -0.37083054 0.051174533 -0.4444358 -0.15421167 -0.08295631 0.09734682 -0.31636646 0.10628689 0.1679753 0.59211934 0.4015679 -0.11928208 0.25270715 0.39654493 -0.020505417 0.043818895 -0.006665045 0.17323901 -0.15985829 0.73528576 -0.29030606 0.52069944 -0.19150586 0.4542251 -0.54177713 0.18024501 0.27742416 0.5306707 -0.7552176 -0.60857797 -0.13964513 -0.0457683 0.39444146 0.45025373 -0.40524456 0.038906336 0.6965202 0.076538295 -0.60093796 0.18167031 0.3552871
130 0.08959755 0.100252524 0.14358024 0.28875646 -0.30361322 0.7512424 -0.32452044 0.25620738 -0.46306962 -0.07993578 -0.0034189695 -0.8210002 0.12421054 0.1941686 0.12117883 0.36713147 -0.007789041 -0.24541056 -0.11501159 -0.11582626 -0.2766315 -0.049948882 0.11213729 -0.26756218 -0.017958038 -0.19865479 -0.25211352 0.0012559239 0.27720872 -0.01174272 -0.18213646 0.048148714 1.4241983 -0.55076724 -1.4354374 -0.6332422 0.88094145 -0.6759147 -0.2681779 0.1764997 1.2306764 0.6594116 -0.061218727 -0.06710457 0.2526125 -0.2724305 -0.041190885 -0.20564546 -0.04679774 0.39293516 0.59650666 -0.05803713 -0.30544642 0.38093036 0.03383465 0.1051197 1.0710937 -0.08611952 -0.14924122 1.4214542 -0.80433804 -1.0079906 0.61104614 -0.13398984
107 0.07312265 0.13190179 0.17089412 0.250047 -0.2838702 0.7210456 -0.31691098 0.27296513 -0.47632957 -0.11030082 -0.05946182 -0.80134606 0.13691638 0.14156996 0.13119805 0.35173273 -0.16377297 -0.26920083 -0.08638863 -0.073370226 -0.23807062 -0.13030608 0.12964515 -0.09504445 -0.086711384 -0.25012293 -0.07247393 -0.12173754 0.2607653 -0.024212375 -0.18197176 0.098981105 1.4630727 -0.54989344 -1.5346644 -0.55988353 0.73285246 -0.8729754 -0.21834129 0.12013185 1.1795888 0.6448718 0.1086342 0.064286105 0.36398563 -0.11102536 -0.040907614 -0.117184274 -0.18810414 0.52685636 0.6128552 0.15146078 -0.15767373 0.33271605 0.045942426 0.15681572 1.0835646 -0.34638909 -0.21396892 1.3382598 -0.636184 -1.026332 0.6962278 0.05597362
209 0.4483179 -0.2992661 -0.9539334 -0.3453444 0.63677704 -0.19947787 -0.5932125 -0.21130855 -0.98854023 -0.50793284 -0.07114113 -0.11157592 -0.26371157 -0.16188698 0.556396 0.25496197 -0.37228993 0.2606132 0.17048499 -0.022882504 -0.10425627 0.01491873 0.49126852 -0.09313553 0.14660257 0.044220768 -0.068665914 -0.16758773 -0.18424042 0.11774596 0.12409865 0.044069078 0.7708931 0.34193692 -0.5473328 0.04075265 0.4432196 0.031379826 0.11798347 0.3873162 0.37156337 -0.22678031 0.4632626 -0.6457649 0.09905217 -0.5381807 0.24349934 0.21928209 -0.2441497 0.15727507 0.59026915 -0.10496184 -0.8950775 0.15244302 0.04013748 0.42055053 0.17899348 -0.6418514 -0.25859964 0.5063579 0.4439243 -0.51895595 -0.06585905 0.07876826
208 0.4380626 -0.28127834 -1.0070089 -0.27267867 0.64454836 -0.17433034 -0.56962556 -0.22087327 -0.8974321 -0.46483472 -0.2088351 -0.12228101 -0.20345077 -0.20619413 0.6348787 0.1235769 -0.41727325 0.0056979475 0.2143652 0.19418757 -0.057734963 0.35609245 0.05806252 -0.19892927 -0.025987059 -0.19810964 0.12412522 0.12625289 -0.114614286 0.1999333 0.11926047 -0.022660706 0.43134278 0.008219266 -0.39250252 -0.075095914 0.43596807 -0.08567973 0.5462343 0.12652077 0.37416846 -0.1701359 0.3395227 -0.61956763 0.11624581 -0.1747605 0.72250795 0.3989605 0.36916164 0.11049367 0.5019709 -0.48456234 -0.627115 0.32800448 -0.13324076 0.65186536 0.21436062 -0.45934078 -0.13871191 0.5437124 0.335822 -1.015011 0.078044385 -0.104669526
269 -0.29461738 -0.4586615 -0.1740047 -0.68532056 -0.8076041 0.2865843 0.18820514 0.8889893 -0.40167415 1.3429172 -0.3439086 -0.19805317 1.291823 -0.5161776 0.027073158 0.38445044 -0.43033862 0.1407915 0.15883198 0.060430568 -0.075505204 -0.043687124 -0.13106993 -0.15700555 -0.115820125 -0.071723305 0.14935672 -0.076270625 -0.04919611 -0.30578458 0.1830288 0.10418444 0.3234314 0.25136694 -0.42978704 -0.120810114 0.5218241 0.084572226 -0.0451059 0.5369497 0.09897202 -0.039132603 0.051643055 -0.22888494 -0.17528298 -0.5108158 0.36164588 -0.034927428 0.32909217 0.11750949 0.77737707 -0.35546514 -0.36719754 0.09640725 -0.21583956 0.44809207 0.23392552 -0.26156366 -0.1758854 0.8609688 0.15440571 -0.7079787 0.37589088 0.3021263
146 0.44438943 -0.34363693 -0.89027584 -0.52627766 0.7343939 -0.27273393 -0.5927857 0.073075555 -1.015788 -0.39757928 -0.08116517 -0.12753583 -0.17262465 -0.27743718 0.6237285 0.17933618 -0.30195773 0.16399203 0.006324134 0.21219482 -0.10692974 -0.23692007 0.2645194 -0.05639334 -0.09553458 0.06194854 -0.2048034 -0.0851687 -0.023215963 0.07536615 0.027967963 -0.1481903 0.7966924 0.46980837 -0.4172014 0.042481314 0.43105575 -0.048496798 -0.07273384 0.2900565 0.18304303 0.19510186 0.46112034 -0.43472105 0.1257156 -0.458171 0.04201451 0.10387366 0.05740789 -0.049675252 0.55759674 -0.27138948 -1.0060066 0.10217579 -0.09571702 0.78661066 -0.14409176 -0.46888554 -0.07081696 0.5556267 0.1888446 -0.84972566 -0.08451098 0.20157531
143 -0.3107382 -0.36644238 -0.17152946 -0.8484442 -0.93958205 0.21245445 0.016547672 0.7192411 -0.43049678 1.1386178 -0.16136968 -0.22855721 1.2380986 -0.521648 0.026010238 0.5982115 -0.21339934 0.11042323 0.14628792 0.046874214 -0.21214399 0.105313234 0.10723212 -0.18645717 -0.09276396 0.17931238 0.045600556 0.08716864 -0.18612204 -0.22960877 0.30879703 -0.031418968 0.681827 0.25161254 -0.32468855 0.19676079 0.23477045 0.28207615 0.12111481 0.5607348 0.29972097 0.053719137 -0.013964932 -0.25220034 -0.24475783 -0.5458468 0.47980702 0.22452757 0.2298819 0.067342766 0.7352624 -0.4018249 -0.5729491 0.04426482 -0.20281155 0.31257772 0.2491064 -0.38017315 -0.11902824 0.5752413 0.024156496 -0.67358214 0.35964322 0.27411592
133 -0.27912253 -0.25115824 -0.40260613 -0.88259995 -1.0975528 0.45490673 0.24923232 0.7888695 -0.33398947 1.2668974 -0.21909927 -0.11996664 1.2144717 -0.2838986 0.12447926 0.47992465 -0.24999706 0.29880834 0.04872752 0.2644844 -0.2157449 0.13513422 -0.014844556 -0.10350968 0.13474226 0.009798706 0.2110158 0.21350257 -0.014118611 -0.20722777 0.068588175 -0.06495691 0.435127 0.043550696 -0.36511305 -0.04303583 0.20849106 0.115923524 0.1606691 0.65139127 0.2869078 0.032567963 0.18801047 -0.40729138 -0.065471195 -0.37359372 0.33016866 0.0050825225 0.14290674 0.2500545 0.667683 -0.26629415 -0.41710672 -0.06904313 -0.06953712 0.50584 0.22980307 -0.26637483 -0.36616448 0.8985058 0.31087902 -0.7696967 0.1963388 0.42915484
68 -0.09089826 -0.4195528 0.1131261 -1.2022504 -0.8371205 -0.33926252 -0.78903 0.5828997 -0.24983224 0.23329644 0.0059194034 -0.85449195 0.4572323 -0.4612128 -0.2373768 0.10928612 0.014581504 0.17642638 0.05892183 0.04926992 -0.16215628 0.09180313 0.44036132 0.017855762 0.0595137 -0.11037852 0.15175533 0.17611642 0.048777387 -0.08992394 0.21333855 -0.011643565 0.49784815 0.6217401 -0.26686555 0.41333675 0.5579813 -0.12118218 0.02342004 0.41754228 0.24045984 0.037298776 0.4811832 0.03501964 -0.29555753 -0.35040867 0.60342705 -0.025220064 -0.003049048 0.2679651 0.3455668 -0.50833946 -0.51457334 0.11664612 -0.081546694 0.35649592 0.13552555 0.020516278 0.5556664 0.9385045 0.15960193 -0.76906645 0.5365554 0.224607
97 -0.011509016 -0.53192514 -0.05665237 -1.2797941 -0.7114672 -0.033058602 -0.6862715 0.7466943 -0.27878365 0.21747914 0.13203599 -0.8291457 0.35665777 -0.25426432 -0.12979189 0.12577322 0.0028686295 0.11321217 -0.044665817 0.27083036 0.054654162 0.027881669 0.05131665 -0.3103306 0.012749419 -0.14485691 -0.16488372 0.43032467 -0.043242287 -0.31555083 0.33353359 -0.21983175 0.5508536 0.5386367 0.021598315 0.5180943 0.5680898 -0.3738661 -0.010811781 0.41897002 0.27116615 -0.01986472 0.44435883 -0.039849296 -0.089303695 -0.4740215 0.41752082 0.024584576 -0.14095832 0.50909126 0.57718873 -0.3306755 -0.69742835 0.14393695 -0.0697272 0.5326167 0.26252577 -0.0797569 0.6918169 0.67634165 0.13333108 -0.6386065 0.5916071 0.017534591
127 0.4359567 -0.4055319 -1.1506922 -0.33645934 0.44927692 -0.15015389 -0.61949825 -0.32575297 -0.67403096 -0.48858052 -0.01776565 -0.22392893 -0.34890926 -0.43649063 0.58126765 0.069248185 -0.18448018 0.02786596 0.043311857 0.20239985 -0.18467247 0.13160218 0.022288533 -0.05154303 -0.25554076 -0.01990227 -0.13193995 0.035835292 0.09118902 -0.1465486 0.21422695 -0.08913881 0.43602479 -0.11462634 -0.51571995 0.14103705 0.37760535 0.051161457 0.24488439 0.5088842 0.34319326 0.007951102 0.5042931 -0.6951193 0.1214968 -0.56650895 0.8553851 0.42939156 0.43181074 0.1255665 0.5103698 -0.51274246 -0.5121152 0.4084231 -0.044615272 0.40191385 0.18494834 -0.43451744 -0.05404043 0.5017743 0.39497593 -0.6846298 0.320974 -0.1497646
242 -0.030979684 -0.7747955 -0.22345953 -1.2277533 -0.49199805 -0.279109 -0.75099915 0.67820084 -0.22796646 0.19785611 0.003014597 -0.55913407 0.33749193 -0.5501383 -0.11766145 0.3081854 -0.26500502 0.031426404 0.19047986 0.4740649 -0.40462148 0.1945262 -0.1267398 0.06913157 0.2648221 -0.2274736 -0.19918786 0.115142055 -0.099107206 -0.23054463 0.4668575 0.047627438 0.61273414 0.27481446 -0.18932408 0.42780694 0.37205645 -0.32165557 0.3050298 0.2614347 0.28369948 -0.11082948 0.44428602 -0.16059306 -0.3422317 -0.39868584 0.61216223 0.13707674 0.3032555 0.1510121 0.25553992 -0.31973207 -0.5832104 0.6218111 -0.014116897 0.4066114 0.36375216 -0.23551507 0.383372 0.8477942 0.18429253 -0.6882122 0.3736391 0.23344496
128 -0.19684987 0.20596221 -0.7942556 -0.47073957 -1.2129122 0.6952972 0.5293843 0.101898864 -0.15968 1.1843278 -0.58562 -0.3248882 1.1057105 -0.09773064 0.2639175 0.7882941 -0.06016664 -0.08304254 -0.08035151 0.4162431 0.02156265 0.054111093 -0.019814745 0.36841217 -0.01585289 -0.059310973 -0.2681365 -0.083275735 -0.2270837 0.17015116 0.032316286 0.3878054 0.43784153 0.41303325 -0.28111184 -0.41870993 0.3490325 -0.5876716 0.03717058 0.11785187 0.13152847 0.1992901 0.36234918 -0.81468004 0.08816727 -0.096880436 0.38497835 0.26394087 0.044911284 0.18036671 0.50099796 -0.5245893 -0.5565386 0.22160128 0.022945546 0.31072727 -0.050976302 -0.4469658 -0.3978465 0.70712 0.17238915 -0.66314095 0.1655839 0.28307483
179 -0.12769115 0.25779045 -0.7410025 -0.35538822 -1.2011279 0.71797776 0.6097995 -0.09277691 -0.31807885 1.0134336 -0.4791559 -0.30734783 1.1298819 0.017166633 0.038132556 0.92770404 -0.10818972 0.061992507 0.04970796 0.30096513 -0.16524874 -0.14125519 0.034080442 0.07933465 -0.10009477 -0.1632169 -0.3594814 0.07647602 0.094277866 0.24876197 -0.072447464 0.27288148 0.45543143 0.5268928 -0.62001747 -0.5596821 0.40140924 -0.85547346 0.2410072 0.26723292 -0.083234265 0.119068764 0.5557652 -0.87956375 -0.014287671 -0.18861084 0.60605586 0.00609073 0.070627406 -0.10313732 0.35117266 -0.361391 -0.6585098 0.117716245 0.10246979 0.1518616 0.21708724 -0.6437674 -0.29232064 0.44896767 0.07896561 -0.499952 -0.06097541 0.17157286
33 -0.08135955 0.38005626 -0.9071923 -0.21657673 -1.2671382 0.7381908 0.6290858 0.13591039 -0.17155522 0.9413353 -0.58454275 -0.20898384 1.0187234 0.073031425 0.34752992 0.92809814 0.063550994 -0.14204265 0.18664749 0.39317918 -0.13091709 -0.020616004 -0.025279768 0.25973335 0.1970727 -0.016544603 -0.19723256 -0.10058501 0.028689573 0.31371745 -0.11404892 0.27412176 0.41484648 0.6255042 -0.42235968 -0.41049162 0.21898513 -0.5126064 0.09216773 0.26695222 0.13112466 0.123351894 0.48965478 -0.5652632 -0.1542925 -0.30722454 0.56811726 -0.08372764 0.24041572 -0.021303976 0.55267566 -0.6348303 -0.5627371 0.22391382 0.17152378 0.14412494 0.15001395 -0.7688403 -0.2982291 0.74820703 -0.01044286 -0.4141815 0.048714615 0.075552076
235 -0.6914949 0.20482256 0.6108684 -0.02103079 -0.022678766 0.03467515 0.05975669 -0.023235964 0.83782893 0.33280304 -0.18311757 0.73100775 -0.8718682 -0.11043932 -0.003103501 -0.070268616 -0.14881359 0.102265865 -0.028437985 0.06511006 -0.306795 0.09479828 0.2445058 -0.45222965 0.20166825 -0.2733879 -0.47398388 0.008078615 0.03412507 0.13707316 -0.11112261 0.28661266 0.7796173 0.6263692 -0.34839782 0.24654725 0.73751664 -0.30240244 0.03741162 -0.10902156 0.39418104 -0.043217286 0.28447193 -0.6460187 -0.11967478 -0.2614484 0.45763662 -0.027432602 0.19387329 -0.062093362 1.032331 -0.21700455 -0.43333498 -0.10891759 -0.28212616 0.5884363 0.34389207 -0.54292214 -0.0876144 0.435043 0.2349255 -0.5128141 0.21914376 0.2773494
305 -1.7961824 -0.16206485 0.09251253 0.1167633 0.22736318 0.9089543 -0.20146959 0.13382609 -0.45907247 -0.5807426 0.04135341 -0.7521793 0.7973797 0.8589172 0.58511245 0.52929807 -0.07850153 0.16774929 -0.09750289 -0.18628559 -0.13752633 0.17264114 0.2344412 0.1464414 0.045043226 -0.24914579 -0.016137475 -0.19906469 0.46515277 0.20265192 -0.084825665 0.19065489 0.047699362 0.3300983 -0.6013002 0.3711428 0.65215915 -0.27608418 0.43074498 -0.11288775 -0.18205868 -0.20496261 0.7492126 -0.5849796 -0.22536942 -0.6712661 -0.4305604 0.5998005 0.56440717 0.37959626 0.8026969 -0.453211 -0.6182045 -0.24210502 0.3544072 0.28718582 0.5218338 -0.24463557 0.064729646 0.8633161 0.10384145 -0.98879904 0.5610328 0.18032329
163 -0.5735406 0.25579253 0.5593061 -0.1349699 0.11463784 -0.04940489 0.13237609 -0.042686302 0.98152685 0.32684782 -0.1776359 0.63775885 -0.8127125 0.131413 -0.04459464 -0.28408307 -0.26875514 -0.058576956 0.09157445 0.102805264 -0.30350578 -0.058375128 0.08235686 -0.30146468 0.42340565 -0.32501158 -0.27485448 0.016723868 0.09518375 -0.0034984204 -0.2207438 0.34243184 0.46761477 0.35390815 -0.34136024 0.008301233 0.73386383 -0.6055819 -0.012468966 0.360872 0.51293766 0.25364482 0.46210933 -0.79446495 -0.04005188 -0.45351943 0.4354726 -0.049651362 0.11803369 0.036169253 0.8806038 -0.2225484 -0.39161068 -0.077225305 0.006281257 0.5588823 0.29257545 -0.5513841 0.025118334 0.3045553 0.35155937 -0.57181984 0.3602518 0.2349593
138 0.8743314 1.168391 0.11250594 0.103573866 0.518012 1.4092433 -1.2028753 0.49913344 -0.10225963 0.18868941 -0.19192412 0.023403656 0.8262151 -0.1804229 -0.98788244 0.5956165 0.42258444 -0.063463904 0.2842436 0.15951253 0.09110947 -0.017698944 0.21782877 -0.14653005 0.12856555 -0.37168068 -0.10187497 0.053681284 -0.0794224 -0.2818327 -0.1869577 0.1428337 0.28780982 0.09944424 -0.8565678 0.19111398 0.37818268 -0.093143724 0.027648969 0.123090096 0.108409144 -0.29753727 0.9714272 -0.55772656 -0.3087524 -0.487399 -0.10403971 0.31341553 0.3170848 0.38767713 0.92169625 -0.61812127 -0.63305044 0.3121784 0.1930287 0.3720762 0.6845547 -0.354384 0.12670872 0.45457104 0.20784193 -0.87338895 0.16225225 0.13118306
136 -1.8516691 -0.22181657 0.11468249 0.14271647 0.22833006 0.81410515 -0.2618013 0.13292007 -0.50350773 -0.5884117 0.084985495 -0.65749884 0.7955541 0.88239914 0.5030523 0.6030754 -0.0629955 0.21321014 0.0117352195 -0.20339233 -0.20766388 -0.007980408 0.3398523 -0.043299545 -0.00277622 -0.07336123 -0.18016833 -0.2501797 0.41981483 0.068377286 -0.19092615 0.11497121 0.073915236 -0.03961144 -0.49922615 0.4796367 0.52706856 -0.45535174 0.1858729 0.08875058 -0.06260348 -0.187143 0.7406199 -0.53425884 -0.3803446 -0.4520232 -0.28759804 0.39890546 0.4687141 0.41021255 0.8085598 -0.618673 -0.7574079 -0.056874674 0.51112163 0.27046078 0.32996252 -0.35555503 0.027359858 0.96368504 0.19128779 -0.9672107 0.4532148 0.26319656
284 0.88802797 1.1681095 0.05790682 0.0022246877 0.5679387 1.4133642 -1.14484 0.47733063 0.042149823 0.19430752 -0.23165013 -0.037544042 0.7292455 -0.24067938 -0.914572 0.55486804 0.30866522 0.056255374 0.002256275 0.19665773 0.0240266 -0.02599671 0.14691164 -0.09157207 0.09055857 -0.15708573 -0.063838 -0.15039156 -0.020113617 -0.21749254 -0.23066881 0.06282209 0.1722843 -0.20402795 -0.5263881 0.17227805 0.3631738 -0.17880467 -0.17154127 0.08843759 0.11392713 -0.28678373 0.9575481 -0.48795232 -0.3085516 -0.32944393 0.015687801 0.3009788 0.31041887 0.49830765 1.1657709 -0.66050506 -0.6929379 0.2741922 0.19840358 0.2960793 0.6166794 -0.4254412 -0.031503104 0.8096954 0.38354713 -0.83415794 0.20245022 0.19614275
114 0.92320657 1.2750739 0.17893589 -0.015052082 0.5556506 1.5085398 -1.1340787 0.52862376 -0.07770562 0.07122253 -0.22795397 -0.08049712 0.7312386 -0.20854007 -0.814174 0.64771616 0.086850844 0.11083068 -0.0573982 -0.014829838 0.018489182 -0.02826318 0.043959 -0.1991408 0.13074332 -0.18815726 -0.0074440134 0.043592654 -0.067407265 -0.15454283 -0.17339295 0.23712821 0.54271966 0.07409077 -0.53736097 0.050839845 0.40457422 -0.06001396 -0.13050734 -0.10140862 0.0060208645 -0.21732579 0.6630373 -0.7687906 -0.21981207 -0.34066552 -0.016883189 0.2781392 0.35675636 0.49505302 0.9094158 -0.8481464 -0.54006594 0.32896626 0.042272683 0.4161685 0.5357643 -0.5277958 0.13210322 0.51813257 0.38865203 -0.6658647 0.50882316 0.22130612
303 -1.8446264 -0.160267 0.16160244 0.10446137 0.23829153 0.88684523 -0.22969316 0.18726006 -0.5824471 -0.63287115 0.09215367 -0.7014672 0.7642553 1.0070181 0.5565363 0.6363568 0.005523662 0.25584063 0.032304414 -0.22593164 -0.015986783 0.013585922 0.23919217 -0.04640544 0.09306811 -0.11332642 -0.114269495 -0.045205552 0.3162765 0.03974028 -0.17248224 0.26031205 0.45619136 0.20277001 -0.7255661 0.33173034 0.5043412 -0.14305039 0.30347756 -0.0058344314 -0.16231836 -0.29585785 0.8330855 -0.7050639 -0.22026289 -0.31802294 -0.19336106 0.32354677 0.41737473 0.39146605 0.638165 -0.6244623 -0.50278467 0.13472311 0.25730857 0.45936653 0.43915156 -0.27170318 0.22442074 0.606563 0.17504525 -0.8850171 0.47859237 0.42612872
264 -0.42273062 0.18026447 0.63757247 0.015764922 -0.07508601 -0.00039097448 0.1478353 -0.1598019 0.7143234 0.29246944 -0.33759636 0.91145927 -0.79418415 0.047994398 -0.028239785 -0.21821487 0.09896661 -0.07512743 -0.011526525 -0.048305962 -0.186996 0.026033979 0.16364127 -0.3933093 0.37290192 -0.24920836 -0.18461505 0.078368284 -0.09847962 0.012203763 -0.18182665 0.28620583 0.5509982 0.5815622 -0.47150686 0.3463975 0.5543488 -0.44165912 -0.14219362 0.22012281 0.22008158 0.1917948 0.38893208 -0.5369423 -0.06306319 -0.39417648 0.6658519 -0.13074552 0.2525608 0.048741933 0.7624125 -0.2922319 -0.44610417 0.056063473 0.05182179 0.51807094 0.35172874 -0.483196 0.32194036 0.45747906 -0.07887691 -0.8002091 0.12756552 0.4943988
144 0.9641115 1.0827541 0.103591055 -0.008698966 0.49642697 1.5709736 -0.99903893 0.5183281 0.1173724 0.082209945 -0.1523672 -0.32266182 0.5966144 -0.15192784 -0.5747729 0.39726108 -0.36531335 0.17014793 -0.0035706235 0.008592971 -0.21116234 -0.16814624 0.33938637 -0.06856319 0.15487345 0.11059839 -0.117107935 0.20984912 0.20561321 0.19624874 -0.1915684 0.18549433 0.79322994 -0.110536814 -0.5076427 0.007479486 0.56398165 -0.09931932 0.13387294 -0.16132621 -0.38464534 -0.52100646 0.16136332 -1.0615759 -0.4526325 -0.26016715 0.23995431 -0.13011484 0.29664996 0.41657072 1.0935553 -0.5491785 -0.4144109 -0.20484647 0.49178317 0.19883664 0.29374424 -0.30994004 0.40121225 1.1359471 0.43460548 -0.53426427 0.57331824 0.3580115
228 -1.8427725 -0.35029513 0.040620238 0.14784478 0.25023165 0.807279 -0.17039333 0.024156 -0.32456547 -0.5372151 0.04676524 -0.86132044 0.6221317 0.795763 0.44159275 0.64669526 0.089221455 -0.00054334744 0.014321112 0.18580641 -0.03848359 -0.22719905 -0.005947998 -0.06520338 0.15851061 -0.04237626 0.04270306 0.056131404 -0.37495485 -0.3581471 -0.13861452 0.31358373 0.54988277 -0.06149576 -1.0549744 0.3143047 0.38194877 -0.04332561 -0.60181403 0.038706664 -0.30295604 -0.75725377 0.7625418 -0.717252 -0.11057774 -0.27898952 0.22655483 0.13037123 0.34055594 0.6629514 0.96262586 -0.7756448 -0.32679805 0.42165956 0.1812583 0.32761407 0.49507782 -0.3142286 0.01426977 0.74244213 0.24822669 -0.64430934 0.18484114 0.25398993
245 1.0245887 1.1860123 0.096060164 -0.076898605 0.5331148 1.5146564 -1.0633103 0.49376702 0.05995348 0.100954816 -0.2791153 -0.18686835 0.650073 -0.15925989 -0.7246425 0.48592925 0.046504755 0.052447263 0.13495831 0.22912498 -0.07470733 -0.16841319 0.054080535 -0.079259984 0.024398074 -0.061371263 -0.02748165 -0.18487841 -0.055685986 0.022431983 -0.105110124 0.24116385 0.5353169 4.293528e-05 -0.585486 0.2838647 0.24258512 -0.15950401 -0.017388163 -0.12768567 -0.027460733 -0.56250525 0.53469265 -0.71159214 -0.23470967 -0.13754393 0.03034554 -0.04399678 0.33902925 0.46014193 1.1953055 -0.7021832 -0.4666699 0.050438844 0.18289599 0.3305317 0.5295193 -0.4637816 0.09916801 0.72874767 0.33778182 -0.85621154 0.5424929 0.51611674
100 -1.8627304 -0.1964438 0.15369521 0.01574779 0.32346907 0.87782675 -0.15401195 0.11784727 -0.48781803 -0.5750828 0.07679724 -0.83509916 0.73587906 0.9953183 0.60105115 0.60633594 -0.06558388 0.25871807 -0.06276859 0.05572623 -0.04324347 -0.092946455 0.08987854 -0.26458645 0.019921193 -0.07115784 -0.2994073 -0.20426492 0.032526202 0.08302957 -0.15860195 0.058470387 0.330744 0.06523369 -0.7239602 0.32925376 0.47896445 -0.14755574 0.07258662 -0.0072555286 -0.022933315 -0.39972606 0.757845 -0.5960875 -0.30329823 -0.28059942 -0.0593595 0.09274738 0.5107279 0.4613892 0.9997434 -0.88500375 -0.49176234 0.18107103 0.22019455 0.33004087 0.48260167 -0.11298124 0.034541585 0.8667053 0.30559707 -0.66703206 0.29876643 0.18748899
162 0.18096775 0.4347048 0.95161295 0.09757107 -0.20228519 -0.08025047 0.32611388 0.24149694 -0.310485 0.01964448 0.06360945 0.16651663 -0.46788973 0.280563 0.17992845 0.03993136 -0.13642466 -0.6912992 -0.44586995 -0.09026594 -0.064363495 0.14430799 -0.05559771 -0.16956018 0.10852238 0.6238781 -0.40668434 -0.17622592 0.10716946 -0.06069271 0.7254061 0.56629807 0.16479982 0.2623628 -0.49177366 0.33331758 0.2895805 -0.7787215 -0.17803283 0.2883093 0.121128105 -0.35515478 0.3834713 -0.35188535 -0.17634536 -0.4942977 0.31602812 0.36333546 0.12442238 0.2705489 0.33725357 -0.73936826 -0.18246841 -0.19954117 -0.07062576 0.8173435 0.23906888 -0.42569953 -0.046969473 0.9536997 0.1958172 -0.5836904 -0.15314062 0.46835
19 0.1862269 0.32597488 0.9031418 0.222744 -0.0833892 -0.044204433 0.34124002 0.3146516 -0.10679661 0.054715663 0.18097238 0.1408877 -0.28623784 0.35249248 0.04337398 -0.09507994 -0.12563303 -0.73838043 -0.4450789 0.017521862 -0.21647756 0.11682611 -0.13310356 -0.19543086 -0.09333331 0.4878962 -0.6197576 0.18941678 0.10948466 -0.20935199 0.66403174 0.6051172 0.27987534 0.23806795 -0.5302142 0.08499765 0.3876814 -0.66273457 0.20070061 0.27227753 0.22660138 -0.37462962 0.6600211 -0.63317835 0.019102538 -0.7436101 0.38668498 0.33906874 0.1564905 0.14689027 0.1516789 -0.672535 -0.19660708 -0.3066437 0.06506241 0.7492387 0.07326602 -0.21264668 0.08300628 0.76037574 0.21949218 -0.50514746 -0.22791845 0.14033888
205 -1.8186526 -0.31142673 0.04372539 0.1355619 0.23947218 0.85934323 -0.2174537 0.09366402 -0.37051725 -0.61152744 0.12554273 -0.7797391 0.6678263 0.9123738 0.47851238 0.6744678 -0.00993299 -0.0148321595 0.12418441 0.10221113 -0.033820633 -0.004837144 -0.12919506 -0.20677403 0.28537324 0.030679371 -0.062335018 0.25199473 -0.09230115 -0.07430468 -0.18245767 0.21573234 0.4732894 -0.053725705 -0.98223794 0.39412034 0.3988933 0.046961293 -0.33662277 0.075497985 -0.15610942 -0.52204335 0.6131936 -0.7499353 -0.2455721 -0.18554242 0.10474129 0.043375753 0.15999533 0.60745573 0.9189382 -1.0153216 -0.5436224 0.3700707 0.3316063 0.4996454 0.5294578 -0.40006077 0.049983643 0.67153764 0.19770516 -0.5829306 0.2165281 0.25708133
244 -1.9318867 -0.26474148 0.09306702 0.12625946 0.28662223 0.7660831 -0.21398136 0.16743782 -0.44294626 -0.57987463 0.11238134 -0.74889493 0.7206221 0.9424744 0.49249122 0.63654387 0.12407217 0.06722391 0.026047261 0.10893177 0.114549 -0.056349076 0.27385327 -0.053585343 0.03472668 -0.06689182 -0.05073921 -0.043684606 0.03039198 -0.25466937 -0.1840319 0.34975287 0.48995468 -0.22437598 -0.7655541 0.21646792 0.4428019 -0.19632043 -0.08824548 0.10056036 -0.198893 -0.52772087 0.81292045 -0.6871786 -0.21990864 -0.03578309 0.18383025 0.27596512 0.20591545 0.44327512 0.9438946 -0.6749665 -0.40213007 0.20911776 0.25538325 0.437502 0.49340633 -0.31235036 0.2045402 0.7572269 0.3819137 -0.77567416 0.33670008 0.31722385
206 1.0574455 1.2498317 0.21519378 -0.059847288 0.5133162 1.518212 -0.96125144 0.5603431 -0.08467699 0.03720774 -0.16920654 -0.18975675 0.6037111 -0.2203664 -0.6430434 0.4607901 -0.3090087 0.3812675 -0.08232809 -0.12108871 -0.3838524 -0.2013395 0.17243233 -0.008976437 0.21197233 0.08809224 -0.06876642 0.023215346 0.079803325 0.263394 -0.25319833 0.06044977 0.6746062 0.12371658 -0.388769 0.12255603 0.39838195 -0.27985537 0.094192535 -0.08985324 -0.10347899 -0.49585658 0.37714812 -0.86827874 -0.37182122 -0.320146 0.0105378935 -0.1448753 0.4370591 0.52627456 0.9172498 -0.5026122 -0.48565182 -0.12751685 0.28153053 0.19320802 0.3010394 -0.4648708 0.2522682 1.0079236 0.4753377 -0.6753627 0.6244068 0.45661128
48 0.9596949 1.2244046 0.16433582 -0.06876322 0.5018554 1.5542344 -1.1197269 0.5750111 0.027453974 0.047797084 -0.18619266 -0.15690634 0.68600523 -0.11289316 -0.6482156 0.5338547 -0.12507276 0.048613496 -0.06442333 0.0076036104 -0.12206051 -0.09624365 0.12102145 -0.21833329 0.15780938 -0.11404509 -0.12033963 0.08335869 0.24353805 0.051559087 -0.1523909 0.21721278 0.50913864 -0.18239744 -0.2814074 -0.017824924 0.41292867 -0.06142799 0.15473181 -0.13213992 -0.11916109 -0.2554387 0.37250167 -0.81311804 -0.3278759 -0.16171837 0.08794205 0.09327383 0.2636135 0.2839423 1.1129009 -0.6783292 -0.6392382 0.12759423 0.42571786 0.46068576 0.2811353 -0.47251835 0.2411802 0.983281 0.37901247 -0.73243487 0.6443901 0.41485643
216 0.2546169 0.28894606 0.4396571 0.03631746 -0.01852196 -0.25498876 0.77589375 -0.14121558 0.35819128 0.16540897 0.35928178 -0.0032065737 -0.27128267 0.7067377 -0.2363765 0.06988794 -0.3134962 -0.26900455 0.07498092 0.09814376 0.046705816 -0.11640822 0.16684662 0.35266134 -0.49555013 -0.5449048 -0.103464805 0.17142887 0.020910976 -0.16138074 0.11707591 0.18923394 0.73606664 0.25795648 -0.15104488 0.25800157 0.46037182 0.039294712 0.25428337 0.8360401 0.112785645 -0.0953962 0.7455916 -0.44364554 0.22636525 -0.45578703 -0.028524179 0.3588566 0.19036539 0.6992157 0.657391 -0.6779482 -0.6340609 0.41367316 0.11474783 0.2871637 0.33209908 -0.19906607 -0.16244581 0.7538705 -0.12909009 -0.35975823 -0.014788614 0.4163511
266 0.17093767 0.27954873 0.9748316 0.17981106 -0.32591808 0.06559948 0.32369137 0.20950225 -0.21126442 0.09489045 0.04133312 0.43048862 -0.48635894 0.2938919 0.15361187 -0.080775104 -0.07263538 -0.39622384 -0.4609636 -0.30604494 -0.087737426 0.25992432 -0.21310593 -0.21807829 -0.14861059 0.48621863 -0.34912056 -0.15764682 -0.06960063 -0.024524711 0.6601246 0.26123866 0.24660201 0.24444841 -0.7203726 0.30114144 0.5191171 -0.6404388 -0.042866863 0.22705802 0.21938393 -0.5018651 0.6048741 -0.42714325 0.24921814 -0.5714488 0.29954177 0.25253642 -0.042822406 0.26316997 0.16763462 -0.40494716 -0.41705647 -0.046212476 -0.017609986 0.709036 0.3709586 -0.23510048 -0.038184933 0.74201053 0.41859952 -0.5185236 -0.1624491 0.31795675
3 -0.043503217 -0.074295826 0.50304586 0.28881288 -0.8452143 0.36666736 -0.23455787 -0.12658365 0.12772945 -0.57130355 -0.15850335 1.1066238 0.36099187 0.24344204 0.1468675 -0.6105451 -0.11155025 -0.22874211 -0.14349844 0.048053388 0.12776445 -0.12631649 -0.20141266 -0.36034074 0.34892666 -0.22219123 0.009123501 -0.20735464 0.012506098 -0.14139943 0.40110713 0.05514427 0.8330218 0.27184725 -0.21912427 0.099999614 0.44815734 -0.2735807 0.008178398 0.35295057 0.21690464 -0.22549942 0.5219869 -0.3110495 0.082382314 -0.50129884 0.3409294 0.24551114 0.17956595 0.15085073 0.6021154 -0.6553666 -0.5025585 -0.099114105 -0.05602566 0.3732462 0.56205803 -0.33677334 -0.26486897 0.6506004 0.038344342 -0.6791095 0.24388485 0.14101686
195 0.21331471 -0.5684038 0.06957056 0.12157652 -0.2716921 0.63432115 -0.4828663 -0.6431943 -0.26431346 0.17561562 -0.3907836 -0.73166263 -0.07133319 0.41875577 -0.29625085 0.7230589 0.5003884 -0.28586861 0.27011758 -0.58394176 0.012709694 -0.12778178 -0.5177809 -0.06693994 0.2950164 -0.39139417 0.04272193 -0.016976349 0.07010883 -0.60509044 0.051931404 -0.423659 1.1059048 0.18651965 -0.5590058 -0.29561806 0.85503626 -0.6904245 0.5319528 0.38358736 0.15908842 0.0025172129 0.09610088 0.0146084465 -0.40965003 -0.036590513 -0.006038957 0.09926764 0.7974186 0.54222566 1.1437943 -0.55601805 -0.5040521 -0.65895474 -0.17568636 0.6534636 -0.32210097 -0.35694113 -0.2786267 0.9988903 0.7513476 -0.11262276 -0.02509041 0.42959282
193 0.2733957 -0.6698277 0.076205246 0.25303784 -0.3927623 0.7123884 -0.64379406 -0.7866393 -0.10908455 0.1653513 -0.3433324 -0.75156796 -0.09434105 0.4524193 -0.25595552 0.827252 0.5786556 -0.25737193 0.29237753 -0.68113977 0.07134749 0.14515567 -0.38383093 0.14668225 0.3974599 -0.36974812 0.16362846 0.043964483 -0.20811246 -0.40249372 0.08314382 -0.025385197 1.0756377 0.24293213 -0.5716616 -0.18026714 0.6411206 -0.3933078 0.46443325 0.50004154 0.17854227 0.092238314 -0.031227112 -0.07915556 -0.38513216 -0.015031588 0.082418166 0.33650577 0.6868621 0.64822143 1.0356108 -0.34552848 -0.5118233 -0.87411404 -0.1812275 0.5740839 -0.14121462 -0.54575217 -0.11149544 0.830957 0.5771385 -0.42642412 0.038384926 0.61529064
211 0.41093585 -0.19731115 0.1814842 0.5684044 -0.66425836 0.80218476 0.41088754 0.13144861 -0.6110706 0.18769357 0.39975178 -0.7984351 0.18590225 0.056550384 0.14903422 -0.26605704 0.27474287 0.4668622 0.28339213 0.68054646 -0.35624853 -0.7912039 0.44705254 -0.37731758 0.66788685 -0.19671243 -0.04441626 -0.08793116 -0.06627008 0.2701565 -0.33824262 0.2891711 0.18903473 -0.29302475 -0.88128495 0.17282401 1.145768 -0.09789639 0.5123028 -0.5653837 0.2968329 -0.23776582 0.2515937 -0.09345811 0.025445415 -0.55235505 0.24673851 1.001023 -0.15681389 0.6739791 1.0478929 -0.54926974 -0.84523314 0.09518966 -0.7176353 0.52768725 -0.054473955 -0.41278204 0.31355298 0.5840975 0.20423521 -0.29267514 0.33664003 0.45735082
262 0.45027527 -0.39848194 0.3131081 0.53463554 -0.7505775 0.6128693 0.333066 0.2564251 -0.7123032 0.023702145 0.16967298 -0.7773455 0.16324705 0.16408662 -0.20475432 -0.009367068 0.3102763 0.43394488 0.055959627 0.5376494 -0.41846496 -1.0737299 0.3978031 -0.30816627 0.7289249 -0.03619291 0.27843633 -0.24928805 0.08216881 0.16676216 -0.5065869 0.4261786 0.1534572 -0.48483822 -0.9174848 0.26030177 1.1808442 -0.15150313 0.577946 -0.5307966 0.36540818 -0.10727214 0.25594163 -0.4836808 0.15496373 -0.71541244 0.36379677 0.777422 0.0047462187 0.48393795 0.9361412 -0.5888982 -0.9373323 0.27509266 -0.6141962 0.5229886 -0.027120756 -0.49327552 0.108480796 0.3448288 0.22403856 -0.3332422 0.5043585 0.5135001
197 0.14089908 -0.47999987 0.0018067809 0.09536835 -0.30538714 0.631099 -0.3800279 -0.5712438 -0.2559876 0.03241453 -0.43021482 -0.62352157 -0.052002262 0.34262022 -0.4311109 0.7768928 0.6890153 -0.2195167 0.51191694 -0.80150604 -0.0032459067 -0.043367885 -0.34638378 0.013945739 0.41328058 -0.48896787 0.27361387 -0.052605525 0.026301367 -0.54848146 0.059819885 2.378011e-05 1.1087817 0.15205443 -0.554742 -0.22409336 0.8253975 -0.57383776 0.58798945 0.45589823 0.16999054 -0.22370963 0.099595 -0.018250538 -0.18787025 -0.16349061 -0.008065594 0.10009997 0.6971714 0.6041215 1.0365605 -0.2914454 -0.30484274 -0.89173496 -0.12490084 1.0140541 -0.096851975 -0.48325592 -0.15812904 1.055406 0.68681717 -0.17055237 0.0011266156 0.21369249
210 0.40084088 -0.3143124 0.16874842 0.5199552 -0.70416206 0.6703901 0.32863706 0.19582385 -0.6091784 0.07746279 0.22804381 -0.7355074 0.13052098 0.14888884 -0.09878041 -0.14188136 0.3910113 0.23911537 0.254472 0.5801924 -0.49072152 -0.9337358 0.29426575 -0.36789137 0.8561596 -0.26034293 0.09508456 -0.15671243 0.01030886 0.124488756 -0.46095923 0.42980608 -0.019915136 -0.62090737 -0.95010155 0.32143894 1.0571543 0.052442774 0.41827178 -0.40170535 0.28103793 0.10680025 0.3597075 -0.34335354 -0.019288009 -0.7226661 0.29427382 0.8596271 -0.1034321 0.37993422 0.8430137 -0.5091633 -1.1310703 0.057170548 -0.5280929 0.4644456 -0.1056267 -0.53051203 0.3289121 0.68681806 0.17555682 -0.39053413 0.39530417 0.44042933
191 0.27466783 -0.73109764 0.161662 0.3214058 -0.32581863 0.767034 -0.8002401 -0.73855656 -0.099090934 0.26106516 -0.20250681 -0.75691897 -0.045673065 0.5438757 -0.22387435 0.84682333 0.50529337 -0.112290494 0.0012559335 -0.40243453 -0.07564269 0.09020404 -0.35209754 0.042887393 0.24319185 -0.31879252 0.1488863 -0.25043896 -0.18904261 -0.49832267 -0.011890181 -0.09179084 0.90824 0.18790178 -0.29492825 -0.31058636 0.91517687 -0.5700263 0.5617592 0.62698317 0.18945713 0.08703412 0.31730175 -0.091076314 -0.29195863 0.14113122 0.28574255 0.07540868 0.9074802 0.53153694 0.87831813 -0.27299932 -0.47685325 -0.75773 -0.27872044 0.68757653 -0.22489236 -0.34964177 -0.30083823 0.953253 0.5277504 -0.19099803 0.13601239 0.5343089
63 -0.21306908 0.1351086 -0.21858181 0.67671937 -0.3865193 0.96664286 0.43175918 0.81553435 -0.7577119 -0.33898905 0.2759913 -0.97699267 -0.5229035 -0.41963348 -0.647224 0.13697204 -0.14499283 0.38611794 -0.06606273 -0.121106505 0.23671214 -0.13532734 -0.26453522 -0.14857735 -0.024143554 -0.60769004 0.36767074 -0.3111147 -0.14477037 -0.077713646 0.370729 -0.06830438 0.95805556 0.29000762 -0.12357487 0.01279074 0.5840422 -0.33431944 -0.19209176 0.39402193 0.25254095 0.14748561 0.75371796 -0.7290623 -0.92613083 -0.44418105 0.7544751 0.38996574 -0.08776939 -0.11582247 1.0140324 -0.402182 -0.116401196 -0.25796875 0.6022986 0.38784876 0.023863232 -0.0709224 -0.4093217 0.23087883 -0.27739528 -0.90479386 0.15606573 0.28884426
202 -0.23950079 0.16354738 -0.28030816 0.6411196 -0.37189236 0.8103576 0.38302737 0.8027306 -0.82512844 -0.29510057 0.31587663 -0.84829086 -0.3727062 -0.28954864 -0.6613767 0.09960004 -0.04267693 0.41714555 -0.12347187 -0.051639847 0.22703041 0.2406317 -0.26748925 -0.20942375 0.111815095 -0.811558 0.23357522 -0.15341732 -0.43080476 0.14049147 0.3575537 -0.16752861 0.8886184 0.3972005 -0.14655998 -0.21264997 0.80800325 -0.25988248 -0.07257735 0.0096560735 0.35735276 0.094846085 0.52868474 -0.77202994 -1.0046203 -0.32106254 0.6595177 0.56928366 -0.26929915 -0.033723768 1.0639305 -0.47901478 -0.112670936 -0.135801 0.7777465 0.40711692 0.019354412 0.07459387 -0.33220994 0.50804746 -0.23932397 -0.8534463 -0.041312948 0.49025875
189 0.33717987 -0.93145907 0.21112637 0.45853916 -0.27334678 0.84589154 -0.8927427 -0.73837775 0.016641797 0.3510551 -0.006386169 -0.8491554 0.0063880123 0.5107192 -0.14448974 0.79930466 0.4088221 -0.18733987 0.035524674 -0.3256103 0.09210473 -0.09558492 -0.4208679 0.13198583 0.19745213 -0.35320753 0.17686269 -0.07663815 -0.18680856 -0.3835778 0.057606876 -0.144824 0.7625513 0.69186026 -0.49351186 -0.37915018 0.68292445 -0.5132808 0.49920046 0.40931776 0.39268422 0.11463894 -0.051963642 -0.21641913 -0.3710877 0.060468227 0.13223778 0.14973263 0.8685324 0.52903724 0.89688784 -0.42159024 -0.5136442 -0.59416544 -0.16788055 0.65112144 -0.0995214 -0.6626335 -0.07933308 0.8595983 0.46470207 -0.31077728 -0.11345835 0.42205414
106 -0.2591469 -0.0035549628 -0.031782422 0.76223314 -0.40873158 1.0760738 0.4979193 0.74244267 -0.83761954 -0.51472723 0.036188066 -0.92111546 -0.6109669 -0.66016567 -0.70284516 0.11135787 -0.15001218 0.41792718 -0.037524838 0.0629711 0.03261577 0.13190247 -0.02127702 -0.1009214 -0.037940044 -0.3571948 0.44994417 -0.081765726 -0.40709105 0.048754297 0.20381431 0.18166625 0.80206037 0.39311388 0.10845515 -0.20610723 0.41618907 -0.35036662 -0.24073972 0.4507269 0.27230212 0.32091302 0.6186554 -0.57616276 -1.0358853 -0.20084742 0.4561989 0.3707252 -0.08184681 -0.044260245 0.9606055 -0.6939601 -0.26799116 -0.19755544 0.47449452 0.52470535 0.16970126 -0.12338685 -0.47538438 0.5570419 -0.118143305 -0.7368022 0.21451966 0.19409485
199 0.014138784 -0.3878485 -0.062094476 -0.01123833 -0.25395715 0.51497245 -0.3682091 -0.5907818 -0.2258745 0.031102888 -0.53621936 -0.66286564 -0.038428236 0.17065462 -0.5265395 0.7807723 0.6652064 -0.30328637 0.52592427 -0.9025118 -0.034722622 -0.1208366 -0.4870644 -0.021094454 0.37530673 -0.41394392 0.15022834 -0.115542315 0.19570658 -0.42078167 0.038507894 -0.28344986 1.3042418 -0.06290443 -0.53616405 -0.20519307 0.79984576 -0.67559344 0.47597367 0.31729254 0.009644842 -0.1147257 -0.046102125 0.015042729 -0.2597307 -0.25196522 -0.046988674 0.3258708 0.7782836 0.42091143 1.0504596 -0.41124076 -0.53105915 -0.57604975 -0.131161 1.1154144 -0.048066135 -0.40902063 -0.22885884 1.0064975 0.7103049 -0.13968049 -0.13681425 0.58532494
194 0.15139298 0.57805324 -0.24436837 1.4512638 -0.58688617 -0.50328285 -0.43027753 1.0941405 0.2688345 -0.5220309 -1.244671 -0.989863 0.46182093 -0.06162815 0.8361186 0.51406777 0.2741444 -0.06188993 -0.07450098 0.066445954 -0.18976983 -0.32712492 0.109100476 -0.38332543 -0.075792685 -0.6529675 -0.1883206 0.11111638 0.04127907 -0.15704453 0.015650747 0.053382054 0.4529108 0.27726284 -0.30577815 -0.005803422 0.6915829 -0.20681031 0.17271227 0.54191834 0.27365956 -0.3913247 0.27607495 -0.39104563 -0.40380812 -0.50286794 0.21049012 -0.07536175 0.26394486 0.5677765 0.8501969 -0.39759475 -0.7272266 -0.006382606 0.097548455 0.38754475 0.41894275 -0.6523864 0.19166504 0.7826495 0.17272489 -0.38592547 0.14919859 0.2797511
17 -0.25165552 0.030028323 -0.15127277 0.75307095 -0.37655696 1.0273025 0.3193406 0.85516 -0.65058935 -0.42465198 0.18467811 -0.9216972 -0.51923335 -0.5195256 -0.68654567 0.17000087 -0.15188007 0.48009536 0.0707183 0.11224527 0.154477 0.1322606 -0.24225035 -0.19240184 0.25570607 -0.63705593 0.28537747 -0.15069503 -0.18253504 -0.0098813195 0.27259314 -0.051932283 0.7323612 0.40075216 -0.05963686 -0.06456707 0.45226458 -0.24297951 -0.0352762 0.29697943 0.30383605 0.21419466 0.6720873 -0.5420719 -0.8217228 -0.28864348 0.6489562 0.3207058 -0.035327815 -0.24722774 0.7856979 -0.71220213 -0.29757485 -0.15917845 0.68335354 0.6432778 0.0018060689 0.07073446 -0.66525304 0.6493935 -0.44737604 -0.87871176 -0.002137727 0.36790663
272 -0.20957151 -0.08459345 0.0150569305 0.69410753 -0.38424852 1.3053001 0.49427032 0.78345054 -0.7461391 -0.4069821 -0.21897298 -1.0959351 -0.7532766 -0.584152 -0.56805557 -0.021119472 -0.07026365 0.537458 0.08359917 0.100854635 0.14407377 0.12802361 -0.41331038 -0.13083653 -0.109966755 -0.4656753 0.28061837 -0.2040902 -0.2178204 0.019879038 0.37456688 0.2464236 0.7461446 0.45223263 0.11939553 -0.074414566 0.14258245 -0.0895583 -0.017532371 0.3330057 0.36118475 0.17166817 0.7119067 -0.5525431 -0.47872266 -0.13790248 0.36781597 0.31821308 0.0230955 -0.14216411 0.8924563 -0.6007065 -0.40920997 -0.089102775 0.45579416 0.68265605 0.18241195 -0.074063785 -0.4695216 0.5625548 -0.2036687 -0.889518 0.2244202 0.24408087
279 0.34090367 -0.7965185 0.33102724 0.63559735 -0.30435458 0.84706056 -1.1338719 -0.53443354 -0.1848466 0.49788108 0.14806183 -0.7742736 0.05366898 0.81366396 0.06397929 0.7219128 0.3434795 0.16689086 0.080985576 -0.19832677 -0.11687082 0.080430746 -0.4014617 0.13512921 0.24569604 -0.42351305 0.14879604 -0.18147065 -0.20656587 -0.2779901 0.14055538 -0.026180867 0.8658465 0.6020663 -0.25055566 -0.44539213 0.53965294 -0.4852475 0.32022554 0.48608708 0.18197826 0.38826218 0.11565915 -0.27478465 -0.32382154 -0.061064027 0.35449904 0.16124453 0.94726884 0.50991744 1.0251598 0.03271139 -0.44575903 -0.20484865 -0.21896131 0.6426722 -0.10431346 -0.5952386 -0.06407925 0.7807804 0.48378256 -0.25961116 -0.2231266 0.5419973
196 0.051509645 0.5579036 -0.13283034 1.4876056 -0.3460649 -0.5725954 -0.46885517 0.986621 0.29687092 -0.43197906 -1.2958453 -1.048183 0.4403671 -0.22895591 0.7507325 0.5036815 0.17210408 0.11049147 -0.24562775 -0.08258155 0.02125342 -0.2573816 0.01851774 -0.15345903 0.2670801 -0.34558374 -0.23782207 0.04610722 0.08002776 0.0244009 0.025589889 -0.06615412 0.5589362 0.21723206 -0.17796746 -0.033490326 0.8518664 -0.2293914 0.34545997 0.618397 0.33785406 -0.40064844 0.36224672 -0.25539222 -0.45011556 -0.3359371 0.20604959 -0.036580626 -0.04538667 0.7943306 0.7890857 -0.40699884 -0.6884123 0.03062067 -0.072693594 0.6271617 0.57123 -0.6200779 0.25479463 0.5438694 0.1564018 -0.60104567 0.295618 0.45238525
280 0.33731216 -0.85949033 0.33061513 0.5236407 -0.27625546 0.8330971 -0.99117106 -0.6905484 -0.25598386 0.41628984 0.0784577 -0.74056244 0.039082 0.71627253 -0.12437491 0.8186027 0.44141543 -0.27557912 0.08745145 -0.35170308 -0.11368952 0.24936228 -0.44353864 0.11324635 0.39422527 -0.27925047 0.14753263 -0.1934778 -0.28058177 -0.09902218 -0.012071239 -0.11439664 0.74677086 0.5314978 -0.2661556 -0.24326628 0.8798513 -0.53657246 0.44621325 0.708598 0.3357815 0.24492678 0.087427214 -0.051185846 -0.36656424 0.10890449 0.3340753 0.0603715 0.6739086 0.41827312 1.0736988 -0.11633791 -0.6053576 -0.32464653 -0.0030599758 0.53090495 -0.03568113 -0.5865319 -0.08830015 0.6807923 0.59133387 -0.17126773 0.08079749 0.49182236
16 -0.28984687 0.25161478 -0.41035074 0.5992994 -0.35243782 0.7107367 0.30923492 0.65398186 -0.75518876 -0.31656948 0.44973928 -0.8297192 -0.26784113 -0.283208 -0.81168926 0.14934678 -0.13880947 0.41715795 -0.36884946 0.10957631 0.06826942 -0.109753214 -0.282564 -0.0654636 -0.01641191 -0.8508591 0.30999756 -0.4069407 -0.36106393 0.0012901303 0.37113914 -0.3389528 0.8592119 0.24687403 -0.28913966 0.023096967 0.690923 -0.34731543 -0.11683371 0.1095051 0.48870182 0.04887951 0.6089243 -0.77933013 -1.05813 -0.38458398 0.68755156 0.3067774 -0.194441 -0.036540143 0.8577371 -0.43863323 -0.03101731 -0.42247763 0.76399463 0.689585 0.038849287 -0.26935938 -0.21403651 0.41530222 -0.38141808 -0.94633764 -0.050265558 0.5813834
198 0.049490727 0.3333188 -0.028172012 1.5649403 -0.20126511 -0.5703502 -0.6374767 0.9729111 0.30070895 -0.47906858 -1.240296 -1.0602219 0.41242373 -0.33011648 0.65794724 0.5224983 0.31142977 -0.16903774 -0.23524381 0.17712243 -0.31844777 -0.3397117 -0.0022342806 -0.3418712 0.052600384 -0.53738207 -0.27278215 -0.032530233 -0.023660844 0.12827243 0.15395036 -0.003476855 0.5275983 0.2379663 -0.2397431 -0.035465162 0.938964 -0.32249293 0.15163766 0.5847927 0.12852114 -0.4602846 0.38418522 -0.40928957 -0.47884935 -0.45029292 0.19929099 -0.07811769 0.071620494 0.806825 0.7171985 -0.1975916 -0.837684 0.05036171 0.003985782 0.5542553 0.40372434 -0.39001366 0.15329516 0.6682761 0.15642461 -0.5984138 0.35013252 0.46346006
192 0.15418516 0.7628845 -0.3598991 1.2949398 -0.73255444 -0.4061885 -0.30052677 0.9372633 0.26109773 -0.49669686 -1.2789793 -1.0440924 0.3477552 0.037380755 0.8754228 0.5746496 0.33318344 -0.11918029 -0.21206562 -0.052628182 -0.19225763 -0.13138776 -0.05919385 -0.16594735 0.18449305 -0.34857672 -0.24563104 0.07603929 -0.190613 0.12772402 -0.06397886 -0.041315127 0.43615758 0.2465681 -0.23751406 0.038403954 0.82373947 -0.10445953 0.22561418 0.5905066 0.29088035 -0.3492072 0.47963014 -0.3111712 -0.22365315 -0.322787 0.19517618 -0.2072391 0.23954418 0.22319014 1.0337965 -0.3046786 -0.6759789 0.1569766 0.024207408 0.46336845 0.56508845 -0.4198469 0.23162432 0.646719 0.2078589 -0.44024402 0.32138795 0.58249295
201 0.33258665 -0.030221615 0.16372246 0.6167063 -0.66941935 0.83792126 0.45193535 -0.07047919 -0.63279015 0.22536875 0.6191774 -0.83697444 0.14772615 -0.18357113 0.21101102 -0.27544832 0.42174554 0.27399337 0.054756954 0.5908939 -0.60993534 -1.0506412 0.39692238 -0.39021137 0.53836846 -0.00042492908 -0.08627943 -0.061496623 -0.08639272 0.065583155 -0.3467083 0.30241042 0.2686526 -0.31828967 -0.9416766 0.26865688 0.9621965 0.079820395 0.35849062 -0.16654897 0.37033844 -0.07057487 0.36256337 -0.067674875 -0.13368902 -0.7244351 0.2145168 0.85969716 0.06426827 0.44981948 0.9446678 -0.55505747 -0.92868614 0.021935394 -0.5425029 0.4004235 -0.048212536 -0.6213518 0.5012883 0.39122865 0.24910176 -0.23256288 0.53452957 0.46950915
40 -0.25396046 0.2911412 -0.47616202 0.6908156 -0.46702674 0.57334906 0.2873739 0.7070292 -0.85969746 -0.20698266 0.47957754 -0.7656333 -0.2050324 -0.14090241 -0.7892092 0.11632843 -0.26924944 0.35132578 -0.33996785 0.124411635 0.26429975 0.15490764 -0.5101594 -0.19551687 0.14796308 -0.8071198 0.33777815 -0.3225379 -0.1398919 -0.16380706 0.34579006 -0.21011867 1.0348463 0.30243406 -0.30956817 -0.039327756 1.0216103 -0.16903012 -0.16464461 -0.12676278 0.58569515 -0.059802454 0.59543324 -0.77037424 -1.0123472 -0.46548736 0.56634367 0.41070303 -0.04681462 0.027066678 0.9425499 -0.37833747 -0.063943684 -0.24098204 1.0488514 0.56658846 -0.06460256 -0.2598867 -0.142363 0.29850847 -0.299417 -0.7913099 0.077888265 0.43391904
99 -0.4979159 -0.13910215 0.12036551 0.7531982 -0.28926593 1.4559036 0.12184324 0.52362144 -0.74756396 -0.28140122 -0.6617299 -1.1091833 -0.67784977 -0.52786535 -0.7694353 -0.23662943 -0.32094708 0.16268362 0.29459038 0.27832398 -0.07084546 -0.03220751 0.22626875 0.048756506 0.0035057848 -0.35526568 -0.23080578 0.15147877 -0.17912301 -0.1340022 0.2779967 0.07202374 0.65063256 0.30166116 0.27593184 -0.1200221 0.06581721 -0.35191655 0.13852239 0.6182318 -0.019963574 0.3752579 0.2607727 -0.5272436 0.08923813 -0.42892262 0.41317764 0.15003164 0.11419891 0.09329313 0.5306018 -0.6602697 -0.7366192 -0.05094978 -0.05537312 0.14981617 0.58288854 0.07925398 -0.46421665 0.61924654 0.37338054 -0.7303105 -0.0843622 0.26620996
190 0.22016054 0.8117019 -0.43968433 1.2964094 -0.90188086 -0.24933621 -0.20554118 0.8897383 0.32622162 -0.51463366 -1.1508907 -1.0862894 0.39499635 0.024532152 0.93866783 0.6455616 0.12549323 -0.010454782 -0.18933664 0.07940118 0.07613781 -0.06469861 0.054204643 -0.118515626 -0.010725986 -0.43055102 -0.37924844 -0.060759 -0.088894874 0.093425065 -0.2778932 -0.08688736 0.7080215 0.40977004 -0.25052792 0.1599652 0.6209388 -0.30626124 0.054988675 0.41418386 0.21144658 -0.44024935 0.26893315 -0.26196995 -0.24516836 -0.46298197 0.3176917 0.12453594 0.42679882 0.38944927 0.777768 -0.3358157 -0.7121319 0.14490913 -0.11746039 0.3807035 0.47757843 -0.5972996 0.1640125 0.6362765 0.30533612 -0.43687302 0.04099083 0.2418332
41 -0.2579186 -0.18524215 0.097381644 0.8748085 -0.43271467 1.3314412 0.37315074 0.6688559 -0.7766254 -0.44663748 -0.28496978 -0.955057 -0.7148628 -0.6016377 -0.6539744 0.014098196 -0.20981938 0.43297836 0.42490616 0.23891544 -0.15106568 0.13848014 -0.058110163 0.008232549 0.041025836 -0.39928254 0.2904841 -0.020356966 -0.27064613 -0.054608755 0.2270625 0.26592726 0.807925 0.50817716 -0.001623407 -0.11775234 0.10361957 -0.021678885 -0.06288303 0.57042813 0.3768529 0.2624006 0.6457447 -0.5476011 -0.6701207 -0.45133883 0.3423466 0.11814418 -0.076578416 -0.035404284 0.5389935 -0.6435107 -0.36848006 -0.16727285 0.6728894 0.4507124 0.23769659 -0.036432184 -0.37696287 0.6086694 0.037398145 -0.7984665 0.08988197 0.21622594
140 0.28777418 -0.7670748 0.3457655 0.7970152 -0.29303595 0.72616094 -1.2531657 -0.58640444 -0.32454276 0.6310111 0.19320688 -0.6887798 0.11027726 0.8697369 -0.0010790206 0.7197923 0.31095815 0.059489377 0.1406463 -0.17040722 -0.1743968 -0.014553466 -0.2776246 0.21950002 0.24088447 -0.17682274 0.4192558 -0.13588065 -0.368743 -0.14589086 0.2806486 -0.25722447 0.5677004 0.50202966 -0.29097164 -0.32886004 0.7464442 -0.4794812 0.3732432 0.5637322 0.1367787 0.6148226 0.019563576 -0.19941357 -0.37374884 0.0926553 0.31157276 -0.10353966 0.65321374 0.17942858 1.0936219 -0.30707222 -0.4466531 -0.22886188 -0.067057155 0.8163761 0.19524415 -0.72938824 0.11205351 0.6936381 0.4337543 -0.32425043 0.00674675 0.41476843
53 -0.5375591 -0.15350346 0.12390879 0.84125596 -0.26705307 1.4118037 0.2176758 0.6338504 -0.8036161 -0.23858614 -0.5835231 -1.0007226 -0.72835463 -0.58527255 -0.7520312 -0.23521258 -0.18116523 0.18345718 0.49201718 0.21879444 -0.10165365 -0.09322092 0.2825659 0.18948926 -0.045365293 -0.1254311 0.066317745 0.009887692 -0.14810356 -0.12888426 0.38221732 -0.08211919 0.7313843 0.44598684 0.07828335 -0.3297623 -0.12886702 -0.24092375 0.40807047 0.58699065 0.3002904 0.18740503 0.39485505 -0.41960448 -0.09439694 -0.33235988 0.36748934 0.123358406 -0.1537124 -0.20375323 0.7891989 -0.76677877 -0.6279554 0.070047244 0.30353275 0.33623514 0.44318038 -0.09268499 -0.11508391 0.58569914 0.21756306 -0.7002682 -0.02216466 0.27002588
154 -0.39516065 1.1067227 0.9882057 -0.35599563 -1.017493 -0.10779068 -0.9759098 -0.6956806 -0.45044956 -0.29414126 -0.07253939 -1.6446216 0.33060738 -0.0937549 -0.32461455 -0.6468025 0.20138848 0.2635662 0.47531772 -0.028554881 -0.13114305 0.09522309 0.070164815 -0.0547417 -0.04730804 -0.22731145 0.421535 -0.10095654 0.08578552 0.11101008 -0.21006116 -0.09022959 0.30668092 0.30411193 -0.637444 -0.17488085 0.65267116 -0.35289568 0.03647387 0.19866171 0.15846746 -0.26710775 0.5582988 -0.64484733 -0.14848721 -0.40228286 0.5688746 -0.21631157 -0.18131223 0.6113966 0.7478673 -0.2219553 -0.75832605 0.05812974 0.065609165 0.48084512 -0.06428681 -0.25396246 0.08061585 0.88088113 0.08140953 -0.9506659 0.026053807 0.02147781
289 0.16118206 0.8119856 -0.7134762 1.2332977 -1.0778753 -0.21377394 -0.16977756 0.7665222 0.51702267 -0.4157004 -1.021322 -1.0424129 0.27635717 0.045521714 0.84118736 0.73032063 0.22332431 0.012411858 -0.098258115 -0.11538921 -0.06609229 -0.14266078 0.14058968 -0.06884681 0.03627778 -0.23506263 -0.19921133 -0.15704738 -0.25448763 0.007027913 -0.022885082 -0.02411121 0.31570908 0.2828767 -0.35758302 -0.14291012 0.5165371 -0.4206472 0.2669309 0.3239988 0.22720736 -0.41322714 0.42349938 -0.58431274 -0.23356733 -0.38473272 0.20874174 -0.077010676 0.33619726 0.055887427 0.86823773 -0.39778283 -0.86810017 0.15720826 -0.09539841 0.39992243 0.5725301 -0.5674196 0.35538095 0.83516055 0.10520434 -0.3981863 -0.0049770125 0.23035325
12 -0.41363072 -0.08010413 0.14809968 0.8035606 -0.38053814 1.335247 0.3383922 0.6563387 -0.85721874 -0.36392197 -0.47473866 -1.0039961 -0.72590345 -0.5905343 -0.6807975 -0.106204644 -0.34247974 0.5565596 0.15709151 0.301814 -0.01568729 0.13664152 -0.051844608 0.042337216 -0.074896246 -0.36439922 0.21325488 -0.01231597 -0.08398807 -0.24657121 0.27843037 -0.019845728 0.87037843 0.14567886 0.33937153 -0.19855274 -0.058825836 -0.29631266 0.057244867 0.45776033 0.43140817 0.3279437 0.5915114 -0.47883123 -0.35796568 -0.21723607 0.27831808 0.346108 -0.11619824 -0.058849223 0.7189367 -0.7264412 -0.6601854 -0.0074364888 0.41815695 0.5954647 0.2540363 -0.20792644 -0.34610274 0.58915377 0.1941431 -0.6911299 0.033162475 0.22020459
5 -0.30401558 1.2050936 0.9052086 -0.29710037 -0.88089114 -0.066746555 -0.9859109 -0.8389951 -0.49045005 -0.45178747 -0.24755622 -1.6434524 0.226702 0.03205417 -0.21987931 -0.71330845 0.22244592 0.04811207 0.4671672 0.075674005 -0.018913262 0.053420134 -0.2093253 0.12285134 0.023525763 -0.17686976 0.51553804 -0.11593108 0.32176298 0.032286685 -0.25067925 0.12866889 0.2415124 0.35920492 -0.50321233 -0.20706761 0.7847126 -0.10640268 -0.10497971 0.10946333 0.20435943 -0.033419922 0.41008225 -0.5842774 -0.21949641 -0.51288193 0.596024 -0.22659415 -0.012361584 0.43831787 0.7695428 -0.5449831 -0.6929956 0.24912956 0.14366026 0.51869804 -0.10268253 -0.42065525 0.012640468 0.8613537 -0.0745713 -0.9810324 0.18748261 0.11355421
90 -0.45426056 -0.15642193 0.32876503 0.63633734 -0.22148913 1.4941465 -0.06328709 0.46023417 -0.78356314 -0.33082843 -0.75580156 -0.96326387 -0.48018873 -0.4586318 -0.5223904 -0.1601147 -0.20593151 -0.25566304 0.58701086 0.087157644 -0.17658876 -0.16823201 0.40161705 -0.15677397 -0.081510484 -0.11617658 -0.079855666 0.44772562 -0.08675561 -0.0078081046 0.024896065 0.17524756 0.38739923 0.4761635 0.21181752 -0.09620509 -0.060673743 -0.4908929 0.26597783 0.8967052 -0.11964176 0.16862306 0.18869129 -0.2302509 0.3709287 -0.3377897 0.54718333 0.18252659 -0.05704277 -0.09690276 0.7989284 -0.48349637 -1.0038805 0.17671402 -0.16351688 0.16822967 0.5963834 -0.15355793 -0.6114374 0.7743657 0.18700919 -0.5219678 0.09074327 0.23435794
45 -0.43333384 -0.11344275 0.13036418 0.7282686 -0.28614506 1.4351646 0.3502959 0.5603384 -0.7939343 -0.32914 -0.5404338 -1.1074328 -0.7608077 -0.65568185 -0.69499797 -0.18993331 -0.23953678 0.23996633 0.14963664 0.4798841 -0.23543654 0.06960754 -0.16818446 0.22502166 0.014067702 -0.30239743 0.15926525 -0.09396123 -0.31680444 -0.013667685 0.30748314 0.004721583 0.6516659 0.42837265 0.11843818 -0.07395205 0.1640889 -0.15219946 0.14231916 0.58703905 0.31433573 0.23045108 0.54312843 -0.4356805 -0.16047654 -0.34384263 0.26566252 0.085404016 -0.11055734 -0.1374864 0.70763934 -0.5799063 -0.61955184 -0.15869777 0.4441726 0.30212533 0.60312235 0.024095414 -0.4841677 0.6513505 0.40785947 -0.61828756 0.10729448 0.21758308
220 0.28497204 -0.02818348 0.14524901 0.593989 -0.63051957 0.6921526 0.38224223 -0.08881791 -0.63535905 0.25170988 0.7033407 -0.7669541 0.18911438 -0.27571017 0.2931294 -0.24739912 0.4677602 0.29813462 0.2861103 0.6840324 -0.58979595 -0.7883805 0.555864 -0.52199084 0.62702894 -0.19501892 -0.08586559 -0.16554998 -0.20214556 0.27416748 -0.28616259 0.446344 0.35499257 -0.53482735 -0.58675003 0.13466002 0.9122422 -0.016135445 0.37850377 -0.37437874 0.13266784 -0.2944065 0.25491938 0.14357854 -0.08647397 -0.4447598 0.030499239 0.8118391 0.22710952 0.3793253 0.89067185 -0.5309994 -0.9104676 -0.0984893 -0.42203763 0.6948646 0.19032931 -0.67441297 0.32062855 0.64962023 0.079253964 -0.45647806 0.33066082 0.516333
87 -0.3868698 0.8547406 -0.42601842 0.3464169 0.054244902 1.033165 -0.3637341 -0.268123 -0.19077826 0.7985609 0.7475182 -0.8022912 0.1819687 -0.45119274 0.86329937 -0.4709012 0.15884666 0.048524305 0.22749445 -0.052444484 0.14915718 -0.17630933 0.043551072 -0.25819275 -0.16116774 -0.72251934 -0.24816908 0.4533374 0.22759041 0.25989246 0.73130405 -0.17699033 0.5763356 0.18206891 -0.27591926 -0.35822126 0.9373503 -0.28964004 -0.8665822 0.9332211 0.381926 -0.9092137 0.36898273 0.11893084 0.042091217 0.07030636 -0.07337879 0.41641185 0.3692119 0.12835489 0.1961482 -0.5569019 -0.7499259 -0.4178123 0.054564923 0.37894323 0.5097268 -0.7017646 -0.05818636 0.85087407 0.27201664 -0.5985206 0.2585751 0.61122113
263 -0.370288 0.99984854 0.9012892 -0.5635018 -1.0843529 -0.141384 -1.1184205 -0.6268793 -0.28624383 -0.33562714 -0.021495385 -1.6915666 0.25202054 -0.13530502 -0.2793346 -0.58542204 0.21218151 0.101195686 0.35440305 0.1609657 -0.100207835 0.08930513 0.061744273 0.12912926 -0.08737786 -0.28962344 0.07491976 -0.20630978 0.13634703 0.055799346 -0.046227813 0.11931527 0.43847048 0.55327153 -0.38348886 -0.08306092 0.7046882 -0.2965498 -0.17555766 0.004288311 0.121912174 0.0039531295 0.49741793 -0.57629925 -0.22498846 -0.27980307 0.34993616 -0.10797386 -0.2678653 0.65972704 0.8451634 -0.6247528 -0.6638012 0.25935292 -0.06927929 0.60089433 -0.083347775 -0.16330402 -0.05366052 0.9177668 -0.006380937 -0.6644771 0.23608886 0.23887034
187 0.38583985 -0.76497847 0.43541437 0.9694143 -0.3677974 0.8138858 -1.3596765 -0.43581396 -0.41820702 0.673749 0.20892291 -0.74799466 0.21601908 0.99002767 0.14627403 0.5897667 -0.020762604 0.13177446 0.22822724 -0.06760118 -0.020209191 0.08677098 -0.32495216 0.08805266 0.1609992 -0.42113554 0.15547355 -0.2484974 -0.28393555 -0.2408205 0.081302255 -0.216184 0.7344841 0.5735527 -0.32322672 -0.03998841 0.67719644 -0.44483784 0.123949006 0.5038444 -0.06503246 0.4635291 -0.057751436 -0.05097152 -0.23738568 -0.054837026 0.45230106 0.13760462 0.61837935 0.2634438 0.9817777 -0.06761215 -0.3371981 -0.17896268 0.024814235 0.5965697 0.020735716 -0.7661567 -0.09341158 0.73259455 0.6379951 -0.48817858 0.059913598 0.16802615
278 0.20583063 0.92419606 -0.75121033 1.1792886 -1.1911929 -0.010469793 -0.07057495 0.7366774 0.3839189 -0.45836338 -0.9892233 -0.9359563 0.34815535 0.14278257 0.8850309 0.88928556 0.13224286 -0.25204128 -0.09680787 0.026097523 0.038257245 0.034633216 0.0835434 -0.009547895 0.036384903 -0.28721657 -0.105213694 0.066009544 -0.13998838 0.24408697 -0.205391 0.19029948 0.4320925 0.43807736 -0.4888681 0.043943733 0.53930104 -0.39145482 0.13984527 0.39732993 0.19980025 -0.12101905 0.41707554 -0.4369092 -0.24081805 -0.2384795 0.26594177 0.042834856 0.1386682 0.16963209 0.68841076 -0.12615477 -0.8907589 0.2779862 0.04269883 0.6197356 0.3000437 -0.5535926 0.28844127 0.7183769 0.49574775 -0.44613358 0.085779645 0.12696372
301 -0.3692623 0.32820323 -0.04282731 0.20829216 -0.3885526 0.43313125 -0.34894526 -0.060026098 -0.9040533 0.42673364 -0.43288943 -0.6366063 0.17548195 0.14378807 -0.122276604 0.028686631 0.1028549 0.10584949 0.01005324 0.3869383 0.2578461 -0.14960344 0.2579441 -0.24995124 0.5726797 -0.2591628 0.08821495 0.10704621 -0.26875705 -0.026823292 0.14830886 -0.092886046 -0.4274394 1.0443983 0.7615939 0.51423913 0.41708165 0.31091404 0.23727317 0.15639329 -1.0134428 -1.4175113 0.68094933 -1.2141922 -0.7980658 -0.66264594 1.2234546 0.16435824 0.55636317 0.2792737 0.9692114 -0.7756965 -1.1219761 -0.43057892 0.10573457 1.0295616 -0.40272722 -0.89242023 -0.06963259 0.27848378 1.0776248 -0.39033484 0.29431027 0.8221818
7 2.8444066 0.8209759 0.18808721 0.8031249 0.83293366 -2.4446788 0.9030852 -0.36632508 0.004130314 -1.3779647 -3.3106453 -2.0123687 -2.3172853 0.7786799 3.240636 1.8632007 -0.7642717 0.87089354 0.5091717 -1.5178509 -1.9348041 -0.77888596 -1.098973 -0.8286766 0.6920925 1.4602937 -1.7415074 1.5848368 -4.544607 1.5995294 -0.2503286 0.87887645 3.1897888 5.1836514 0.13336913 1.3047332 1.6863738 1.3038133 1.7169988 4.841954 -1.4226518 -1.65248 3.706969 -1.64013 0.80234176 -8.482983 -2.4915705 -0.16315013 2.1535912 0.32339355 2.674137 -5.9064846 0.10565278 3.2537436 5.506676 -1.1324663 2.5389793 -1.2262838 0.53845394 3.9545405 2.0717397 -2.0354 0.018552916 -1.4101362
44 2.839804 0.826351 0.19618215 0.799698 0.8317353 -2.4513476 0.9029923 -0.36249477 0.0007037698 -1.3801106 -3.3175313 -2.0136452 -2.315203 0.77851695 3.2427456 1.8598219 -0.77265656 0.87627846 0.5205507 -1.508504 -1.9264407 -0.77247787 -1.1070439 -0.84620553 0.70677 1.4568429 -1.7336406 1.579145 -4.551978 1.5926094 -0.24719685 0.88136005 3.1964447 5.1657786 0.13211927 1.30788 1.6872739 1.2864133 1.7342635 4.847968 -1.4188788 -1.6456771 3.7025244 -1.6469007 0.79989684 -8.467644 -2.4865649 -0.15538453 2.1500065 0.33139533 2.671315 -5.896662 0.104470074 3.258313 5.510414 -1.1397839 2.5500789 -1.2387837 0.52441126 3.9497228 2.0773132 -2.0280766 0.01035562 -1.415977
275 2.8431716 0.8220901 0.21626996 0.80283755 0.85755074 -2.4239702 0.89315194 -0.34848124 -0.013998286 -1.3577023 -3.288015 -2.0334759 -2.3357232 0.7852826 3.2494488 1.8106734 -0.7430193 0.86753696 0.5049899 -1.5495334 -1.9719067 -0.7880383 -1.1007987 -0.83918196 0.7109474 1.4139895 -1.7553587 1.5577888 -4.519748 1.5918536 -0.25461602 0.89469224 3.209715 5.1226916 0.16271098 1.2727832 1.6814394 1.2859854 1.7139002 4.8183327 -1.3893061 -1.5878422 3.7039487 -1.6480846 0.7831565 -8.45359 -2.4396439 -0.16237386 2.1288004 0.28924876 2.6363647 -5.8578806 0.08324227 3.2479956 5.4818697 -1.1960497 2.5689752 -1.211834 0.4818341 3.911652 2.0645747 -2.0325346 0.035299465 -1.3726416
257 2.8232183 0.8085548 0.21001679 0.8075599 0.8573736 -2.415162 0.8932992 -0.35025206 -0.009540957 -1.3638576 -3.289114 -2.0298288 -2.3209212 0.7892469 3.2560914 1.814607 -0.74889815 0.8630242 0.5050961 -1.5454603 -1.9683263 -0.7913006 -1.1012369 -0.83626354 0.7111616 1.4069324 -1.7593609 1.5485181 -4.5073504 1.5912515 -0.24939872 0.8963633 3.2081494 5.121285 0.16628489 1.2811806 1.6645293 1.2939427 1.7244079 4.8103523 -1.395498 -1.5712469 3.7012825 -1.6528347 0.7800954 -8.443699 -2.4502668 -0.17273152 2.149169 0.28915876 2.651882 -5.865234 0.093796015 3.2386544 5.477784 -1.1998682 2.5680962 -1.2186781 0.47213998 3.9155996 2.0558205 -2.024303 0.045994617 -1.370284
24 -0.7110242 -0.39505455 0.195536 0.16306674 -0.7975942 0.14323159 0.5154444 -0.024282131 -1.0294086 -0.058383826 -0.16425805 -1.4445173 -0.42990538 0.53995913 1.0921712 -0.015030664 -0.8597682 -0.18205278 0.035859775 -0.14395545 -0.2795472 -0.4975097 -0.144511 -0.05830517 0.18395945 -0.07654701 -0.08360311 0.1986384 0.07646411 0.4178429 0.25079632 0.16017073 1.2676682 0.3171908 0.33103558 -0.29694667 0.9696608 -0.44433928 0.100574665 -0.071057886 0.12679884 -0.23273735 -0.48135355 -1.2103313 0.15022376 0.112166405 1.0816768 -0.41137716 0.018901847 0.5183932 0.79889655 0.11440704 -0.6346299 -0.61172396 0.16836889 0.36980262 -0.10198004 -0.78331596 0.19921409 1.4215167 -0.08135638 -0.29065293 1.2441337 0.72237223
6 2.7927456 0.8372389 0.168016 0.80723214 0.82994115 -2.5097308 0.9302717 -0.3750692 -0.025305068 -1.4258083 -3.3413863 -2.0509212 -2.3407705 0.7836908 3.280418 1.8431281 -0.7775188 0.83990175 0.51731515 -1.5569628 -1.9479107 -0.7685109 -1.0916284 -0.848437 0.6969634 1.503737 -1.7473383 1.6055033 -4.5590596 1.5846814 -0.23592278 0.8971437 3.2442894 5.1951036 0.11542904 1.3017666 1.648736 1.3095075 1.6817869 4.8853517 -1.4247863 -1.6637135 3.7237384 -1.6358159 0.83341545 -8.533842 -2.543447 -0.18554367 2.1560066 0.33202493 2.722322 -5.935665 0.06694122 3.277527 5.4890227 -1.1940922 2.5705879 -1.2187127 0.49595267 3.946559 2.0598125 -2.0789614 0.009607344 -1.4061617
237 -0.7128656 -0.26174644 0.2977196 0.1116545 -0.6965157 0.122196764 0.48842052 -0.119019635 -1.0861659 -0.06751267 -0.20647755 -1.4204192 -0.37905148 0.42740238 0.9576513 0.014029466 -0.91126657 -0.10432655 -0.11587953 -0.13744977 -0.39887163 -0.80356014 -0.047724444 -0.077455826 0.21113667 -0.03544099 -0.0032882397 0.30703217 0.06355948 0.48925525 0.37625185 0.11212398 1.3378253 0.38666308 0.13299383 -0.2268816 0.8435736 -0.65971994 0.109722 -0.05565561 0.19856372 -0.30754682 -0.51021636 -1.1325232 0.014624823 0.13767049 0.9000801 -0.5958797 0.18471633 0.38323006 0.8599539 0.16165866 -0.6669393 -0.46053803 0.36776483 0.38697723 -0.17450088 -0.87729084 0.10080502 1.3221624 -0.027621835 -0.1568241 1.2770252 0.7755277
83 2.814805 0.8395976 0.17788394 0.8185456 0.8364218 -2.51685 0.9273523 -0.3715819 -0.029989688 -1.426086 -3.3480327 -2.0526543 -2.3418875 0.7876644 3.2856739 1.8398638 -0.77183515 0.8339745 0.5303507 -1.5644131 -1.9555792 -0.78153396 -1.0928589 -0.8505153 0.69179446 1.5166192 -1.7397431 1.6057274 -4.5721755 1.5894904 -0.21652211 0.89736694 3.2569501 5.2102885 0.11610673 1.3038445 1.6542422 1.320794 1.6736166 4.8886147 -1.4272285 -1.6648697 3.7289243 -1.64216 0.83808213 -8.550362 -2.5611262 -0.1793991 2.1571658 0.330177 2.7147899 -5.929631 0.06924047 3.2702599 5.500185 -1.1958934 2.56518 -1.2162449 0.51035345 3.9459934 2.0676658 -2.0753906 0.009703267 -1.407968
20 -0.3574156 0.42177042 -0.06829098 0.10930252 -0.37326247 0.5365925 -0.32685378 0.00186385 -0.91219896 0.5489327 -0.5139976 -0.6441141 0.09499342 0.24411869 -0.044808097 -0.07138896 0.0035366626 0.2034563 0.06607303 0.12242665 0.24667628 -0.40080535 0.32394555 -0.2730292 0.23735042 -0.40641788 0.2236637 0.14971171 -0.18577272 -0.09545209 0.18370408 -0.07194747 -0.4952466 1.0708158 0.6140925 0.60065067 0.31006455 0.2955239 0.25181407 0.1656272 -0.98415905 -1.2756137 0.9158475 -1.2618915 -0.6709915 -0.60372293 1.0674446 0.28316814 0.5729615 0.32407704 1.0349543 -0.5721972 -1.0665642 -0.37256712 0.12617052 1.1027665 -0.45496902 -1.0146089 -0.027815936 0.19002564 1.1619033 -0.36681813 0.101813436 0.8782764
2 -0.34203985 -0.17975304 0.48841012 0.5384594 -0.13426283 1.5847565 -0.010917804 0.38399586 -0.61370456 -0.24175029 -0.8951492 -1.011562 -0.4712183 -0.51570135 -0.21277677 -0.13167809 -0.4340432 -0.009168656 0.53737205 -0.056433503 0.0859304 -0.36813846 0.49457112 0.19699958 0.13756442 -0.19392061 -0.02067234 0.6346328 -0.10271554 -0.16624177 -0.03013537 0.15013923 0.19647133 0.7039256 0.11485324 -0.3101486 -0.020301785 -0.48403522 0.23708162 0.82453716 -0.1837045 0.18392041 0.29425612 -0.23427416 0.4041546 -0.3611897 0.3455084 0.14291865 -0.13281064 0.1487757 0.68589354 -0.5317183 -0.74440414 0.19618426 -0.45074037 0.44013777 0.6694007 0.0036576935 -0.50936 0.9223645 0.35931885 -0.6921067 0.16921744 0.13716497
157 -0.81549495 0.32691655 -0.1506029 0.42892468 -0.67626 0.6784283 -1.1661813 0.10858132 -0.89546394 0.7840198 -0.18973742 -0.26956025 -0.90601826 -0.29416627 0.06658326 0.98274815 0.13620865 0.10294165 0.029846262 0.20260218 0.45749152 -0.20384805 -0.14270128 0.14123502 -0.32403338 -0.45449734 -0.22734034 0.5615404 -0.081979826 0.2817821 -0.6702469 0.31532264 0.45905888 -0.2388049 -0.4269042 0.30729377 0.85562474 -0.019088484 0.26213473 -0.48274946 0.42690673 -0.5732075 0.41057414 -0.29041162 -0.6284576 -1.0787756 0.3471114 -0.62590945 -0.18080139 0.30759364 0.8086703 -0.30412608 -0.6693073 -0.2731288 -0.4961905 0.27897143 0.14874819 -0.6236946 -0.33010942 1.0454758 0.12554236 -0.8710111 0.6934686 0.15671657
222 -0.66615415 0.027784158 0.012412482 0.75969076 -0.2836914 1.2193989 -0.05453774 0.4760892 -0.78367835 -0.2629252 -0.7030307 -0.91544473 -0.5992048 -0.44546962 -0.92941827 -0.18415067 -0.27607745 -0.04549639 0.3805558 0.08721841 -0.15611139 -0.24930191 0.30853802 0.048076708 0.22198212 0.1970503 -0.15611969 0.16555035 -0.30289322 -0.10996702 0.23001486 0.223404 0.4469243 0.54319966 0.22025515 -0.17234366 -0.09771929 -0.1706821 0.16884355 0.77585614 0.12422649 0.31261253 0.20215228 -0.19368197 0.46890396 -0.24120875 0.22650847 -0.05485477 0.34846854 0.25206247 0.5202811 -0.6492487 -0.9072308 0.2191199 -0.31039435 0.17901859 0.43954057 -0.2888618 -0.48465094 0.79627174 0.2836072 -0.78203493 0.2047097 0.37471586
221 0.25397602 0.15838827 0.039139032 0.59177876 -0.47505417 0.6933695 0.45698735 -0.15271743 -0.6517753 0.40129516 0.63635683 -0.8198178 0.16967021 -0.44974124 0.47208053 -0.42744368 0.3085577 0.2827282 0.24654308 0.33486676 -0.28988877 -0.86968803 0.29827547 -0.49486154 0.7906752 -0.14740102 -0.060070224 0.06591385 -0.15690358 0.07766332 -0.28878835 0.25095376 0.10867797 -0.25279072 -0.7103423 0.1152068 1.0345554 0.015216852 0.3199779 -0.32158205 0.15454154 -0.12369481 0.502381 0.32917437 0.1008996 -0.41340274 -0.048619196 0.8457711 0.19255826 0.4157029 0.9738734 -0.6852584 -0.8065317 0.0060239336 -0.21343842 0.39923766 0.095951684 -0.81372434 0.27188674 0.5876369 0.13521187 -0.3416441 0.47783154 0.53684574
186 0.37761474 -0.6324679 0.35682878 0.9872094 -0.3621334 0.7334583 -1.3936034 -0.3215447 -0.5083462 0.8576791 0.21543913 -0.735177 0.12617053 1.1132107 0.25673965 0.45606273 0.14108892 0.27775148 0.11259282 -0.0488101 -0.17382619 -0.02643521 -0.40770546 0.16332594 0.54790837 -0.16813245 0.3663019 0.11193636 -0.255625 -0.26442435 0.33909413 -0.31395298 0.6727763 0.51276183 -0.3685989 -0.027605835 0.48996162 -0.2724132 0.31870294 0.4414058 -0.07434093 0.6056882 0.24181119 -0.3462957 -0.2593849 -0.0034987757 0.34830868 -0.11073215 0.6097713 0.2719823 0.9939948 -0.025483418 -0.5447559 -0.23298304 0.023479983 0.43235642 0.1034908 -0.60712165 -0.17029989 0.68253 0.26917276 -0.6369692 0.07153805 0.24091285
81 -0.31332654 -0.18384904 0.6755306 0.5001884 -0.1045126 1.5463951 -0.1586497 0.22913049 -0.57904637 -0.3130643 -0.97741747 -0.99967694 -0.3959036 -0.5454707 -0.059651352 0.042456716 -0.15452547 -0.1015665 0.52883023 0.20242186 -0.2299378 -0.46307802 0.53633595 0.20559952 -0.0957519 -0.05319609 0.048311282 0.82618904 0.0020267062 -0.11231847 0.00051854906 0.34479976 0.4336546 0.51446337 0.13627216 -0.18221988 -0.31475833 -0.3670963 0.20226237 0.8621837 -0.23016196 0.21398187 0.2958385 -0.27407938 0.4256599 -0.4350615 0.5383821 0.18250802 0.015570618 -0.11707164 0.7101412 -0.483644 -0.92978966 0.051950477 -0.54027885 0.47980204 0.80086225 -0.09856977 -0.49505192 0.86800706 0.25064796 -0.71413916 0.11796926 0.28260666
56 -0.3561273 0.7806845 1.0012164 -0.64915264 -1.203154 -0.15926164 -1.1214619 -0.26154184 -0.24806418 -0.2392077 0.10249042 -1.7412956 0.25966823 -0.24430059 -0.27773497 -0.47982216 0.17460884 -0.05734147 0.46835008 -0.00035076347 -0.122985855 -0.04087652 -0.019102965 -0.102388665 -0.05753034 -0.25404957 0.103870176 -0.058568094 0.17646137 0.31608546 -0.07887448 -0.023463313 0.5380239 0.45931807 -0.4579753 -0.112653874 0.5189522 -0.27953607 -0.09841051 0.035657752 0.19503434 0.03150102 0.82703376 -0.5293716 -0.04444575 -0.4045679 0.4323907 -0.16762923 0.054166216 0.62082213 0.79215795 -0.54471284 -0.6248421 0.049721453 0.081914976 0.31729525 -0.19536512 -0.2373907 0.18947046 0.66512865 0.12882423 -0.7934432 0.2345554 -0.025284568
141 0.17927165 1.0213426 -0.8809613 1.0433712 -1.206161 0.14524744 0.12710927 0.5450271 0.3325845 -0.22837944 -0.98628205 -0.91464895 0.3366761 0.24813494 0.9315859 0.86646956 0.06962417 -0.0042100884 -0.11967957 0.16979364 -0.07840952 -0.071973585 0.06831352 -0.0033792008 0.028014265 -0.07018061 -0.07645286 0.009447722 -0.1626995 0.11220646 -0.009295986 -0.26344433 0.3732289 0.3191688 -0.24523601 0.07730317 0.6226437 -0.7518434 0.07839883 0.28247774 0.20615973 -0.236955 0.3305354 -0.6345625 -0.24087705 -0.37591305 0.26805606 -0.22190908 0.23761097 0.3266342 0.8799917 -0.27071157 -0.97380644 0.2903748 -0.15543763 0.43561575 0.28505674 -0.31339598 0.14649607 0.6887764 0.31486183 -0.4545539 -0.09974542 -0.010853008
